1508 16
requestComplete_1 -2.7264717 -0.54865694 -0.53326935 -3.5615754 -2.3268292 -0.09923378 -4.0641513 4.1363254 -0.7200718 2.6971262 1.2434809 5.373051 0.26400048 1.2439106 -0.96722883 5.5987883
caseStatus_G -2.9802659 -0.7230802 0.09423566 -4.2764854 -2.0860326 0.38588947 -3.5844634 3.2083144 -0.719765 2.2211397 -0.029347345 4.6050844 -0.8140029 0.08537188 -1.0095774 6.691479
termName_EMPTY -2.94799 -0.6223967 -2.0672095 -2.498909 -2.7435 0.35370368 -4.9303274 4.278918 -1.723228 1.9768779 -0.57462364 4.8549876 -0.14001563 1.5771061 -1.377769 5.0909324
question_False -2.7917411 -1.864135 -0.95600307 -1.3552374 -1.7226613 2.123874 -7.0008636 4.9346247 -1.380118 1.6593888 3.4300277 1.1637028 -0.31330022 1.1302003 -3.3932652 6.837075
SUMleges_EMPTY -6.0865684 -1.0764097 -1.5028954 -3.2820692 -4.6265616 3.500686 -0.20360835 -2.8271086 0.3500738 9.549745 1.4242334 4.311561 3.0398493 0.45301652 3.0910192 5.9166436
question_EMPTY -2.6867452 -0.35885486 1.1888472 -9.014069 -4.0549173 -4.1721497 1.8034294 2.514907 0.4212897 3.4412198 -4.376369 13.926299 1.2139667 1.4842113 3.3113914 2.4730806
monitoringResource_560696 -8.031791 2.435953 0.016333254 0.57103395 -0.5225521 -0.06690212 2.5538418 2.5881531 -2.0817807 1.2853104 1.4762136 3.0706868 3.295836 -7.919188 0.35045135 10.962861
parts_Bouw -2.5031817 2.0487385 1.3628423 -2.5196648 7.162125 -6.361123 -4.5054593 9.403278 -0.093248144 4.7173553 -0.2398069 8.309877 -4.3651257 1.4603643 -1.1163665 1.3291153
Responsible_actor_560696 -7.632879 0.34499422 -0.85843134 -0.30924338 -0.74997735 -2.0290287 1.9919928 1.2126582 -4.626288 1.2670014 4.08154 2.539137 0.864015 -6.9793215 2.3728096 10.935178
last_phase_Adviesbekend -9.60934 -2.7606027 3.2673976 0.33036914 0.07434525 2.7875297 3.2922418 2.7751067 -8.080391 2.076066 2.3118343 3.3154266 1.3284708 -4.369936 -1.1631887 8.432418
eventName_01HOOFD -3.703085 4.8355675 1.4068086 -8.337375 -6.413237 -4.586932 3.1945708 2.0702791 -2.369281 3.4294477 -2.7091064 15.477362 2.8079946 2.5017624 2.0105658 1.3467233
action_code_01HOOFD010 -2.8766754 3.9781322 0.63199556 -8.1145735 -6.3074327 -4.1080127 2.9677334 2.5335748 -2.897065 3.750966 -2.0531507 15.923008 2.5313914 1.7846669 2.1069083 0.29557893
activityNameEN_registersubmissiondaterequest -3.1945565 3.6818326 0.44544297 -7.815786 -6.237262 -4.1784616 3.1512492 2.4835095 -3.2783594 3.6896272 -2.0999556 15.813239 2.4292169 1.6613181 2.227092 0.553692
eventName_05EIND -6.574113 1.1449171 0.5432666 -0.6531961 -0.8208336 6.624017 -9.900374 7.017584 4.774781 -1.6983265 4.368895 3.9818242 0.13375649 -0.5094118 6.2630367 4.139999
action_code_05EIND010 -6.825365 1.7974585 0.61158794 -0.16934355 -0.8494114 7.0304484 -9.6333065 7.017491 4.545695 -1.8553474 4.357675 3.968219 0.27795193 -0.88121486 5.9542303 3.9208026
eventName_06VD 3.370503 -1.9143251 -5.7223744 -1.3587853 0.3480725 1.5185765 -1.4037334 8.902054 -2.0647542 5.733643 3.2017295 -4.745367 1.2670838 3.388141 -0.47198585 8.723208
activityNameEN_terminateonrequest -6.594444 1.3625072 0.5859543 -0.4037816 -0.74110407 6.9628406 -9.355375 7.1712894 4.756088 -1.6839557 4.270043 3.9487271 0.5149792 -0.82979053 5.954297 3.7416117
action_code_06VD010 3.259935 -1.6265275 -5.7717195 -1.036409 0.19339176 1.733916 -1.024632 9.225401 -2.2040503 5.7316413 2.9973934 -4.6455073 1.7041008 3.3302555 -0.9334253 9.070749
activityNameEN_extendprocedureterm 3.2286036 -2.0426023 -5.877485 -0.98545825 -0.03558388 1.6689327 -0.8750425 9.020042 -2.130406 5.8224134 3.1452765 -4.632793 1.8802229 3.4828315 -0.8708658 9.141161
parts_Kap -9.275189 -1.4766535 -2.8798883 -4.8007865 -7.8099823 6.56647 -3.9404714 -2.496409 -9.730942 5.002424 -0.17448822 -1.8056712 1.6098002 3.3852034 2.0847113 4.16887
action_code_09AHI010 -2.9139595 -0.2529851 2.7133045 4.2600408 -2.9313323 -3.6504014 -8.469939 -3.5218656 -5.724477 -0.005251943 4.2634096 2.864008 -0.96634716 2.6510239 -11.239794 5.1260514
eventName_09AH -3.1693273 -0.28875273 2.533063 3.9282045 -2.9417448 -3.870205 -8.543592 -3.3658297 -5.6069665 0.34676152 4.0826693 3.199963 -0.97486436 2.9053462 -10.954314 5.234446
activityNameEN_article34WABOapplies -3.0565813 -0.15754786 2.724562 4.1624064 -2.907885 -3.7304602 -8.449398 -3.5258675 -5.5412807 0.25942466 4.2005033 3.5941637 -1.2671276 2.607946 -11.139828 5.0368643
last_phase_Vergunningverleend 5.0114264 -1.9102046 9.639938 -6.342345 0.5258175 -1.7352148 -9.771061 6.5208473 -2.6179764 2.636507 5.7155623 5.4466424 9.620613 2.764832 -2.2586217 1.5053902
last_phase_Zaakafgehandeld -3.2387059 4.6673794 -3.52998 -0.23850782 -2.7177851 -9.286103 -2.8931658 1.6915939 6.063041 -5.4555125 0.15685987 0.87160033 -2.202467 -1.190975 -2.433721 14.085644
parts_Sloop 7.347147 -3.4876332 -2.3868825 -5.536476 -9.304026 -1.4388214 -7.9007616 5.1633863 3.3669868 -5.2864757 8.250263 3.0237095 4.1117034 -0.008144549 -5.991807 5.9256377
action_code_01HOOFD370 -2.1344187 3.7986217 0.21835506 -10.6416445 -8.610657 -7.7881713 1.8992754 0.577051 -4.073338 4.069776 -0.22781602 13.178636 2.5840876 1.7276684 -5.1437907 3.5609016
activityNameEN_assessmentofcontentcompleted -1.914473 3.830757 0.20021789 -10.715986 -8.529227 -7.899797 1.7771242 0.6608203 -3.81426 4.0315695 -0.21008155 13.276774 2.428498 1.5502386 -5.267646 3.5824802
org_resource_560454 -2.6469102 2.9152179 1.5833427 5.6762776 6.4472313 -6.3720355 -1.2535331 7.4243317 -2.4050634 -0.5855341 -4.574932 5.7880645 3.7438662 -6.141543 -0.38820747 10.435756
last_phase_Besluitgenomen 1.2569903 -0.65340066 -10.874321 5.8041077 -10.342302 7.197961 -5.6996675 -0.16318648 -2.1956925 5.7885785 3.8068943 10.120038 -3.3590767 4.661869 -1.8120533 0.114008196
last_phase_Vergunningonherroepelijk -2.7105556 -0.35977226 -5.3824124 -13.128512 -4.4815097 -1.8029813 -10.69021 8.018628 -1.2215989 -5.244592 -2.988632 -4.1067734 -7.1922674 2.517885 -6.905762 2.0962803
monitoringResource_560925 -1.0873935 -3.351376 10.831445 -6.338749 0.62425363 4.860196 -1.9023286 8.633517 -0.87910205 6.4721284 2.8878171 5.1529913 8.5299425 8.585517 -5.198612 -2.6781201
question_True -10.571896 -6.770247 0.7409657 -8.103873 -2.2583084 -7.4105573 -2.9554973 4.235444 5.4372673 -0.93369913 -3.8380132 13.379926 3.781227 -0.037668124 3.8198504 -0.6935526
termName_Termijntotbesluit -3.9040108 -1.9131527 10.222025 -8.270788 -0.34317768 -4.0912166 3.0392876 0.33528408 5.0915904 5.5927143 13.2710905 3.1392736 5.2596755 0.92622626 -0.75376976 8.345199
Responsible_actor_4901428 7.756225 -6.0498147 11.334029 -5.4681773 1.3371307 0.1729466 -7.568643 5.43451 1.5910677 2.8306012 6.1919055 9.959246 4.3261356 3.8047576 -1.6772448 0.4131798
activityNameEN_registrerdateofpublishingreceivedrequest -9.719559 6.8151226 1.3218218 -10.266051 -8.356294 -3.5954752 5.8347597 3.4475112 0.7160851 -0.5580326 -3.0918715 13.502664 2.7222328 -0.026736137 -1.1860619 3.2694676
action_code_01HOOFD100 -9.993367 6.315542 1.2041017 -10.273794 -8.452357 -3.7736883 5.893302 3.3365107 0.5997641 -0.57150584 -3.4851182 13.600388 2.8270583 0.14013557 -0.966186 3.415955
org_resource_2013365 -4.363232 -1.6898651 1.2638421 -0.85466164 -2.2123764 -0.34832227 7.5665646 9.124547 -1.7672673 -5.540386 12.333198 6.132081 -6.28013 -0.5779 -3.1883357 6.7191277
monitoringResource_560604 -2.6361413 0.6259716 -8.699872 -11.592453 0.040724847 -6.925484 -9.954947 5.859694 6.149591 3.5261097 -1.5210258 -0.11541925 -7.4023857 -2.0803423 -5.574448 0.81582016
Responsible_actor_560604 -3.582648 -0.2948586 -9.031836 -11.287516 0.539953 -7.0573263 -9.218087 5.9592514 5.410559 3.9674447 -1.932907 -0.042033255 -6.9667435 -2.3990605 -5.22509 0.027720653
last_phase_Procedureafgebroken -0.17012247 -0.34036547 -3.6979928 -6.1890926 0.1172878 -1.5183682 -0.7104045 5.787242 9.7254505 8.138806 -7.9326606 6.387111 2.354413 7.8807507 10.680721 3.6727173
org_resource_560429 -1.8126523 -4.444856 -4.668417 -14.623721 -6.1097264 -3.2785933 -5.606285 6.7182927 0.33404762 -6.3643746 -7.771582 1.8492303 -8.465572 2.7046096 -4.399234 4.4766235
org_resource_560749 -7.969955 1.8127452 2.1199076 -4.1091237 -3.7473154 5.843351 5.0895505 -0.66045666 1.5058042 5.806121 -1.6629884 4.2091413 6.7760696 -10.49116 -5.7271094 5.76217
org_resource_560752 -2.8204608 -1.8156377 -8.083643 2.310982 -8.872462 6.2972856 -3.0989068 -4.167289 -0.9127174 6.849944 1.7049998 7.995739 -8.764071 9.323973 2.6635003 1.0757779
monitoringResource_560872 5.676357 -5.6117816 3.8644607 -6.274094 1.1194698 -3.901472 -14.110648 1.3497374 -5.5878377 5.388918 1.0685824 6.349634 5.4401975 3.3237586 9.050815 0.3380324
org_resource_560741 -5.454499 -1.7321291 0.6262429 -7.0740433 -5.4273205 -0.76529706 0.3906705 -2.31422 -9.719509 -1.6316577 3.850157 6.8869386 -2.769722 -8.871899 5.0580907 8.236282
caseStatus_O -1.5631797 -0.24141753 -6.7471857 4.052426 -3.1884842 -3.7176228 -5.6690626 10.296193 -0.09184395 6.457231 11.204296 9.15732 8.839029 8.432457 -0.080656774 -5.455685
activityNameEN_subcasescompletenesscompleted 0.21219905 12.788021 2.6431332 -9.371783 -7.8432026 -2.8590906 2.5875978 1.941861 -4.9689364 0.69662887 -4.347608 12.256715 3.0672214 -2.1403852 0.104284085 8.526086
action_code_01HOOFD120 0.34825018 13.118696 2.6342828 -9.326251 -7.8377285 -2.9523227 2.3082843 1.7654568 -4.968644 0.67440575 -4.0170817 12.288643 2.782906 -2.3464365 -0.41696686 8.120286
org_resource_560696 -10.578459 0.24438418 0.32790193 1.5212077 -3.5495255 -3.8302197 -0.15680677 -1.9281964 -0.52611685 -2.6897273 5.51102 -1.9990283 5.443749 -0.30858755 7.039729 12.559426
action_code_01HOOFD375 -8.246202 7.098282 2.71996 -1.3032298 -9.196753 -0.382 0.37089548 2.4010172 -4.011921 -6.51057 -3.6075914 17.156757 3.5556035 1.655845 2.9963396 0.51466346
activityNameEN_phaseadviceknown -8.376279 7.2991805 2.8595314 -1.2844183 -9.157423 0.07843351 0.71476483 2.3385675 -3.9186225 -6.457162 -3.609319 16.904846 3.8226347 1.666104 3.3721478 0.17520632
monitoringResource_2013365 -4.8760753 -1.7877729 2.483493 -1.9367571 -2.1098983 -2.9536457 6.3044457 7.325326 -4.514041 -5.612584 12.685739 5.8101363 -7.1463633 1.0758042 -3.6765122 6.070111
org_resource_560872 -0.3333224 -5.0582576 4.876559 -8.960026 -1.3428761 1.0988653 -8.704898 0.35481033 -8.276804 8.264005 -4.420517 4.2576904 8.748631 4.9202476 6.8110085 -1.2155529
monitoringResource_560812 -3.0840034 -0.7528253 -6.6929374 0.7951862 -10.909764 7.9428 -2.842978 -5.4322815 -0.6426522 6.5400743 3.8733842 4.950919 -6.0941086 9.12338 1.6965889 2.1440682
Responsible_actor_560812 -3.3310444 -1.1352772 -6.721615 1.0277863 -10.985215 8.210243 -2.8352294 -5.5655766 -0.7332867 6.684674 3.5520258 5.0029855 -5.8411136 9.116716 1.6444721 2.4412677
org_resource_560890 4.1233068 3.615755 4.9007535 -7.1432724 -0.90467364 -4.1887164 -8.37884 8.403867 -2.1086805 2.9238918 11.181477 4.103346 7.7571855 7.230889 2.354773 -2.300926
org_resource_560673 -7.0222306 9.173364 -1.3092906 -2.108169 -0.23580718 -7.0292244 6.9253902 4.4439063 -8.692065 6.2943215 -0.7510439 7.434501 3.7592752 -1.3341496 1.9432806 6.7954683
org_resource_560604 -3.6734676 3.4535248 -8.436248 -9.686079 -0.26560944 -7.022337 -9.601145 5.4804163 6.72436 3.7902253 0.44153476 0.83015335 -5.4265366 -2.141614 -5.418612 -0.95545626
Responsible_actor_560600 6.8669233 2.7063417 1.4415561 -6.776295 -5.0114665 1.2075512 -6.514434 2.380841 2.0939624 -6.9564424 -7.848419 1.2288562 -7.283363 5.024098 0.83937234 12.62042
activityNameEN_closecase -8.627094 4.1393633 0.4275732 -13.470384 -8.7135 -2.2362332 0.3734434 2.559075 0.38695085 -0.27752042 -11.806079 11.206898 -0.8110813 4.135374 -5.3953366 0.43230465
action_code_01HOOFD790 -8.497284 4.2999406 0.33271646 -13.352283 -8.777083 -2.2825341 0.26354295 2.825267 0.32500172 -0.50550544 -11.622626 11.126601 -0.7921116 4.3403525 -5.521148 0.57246816
Responsible_actor_2013365 -8.92678 1.7160207 3.3487856 0.03481576 1.3944014 0.83647007 10.135535 9.098047 1.7461915 -2.472565 6.8140187 5.4773865 -7.759939 2.1832666 -4.7432837 4.585315
activityNameEN_objectionlodgedagainstdecision -2.638282 -14.900678 -3.1157906 -13.5794525 -2.1843953 -1.237311 -5.2886686 0.11882083 -4.042135 0.3814077 -7.055255 -6.212315 -6.179841 -0.7968083 -2.4622135 7.21645
action_code_01BB540 -2.6125104 -14.7875595 -2.7692602 -13.376302 -2.160503 -1.1668975 -5.180849 0.107527204 -3.7321875 -0.15912889 -6.871271 -6.277349 -6.3430767 -0.78619814 -2.5787807 7.460621
eventName_01BB -2.2595541 -14.761879 -2.970331 -13.604718 -2.4269457 -1.1543657 -5.398076 0.16490367 -3.9812057 -0.23249055 -6.988498 -6.1820693 -6.341871 -0.62046677 -2.3470953 7.1821036
monitoringResource_560600 6.693186 4.023654 2.6733837 -7.146773 -3.728869 -0.06538808 -5.9115067 1.5144122 2.0207415 -5.360854 -8.235886 1.6479833 -7.309479 5.3787274 1.1203516 12.058833
org_resource_560881 7.686537 -7.4825277 11.1113205 -7.541844 -0.34945 -1.18576 -6.8222995 2.3679101 -1.2283279 2.8246243 4.987473 10.1533375 2.2900794 3.511292 -1.6271548 2.339271
e_77_01HOOFD 4.3427134 2.8107593 -1.2583705 -0.6408583 -4.44383 8.432307 7.7578363 -2.5830798 0.40279755 -4.985883 -5.426667 -7.3288927 6.7759824 -8.427796 -2.315568 -7.9479547
last_phase_Aanvraagontvangen -3.2917347 -4.355724 1.8818944 -5.772149 4.323992 1.6729094 10.383177 6.3530893 0.8460461 11.002376 2.8130422 11.211196 -0.7923258 -3.3613226 6.6877775 -1.1127057
org_resource_560600 7.5175676 6.798122 2.6893137 -5.582628 -3.8079033 0.6454683 -6.597742 2.922558 3.0461965 -4.9844804 -6.2380013 1.9555941 -5.13351 5.9917555 1.2009434 11.288777
e_212_01HOOFD 4.989817 -1.1748499 -3.5799685 -1.8683004 3.6902218 -4.0092273 3.856512 2.4345815 4.06989 -8.331298 -5.4920793 -7.3082647 -2.0192125 -5.1282897 -2.7577045 -12.458519
SUMleges_116.79765 8.45316 -2.254786 8.075224 -7.668953 -5.0831547 0.52380925 -6.5186067 3.791325 2.8284914 -0.19152288 10.849772 5.069296 6.4604073 3.806751 -1.9155939 3.544001
Responsible_actor_560454 0.34540102 3.2905326 2.5282888 6.112056 5.0644746 -4.094281 -4.996573 6.997475 -4.069496 0.093834065 -7.79892 5.47388 9.218748 -5.499059 -3.0725858 6.008076
e_221_01HOOFD 7.8772435 -5.7713566 -2.6840544 -2.5795882 -2.2302523 -2.3547213 5.1940727 -0.49246514 3.324054 -10.779316 -5.0212293 -8.920448 0.06299475 -0.8324971 -3.9008677 -7.52813
parts_BouwSloop -0.073478885 -9.464482 5.1866555 7.999113 0.7121813 -0.022500575 1.8965875 5.856682 -3.6193595 -3.681445 -2.233969 10.196546 3.8695734 3.3172464 2.6449678 11.116225
e_70_01HOOFD 6.287643 -0.5784977 -3.7493472 1.6246922 1.5386683 -6.6457405 8.876228 -2.4805632 1.0674101 -5.4669495 5.063638 -3.4734662 -3.6495922 -7.832304 1.0481126 -3.31964
activityNameEN_entersenddateprocedureconfirmation -0.7523346 2.861461 -1.2275292 -4.656023 -6.3185287 -1.8441114 4.951779 11.273026 2.0034883 -4.015404 -8.012087 14.130749 6.0167236 3.7760677 4.00145 5.3133492
Responsible_actor_560925 -5.5826173 -2.5526142 7.3015943 -6.504299 0.23435289 7.847729 1.5563526 5.49183 -5.2640095 9.891638 -2.0041773 1.0074158 5.777329 9.6382265 -1.6792825 -2.4351678
e_72_01HOOFD 0.5797177 -1.5772461 0.54205966 4.7128105 5.470188 -5.8926473 12.825009 1.026527 2.8618739 -4.0294185 -0.5166605 -3.4944425 -2.2182114 -1.2368472 -4.227935 -4.8935013
e_116_01HOOFD 4.6821494 -5.937817 -1.6476985 1.9722968 3.0351908 -3.1220999 5.8111057 -1.9769555 -10.884588 -3.7248125 -4.4361024 -3.6711748 -1.965454 -7.522106 -1.7585483 -4.268109
e_99_01HOOFD 6.675745 -4.2325616 0.74563205 9.299401 1.9768286 -4.2995777 9.753878 -1.6419258 -3.0375483 -5.9839334 -3.6328583 -3.5919812 6.8653007 -1.5947206 0.59447324 -0.8160547
parts_BouwHandeleninstrijdmetregelsRO -1.6155505 -7.8596396 3.1591294 -5.3625755 -4.2451615 4.1967506 4.6262426 7.534258 0.12662752 -11.485621 -0.7048435 2.7952466 -6.21563 -0.33610582 -0.55315 10.588651
e_25_01HOOFD 7.6430435 -7.782995 3.4912667 1.6571001 4.292481 -7.509985 0.43098006 -4.418556 -1.7439103 -3.7829766 1.7638959 -4.2455425 2.2887425 2.2167497 3.5559657 -10.327307
e_82_01HOOFD 3.264504 1.0010818 -2.3385723 -1.5771186 0.652591 -1.5453688 10.61913 -5.409431 -1.9191102 0.18937281 -1.87867 -9.399433 1.9322182 -8.8932495 -2.702864 -3.6303754
e_41_01HOOFD 10.159845 -6.6904597 4.601208 -1.1749892 1.8260833 -2.0976694 3.646658 -0.062419683 1.685787 -5.3952646 1.3597498 -3.888759 3.3681166 0.36612272 -2.947946 -10.614622
e_107_01HOOFD 6.491787 2.3152962 3.465996 -4.391607 -0.5033051 -0.07701067 5.9570203 -7.26159 1.5549926 -0.86339617 3.7691584 -7.433218 6.7000456 -11.314033 0.30762184 -5.100508
e_233_01HOOFD 7.154001 0.7675594 -2.0838065 0.73153174 1.6963663 -3.7017365 5.917836 -1.7027018 3.8609836 -7.273703 -8.067546 -8.005365 1.1644098 0.9318044 5.683789 -5.4324465
e_48_01HOOFD 10.528598 -2.8691163 5.906653 0.39690495 2.862711 0.57395786 6.79328 1.9449153 -0.7410517 -5.658759 -0.92645216 -5.0566363 4.109096 1.4148822 -1.4517716 -8.860921
e_201_01HOOFD 11.482707 0.44422707 1.3585085 0.56016916 -0.33837587 -3.2288651 5.9705615 -5.331951 0.03421202 -7.841733 -9.254723 -6.5281034 -3.68393 2.6959503 0.6356456 0.7571146
monitoringResource_560673 -4.593814 6.8622894 -2.430621 -3.3200314 -0.99609256 -8.24179 8.26741 4.941092 -8.56082 6.094786 -2.3546233 10.656436 2.182298 -1.4258741 2.1651852 6.5889583
e_216_01HOOFD -1.6835237 1.6381027 -2.9020557 -4.9581113 1.9875722 -5.0093303 2.7581635 -4.356816 3.7056763 -3.7003372 -2.1832488 -12.2080765 -2.8765635 -2.4043953 -3.266154 -12.167061
e_3_01HOOFD 4.4290867 -5.8310585 4.9821944 4.067364 4.0509515 -1.1723413 5.0224185 -0.19473237 2.4432437 -6.825601 -2.6921644 -2.792517 1.6495061 3.4638271 -0.93379 -12.418951
e_210_01HOOFD 8.127824 1.5413938 3.0932307 0.9489117 -1.074269 0.64860344 6.998106 -4.40436 2.30067 -12.0591955 -8.719833 -8.982135 -1.9219537 1.8134497 1.7275186 -1.0982032
e_1_01HOOFD 9.674935 -2.1124933 4.884226 6.307802 2.703824 0.9400324 6.840832 1.1183746 0.38023278 -6.5033474 -1.8455702 -1.7298836 5.068016 1.9880747 -0.23733774 -10.275348
e_114_01HOOFD 0.8929189 -2.43747 -0.7799615 0.8678087 -1.3158416 1.6503423 11.704871 -3.3012104 -3.7703645 -8.1215 5.0397153 -5.7193165 -5.5001082 -3.7326963 0.00028683996 -10.272342
e_76_01HOOFD -3.9913964 -4.4947314 -0.69712436 0.62230057 -1.4223207 2.001155 6.4428306 -8.086937 0.29895937 -3.5813215 -2.3258705 -6.5815306 1.3365595 -6.705267 -0.98845464 -8.48134
e_81_01HOOFD 0.07994819 0.13671277 -2.233897 3.8908126 -1.5252091 1.8321406 11.425181 -7.9654064 1.497368 -1.2944618 -4.6304097 -6.4120126 1.300105 -5.969508 -3.4720078 -3.8476064
e_209_01HOOFD -3.6674466 0.8337245 -5.4284735 -0.40389094 -1.8046044 -0.37068784 1.7136828 -0.38362443 -5.7362523 -9.095939 -6.1043983 -11.633823 0.8938614 0.78360784 0.94965464 -11.568286
e_206_01HOOFD 2.9949558 0.8730408 -3.5277581 -5.206475 2.5129957 -5.088678 1.2327629 -2.725484 2.831852 -3.43311 -3.6348653 -9.714468 -3.4114556 -4.1833096 -3.5640943 -11.07391
e_36_01HOOFD 13.85359 -3.3859546 3.8507829 2.404054 -0.88989824 0.17419511 0.9500771 -3.9805114 -4.364394 -6.786574 2.008662 -2.8562224 3.8342535 -1.4136267 2.2502646 -8.140201
e_73_01HOOFD 3.9215417 -1.9443781 -1.6304336 -2.0666351 -2.6273854 5.3430963 5.9655447 -4.4141083 -3.2840576 -1.0969037 -3.0191796 -4.929435 1.7081475 -10.33607 -5.153978 -6.294975
SUMleges_51.423 -1.0548447 3.809478 -3.2628345 -12.514848 1.1302922 -6.361202 -10.1306 4.2077703 0.5055736 1.9920176 -2.026423 -1.8837937 -9.411819 0.0026792712 -4.9450407 3.0071774
parts_EMPTY -6.567771 -3.294071 -1.7061507 3.1944287 -6.060895 6.1956496 3.11106 -6.2446914 7.2431235 9.329643 -3.2209473 6.4592113 3.5892918 -0.6957786 -5.331108 5.5852137
activityNameEN_treatsubcasescompleteness 0.88905585 -2.6867604 -1.7025082 -1.4553813 -9.803627 -4.4421844 5.1249604 4.317323 -2.101991 1.4740107 4.7573485 17.925581 7.050417 4.392916 2.058941 3.6224763
e_224_01HOOFD 4.5669923 -1.8803986 -4.8832626 -4.127627 -1.0977038 -4.4366837 2.6528926 -2.9986231 4.5965943 -5.585627 -2.2194154 -10.79359 -1.2875639 -1.2924463 -4.7502913 -10.539308
action_code_01HOOFD110 0.5462592 -2.8831506 -1.4526217 -1.092104 -9.450387 -4.8418865 4.677149 4.1475563 -2.4994738 2.075036 4.796665 18.586315 7.2263045 4.225951 1.4281659 3.4804575
e_42_01HOOFD 6.387931 -3.704483 -3.5492415 4.332765 -0.38311884 -4.1674957 0.6073806 -5.798937 -3.5491154 -1.1825997 -6.665861 -6.1555853 8.273779 3.1639783 10.269633 -4.316746
e_200_01HOOFD 0.5560462 1.1298527 -4.3289466 -2.5173802 -4.7905626 2.4584486 3.2091968 0.35356423 -6.835076 -6.745389 -5.510314 -10.241243 -0.8135209 5.727668 -2.3982134 -8.553128
e_217_01HOOFD -0.4513193 2.3819883 -5.6924458 1.003144 -2.8305357 1.2065356 1.6507628 1.246193 -7.1055675 -9.343057 -7.2852197 -9.361733 -0.6051125 4.167537 2.3454633 -9.230138
e_229_01HOOFD 1.7141842 -7.331889 -2.1515486 -4.1299577 -3.778475 0.48344377 7.5830135 -2.3463283 2.8174617 -9.00875 -2.8557448 -9.084113 -3.1544824 1.215899 -4.6648107 -8.3424
e_59_01HOOFD -0.46973285 -3.973938 -0.97222024 0.3854408 -2.362509 -8.616927 4.32126 -6.5553246 4.866039 -6.8598475 -3.230743 -12.578353 7.181275 3.84443 -2.5033023 -2.6691039
e_74_01HOOFD 5.5785923 -6.948968 -2.3710907 -0.29810593 -0.28027362 2.156541 12.86463 1.9736958 0.70997256 -6.721197 2.5537684 -3.8064919 -0.2577258 -5.7360716 5.1215024 -5.0083346
e_14_01HOOFD 0.5931666 -6.1857247 2.5504112 -0.020787878 1.718337 0.021479897 5.817078 -2.9756196 -5.0110273 0.04937873 -3.9054458 -7.539395 5.27941 2.9485044 -0.15721472 -8.617389
e_223_01HOOFD 5.444139 4.632429 -3.5845342 -4.1422815 1.7409086 -3.6361163 2.5745215 -2.6389914 1.2786351 -3.067192 -5.1763287 -9.997466 -4.108866 -2.4842865 -3.738546 -8.9202795
Responsible_actor_560464 -2.6326692 4.076835 0.9872831 -2.5070105 -0.092371285 -6.3953185 -8.854486 9.367488 -4.171241 1.1410714 10.514976 2.0163798 9.176029 6.2969494 1.3521266 -4.7355275
e_62_01HOOFD 3.3330383 -6.8752255 -2.4975333 3.9307234 0.581552 -8.976557 5.185688 -4.540077 2.4702451 -3.1370296 -7.5660195 -5.4159584 1.0259247 6.689703 -3.0113337 -2.3534253
e_231_01HOOFD -0.40814993 -1.6442457 -4.008383 -5.305432 1.300904 -5.5969296 3.7541733 -3.994446 4.5195985 -2.542409 -2.8557026 -11.8573675 -3.1987271 0.14552297 -3.1575708 -10.1751175
e_11_01HOOFD 10.896067 0.16487272 1.7628644 4.172262 -0.8627312 -2.2650106 3.2228415 -0.22050412 0.5465931 -8.050975 6.811915 -2.2438226 5.3042493 2.6581995 4.7790165 -11.758034
parts_InritUitweg -5.0092554 3.2067406 -6.4044557 2.0459864 -6.9398184 -5.746488 -4.120867 -8.086533 3.4404767 2.954038 9.255826 1.3850443 -0.87012005 1.5222162 6.6659746 9.173927
activityNameEN_termforsupplyingmissingdata 8.070109 -9.933159 2.280595 -2.466439 2.8169014 -2.5175703 0.4613178 1.6831048 9.684868 5.5155673 -2.8094814 10.209032 -3.1438098 -2.061128 -1.4480727 7.084409
e_177_01HOOFD -0.5625047 -3.6991198 -4.5985794 6.314316 2.3147535 -4.0529847 3.905218 -5.925989 -1.7408124 -4.8312273 -7.2728972 -2.6444616 -8.420034 4.692934 4.679449 -9.954835
monitoringResource_560849 3.885366 -6.14547 -10.615402 5.0122814 -7.9472585 1.1604893 -6.697064 2.70678 -0.6762413 0.014526203 3.27488 6.5318227 4.751051 -3.2282307 -2.9519508 0.020476893
action_code_08AWB45010 7.700755 -9.988799 2.2342796 -1.5648619 2.9863486 -2.5785358 0.19913886 1.871337 10.103809 5.3329663 -2.5440278 10.265307 -2.9875116 -1.4425454 -1.421938 7.0317173
e_61_05EIND -2.819065 -2.1078558 -1.3567286 4.8539042 0.36626408 0.8007486 -3.9173617 -3.7464097 12.702227 -0.18302889 -8.09507 -3.769099 7.2678895 3.761668 5.135734 -2.3090322
e_228_01HOOFD 6.9846168 -3.902283 -3.9045265 -3.616567 -4.103468 0.14601938 4.362811 -1.4201252 0.61954284 -8.661058 -2.3931198 -8.368126 -2.3660107 -1.6278173 -6.191013 -8.312913
activityNameEN_applicantisstakeholder -9.660404 -3.5149348 3.2591298 -10.742155 -4.383671 -8.719879 -3.3860748 1.9367636 3.9916058 -1.5966543 -2.9847255 13.119298 1.474052 2.97069 -3.0901144 -4.305164
eventName_08AWB45 7.1938715 -10.322591 2.0572748 -2.162104 2.8078215 -2.8886356 0.4248677 1.9682461 9.754342 5.336239 -2.7102458 10.323919 -2.6265607 -1.9713178 -1.6368152 6.8153305
e_215_01HOOFD 1.0919822 3.3539999 -4.9421973 -3.0292153 -2.8072748 -0.07852673 3.1494553 -0.82865316 -6.701474 -6.6427584 -6.0295286 -12.95907 0.014657085 1.304008 -1.8599759 -8.008415
Responsible_actor_560849 4.0353785 -6.3878827 -10.337872 4.490434 -7.930716 1.547467 -6.5869737 2.6492243 -0.34368107 -0.022464514 3.6792576 6.556461 4.3238244 -3.3766618 -3.205911 -0.43846947
e_88_01HOOFD 5.003634 -2.9217556 0.027037488 -0.4531715 -1.9909068 -2.882423 8.706706 -4.874234 -0.46820483 -4.948682 10.187177 -6.8833733 0.9076056 -3.9177709 0.7362186 -5.3355956
e_156_01HOOFD 1.603982 0.38810316 -2.208041 -2.9484603 -2.066901 1.6559626 5.812642 -6.3452187 -5.34604 -1.6594732 -0.10136237 -8.991739 0.1448135 -7.330443 0.6665603 -3.9802635
e_77_10UOV 0.018633973 -3.658908 2.0723424 -1.9266744 -1.1333791 3.6921718 -1.2982045 -2.8269296 6.4100986 -1.083552 -5.3081045 -4.4875565 12.010699 -10.028391 -2.9370434 -2.909998
e_150_01HOOFD -4.554144 0.020824563 0.18250251 0.96726733 -0.37048802 0.49868158 6.2802477 -6.7027335 -1.5013776 -5.503342 -0.4326369 -10.054603 3.9616177 -6.369769 2.4378505 -7.184638
e_61_01HOOFD 2.8248239 -2.1561058 -3.5691984 6.6667833 -2.3305776 -1.9608415 8.166204 -5.596339 6.6990595 -3.5833158 -7.499262 -6.534744 7.3074193 4.4280596 1.0681311 -6.8617234
e_202_01HOOFD 6.9310193 3.7631872 -6.1022463 -2.4583044 1.1615727 -0.87918544 5.6977363 -1.9826828 6.4636374 -1.5354004 -8.015837 -8.979823 -0.86072433 -3.4126697 0.78717047 -8.036869
e_225_01HOOFD 3.7246013 6.3283973 -5.7710238 0.8383355 1.8756362 -5.419211 2.0118446 -4.038209 2.7127066 -5.741319 -5.5631456 -8.549417 -3.8385787 -4.326689 -0.5830069 -8.950975
e_222_01HOOFD 7.5236454 3.4735627 -4.7807074 -3.6029165 -1.2107248 -3.460776 1.4377403 -3.757073 3.422127 -5.6508937 0.65105593 -8.154348 -2.8838105 -7.3816705 -3.1519928 -7.5382185
e_226_01HOOFD 6.369493 -1.8297064 -2.0809214 0.048633266 -3.1833105 0.46433938 5.4420633 -3.2629104 1.2526796 -13.354253 -5.0374484 -6.7563095 -5.1581063 -2.3880649 -0.85461575 -5.3516273
e_104_01HOOFD 0.30503106 2.5192575 0.8990453 -0.56043315 3.7483122 -8.785292 10.425906 -4.425942 1.1723939 -2.5135958 1.9089065 -10.538632 -1.4630635 -1.3743025 -0.55302656 0.2872479
action_code_01HOOFD050 -9.684533 -3.7764835 3.065727 -10.841677 -4.3291783 -8.793083 -3.3051357 2.066035 4.0559683 -1.5386907 -2.7465389 13.125786 1.3699237 2.9764764 -2.9413738 -4.603768
e_26_01HOOFD 7.865722 -1.5434493 -1.1962681 -3.4697316 0.12452541 0.18263495 4.624372 -2.77511 2.0510736 -2.4207609 -4.9377484 -7.845816 6.829406 -2.3976338 11.384254 -5.4373035
e_80_01HOOFD 0.6229222 4.2241535 0.763667 0.52946806 -0.4486288 0.729174 8.751865 -6.4690075 -3.0984626 -2.9052486 2.944765 -9.045881 3.0011685 -6.7073116 2.6236258 -5.48613
e_8_01HOOFD 5.4770617 0.55294245 4.2143908 -3.565263 0.23224331 1.409487 5.3240623 -5.660734 -3.7008986 1.1172404 -2.443497 -9.493138 3.3703995 3.2672954 -0.00902558 -8.111583
e_152_01HOOFD 1.9594985 2.0201402 -2.6492698 0.17448422 0.0896496 -0.8830913 8.750683 -5.6388597 -5.6930027 0.4981493 -3.5963805 -9.578455 1.474537 -3.8634875 -0.26588383 -3.2178178
e_101_01HOOFD -2.197725 -3.7586827 1.1889081 9.057244 1.2001194 0.18283524 11.353835 -3.430515 -0.2775533 -8.348925 0.61251384 -4.274812 -1.5065665 1.2257564 3.45284 -4.347293
e_166_01HOOFD 0.33232734 3.4491735 -1.2213346 0.78876835 -0.53210396 2.8053613 0.8622873 -6.8356485 -6.1106076 -4.0843287 1.2260072 -2.8047953 -2.8451056 -10.726871 6.2192783 -6.0207243
e_148_01HOOFD 2.539172 7.35787 -2.1319795 5.138416 -1.5103905 -0.72386134 10.614671 -5.4496303 6.511714 2.1920674 -0.6178165 -4.572267 4.228023 -1.6798806 -5.0532384 -2.6370246
org_resource_2670601 4.0254493 -6.6636686 10.056776 -2.2684968 0.8999205 0.3496512 -2.7441292 7.266677 5.000549 1.8485805 2.3927333 12.092609 6.046568 4.9003158 -3.4026613 0.29049426
e_115_01HOOFD -0.04927408 -2.8851829 3.5518796 4.929743 -4.3884435 3.1465535 8.0915785 -7.962383 -5.862452 -6.5752316 -0.17329602 -6.9392576 6.4013414 0.17669174 4.2672153 -0.091383696
e_204_01HOOFD 3.4701612 0.35620984 -2.0353842 -3.999997 2.9172661 -5.380566 0.8103391 -3.5612366 2.8872435 -3.8246334 -5.794857 -8.526047 -4.3485513 -1.5561227 -3.498408 -10.632136
e_84_01HOOFD 1.0449461 3.663415 -3.4276505 -0.42466462 -0.20344499 -1.3750027 7.814901 -4.373559 -5.8020015 0.3452046 0.9541254 -9.09169 1.9410716 -5.4265013 0.83796877 -4.4982357
Responsible_actor_560458 -7.133518 -7.2517195 -1.7774584 2.6011732 -2.4651892 -6.03299 -2.7135878 1.0215094 8.272397 0.30011487 -5.0937104 -0.43980032 5.8364525 10.554349 -3.5072596 6.4166384
monitoringResource_560458 -7.0954843 -7.170773 -1.7027547 2.361852 -2.3788059 -5.969771 -2.78924 0.7362154 8.16046 1.3141428 -4.9172406 -0.7951518 6.0308957 10.809633 -3.4724877 6.4262776
e_65_01HOOFD -2.1957157 -6.9744587 -2.114525 4.49407 1.6616637 -8.833283 5.237587 -4.5804915 4.312377 0.5134303 0.37239859 -5.5696983 4.434318 6.071926 -0.37262306 -6.2753024
e_32_01HOOFD 3.567234 -4.58601 -0.4416505 -2.9114246 0.4252628 -3.4792154 -0.81632936 -7.4628186 -3.496699 -0.3083219 -4.200614 -9.621068 4.6516733 0.10244384 3.441762 -8.557123
e_102_01HOOFD -1.5445246 -0.9418374 -1.9842708 3.7859797 6.227647 -8.20389 6.311646 -1.6968372 -4.357238 -1.6539152 -0.617677 -7.236814 2.1649046 -4.406089 2.104611 -6.077986
org_resource_560925 -2.8696103 0.26708236 6.731799 -8.965276 -2.0147645 1.7066045 3.7733638 8.15806 -1.672112 6.818661 0.11441663 8.799102 8.057709 8.082625 -2.1793106 -5.967685
e_111_01HOOFD 0.5309212 -2.515305 0.12253138 5.5708976 4.155044 -2.968148 7.661951 1.6047081 -4.4417005 -9.159733 -3.8423545 -6.291612 3.3631601 -4.3333783 3.6899786 -4.169801
e_43_01HOOFD 0.5859998 0.70505345 0.03785835 -0.094626814 2.9801805 -5.106263 2.7340934 0.7710268 -1.6089528 -0.35642818 6.427388 -6.6192355 7.913678 -1.4880095 -0.84798414 -14.716175
e_211_01HOOFD 8.319295 3.0824506 0.22309609 -1.7156185 -3.2530732 2.7897427 1.6949162 -2.9319937 1.0096382 -10.6677685 -7.182318 -8.265322 -1.8859059 -0.041729216 -1.4235218 -5.5642447
e_174_01HOOFD 9.474807 0.8797802 -5.4695807 9.125088 -0.35088632 -1.2447845 5.444555 -0.45006743 -2.6231592 0.7070745 0.2579755 2.2178106 -2.1737227 4.794353 -2.7132351 -9.328552
e_69_01HOOFD 3.808837 1.0078948 2.6640286 2.3690233 -1.7049383 4.5493555 8.877538 -1.5168394 -5.6670847 -10.153053 2.084654 -6.4339223 -0.90056413 -3.534267 3.1670954 -1.7755253
e_45_01HOOFD 8.273997 -5.726954 2.9284565 -1.5077834 3.4340627 -3.984995 -3.0751991 -3.8756893 -4.5078273 -3.258752 0.48034194 -2.8989303 0.06599054 -2.4822493 1.6074178 -12.016491
monitoringResource_560741 -6.308897 1.98123 2.5592437 -7.57387 -6.306226 -6.0464406 2.5595102 -1.2735693 -4.624873 -4.0398755 4.675652 13.398007 -0.45371026 -7.186294 6.3223066 5.557304
e_70_06VD 5.058317 -3.9008477 -4.8301115 1.127423 5.1213684 -8.281889 1.1441808 2.240514 0.5710513 -5.6298037 5.880076 -1.6824526 -8.487865 -6.008439 7.6506314 2.3067455
e_213_01HOOFD 9.94654 2.7200115 -1.8404255 -3.8649495 -2.6085255 -0.12322027 1.8824242 -4.2171664 1.8702366 -5.8682795 -6.1655498 -9.919764 -2.7012887 -0.23775746 -3.9729335 -3.8136098
e_94_01HOOFD -2.842627 -5.5299044 -0.034441963 2.2751966 1.0209577 -3.8598392 3.6667912 -6.461035 -1.8059204 -6.041921 0.9912646 -6.783544 3.3685381 -4.332441 7.1266727 -5.80733
e_85_01HOOFD 4.275612 3.6249843 1.0510317 1.9580201 -0.04369121 0.8936999 7.2577643 -3.3621497 -7.658911 -8.81361 4.4735513 -5.7091546 -4.732847 -4.952291 4.537227 -4.7854347
e_208_01HOOFD -0.061729092 -1.8669497 -4.2813997 -1.3379182 3.2209365 -6.3378277 0.8689648 -4.7587824 2.0987194 -1.6362692 -3.7539363 -6.142206 -5.858091 -0.75847006 -2.1356418 -12.32365
e_155_01HOOFD 7.9040575 3.3394215 -4.332499 3.85213 -3.2200322 -7.4663787 3.6565788 -11.6097975 2.550211 -1.0404251 3.686837 -3.4902604 0.63407665 -3.1161923 3.8942635 -0.5086739
e_91_01HOOFD 2.3056326 4.0557675 -2.3967624 0.17101878 -0.3090349 -6.381315 6.7475863 -7.7615414 0.504241 -0.76171744 4.9283233 -8.826398 2.159182 -5.247553 3.0931046 -0.899886
e_127_01HOOFD 0.91217214 6.991288 -0.40459776 0.5625849 -1.6737379 -1.5005615 12.286286 -2.794595 3.8332827 -6.731941 3.2675724 -10.086069 -0.64856404 -1.7889887 -2.8415883 -2.5686305
e_86_01HOOFD -3.0656638 -3.5503335 -0.6579171 3.894996 1.0272322 -3.1143372 4.9263487 -6.714264 -2.8260572 -6.3512797 1.6610776 -7.5577836 2.5726228 -4.854562 6.9153666 -5.6708875
e_135_01HOOFD 5.0219994 1.7886665 -4.6242685 8.884064 -0.96490145 -4.535932 9.172467 0.5728 -1.0884279 -8.71671 5.821022 -4.0852747 1.667569 -0.52825874 2.4178166 -4.4782095
e_18_01HOOFD 2.1485379 -1.0279939 0.14896797 3.8287604 4.1029525 -4.6055155 -0.95380974 -1.3957171 -4.256693 -3.7603045 2.2966657 -6.2114415 6.4563475 -0.15154693 5.5845013 -15.003012
e_157_01HOOFD 1.4486411 1.988075 -1.5851542 5.511839 4.6258063 -8.355134 3.6063411 -2.5042758 -0.017187444 -3.0003924 -4.467031 -6.2885237 6.7647066 -5.219938 -1.0394913 -5.425869
e_87_01HOOFD 4.00924 -4.829916 1.0365461 0.41766843 -1.5353667 -2.5953968 8.899559 -4.8954077 -1.6794509 -5.7783804 6.0789824 -6.020429 -0.8837173 -2.243553 0.22911264 -2.17968
e_145_01HOOFD 3.701511 6.3103366 2.082972 7.1866307 4.292286 -0.62366694 6.0258827 -3.2807028 -1.819668 -3.6611176 -5.810368 -3.6270223 3.9583206 -7.2077065 -0.18975857 -5.734717
e_142_01HOOFD -0.34672543 5.830117 0.3500519 3.8866725 2.0873039 -0.18511012 9.986234 -0.7967357 2.2830439 -6.904706 3.227207 -4.642881 -3.6269748 -5.041471 -1.63714 -6.6819177
e_37_01HOOFD 11.447004 -8.485562 4.692623 4.923115 1.798018 -1.7121068 2.849072 -4.720841 -4.4170413 -2.8614535 -0.28389004 -1.3519399 2.8094912 2.7234428 1.9201268 -5.8265357
e_219_01HOOFD 9.858051 4.920435 -0.74167717 -1.1407769 0.119971395 -3.2740848 2.9592025 -4.912158 -0.007402346 -5.8061924 -7.8006577 -7.9189553 -4.80929 0.9191902 -0.5961567 -1.7815478
e_203_01HOOFD 2.4616053 0.019187544 -2.4514763 -3.6457903 3.1005068 -5.925224 0.52641815 -3.7721303 2.489704 -2.9581623 -5.35321 -8.389484 -4.1940055 -1.2216978 -3.5464776 -10.755326
e_119_01HOOFD -2.2810967 -1.9421109 -2.2982638 4.8939075 -0.030405717 -4.312499 4.2920065 -7.9620996 -1.5360851 -6.1313386 2.2548537 -7.183551 1.7242582 -4.1076245 6.999978 -4.913494
e_178_01HOOFD 9.557849 -0.8578205 -8.563523 6.0497255 -5.7597055 1.4404042 -0.09792551 -4.9266396 -2.3746533 -4.8410854 0.19736035 -0.7392511 0.6458524 -4.7027407 0.53810275 -8.076204
e_5_01HOOFD 5.768999 1.1391382 1.8242478 -3.4336498 -0.80487865 -1.9313889 -0.22386053 -9.156379 -4.3217077 -0.93019557 -4.545228 -12.066407 5.3316565 0.54508215 2.9539323 -5.8752737
e_133_01HOOFD 6.673886 3.0353987 -3.691095 1.9005057 -1.0447114 -5.637638 8.423638 -2.313626 -2.629781 -6.4199886 5.32607 -7.663327 -2.8227262 -2.2125773 -0.61331713 -1.821282
action_code_01HOOFD180 -14.282417 -1.2972826 2.236948 -4.3548408 -2.1828966 -9.230279 0.18300839 2.8742485 -4.5702944 0.4853116 -2.7728229 12.434128 7.567453 0.8127385 4.0191956 0.12256109
e_161_01HOOFD 7.3831043 2.0195706 -2.961687 2.1004093 -0.73016214 -5.822238 3.7380981 -4.9052 -1.0744096 -7.096664 1.3785592 -7.3027916 1.8459071 -8.086415 1.3429799 -0.19388826
e_147_01HOOFD 4.708591 2.4234662 2.5519478 8.898913 2.5308697 0.99380594 7.190045 -2.6522028 -3.831595 -6.56542 -5.8276205 -4.1214557 5.109574 -5.442806 0.5277231 -3.1306605
e_28_01HOOFD 5.666819 -9.387248 4.917499 2.8761592 3.006971 -1.7317761 8.830572 -4.207013 2.5448277 -2.331257 1.5879388 -3.4758122 3.1779177 2.607367 2.9093854 -8.933505
e_143_01HOOFD 2.845477 4.448632 1.8371924 1.516421 2.1536462 0.009493288 11.686574 -1.6621119 -1.9638947 -3.7347908 3.189113 -4.660204 -4.9734383 -3.0660622 -1.9877765 -5.034036
e_103_01HOOFD 7.484474 5.3345714 1.4786497 6.936197 2.746249 -2.209066 3.1288817 0.29461563 -4.4502516 -6.571776 -4.9931197 -5.2040367 8.217802 -3.3675792 2.7846096 -3.470086
e_42_05EIND -0.4427612 -0.9504603 -0.41400734 1.0879021 1.4971625 1.6310502 -7.301996 -4.145673 5.8745914 0.51770014 -6.744498 -4.0849304 5.909 0.7893319 10.147338 -4.2372684
activityNameEN_activitiesregularprocedure -13.96235 -1.1713859 2.346782 -4.7253103 -2.0679233 -9.220262 -0.40775204 3.3626757 -5.008498 0.208202 -2.6773808 12.380151 7.6670866 0.40388587 3.8505461 -0.12640987
e_98_01HOOFD 5.511702 -2.608613 0.81559956 3.3569405 -0.2827583 -1.7069204 9.651287 -4.030374 -7.018861 -7.181917 3.5928288 -4.8389425 -3.1271214 -2.1073697 2.7270684 -2.2511232
e_113_01HOOFD 2.994536 0.07450456 -0.95563036 6.870844 2.449428 -2.8779585 11.277652 0.85141814 -3.6376696 -7.0091076 2.6981585 -2.966388 -2.8825336 1.2383085 3.9108276 -5.2028937
e_74_08AWB45 3.409348 -11.248819 2.3687062 -0.8835102 3.3186586 2.960873 8.267257 -1.9657416 7.3546586 -4.51593 1.1962048 0.73684156 -6.3756623 -8.212964 6.4912677 -0.4989594
e_108_01HOOFD 2.341379 1.6750355 -3.4868326 3.1685433 -1.8433632 -3.9511578 9.030164 -4.3991785 1.5369761 -5.665907 1.3737737 -7.899193 2.7174075 -2.8964865 3.6423306 0.15591088
e_83_01HOOFD -3.6972902 -1.6449763 -1.9630522 4.4837904 0.8916993 -1.9597893 6.3483696 -4.939788 -3.6422007 -3.9783847 -0.41993767 -8.210064 3.9566352 -2.6673832 5.1533833 -5.9290137
e_38_01HOOFD 6.7576356 1.9998947 5.9606304 -2.5078185 0.711087 2.8068397 4.1759033 -1.3881066 -3.9499762 4.0726924 1.633065 -5.2982736 2.5265326 6.2352877 -5.2259135 -7.6462913
e_182_01HOOFD 8.88632 -4.8499727 -6.8031473 8.560373 -4.4358506 0.81090033 1.8082068 -1.9703419 0.17726398 -7.166936 -2.072826 -0.02709535 3.352119 -2.595568 0.4537439 -5.8084273
e_63_01HOOFD 3.669323 1.0085496 -4.9325852 1.9904549 -2.840224 -0.3879471 10.713256 -1.1244224 7.830006 -2.698624 -3.093961 -7.6628704 6.543867 2.9576018 2.87153 -5.3672137
e_162_01HOOFD 3.54192 3.4125447 1.5973718 0.21885082 2.6961393 -1.3420665 10.060101 -2.1027944 -4.6278067 -4.5388436 3.048865 -5.862477 -5.5590534 -3.3372366 1.0572476 -4.7108073
e_10_01HOOFD 10.405986 -0.45385218 3.5506299 -3.2927954 -2.0230145 -1.3893685 0.8924677 -5.5783296 2.5841613 -0.16985326 7.426565 -3.6805072 0.57913816 4.067398 2.8747966 -5.167961
e_134_01HOOFD 3.174615 1.7677813 -2.57451 0.60617554 -0.3104639 -1.568819 7.539095 -5.9202204 -6.936322 -0.8069304 -0.14141434 -7.8849454 0.08765046 -4.4511 3.0422168 -2.2743917
e_138_01HOOFD 2.3728855 4.2547593 -2.79163 9.094194 1.3862233 -1.4559724 5.890879 -0.30959892 -7.2263927 -6.0415597 -4.5288463 -4.009008 1.911908 0.15376265 5.764045 -2.3284266
e_24_01HOOFD 10.906543 -1.8019526 3.3957286 -2.5321658 -0.8957395 -0.6265649 -2.4557524 -5.4409957 -2.5004346 -0.6702845 4.9379454 -4.827617 1.2502446 1.5788985 1.3730323 -6.5103426
e_112_01HOOFD 1.6259298 5.1268873 -0.733393 5.142007 1.0359501 -1.6151177 6.434121 -6.654405 1.6258482 -4.073772 -1.58902 -6.4373507 1.680025 -5.2238975 3.422247 -2.8513675
e_60_01HOOFD -2.1381686 -4.692669 -1.695841 3.298373 -1.1840584 -5.004872 2.5802238 -7.3335624 3.4968946 -5.0803294 -5.8480506 -8.126389 3.2542746 4.1697273 -0.0541416 -5.874175
e_199_01HOOFD 4.185958 -1.1658338 -5.2739224 -0.8105208 3.565519 -1.3151169 6.938177 3.6577053 6.8380456 -2.1103175 -6.9742074 -6.4468307 -2.3469288 0.68405855 0.059294056 -7.8064294
e_44_01HOOFD 10.639655 -1.1892534 3.622808 -1.7712662 3.4209747 -1.3333492 -2.7577116 -2.1802018 -7.0042577 -1.1040918 2.799827 -2.138286 -1.3748232 -1.9669468 2.1387205 -9.942455
action_code_08AWB450202 8.595468 -9.413635 2.3807406 -2.8113763 3.5392354 -2.0612054 -0.15904814 3.219978 8.565518 4.7547936 -3.13105 9.779735 -3.9349966 -1.6333094 -0.91613317 6.681408
e_96_01HOOFD 1.4763463 -2.3853724 -1.9328067 3.909072 -1.9228843 -2.8605988 9.029902 -6.13975 -5.529615 -1.2355379 2.1329079 -7.503723 4.5579996 0.6941898 3.261425 -1.764171
e_205_01HOOFD 6.1366982 1.4133534 -4.033374 -3.5353212 1.709012 -5.955253 1.3489408 -2.4060812 0.84822273 -3.9642546 -2.7615716 -6.6250625 -5.81835 -3.5789819 -2.9236374 -7.010237
e_151_01HOOFD 3.3988166 8.128058 -4.3678102 2.4751096 0.45732158 -7.5575647 5.0370684 -2.4138672 -4.333113 -1.6156625 0.39771414 -8.698891 4.6542363 -2.4092677 0.5460331 -2.2899554
SUMleges_126.45 4.993583 -5.7608266 -10.044338 4.5788603 -8.038928 1.4229223 -7.383881 2.1480029 -0.47134778 -1.1053944 2.3695476 6.42031 3.6784554 -3.837691 -2.8327456 1.1464173
e_158_01HOOFD 2.776557 1.9877129 1.1958373 -0.11118931 -0.41146109 0.41806638 8.579615 -7.652312 -1.3012456 1.136576 0.46709767 -7.8116856 3.0650158 -4.9231052 -0.01200337 -2.327815
e_12_01HOOFD 10.11391 -0.17483528 4.8777533 -1.9529821 -0.9907081 -1.9772313 1.2133545 -6.0983853 2.4202485 -0.19404669 8.499016 -3.7153955 1.1750501 2.8554356 1.1624573 -5.586114
e_128_01HOOFD 2.997399 2.1396432 -2.3929763 0.5268046 -0.12572154 -0.6605049 7.404047 -5.3452244 -6.769728 -0.90149933 -0.2860038 -8.057981 0.48212266 -5.084656 2.6985765 -2.5137525
e_227_01HOOFD 8.040356 5.287448 1.6735183 -0.59793735 0.7837544 1.2859588 2.2870078 -3.5688763 -2.0007725 -7.7079225 -8.865712 -7.3593674 -5.3375797 1.1310599 1.0285856 -4.905966
SUMleges_118.9473 6.6602798 0.51849836 -2.6749866 -10.31436 -7.889959 0.6884988 -9.262918 4.579411 4.0541573 -6.0257983 -0.7933408 -0.3784399 -1.8578533 -1.7826108 -6.2512527 7.534963
activityNameEN_entersenddateretrievemissingdata 8.097107 -8.703938 2.936044 -3.0302017 3.8260033 -2.3925662 0.15281099 3.6917906 9.147022 4.62834 -2.9987102 10.36781 -3.8692336 -2.1439707 -1.3323187 6.7449417
e_186_01HOOFD 2.2987814 2.171728 -5.784512 3.687471 -5.634016 1.8232034 4.463814 -7.968429 -2.6389484 1.0335546 -0.053883195 -3.8729868 -2.0034053 5.4507275 1.3015876 -7.330122
e_220_01HOOFD 6.2896605 5.9833684 3.2674277 -5.5522046 0.45964846 -2.539891 2.958658 -6.2632613 0.60949177 -5.7252097 -6.836433 -12.598919 -4.276357 2.1366296 -2.477154 -2.4736147
e_9_01HOOFD 7.55671 0.063318126 6.431388 0.21606337 -1.4256793 2.2655842 2.3131967 -4.5641394 1.0200703 -3.592054 7.0031695 -4.7765718 3.2990627 3.0358818 0.7111034 -8.317871
e_149_01HOOFD -3.7972362 -1.7633686 0.99672186 2.249634 0.3554041 -1.7360525 7.7629957 -7.939567 0.9197758 -1.4594958 -1.7874105 -8.74147 5.2757673 -3.27308 -0.1256894 -4.518546
e_15_01HOOFD 2.8512053 0.7632787 3.9770641 0.12943475 0.6823119 4.1903257 5.784362 -4.3161383 -6.221491 -0.92192984 -5.104377 -7.865877 3.343051 2.2761624 1.6487182 -8.284965
e_233_05EIND 1.1061982 2.2745373 2.4543889 1.3167857 1.6965535 2.3231752 -4.672936 -3.2175822 9.339232 -3.4919915 -8.958431 -2.847059 2.0879126 1.8448371 8.077581 -1.7762886
eventName_04BPT -8.316878 -0.48555002 -5.5838633 -5.167428 -0.89908 1.7063135 1.1186594 4.784568 1.5294145 4.5668736 9.784697 -1.911258 1.4791864 -12.822098 -7.480331 -1.59096
e_141_01HOOFD 2.1358883 1.4756415 -1.5336624 1.1270359 -1.1916932 1.4218707 7.6077323 -6.754145 -0.6058158 2.0230484 0.27497572 -4.8346367 2.708065 -7.554575 -1.6694022 -2.85484
activityNameEN_sendprocedureconfirmation -8.226914 7.0326047 2.3743458 -12.844948 -6.786186 -1.2139281 3.151826 2.071609 1.2063043 0.25979146 2.7241013 11.933656 0.9330219 -8.053701 -1.9776543 0.07602851
e_121_01HOOFD 2.8400915 3.6522467 -3.6911194 3.0665662 5.0459557 -2.4522066 7.397766 2.1094584 1.6277621 1.1324142 -6.5781503 -3.3520396 2.3905256 -2.3378973 7.1890965 -1.6337509
e_37_08AWB45 10.183482 -9.713737 7.6981473 5.2478733 5.643644 1.8887212 -2.6322365 -2.6990557 1.9492555 -1.2925969 -0.55886626 3.6418674 -2.0894778 -0.6563373 3.209708 -1.0514799
action_code_01HOOFD0651 -7.86628 7.0185776 1.8608576 -12.587151 -7.1806827 -0.6746521 3.2959282 2.121054 1.479602 0.16906717 2.9802973 12.1269655 0.6420006 -8.236581 -2.4933088 -0.55926365
e_109_01HOOFD -1.2467781 -1.0131602 -0.3921791 6.2417297 4.7849517 -4.0962553 2.8300967 -3.235056 -4.8456283 -5.8567038 -1.4747732 -4.0414762 0.4559537 -6.32841 4.77678 -6.1622896
e_26_05EIND 1.8106452 -2.73971 1.2033306 -0.83268666 1.9963604 2.6858864 -4.294383 -3.1038792 6.449364 -0.68640584 -4.099137 -4.1760297 4.724567 -0.4628261 12.6759615 -3.719968
e_180_01HOOFD 0.65377796 -2.76024 -8.061751 4.8086967 -2.8822262 -1.8184543 1.3994297 -8.728194 -2.6193433 3.03585 -0.86607605 -3.4951625 0.3701367 0.7295725 1.7066046 -8.827434
e_140_01HOOFD -0.8969274 0.09472922 -1.5306271 8.831827 5.3549066 -5.1115623 3.6969855 -0.7653244 -5.4033976 -4.4612384 -6.2404284 -4.552089 5.9259396 -4.7340593 0.8349245 -7.7233634
e_75_01HOOFD -1.0271064 -3.146241 -5.8810163 5.5015783 3.7330685 -3.8913374 7.8860936 -0.0396366 2.818376 -3.1573846 -7.5638304 -4.147538 0.59592414 -0.46159518 7.40924 -4.4248195
e_193_01HOOFD 4.8889575 1.3688399 -3.530002 1.150317 -5.101247 3.0849783 1.8989296 -8.020872 -2.4639251 3.37194 2.7894762 -2.4345522 -3.2032669 4.1744924 0.8382028 -5.766251
action_code_04BPT010 -8.796346 -1.1615584 -4.8072276 -5.2584376 -1.0285126 1.5677997 1.5020972 4.647978 2.2741442 4.4359007 9.778745 -2.242788 1.891975 -11.62988 -8.327598 -1.3403772
e_29_01HOOFD 2.2136273 -6.19019 4.1021423 1.0404366 4.8386064 -2.9013 2.420811 -1.3628753 0.5515439 -0.5131879 0.7315313 -3.5300984 3.463226 1.4671048 -2.222419 -13.444603
e_64_01HOOFD 1.2193668 -6.7514443 -2.0565236 6.2184567 1.4191611 -3.8079262 4.5602026 -0.25345346 4.479254 -5.679178 -7.352338 -5.7434826 2.045807 10.765288 4.4028387 -5.204796
e_187_01HOOFD 1.3301665 2.8002622 -3.1483407 6.3728094 -6.0247855 8.0887785 3.8131983 -7.658091 2.1690934 0.7715793 -2.5575967 1.1527449 -0.338574 1.7123052 0.13224147 -7.1594324
e_68_01HOOFD 4.692315 -3.352037 2.9291546 -1.5835458 -0.19837105 -0.037553567 9.437367 -3.0425143 -3.3730845 -6.5943046 7.1980844 -3.5419512 -7.271126 -2.7496753 0.20064832 -4.2565837
e_196_01HOOFD -0.89188683 4.4897637 -3.4713373 5.3464184 -6.2001243 4.028545 4.6671834 -8.819163 -1.7559395 -3.2359214 -1.669207 -7.076587 -0.18327613 6.3724823 3.3127873 -6.5186357
e_183_01HOOFD 5.0808806 -0.07798016 -3.6148314 0.5037292 -5.12326 2.4961526 1.57484 -8.394654 -1.994525 3.743409 2.8230293 -2.2821445 -3.7389023 4.5206122 0.9579267 -5.1000075
e_16_01HOOFD 2.824583 -4.059231 2.541592 0.03894241 -0.6963643 2.1455448 6.5177784 -4.5940742 -5.5024757 1.8765042 -2.1466835 -5.792856 4.307464 4.34454 -0.32934722 -8.035594
activityNameEN_MERpresent -8.896404 -1.2442504 -4.964735 -5.174728 -0.8238198 1.5295206 1.580801 5.480036 1.9327501 4.7406363 9.94237 -1.7654768 2.1580055 -11.895529 -8.561769 -1.3491497
e_159_01HOOFD 3.8679435 -1.6690018 1.4912447 3.3281825 6.0356436 -9.239637 0.99498326 -2.2792385 -4.064928 -4.0612874 -2.565132 -4.914108 5.8589425 -6.2552123 1.1066917 -6.1736264
e_160_01HOOFD -1.1761669 -1.6230465 -1.6358023 3.646679 -0.46106148 -5.742819 2.7332025 -9.445533 1.3502759 -6.7018876 1.4590895 -5.845511 -0.46615335 -3.58679 5.2355804 -4.479211
e_197_01HOOFD 10.802433 -2.3618505 -8.115436 4.995743 -5.856221 -1.304263 2.1088645 -4.776071 -1.2023755 -2.28504 1.2844185 -2.243801 4.373628 -3.6351757 -1.3012147 -4.8582277
e_97_01HOOFD 4.245109 -0.26441216 1.3110223 5.2055736 5.2392607 -8.727469 8.271729 -3.5213494 -3.051697 1.432938 2.0491345 -4.2302074 3.5634208 -1.6520283 -0.059206247 -1.5790821
e_33_01HOOFD -3.2143607 -5.0223107 -1.1986042 2.7592 3.0161266 1.3562524 8.977783 1.0267086 -1.5762637 3.4436553 2.8733823 -5.173533 6.748932 1.1053562 1.8126295 -14.030716
monitoringResource_560454 -0.27384236 2.6351604 3.9961326 3.7213035 4.5002837 -8.223314 -3.4483838 6.1157684 -3.3674912 0.24998952 -6.769441 6.8785 9.38965 -3.4622483 -5.1999555 5.120106
e_185_01HOOFD 10.256858 6.292321 -5.9267097 4.9935913 -0.030250255 -0.46033207 2.192884 -2.6269886 -4.6596804 3.1731687 -2.2142627 0.96940374 -2.5530834 -2.0933883 -2.5114377 -7.669233
monitoringResource_560912 5.6339183 1.0364156 4.9737644 -6.7710056 -3.1855445 -4.3715286 -2.3289998 2.0593636 8.765422 3.115429 11.796907 8.03713 2.7741919 6.924278 5.9341445 2.6538866
e_146_01HOOFD 5.9493423 -1.7947271 1.1152233 6.9313273 1.2149427 -2.5621061 6.789825 -4.620169 -0.16069345 -3.8087423 -3.9271126 -1.5990137 2.708148 -4.331253 -1.4321178 0.76975185
e_110_01HOOFD -1.4721874 -3.0043046 -0.53922194 2.9127111 4.548717 -6.8253036 7.114478 -1.5885566 -5.0842466 -3.376953 3.6914444 -5.4428196 -2.5904217 -1.1468654 1.7171355 -5.8378987
e_93_01HOOFD -1.6107632 -2.8309734 -0.73579866 3.3176832 0.5421385 -6.0778656 2.3838649 -8.797497 1.4773793 -7.917476 0.98345006 -6.2844915 -0.16149814 -4.357983 5.4809594 -4.677288
e_17_01HOOFD 3.3038583 -2.5608056 -0.023693316 0.51150006 4.1917443 -7.925248 -2.6596508 -2.6624181 -2.705801 0.34123582 3.416655 -5.330996 3.6634262 2.0296695 2.556521 -12.760627
e_207_01HOOFD 10.880249 4.425727 -0.84297484 -0.015402802 -0.5055164 2.870714 5.304267 -2.4191077 2.591322 -3.6707811 -8.118989 -4.3212686 -1.5834423 0.31253788 6.7723193 -0.093823165
e_131_01HOOFD 1.1425198 10.822966 0.7993021 6.926221 -0.3336595 -0.87543213 7.591325 -5.1944914 2.0342703 -4.0502515 -3.1051552 -7.927022 4.5943613 0.099894464 0.03183254 -0.8283201
e_129_01HOOFD 0.7566831 -3.96953 3.4041417 1.6608422 5.0311074 -7.3781056 5.674632 -6.003807 -3.7244458 -2.8653212 -3.6459508 -5.7434654 -0.33839396 -1.8070337 3.4885533 -0.011545
e_195_01HOOFD 2.400448 1.2519084 -6.4449306 3.0786088 -5.9627647 1.439147 4.6006947 -8.103175 -2.7057533 0.96045244 -0.8110517 -4.933932 -1.1869886 4.9720654 1.6826427 -6.1600847
e_118_01HOOFD 6.9878426 0.11514688 0.14552596 5.7654104 2.8566382 -3.0668492 8.1726885 -3.4089172 -7.6164255 -1.567641 -3.3372295 -3.814788 0.18142408 -2.4116652 1.9454669 1.1701186
e_190_01HOOFD 3.677996 0.98844975 -3.8376288 0.83989745 -4.7679787 3.597222 3.297361 -6.8432446 -2.2994847 5.885675 0.79947567 -2.4883513 -2.172076 4.828618 -1.9466416 -4.937447
e_46_01HOOFD 4.3128858 -6.1492114 5.310333 -1.7233269 2.6674633 -2.4914227 3.0468998 -4.9356256 0.72351044 0.50718266 0.7195028 -5.0673738 3.4186516 1.5092026 -2.302128 -10.372154
e_232_01HOOFD -0.6054305 -1.0756173 -4.3759995 -3.6738343 2.4895759 -3.9104981 2.3779283 -4.0693398 6.740659 0.7794008 -4.1997976 -8.207048 -2.0663192 0.43012455 2.1030579 -10.838125
e_117_01HOOFD 0.76840746 2.8162494 0.71609664 -0.9494647 -1.1269897 -0.001474642 6.484615 -8.203736 -4.2497544 -2.5264044 -0.9101402 -10.546157 0.5674677 -3.2532456 2.8330374 -1.0871563
e_189_01HOOFD 7.9363236 5.420861 -3.0186214 5.4381375 -0.28182864 4.4643903 1.7203357 -0.057466734 -5.1348577 -1.6869936 -1.0143852 3.5694528 -5.1766887 -2.1487617 -0.8860894 -10.683764
e_48_08AWB45 6.6606703 -7.076826 7.854159 3.5110197 6.6202707 -0.07568804 1.3175486 -1.276079 8.351535 -2.15891 -0.93306184 2.984022 -1.5361127 -1.6680986 -1.7318317 -6.1710973
e_11_06VD 7.565691 -2.886879 -1.9412864 0.57214975 2.0155606 -3.7170074 -1.3869207 4.7309914 2.880688 -3.49418 10.4539585 -6.493852 2.353938 3.959327 6.061663 -5.0939107
e_19_01HOOFD 5.5209093 5.140033 -0.35290205 4.800722 0.045767613 -3.8900921 -2.8493059 -1.8617105 -6.3089614 -3.5989778 2.172089 -4.9536834 5.7925906 6.876421 6.594444 -11.232154
e_34_01HOOFD 5.8218517 8.347405 1.6186163 3.3196402 0.23921843 -1.856079 2.0260136 -0.20903632 -4.058378 -3.035176 3.9789724 -6.2997246 8.749708 2.9313567 1.9001746 -12.188448
e_192_01HOOFD 7.7547364 8.436531 -3.268409 7.5394287 -0.45696157 3.0944154 3.050555 -3.203645 -4.3472223 -1.0613074 -2.5353806 1.0238886 -3.9237087 -0.28540686 0.6977245 -9.159047
e_153_01HOOFD 4.874738 0.5325469 -2.0508926 4.000009 5.352872 -2.3593879 10.835592 -0.058777437 0.70920753 0.33456016 -2.3821187 -2.7524564 0.88365483 -5.2964935 5.2559566 -3.5090132
e_171_01HOOFD 9.296382 -3.522376 -8.820042 3.8012795 -5.2702866 -0.43202087 -0.7517615 -4.3106327 -1.7398864 -1.4172938 1.649348 -0.31625637 -0.09258781 -3.4490812 -1.9946225 -6.534129
e_28_08AWB45 3.7391589 -10.182267 7.771151 2.8179202 5.1861944 1.1999687 6.7223406 -4.6664515 9.757666 -0.25191244 0.387554 1.7511922 -1.1476394 -0.963961 3.781523 -3.0204399
e_137_01HOOFD 3.7363696 1.1553221 -2.396558 1.2617642 -0.15479921 -1.7285538 6.2559466 -5.7677565 -7.762949 0.57566375 -0.48301956 -6.318794 0.2505556 -4.035602 2.1539574 -0.97836334
e_139_01HOOFD 7.861917 3.3272579 1.1563746 3.1492798 5.5847316 -7.114908 3.8138535 -0.059085898 -5.5042834 -1.645096 -4.3767123 -5.602646 4.916662 -3.8323214 -2.2870464 -3.6132023
e_179_01HOOFD 1.122805 -2.6456356 -6.512157 8.030597 -4.244118 1.4476953 2.8695736 -8.538785 -1.0937904 -1.3417099 -3.217366 -1.8108295 -0.9665822 3.5438006 4.172469 -7.2694693
e_124_01HOOFD 6.5344453 5.395798 -3.0105712 5.467509 0.16777758 -4.7812877 4.325951 -3.3773587 -2.7711947 -6.4385242 -0.052219495 -5.895123 2.4200559 -5.556234 2.685244 -0.7179814
e_176_01HOOFD 3.1270115 -0.9099661 -5.9419093 2.5614069 -5.1201 0.9512046 2.761562 -7.9774995 -3.882742 2.551631 -1.6169395 -3.224849 -3.2724004 6.68876 1.7552748 -5.046722
e_49_01HOOFD 3.7325885 -0.6400054 -0.8426288 0.94581175 3.3185592 1.5386691 6.550398 4.6815667 3.4436152 1.7710679 -2.8123405 -3.3567266 4.757761 3.220004 1.761159 -9.0218935
monitoringResource_560852 5.009884 7.8763447 -3.980376 6.32786 0.055223834 4.130806 -2.7933774 6.7952623 -4.2894897 4.2229543 0.052748226 10.521378 -5.4775896 2.2660995 -2.580037 -2.784966
monitoringResource_560596 -7.672272 0.37163028 -5.5777216 -5.600912 -4.963457 1.829615 -6.031075 7.92222 -9.473828 -6.3998046 -3.692127 -7.060716 -0.7353338 6.6650324 0.2590746 -1.233764
e_71_01HOOFD 4.12318 2.691422 3.7812688 -0.3917393 5.087222 -5.922872 5.217137 -4.974985 -3.9545121 -1.2807552 2.0625947 -5.6341624 -0.8336029 -6.432052 2.1071184 -1.2068975
e_194_08AWB45 1.9401681 -5.479036 -0.67391324 5.6504064 4.9152274 1.2170194 0.13286428 -3.92612 6.4952426 3.7835972 -4.373431 4.717751 -10.201012 3.201561 4.674346 -1.379724
e_74_06VD 3.5890503 -8.841659 -3.1638603 -1.2404073 3.6160367 0.87695414 6.362743 3.7218719 1.0974236 -3.3467338 4.2716804 -4.5933614 -4.5220013 -4.8698635 8.581252 -0.041066706
e_173_01HOOFD 6.126955 -4.970485 -9.251645 6.5534854 -3.9950168 -2.452779 3.375869 -2.9587252 -1.1356168 2.0934055 2.729703 -0.3806486 6.2146554 -1.4587328 -1.6474346 -8.18691
e_163_01HOOFD 7.1380844 6.4541116 -2.3563812 4.2486377 4.0057106 -7.1235237 1.1448649 -4.934245 -3.2938626 -0.7247914 -3.6050684 -3.8204093 0.37399158 -7.186357 1.1157097 -1.6103107
e_181_01HOOFD 3.498733 -0.48297527 -6.393883 4.0808907 -5.224164 1.7418001 4.7704415 -9.761553 1.9896562 3.507847 -0.98202574 -1.8583753 -0.79784966 0.73340404 -0.7733436 -5.7445035
SUMleges_16.86 -7.8520575 0.07942126 -5.660119 -5.7150736 -4.8931875 1.4617046 -6.0974026 7.1706004 -9.369954 -6.1067085 -3.4650257 -7.3780518 -0.5769966 6.5359807 0.40090612 -2.045912
e_120_01HOOFD 5.0530615 4.9188538 -2.4157596 4.0365324 3.6932018 -6.732006 4.9769325 -3.1384466 -4.948418 -1.6967031 -2.4587312 -5.430958 -0.90940225 -3.9986737 0.99748206 -1.0247808
Responsible_actor_560596 -7.578303 0.74238753 -5.545865 -5.9122524 -4.8670278 1.8111284 -5.8664846 7.770868 -9.33477 -5.6290445 -3.8058872 -6.9707236 -0.54842484 6.5412884 -0.040790256 -1.5136985
e_170_01HOOFD 7.852242 -4.054501 -8.796159 6.201256 -4.661576 -2.9655888 1.9425693 -3.1214285 -0.4561954 -0.4482545 3.2077937 -0.6620725 4.6914697 -1.2258753 -2.2183204 -7.439168
e_184_01HOOFD 1.9406861 1.8624696 -5.359814 6.238001 -5.3435802 3.008386 2.801778 -7.4467745 -3.1633754 -0.7105006 -1.746335 -2.7121763 -1.5872074 6.10894 4.2948446 -6.3968954
e_92_01HOOFD -0.6849154 7.612486 4.4885006 4.6757774 3.5995872 -1.8651596 5.0759263 -5.0520873 -2.8251429 -5.433045 -2.3314726 -8.347408 1.0600963 -0.5574753 4.839345 -1.3723246
e_106_01HOOFD 1.792005 -0.8995811 -1.4590598 3.878523 -0.88152665 1.6183922 5.560225 -4.157816 -4.9702587 -5.498189 -0.88755596 -4.9354405 0.8738427 -3.9246202 6.163328 -3.0724354
e_136_01HOOFD 3.8089316 0.17088318 -1.3202507 -0.26081732 -0.8839327 -1.162433 4.616168 -7.473541 -6.011078 -1.0298841 -0.16231214 -6.514584 -0.6186984 -5.3685093 2.7579467 -0.8840827
e_188_01HOOFD 6.57627 5.5425816 -4.307395 10.0334835 -0.29649866 0.60005987 4.657107 0.12536792 -2.3272173 -1.1217252 0.86443424 3.562937 -0.6640007 2.228311 -0.26187897 -11.302031
e_13_01HOOFD 10.814844 0.62123305 6.762424 -0.35173735 1.0391629 -0.74566114 5.6576657 -3.5705302 0.592281 -1.4139761 3.7442217 -5.9972377 5.2787724 0.64960104 -3.042793 -6.1925607
Responsible_actor_560852 5.4782596 7.491905 -3.810695 6.7626915 0.41710883 4.4154215 -3.4167743 6.224364 -4.4512615 5.1300826 -0.056494802 10.396646 -5.203304 2.3942466 -2.4762275 -2.6760542
e_172_01HOOFD 4.0467787 0.38907942 -6.785125 6.398517 -4.089285 -2.8827364 4.79363 -7.674787 -0.14633265 3.4527922 4.411217 -1.3618333 0.21043596 5.3149023 2.092354 -6.199204
e_2_01HOOFD 11.54014 1.8300625 4.2118726 -1.027059 0.009319398 -0.35924822 3.1910994 -2.4075015 -1.6962992 -1.5737885 2.9999 -6.5653996 5.1858144 1.0169237 -2.126777 -7.142287
e_70_08AWB45 4.02976 -3.9521666 0.62696654 4.5752287 5.7260637 -4.915472 3.0803118 -2.3374574 7.48113 -4.216371 1.2915596 3.1960788 -6.685506 -8.042748 2.3332374 0.4599833
e_194_01HOOFD 1.6890373 -2.3731484 -4.265467 3.5307086 2.128034 -1.6286309 5.0567703 -3.3798814 0.9413482 0.5260853 -7.991344 -1.0127692 -7.006571 6.1919 3.7345343 -7.230569
e_214_01HOOFD 13.838617 3.9961886 0.59519964 -1.0692482 -1.9740711 -0.46316567 2.0589972 -2.5817263 2.296023 -6.2292013 -4.7042236 -7.8550735 2.8602178 -0.8178129 -1.6290306 -1.5982896
e_218_01HOOFD -2.3620293 0.058361888 -3.935958 -1.555821 0.21598886 2.0430653 4.174768 1.366751 -0.76408696 -3.4615188 -9.072905 -7.4142985 -2.314213 5.8710623 3.7780387 -8.563543
e_47_01HOOFD 4.9016685 1.464725 5.5274863 -4.1729956 3.6782603 -1.6664293 6.284648 -4.640629 3.7999783 -2.1562424 5.7059164 -4.6083107 -1.8920481 -2.0190299 6.4627347 -10.715769
e_27_02DRZ -2.382894 4.903134 8.176565 -0.46268556 6.6074624 2.696137 4.876849 -0.0800105 3.3851173 6.3937273 -6.603654 -2.7268665 -0.24801874 8.694707 -0.24823907 -5.2687306
e_66_01HOOFD 3.606573 -5.301778 1.7198321 3.6443114 -1.4404762 -1.3412786 9.817252 -10.914728 2.2185647 4.31346 1.2744265 0.62977487 1.6218325 -2.1333807 -2.97565 -2.8786893
activityNameEN_WAWpermitaspect 1.2359912 -5.3086495 5.2556863 -4.9523664 -5.941964 -3.5430567 1.83755 6.332514 -1.7649719 -4.174778 -4.7262836 17.720013 3.700592 3.3042853 -3.2143924 3.022992
e_75_05EIND -3.5777657 -0.6810365 -3.478638 4.182474 4.5241904 0.11612554 0.046195652 1.7001325 7.4830027 -1.9554999 -4.5569153 -3.4105325 2.056498 -2.9243002 8.925506 -1.823682
monitoringResource_560429 0.13160078 -9.454531 -3.3670242 -6.787628 -8.516106 1.9792838 -2.6490834 6.0231757 2.8904347 -10.055853 -0.7591114 0.24725497 -4.0962267 1.5941424 -7.1792192 5.2639384
e_116_12AP -2.549716 -6.732695 -2.8009923 5.3251915 7.3154917 -1.5480373 1.3567432 2.0756276 -6.614766 1.2171286 -3.2283392 1.8723845 -3.065239 -9.833215 -1.13951 -3.4991028
e_169_01HOOFD 7.4839263 -3.814178 -8.728755 7.113871 -4.4025717 -1.9238989 3.1264148 -3.0613651 0.2223374 0.07586905 3.9004917 -0.87832385 4.251779 -0.30992106 -1.4671313 -7.4861856
e_123_01HOOFD 1.959171 4.7586994 -0.6219176 1.3532945 -1.1629261 -4.9493413 4.2677007 -9.573972 0.55054003 -2.348962 -0.3365405 -10.067578 1.4636339 -0.7012317 2.6951275 1.4322846
e_49_05EIND -2.8201509 -0.0958624 1.5155469 2.1124308 4.6450396 4.695739 0.9277955 3.5869029 6.063341 1.1754594 -1.8761007 -3.9261568 3.7701027 4.531692 5.8523836 -9.48909
e_175_01HOOFD 1.353129 3.0477333 -5.127563 7.532543 -4.9856324 0.7513728 2.824917 -8.652322 -0.62564474 -1.5160939 -0.15292662 -2.313074 -1.5927155 5.861834 5.1804733 -5.402696
e_27_01HOOFD 0.109560214 3.0991805 4.689639 -1.3352323 3.107238 0.70650876 7.160734 -3.814422 1.7376492 1.6861702 -5.876158 -6.976352 1.5918797 5.363956 1.0094682 -8.038105
e_25_08AWB45 7.2537875 -7.211662 5.749621 2.351824 6.312594 -3.35011 -2.8171847 -4.607108 6.53964 -1.1263168 0.8897862 2.9217932 -3.580794 -1.4851745 2.828017 -6.493428
org_resource_560821 4.073986 -3.7975626 -10.720748 3.1043203 -9.166044 -0.49528688 -5.825595 -1.4429368 -0.9281861 1.6079459 -1.2750353 11.399396 1.8325497 -3.4377446 -0.8379345 0.052022237
parts_HandeleninstrijdmetregelsRO -5.4953494 10.720055 -2.4512036 3.3143115 -5.0793233 1.2508036 6.774789 3.628645 10.420809 -0.17606819 2.5939205 -0.5473948 4.948398 2.3749852 -3.3679118 8.993813
e_121_05EIND -2.190521 1.4613546 -0.18095858 3.6679928 5.1241536 0.5533071 -0.7884903 0.26572284 6.397721 -0.20345242 -4.5999923 -2.0988867 2.1504533 -2.341523 8.036566 -1.437949
action_code_01HOOFD130 1.5488375 -5.122785 5.485436 -5.040447 -5.834902 -3.024742 2.0920238 6.733523 -0.72274417 -4.057473 -4.778526 17.013296 4.2324805 3.923735 -3.260623 2.994534
e_67_01HOOFD 3.467649 -1.7273681 1.4205956 2.1988955 1.7885927 1.5885388 10.388693 -9.125269 5.156427 5.2605057 -1.7737708 0.31908816 0.6239342 -6.467856 0.27755126 -6.2491126
e_122_01HOOFD -3.8108308 -3.171975 1.7005198 1.130722 4.9854274 -3.720987 10.479871 -1.3282908 2.3575704 -2.752703 5.5654936 -5.371437 -2.4216435 -0.2902742 4.457491 -8.120729
e_232_05EIND -3.429387 0.4381045 -3.2979898 -1.2437446 3.6334543 0.3759706 -3.2958987 -1.1574926 11.345661 1.5562496 -3.5854144 -5.9257407 -0.11279375 -0.79076993 4.97026 -6.526504
org_resource_1254625 -1.023973 7.422918 -0.70444494 -13.160121 -6.9671926 -4.837287 -2.3714662 5.359492 3.5656502 -3.9284008 -9.272299 11.060755 -4.2015424 2.1170936 -3.8309314 2.5376234
e_107_10UOV 1.80403 -2.7867653 5.835173 -3.1016746 1.6953374 -0.23860496 0.112611026 -5.822464 6.848844 0.7955802 0.2245568 -5.3293133 10.699965 -10.073247 -0.33523652 -2.2812958
e_63_05EIND -2.5478091 0.89565504 -2.063025 2.1813498 -0.24504447 2.372133 1.449724 0.5350208 12.109309 -1.7148107 -2.0286682 -4.043319 5.1413927 2.1124225 6.056216 -3.2412868
e_218_05EIND -5.5233297 0.69419366 -0.61769086 -0.4244663 1.6993046 5.1230607 -2.0757985 2.7144763 3.1365917 -4.7653766 -5.788084 -6.9995804 -0.13831739 3.8457577 5.8369074 -7.4538264
Responsible_actor_560912 4.5002465 -3.6684105 6.089602 -10.1320715 -0.96026105 -1.1375582 -0.36086175 -0.30220145 5.9783053 7.003734 2.1899624 6.3985476 2.767346 5.7290163 10.65868 3.8928704
e_22_01HOOFD 2.7224002 4.9014215 7.2712965 2.218442 3.6858153 -2.4392684 3.0879173 -1.8099403 -1.259832 -3.637245 4.4389734 -5.1564445 4.68623 3.3113067 1.7234119 -12.03191
e_199_08AWB45 4.313976 -3.091023 -0.1261221 -0.3319642 5.6089997 0.9823147 2.312663 -0.7803148 11.372753 2.0180013 -6.04952 1.4146987 -7.382771 -3.037586 -0.6267153 -3.6913025
e_7_01HOOFD 8.792833 0.41681802 1.2810756 4.492166 2.8882482 -3.370188 5.0588226 -3.5567074 5.4580145 3.0920894 4.8621254 0.86886966 2.5935566 3.6427162 6.3936157 -8.357149
e_221_08AWB45 5.4733963 -6.969491 1.6471069 0.68345076 1.2466555 2.9614475 0.22563696 -1.5897219 11.225659 -6.7312303 -3.8624542 0.063987225 -6.203295 -3.287356 -4.071202 -4.4899855
e_201_08AWB45 9.185571 -0.6057801 5.25887 1.855776 2.8934562 -0.77452505 2.3028684 -6.2391453 8.375165 -3.0899732 -7.404911 1.959167 -8.228093 -0.62787473 0.7171162 5.1717634
org_resource_560852 5.388258 7.3165026 -3.887921 6.327191 0.01241038 4.517132 -3.419232 7.0786138 -3.9650247 4.207591 0.12908131 10.197399 -4.799143 2.081833 -2.7928507 -2.3380997
e_72_08AWB45 1.0104439 -4.018686 4.7037144 5.7352653 7.32914 -1.0484551 6.6951604 -0.05059556 7.7297087 -0.520554 -1.4015536 4.217575 -6.0492296 -2.7234802 -1.7470267 0.6637602
e_113_06VD 0.23118936 -2.599095 -1.287649 3.030407 5.0070705 -1.9628359 5.1758056 4.34973 -0.54143333 -3.416472 4.795788 -3.9770577 -5.567618 1.5213747 4.934196 -0.7665647
e_182_08AWB45 7.7286024 -8.481138 -5.7401347 7.282448 -1.3050324 0.8641848 -2.1596684 -3.3600986 7.432138 -2.5770574 -0.252601 3.7540102 -1.2504158 -5.450081 -0.4980205 -3.9210722
e_52_01HOOFD 8.894901 -1.0712057 2.7530134 1.9226083 4.306594 0.34796497 3.61984 -2.2200887 3.7213783 2.217934 -4.4211783 -0.48524937 3.4898903 0.76228637 7.5932927 -5.7854276
action_code_01HOOFD1902 -0.29400554 2.3179538 -0.68257904 -3.314063 -6.2715716 -2.6534295 4.35731 11.062927 -2.186566 -6.4530997 -4.004446 14.140684 3.7845263 1.5733837 2.3301456 5.8962674
e_212_08AWB45 2.9754682 -3.6070151 0.8766182 0.9605513 6.0093336 -0.9496391 -1.333139 -1.4997823 10.975506 -2.097857 -4.04962 1.5758679 -6.7486897 -6.106774 -2.6204193 -6.9578385
Responsible_actor_560872 0.58662045 -3.0430868 0.27526298 -8.745777 -1.3969644 -3.0472398 -11.15187 -2.3889012 -4.690407 5.6919584 -5.3579254 -0.7674555 6.2639174 2.4849703 9.277763 2.2643273
org_resource_560912 2.2099218 1.0795578 7.7725425 -9.443754 -2.2079058 -2.9111538 -0.5415844 -1.4660976 3.1789858 6.4020576 5.245053 8.024037 1.2325529 8.742117 6.107488 -0.09009779
e_20_01HOOFD 4.398358 4.563062 8.751111 -1.1520004 0.9884517 -2.6580195 4.346455 -8.435563 5.4875674 -1.7433356 4.6842113 1.1699687 -3.3612955 4.271401 5.5625863 -6.763596
activityNameEN_entersenddateacknowledgement -11.066467 9.998335 7.843519 -9.468023 -6.238171 -2.706868 2.3136466 -3.1771944 1.8618165 0.04947918 -5.5398517 5.2903295 3.2766387 5.6435366 0.7806875 6.7433558
e_177_01BB -4.5356536 -5.1074176 -0.06496592 2.8904116 4.9385095 2.073701 -2.7422464 -2.0745883 -1.3046429 -0.10291994 -11.171419 1.6479975 -10.604906 2.0640392 -0.041773558 -4.2086115
action_code_01HOOFD0652 0.2714746 2.4075816 0.03337655 -7.811744 -4.921774 -0.17474772 4.0887775 11.068886 6.7728586 -0.7065171 -9.340624 11.282641 6.1573515 4.745756 0.9298157 3.1309714
e_7_08AWB45 8.332105 -1.1770455 3.127396 5.1804624 5.7043138 -0.6762608 0.61890155 -2.6887062 10.800893 3.6058397 3.5282598 3.8262115 -1.5234334 0.9740179 4.9040728 -6.1369395
e_107_04BPT 0.67908365 0.8324964 4.8907385 -3.581123 2.728551 2.817434 0.123776294 -4.7530603 4.4570484 5.2995086 7.139987 -3.9594104 3.028023 -10.632171 -3.1991508 -2.8682299
action_code_01HOOFD0302 -10.757663 9.926398 8.257456 -9.181091 -6.0101705 -2.7936857 2.4256005 -3.158681 1.7123636 0.15871392 -5.40638 4.8683558 3.5541039 6.172515 0.54577756 6.8508053
e_211_01BB 3.010589 -0.7118354 2.6844335 -0.9654755 0.9271602 6.703614 -3.2836664 -1.5610422 2.4725442 -4.9554005 -10.579185 -4.235537 -5.197609 -1.867725 -4.943198 -1.6428068
e_62_08AWB45 0.90353507 -7.306421 1.6553979 5.617232 4.3422103 -5.454565 1.7130893 -2.4655473 10.591361 -0.854853 -4.833668 1.4035497 -2.5750358 3.9193213 -1.9304546 1.6866434
org_resource_560458 -7.924081 -6.7030954 -2.2163951 2.6385407 -2.0687313 -4.2519526 -2.7242744 1.4629333 6.918334 0.92786086 -6.6594825 0.28210488 5.0531106 10.281582 -0.9176013 5.842185
e_200_01BB -4.641378 -0.7118305 -0.008095133 -0.51444024 1.4454561 6.840392 -1.7553022 1.0299726 -3.257884 -2.5361629 -10.928232 -5.682679 -4.4316096 1.5997938 -3.814941 -5.133186
e_0_01HOOFD 5.05459 0.7877832 5.4688435 0.23557876 1.1844773 3.0781598 -2.0072665 -7.974743 -2.54054 2.1585023 -4.157256 3.63434 0.701655 -2.617601 4.298029 -9.394002
e_62_01BB -3.7236319 -5.7982845 0.7711484 3.0211334 3.8508449 -1.1428471 -1.7333918 -2.2756758 4.0368595 -0.29352793 -12.124044 -3.3866348 -2.210795 3.4712749 -4.5053673 0.3679984
e_231_01BB -3.7430336 -1.5080137 2.049087 -3.4313252 4.9514575 2.7840128 -1.4480491 -2.0071526 4.2420793 -0.17105044 -8.961218 -6.97498 -6.6118164 -1.20012 -4.9121547 -5.073218
e_64_05EIND -2.8493106 -4.8032856 0.98423946 6.0631347 2.72266 0.42031398 -1.6540861 0.0013032693 8.048134 -3.9859579 -4.695809 -3.3427768 2.8161225 6.411316 6.160216 -2.1818993
e_215_01BB -4.7205195 -0.16096032 0.09353255 -1.3121953 1.1986474 6.2977962 -2.135463 0.9325527 -3.6016085 -2.51413 -11.097418 -5.4368854 -4.196744 1.1294001 -3.543713 -4.427142
e_206_01BB -2.237546 0.2686732 1.8459696 -1.9525181 5.4307714 3.6425905 -3.0374815 -0.67018324 2.4383466 -0.121313326 -9.837919 -4.090807 -6.9845543 -2.8636744 -5.620495 -5.7722707
e_204_01BB -1.9206979 -0.14528029 1.9603734 -2.005263 5.219948 3.2300808 -3.4645548 -0.8990381 2.229629 0.0652771 -10.436028 -3.7856345 -6.6036916 -2.4356458 -5.4009786 -4.710276
e_203_01BB -2.0423288 -0.05606572 1.5938073 -1.499651 5.286584 3.3879452 -2.6859376 -0.9583282 1.8734661 -0.20006175 -10.358013 -4.186389 -7.145232 -2.2367074 -5.240789 -5.3948617
e_116_01BB -2.7798414 -4.4703627 1.591529 1.1839759 4.987511 3.0535815 -0.25169575 -1.2620122 -4.4050283 -0.9274991 -8.23971 -1.3558012 -5.6601768 -6.3012853 -2.3280861 -1.0261827
e_67_08AWB45 3.949231 -4.708126 4.0618134 2.3517356 3.4340484 3.17685 5.2459936 -7.8074756 8.057148 6.0157247 -0.85235584 4.9116673 -3.3363922 -6.1449165 0.73176026 -1.7756761
e_47_05EIND 1.1895127 -0.8039153 6.044273 -0.4282023 5.640075 0.91400737 -0.10768152 -2.1337383 7.561827 -1.5562214 4.226039 -2.7757056 -1.3303437 0.2781078 8.801799 -6.8856034
e_217_01BB -4.9905972 -0.96193635 -0.18826114 -0.286194 1.467035 6.0489697 -2.683583 1.2196159 -3.3281758 -3.2536492 -11.047352 -5.1057587 -3.8942187 1.015881 -3.1708906 -4.7456684
org_resource_560922 -5.8588743 -5.3877783 1.5849135 1.3968109 -2.6919527 5.7897005 5.5076537 -5.6280465 3.1797962 7.2842116 -2.5317776 6.950094 0.4492734 -6.821095 -7.7066007 3.22317
e_228_01BB 0.6349482 -4.682554 0.78658986 -0.9229358 -0.18346754 6.966742 -1.55078 0.15342617 2.7141182 -4.893439 -7.8884616 -4.0095634 -4.836654 -1.5480676 -7.743803 -4.390665
e_3_08AWB45 5.3208084 -4.952025 7.805438 3.3413002 5.8782296 1.6756185 0.32550138 -0.82914084 7.0970488 -0.901951 -1.4848559 4.109109 -2.4041915 0.36282158 -1.374211 -5.937301
e_76_01BB -5.335754 -2.3520112 2.4938235 0.2523949 2.3145785 6.1963267 0.74375594 -3.6413326 -0.95801014 0.43343425 -8.6303425 -2.5634956 -2.7960563 -4.6046352 -1.9940485 -1.3622147
e_32_01BB -0.25302783 -3.9573958 4.0494018 -1.6803384 3.6024046 4.178708 -6.0765333 -4.598332 -2.7299578 2.0667665 -9.278956 -3.4978056 -0.6370304 -0.86211276 0.94153744 -4.903524
e_82_01BB -3.3057344 -2.003551 3.1002028 -0.9177157 3.1406014 5.626833 1.2136881 -3.7459373 -0.21818018 2.0175188 -8.222273 -2.5826783 -2.482886 -6.802296 -3.2206836 0.14106862
parts_Milieuvergunning 0.9453159 -1.7469827 3.531813 -7.230631 0.35409385 2.3765075 -0.16077499 -3.369322 2.5860858 10.265662 0.97991633 3.3611047 5.6071053 -11.87612 -2.1143384 3.6222231
e_1_08AWB45 6.6373982 -3.1656935 7.564856 3.9936006 5.651824 2.4101899 1.3617997 0.7230857 6.2641845 -1.117204 -1.934555 5.297956 -1.4059908 -0.5842575 -0.7009174 -4.614187
e_202_08AWB45 4.631415 -0.29297003 -0.13711661 -0.6711551 4.6183906 0.91949576 0.41063783 -3.396131 12.211694 3.3099134 -4.814524 0.6723515 -6.0997314 -4.0337377 -0.1715339 -3.6390488
Responsible_actor_560429 0.18813969 -10.569705 -2.9405386 -8.1400585 -7.909931 2.1678016 -2.3732455 6.2697616 2.85602 -7.6961093 0.14368716 -0.20717551 -2.870978 1.9174427 -8.005434 2.8753793
e_153_08AWB45 3.6606064 -2.083163 3.3095949 4.204944 6.763717 0.13746303 5.0526037 -2.3094697 6.178905 2.724454 -1.5109575 4.1881857 -3.5515962 -5.695442 3.4979455 0.04700498
e_6_01HOOFD 5.212159 0.89530796 2.1776028 -2.7556343 2.6927845 -0.8333299 2.7007086 -3.8966143 -0.9626372 3.0939145 -1.3861343 -1.8362275 -3.0838532 4.749743 9.440971 -5.164155
e_99_08AWB45 5.540161 -4.194198 4.5940213 8.818072 5.8739557 -0.8766246 2.472961 -2.3877294 4.0559573 -1.984396 -5.543327 4.3064866 0.34232345 -4.797794 0.91928595 2.0356119
e_36_08AWB45 10.068665 -5.3979287 6.2059503 2.0283804 3.250081 0.8747873 -2.3451557 -4.2307806 5.3464456 -1.7758039 2.0626676 2.3028853 -2.0078316 -2.1105313 1.8026122 -3.4076538
e_52_08AWB45 7.0709767 -3.6053326 4.8297324 2.7680125 6.249482 0.6900575 0.8468966 -3.995293 8.123185 3.482842 -2.0195034 2.9735413 -1.8261132 -1.2994547 5.467231 -3.2247713
e_207_08AWB45 7.938925 -0.1328109 4.4672804 0.8813349 2.3608305 4.3536563 1.7460762 -4.3295875 8.509599 -0.59313846 -6.7435064 1.8174756 -5.908435 -0.058160827 3.6121836 1.7744474
org_resource_560596 -7.505959 3.9865937 -5.2592354 -3.0392458 -5.9775248 1.9138318 -5.299338 6.8148828 -9.744027 -6.28073 -1.6110488 -6.7589216 0.73171556 6.318497 -1.7408506 -1.1527569
e_210_08AWB45 6.160928 -1.8946991 5.827383 1.802252 1.7686366 2.6769319 2.623818 -4.2661047 8.831657 -5.849299 -6.003798 1.662418 -7.3392196 -1.0893304 0.9429193 3.6218257
e_41_08AWB45 8.851662 -5.25564 7.4027996 1.9075091 3.7928867 1.9309332 0.2013314 -2.7844086 7.113689 -1.3469814 1.7721334 1.8651198 -1.6955364 -1.223191 -1.0372752 -4.1332793
activityNameEN_creatingenvironmentalpermitdecision 4.6532807 -0.32178366 0.32843718 -8.828945 -7.5627575 -0.57114017 -3.926437 4.1321483 -4.7065964 -3.4762135 0.70546925 15.710704 -2.555301 -4.6178546 -4.4418545 -3.4052663
e_168_01HOOFD 3.6874588 3.4846966 1.5531603 0.10125837 2.0205505 2.8502262 5.587109 -5.3405256 2.876545 5.438721 -1.0562724 0.7587981 2.5232596 -7.551386 1.7198579 -6.815958
e_56_01HOOFD 2.5340326 -1.4022505 4.545957 -2.7726836 3.846306 3.4524424 8.003847 0.63419425 -2.540026 3.9104626 -2.033627 -2.040841 -0.97869074 4.023654 2.3510816 -8.251417
e_37_06VD 9.330198 -7.258609 4.6146574 4.9911146 4.971412 2.4013407 -3.527116 0.18377748 -1.9589204 0.8080779 1.574194 -2.673327 0.26465753 2.545206 2.5745163 1.6438025
e_129_06VD 0.27635583 -1.877205 3.3290749 2.8465605 5.6260605 -0.7792111 1.5819598 -0.18386528 -1.4940746 1.5911638 -2.035043 -3.527469 -2.3231502 0.25722677 2.1322105 7.813565
e_210_05EIND 1.8681755 2.896077 4.252975 1.7881364 0.058365922 5.181645 -1.5460223 -0.33729616 5.333922 -7.398094 -3.8051863 -2.5172307 -5.0194316 1.5639375 1.846853 5.04396
e_17_05EIND 0.18112788 -0.09797383 0.91436625 3.2896206 4.6998677 -1.0855815 -8.814136 0.91922694 -1.3534623 1.4325674 3.9447873 -2.8824492 2.8822608 2.0379984 4.568738 -7.348882
e_73_05EIND -1.9639642 1.4014621 0.7496588 1.7383072 -0.33722004 9.040419 -0.5634659 0.21462117 1.6452338 0.68526065 -0.9310941 -1.8041393 2.244907 -6.792876 -1.8084975 0.2983445
e_185_06VD 6.4038053 5.1491904 -4.267667 5.4842153 2.1012394 5.026446 -1.6068039 4.018546 -2.2419238 5.208369 0.10280726 1.7440894 -4.3147664 0.5665399 -2.3256602 -1.5963677
e_31_01HOOFD 3.9924598 1.4129593 4.0908003 -2.1994286 1.4493505 -2.498773 5.880383 -6.069618 5.7810993 2.021695 3.7531235 -2.5938396 -0.2779809 4.439957 8.412907 -4.286873
e_75_06VD -0.9259607 -1.2092817 -5.01264 4.3785396 4.8356376 -0.25371066 1.909734 4.0918407 3.021775 1.8407915 -4.0012584 -3.5529 0.591086 -1.0138183 5.796303 2.9911373
e_38_05EIND 0.99073315 4.151027 6.8245254 -0.21755049 2.51639 7.4878755 -2.244221 2.3543763 -0.10871605 2.4836545 2.4559453 -4.1782446 2.3524628 4.334455 -1.4217504 -4.444608
e_26_06VD 4.6239753 -2.926395 -0.8361306 -1.3539826 2.2705898 2.4206793 -1.9945809 -0.52539414 1.4302377 3.9936903 -1.75487 -5.0703173 2.8900783 1.3357701 9.167816 0.579462
e_232_06VD -0.76816356 0.7110691 -4.7556043 -2.114589 4.0252953 -0.07296076 -1.9697986 0.5485074 7.270061 5.7990136 -2.1538665 -7.174411 -2.6545923 0.5730744 0.43362936 -2.065626
e_189_06VD 6.129479 4.2971835 -4.1832952 6.0357633 2.1421406 5.3440123 -1.0536897 4.552189 -2.6929295 4.2409086 0.11312662 1.5989883 -4.28693 0.76404816 -2.429436 -2.1698563
e_121_06VD 0.5421035 1.2279105 -1.9201233 3.1128747 4.9597335 0.20883036 1.1834191 2.4925268 1.8003601 4.0140123 -1.9377393 -2.9995332 0.53461885 -0.7060949 4.2223806 3.2877986
e_207_05EIND 4.8553824 4.271056 2.1013334 0.5660282 0.3231045 6.8903694 -2.1645122 -0.9707606 5.5743947 -0.9151223 -4.3011007 -1.7812598 -3.0057793 1.5714004 5.265941 3.16678
e_126_01HOOFD -2.419827 6.193692 7.346128 0.2268338 5.564934 -4.4822307 7.8546166 -4.765929 2.642711 -2.6517267 -0.70230234 -7.3718123 -2.9298556 2.2388897 2.1016545 -0.7273677
e_37_05EIND 5.876693 -5.7396684 6.2009735 5.1876845 4.1539426 4.360729 -5.461254 -0.55956465 0.050006058 -1.9177606 1.8980727 0.13420321 -0.32035246 0.99233884 4.1211724 -0.93899286
monitoringResource_1254625 2.2933683 5.8657928 -1.3542181 -12.37366 -7.4287806 -2.5267792 -3.6217637 7.505041 4.846115 -4.345908 -6.2553444 9.500216 -1.0623288 0.7212939 -4.747644 1.9049904
action_code_01HOOFD4901 4.1419854 -0.017434075 0.2041676 -8.696468 -7.384374 -0.17611237 -3.5499547 4.476562 -4.5054603 -3.5901847 1.0411191 15.341312 -2.373345 -5.1576524 -4.4593906 -3.696031
activityNameEN_setphasephasepermittingirrevocable -2.7068107 -13.40103 -4.88578 -10.820829 -1.0366515 -4.296427 -5.5669866 1.2589779 -5.738555 0.018476877 -6.0845766 -4.414531 -5.3173776 -0.4351865 -0.4228155 4.695288
e_44_06VD 8.071242 -0.4357756 2.7854364 -0.26689848 5.259736 1.1899619 -5.729387 1.6894044 -3.537923 2.980456 4.224194 -3.3272207 -1.5949944 0.4176689 2.304644 -2.7366817
e_130_01HOOFD 3.4708612 2.0297687 -1.4988054 3.444725 4.813837 -2.9502254 6.8497753 -1.4787158 -4.2679634 5.047831 -3.7240946 -1.2963606 1.2225349 -1.5079376 2.1915329 -4.6536956
e_166_04BPT -1.7409568 1.4794761 -1.3814054 -0.63334775 1.2542083 4.438085 -2.0647852 -4.941422 -5.399353 1.6940689 2.51366 -2.292533 -5.2564163 -10.852557 3.5850909 -0.7389659
action_code_01BB770 -2.5292315 -13.350112 -5.194285 -10.199498 -0.81035286 -3.94198 -5.308053 1.3544246 -6.0618825 -0.42363065 -5.952145 -4.896304 -5.3612313 -1.3596145 -0.3664549 4.7119107
e_210_06VD 4.8851695 1.580291 1.9637647 1.0818015 0.60061634 4.3144207 0.51095974 1.0334191 3.609738 -4.08916 -4.036899 -4.830385 -4.9845543 2.9877243 0.46864048 7.166831
e_53_01HOOFD 4.6829414 -2.4407952 2.8074858 -2.621202 3.0314636 1.6822624 3.6258512 -4.026992 -2.144899 3.701636 -1.2047539 -1.8696957 -1.1839244 0.6762587 8.340289 -5.71354
e_12_06VD 8.347039 -0.76404315 3.7134018 0.5332982 2.0021396 1.3452607 -1.5310482 -0.6752822 3.675503 1.07697 9.424401 -6.265867 0.80233395 2.7537093 0.8518743 -0.7155503
e_22_09AH -0.27778137 3.3164678 7.6992354 2.7329328 4.464943 -2.1424475 -2.5969298 -0.54419076 -0.632336 0.42416778 6.7734594 -3.480473 1.8349278 4.5307293 -3.2334323 -4.6160164
e_19_06VD 4.748435 3.2986932 -1.6540626 3.8247802 2.699105 -2.0497656 -5.7218 3.0739756 -3.247894 1.4131165 5.8665924 -5.9209037 4.1896544 5.1329036 3.776779 -3.6906555
e_188_06VD 4.8359876 4.6196704 -5.2112 7.7295284 2.3192608 3.1687205 -0.4288127 5.655949 -1.247858 4.5170355 2.1646328 1.7662653 -2.8406541 3.3430583 -1.9607208 -3.407951
e_42_06VD 3.1099608 -2.2273793 -1.7632971 0.26777157 2.1129706 1.6004941 -4.3927717 -1.2766724 -1.2939814 5.1089835 -3.290717 -5.289832 3.3147645 2.4650118 6.6341596 0.5547343
e_124_06VD 3.7309732 2.4520636 -2.6908972 4.080553 1.4811301 -1.520194 -1.2922828 2.122837 0.74365544 -2.212475 2.0704813 -4.0764027 0.68941104 -3.6816258 0.33861303 6.170193
e_118_06VD 2.1897838 -1.6757586 0.19955474 7.1082716 3.7325811 1.9672793 2.3764539 1.4286795 -3.8767421 0.8647237 -0.9060948 -1.8545871 -0.68909055 -1.2986404 1.437588 6.4807816
e_194_06VD 1.0643332 -2.407308 -3.3844452 4.842211 4.682906 1.4412696 -0.8537544 -0.0013484799 1.8257258 5.318526 -2.0050497 -1.305503 -7.122455 5.1663275 4.182269 0.8459775
e_163_06VD 3.8101702 4.962755 -2.3438902 4.874456 5.982627 -2.7153928 -3.0457027 1.1699343 -1.057039 2.2335188 -1.8761649 -2.398899 -0.8904478 -6.2361913 1.1600224 4.8121758
e_49_06VD 1.1566191 -0.5170552 0.26040295 1.8733824 4.7455215 3.5596743 2.4608085 4.785988 2.182093 6.4082217 -0.20137444 -4.0732045 2.668227 5.5514975 0.81439275 -4.169198
e_10_05EIND 5.983669 0.6705174 3.878368 0.42166355 0.2970182 2.929698 -3.9061365 -1.6280143 5.4567413 -1.376001 7.3862305 -3.563464 0.8548035 2.6309695 3.7824833 -2.990803
e_10_06VD 8.865466 -0.15732417 2.1223238 -0.38286242 0.94494224 1.4507248 -1.9218711 -0.2882006 3.3837633 1.3745449 7.475271 -5.3444657 0.7638593 3.7280803 3.045578 -0.39377794
e_35_01HOOFD 4.0720315 -1.041193 1.85317 -0.5806079 2.2326286 2.1526918 -0.19444257 -6.0024686 -3.362829 4.6356764 -2.4245114 -0.03141518 1.783803 -5.496997 4.78677 -5.452543
e_57_01HOOFD 4.3302803 -2.185084 1.1593887 -1.0936649 1.0456305 -0.21791394 -2.2707868 -5.2501106 -2.9411807 1.4051875 -2.235325 -3.658178 4.2527223 -1.1604141 7.506747 -5.0087123
e_213_06VD 6.673644 2.8059304 -1.3606691 -1.7318237 -0.345721 4.43654 -3.1710598 1.6096373 4.086693 -1.7069468 -2.451447 -6.9999084 -3.681568 0.5420546 -3.6773205 2.624379
e_68_06VD 1.8573626 -3.0387824 3.238204 0.23352669 2.054235 3.7943711 7.159415 2.134718 -0.49264953 -2.0899577 7.5509696 -5.1040735 -6.5718174 1.6702739 -0.69640476 2.2709432
e_173_06VD 3.0153265 -4.3241243 -9.462202 7.448594 -1.6730357 2.3165388 -1.511254 2.350243 0.66861534 4.483391 4.1774964 -1.76888 4.1770205 -0.33149794 -1.9428815 -2.6589816
e_23_01HOOFD 4.230658 0.42762625 2.9944386 -1.351384 3.9727955 -0.33088028 -0.59455425 -5.004503 -1.2037209 2.9755921 -1.8892825 -0.81576073 -2.072156 0.5887904 8.360399 -6.0805264
e_15_06VD -0.19986261 -1.340088 3.0047832 0.59146595 2.4178882 6.812443 0.3686908 1.1298816 -3.6490164 5.0654387 -1.2146063 -4.808511 2.1873467 3.2246475 0.87596804 -0.19292292
e_159_06VD 4.1536584 0.46424663 1.0758048 4.6967573 6.9000387 -3.4235668 -3.356886 4.25457 -1.0653535 1.2959107 -2.044872 -2.6467829 4.103781 -1.9919087 -1.5676651 1.4571074
e_38_06VD 4.3535295 2.1326692 5.08958 -0.7879399 3.0964134 5.57425 0.4332396 3.1096394 -1.9618069 5.171033 2.7128758 -6.038276 2.096221 5.1311054 -3.5217094 -1.9734786
e_54_01HOOFD 4.279284 -1.5558672 0.82797396 -1.696236 2.4884188 2.1757672 1.2914854 -5.3515663 -2.7038584 5.845071 -1.4726393 -0.075869225 1.0434465 -5.137844 5.506877 -7.2437334
e_34_06VD 3.4161716 5.026356 0.0042956513 3.2545888 2.1201372 -0.15820186 -2.8456342 4.747585 -1.3850152 2.2070365 6.390049 -6.290528 7.004853 4.935854 0.09618623 -4.0299983
e_73_06VD 0.63972336 -0.7919249 -1.0179673 0.8207714 0.02839242 7.658429 2.1119947 1.1575038 -0.43070084 3.5027103 -1.5174266 -3.382649 2.1723247 -5.6990023 -3.6007342 2.3696008
e_72_06VD -0.75767773 -1.5437034 0.49189073 3.9611735 4.8870997 0.4960918 5.8337326 3.9595487 2.0100846 1.4238403 1.9487214 -0.66925323 -4.478585 0.14723913 -2.8929632 2.3947854
e_140_06VD -1.3320862 0.36515543 -1.6653802 7.323824 5.208305 0.70371246 -0.6760612 4.94932 -3.0564184 0.32048127 -3.9251149 -3.3536954 3.6705027 -2.9046514 -1.5482461 1.8753467
e_44_05EIND 4.909025 1.0213999 4.366361 0.39241877 4.911313 2.2969854 -7.646018 0.7611598 -1.8064234 0.20785835 4.052999 -1.0912644 -1.9319301 -0.9009296 3.9683905 -4.7909245
e_212_05EIND -2.0072439 2.830451 -1.6344297 -0.2576281 4.486816 2.1040752 -5.260763 4.0487823 6.0607214 -1.303763 -1.5867856 -2.441037 -4.2915006 -3.9580483 -2.525693 -5.0455933
e_16_05EIND -2.7471385 -0.7257846 4.8365602 1.3476406 2.0966785 7.540857 -1.4769591 -0.20500603 -1.886516 3.2434185 -0.112891234 -2.8671288 2.604376 2.558121 2.378011 -2.7375038
e_201_06VD 6.4433846 2.169122 2.097475 1.6093901 1.3422087 1.1187061 0.23702583 -1.3407519 2.5542078 -1.507704 -4.720552 -3.9759026 -5.04358 4.101225 0.5192125 8.248494
e_25_05EIND 2.7973263 -2.0528934 4.6563883 2.0280964 5.0843377 -0.14443208 -7.7274036 0.13544734 0.5208878 -0.63925016 3.8929648 -0.6739934 -0.5920213 1.27672 4.299225 -3.9282832
e_39_01HOOFD 4.862755 2.2081687 2.8470542 2.1978297 3.410945 -2.954692 4.218486 -4.6134086 5.0347905 2.9226162 4.6964736 -1.2261604 -0.37671965 4.5248766 5.794893 -7.8582273
e_46_06VD 4.5715623 -4.698897 5.11662 0.460261 3.6097214 3.3072312 -2.080711 -0.0382768 0.7418357 4.1938024 2.9021091 -3.9353123 1.8331394 2.9313657 -2.1702807 -1.8788077
e_206_05EIND -1.3610754 4.6828732 -1.014952 -1.1870824 4.3520136 1.7922521 -5.2777123 1.7167642 5.6196823 0.5727652 -1.050106 -4.443216 -5.1577578 -2.2699323 -2.2750983 -4.390998
e_136_06VD -0.50194496 -0.90383977 -1.22105 0.81171674 0.7575588 3.1916 0.6771255 -1.8295978 -3.6759841 2.6560285 1.4292433 -4.3070035 -1.6661557 -2.8827238 2.5525382 4.1778965
e_43_05EIND -1.0012567 3.124144 1.9684322 2.7390423 4.0597796 0.9055341 -4.2540956 4.3756313 1.606072 0.8421605 6.1097302 -2.9278858 4.479379 1.5406343 0.6027982 -8.11288
e_146_05EIND -0.17757808 -0.68169737 1.6770942 7.8672266 2.4477282 1.4331818 -0.3982161 0.17532904 2.4982717 -4.3340106 -0.9201569 -0.13950437 0.506683 -3.3320746 1.6114058 5.120117
e_192_06VD 5.8875966 5.3858566 -4.066709 6.367926 2.1053383 4.880507 -1.3504964 4.2240644 -2.3162377 3.8470638 -0.25441843 1.1068532 -4.5094657 1.8403236 -2.1082692 -1.353029
e_137_06VD -0.56345224 -0.7806824 -1.6862379 0.9229991 1.1097136 3.1770427 1.2437705 -0.83399326 -4.298008 2.889146 1.0638674 -4.4849925 -1.2966124 -2.8040748 2.5559447 3.8065093
e_156_05EIND -2.9331527 0.76398224 0.9479304 0.7852497 0.22448906 5.223433 -1.1806175 -2.3681595 -2.0653062 0.076812975 1.6918541 -2.8530087 -0.7353877 -4.3882136 3.4444852 0.87690336
e_79_01HOOFD 1.3775297 0.9905541 -1.0349486 1.311878 4.403012 -2.5236518 7.000039 -1.7027183 -3.601279 3.6861243 -0.86653286 -1.8274735 -1.7889631 -1.6714028 3.427754 -4.395096
e_74_04BPT -0.94126433 -4.915874 -0.64503425 -2.0748916 1.9315207 5.756426 7.155649 2.781764 2.8368075 -1.2095426 5.948514 -2.179808 -4.1615105 -8.932559 1.4649187 -1.8897501
e_110_06VD -1.1101048 -1.9042268 -0.44651794 2.1830575 4.634338 -0.726757 2.6957948 4.083876 -3.570132 -0.3446559 5.525624 -3.8028352 -5.878767 0.7724562 0.34392187 1.2473143
e_189_05EIND 2.9871433 6.063005 -1.799377 6.1399007 1.856287 6.8653193 -3.5921872 3.7272081 -0.41853777 1.5078818 0.024269931 4.064906 -4.6441054 -0.5301209 -0.9096069 -4.26497
e_142_05EIND -3.255453 5.369323 1.5308509 4.7396836 4.4288573 1.153174 1.5623084 3.3614748 4.3277855 -2.755249 2.244806 -0.18351789 -3.980616 -1.9547035 0.41809487 0.85238284
e_11_05EIND 4.142205 2.032802 1.7196423 3.0769343 0.37110376 0.82629234 -4.2547317 1.9101287 4.2320604 -3.2852182 9.652264 -2.529 2.8862302 3.1023133 3.4644735 -5.555765
e_22_06VD 1.9621788 2.5739932 4.763011 0.95006937 5.5640683 -1.0537965 -1.7099391 3.0696676 0.05687851 2.5892673 6.8373494 -6.588733 2.254676 5.0914187 -0.16143991 -2.6749582
e_4_01HOOFD 5.1556582 0.9837311 1.1203378 -2.5136027 4.5996356 -2.9315193 -2.2699165 -2.4780703 -1.6236228 1.672856 -4.0120945 -2.4719126 -0.20055316 1.3186108 10.111465 -6.549521
e_141_06VD -1.084296 0.5315898 -0.8467636 3.1746612 0.99181706 4.9216204 2.9944894 -1.420732 0.96391237 5.25782 0.25135636 -2.6245575 1.0252631 -3.8272498 -1.6094767 3.9705179
e_13_06VD 7.5923696 -2.2882297 5.792992 1.4580971 2.3201776 3.1571841 0.5643929 1.3143822 3.7275007 1.0519166 6.1162753 -4.748218 3.2176456 2.864866 -3.1594374 -0.23521404
e_212_06VD 0.57943857 1.2729324 -3.8760502 -0.744062 4.6310678 0.616136 -2.8967533 5.0465083 4.335044 1.3346443 -1.6315932 -4.586144 -4.445788 -2.2206676 -4.289506 -3.3185644
e_12_05EIND 5.83516 1.0514344 5.640456 0.8688937 1.1159424 2.7105663 -3.147085 -1.7281461 5.758948 -1.7849048 9.0928545 -4.316622 1.2871356 1.6250455 2.1819673 -2.5954673
e_193_05EIND -0.9976445 2.3494408 -3.0442407 4.016839 -2.7706993 7.1578836 -2.9882061 -3.9566762 0.9277618 3.395526 2.393784 -1.5352216 -2.9903324 2.8584478 2.3776848 -1.8024391
e_183_05EIND -1.2272832 1.8145312 -3.095311 3.528435 -2.9672523 6.904299 -3.0824885 -4.236861 0.93764013 3.6249998 2.2069573 -1.6028286 -3.0166504 3.32852 2.1991377 -2.1982524
e_154_01HOOFD 1.44047 2.4309664 0.9504356 1.9109995 3.302587 0.97862303 6.674058 -3.8152924 1.4111676 3.7457213 -1.7524834 0.49467453 0.023479695 -4.9815884 2.05042 -5.279688
e_204_05EIND -1.3960171 4.28682 -0.36372083 -1.581463 4.426064 1.70336 -5.827124 1.5219803 5.670643 0.004104687 -1.3993852 -4.1376157 -5.511736 -1.8604765 -2.204872 -4.903905
e_214_06VD 9.595513 2.8773663 0.6110192 -1.2810779 -0.539581 3.9459634 -2.2005072 2.6935582 2.8307915 -2.761207 -0.963528 -5.8050117 0.106716916 0.36348373 -2.2822974 2.575004
e_76_05EIND -5.4589286 -0.69263417 0.8740774 2.969245 0.47175503 5.846705 -0.3326612 -2.7485158 1.4036272 1.4112155 0.0826574 -0.97963136 -0.55700463 -3.550319 0.55479556 0.38559884
e_166_06VD 0.17444807 0.6170231 -1.6974449 1.3276974 1.6635324 3.604348 -1.216363 -2.1497588 -5.4266663 2.1020226 1.5208052 -3.7176507 -2.7331133 -6.1080694 4.4282565 3.6162913
e_97_06VD -0.99891 -0.6351041 2.2176485 3.1922798 5.895175 -2.690092 2.8768668 0.21200417 0.0551148 3.5030396 4.3666406 -5.26357 0.6729999 -0.68835145 0.9652771 4.5787563
e_141_05EIND -3.71063 1.4195275 0.91340864 3.7308848 0.6722484 6.166518 0.76939476 -2.256391 2.873352 2.9054813 0.47635126 -0.8346075 1.3456236 -4.5861645 0.39655071 1.9450624
e_139_06VD 4.5174384 1.6109679 1.5100932 4.230461 6.9886785 -2.1586082 -1.9095802 5.541915 -2.2334225 0.83559984 -3.1384892 -3.5610485 3.5853405 -1.5374764 -2.4471145 1.6989782
e_21_01HOOFD 5.1723247 1.2975807 5.523632 -1.1136228 2.0537326 -2.543165 5.7770967 -7.397927 4.6402264 1.5078373 1.0381851 -2.3643925 -1.8622158 4.9874406 7.618038 -1.9197096
e_93_05EIND -4.388532 -0.017496042 -0.022702057 3.0319364 1.0303289 -0.57509756 -3.287143 -2.8212988 3.1523187 -3.0402567 2.487447 -3.6832602 -0.52046746 -2.6860437 4.4199266 3.4739723
e_120_06VD 0.37956083 2.727876 -2.1522624 5.0325904 4.9420695 -2.0805748 -0.61321265 2.308519 -0.94079137 0.9083213 -0.65356433 -3.0252798 -2.1848507 -2.1619225 0.81759936 5.130812
e_116_06VD 0.11796247 -1.9512143 -1.5960622 3.8182712 4.9703064 0.4530278 0.70273 2.9374979 -4.799159 2.1390908 -0.936164 -1.8587476 -2.0075939 -4.2661667 -0.7732178 2.9918082
e_76_06VD -3.0561597 -2.9227538 -0.76670223 2.3435254 0.8617155 4.8698864 1.7647609 -1.4941564 -0.43574065 3.946934 -0.27835464 -2.4867272 -0.04024374 -2.9040508 -0.93864566 2.638535
e_62_05EIND -3.175694 -3.218593 -0.28137973 6.410358 2.9689026 -1.9630904 -2.94203 0.18381621 8.208988 -1.4319552 -2.7202682 -2.9530194 0.39097607 5.0752373 -0.56259316 2.1997788
e_40_01HOOFD 4.4655356 -0.6330409 2.1039581 2.3002322 2.2912827 0.77365327 -0.39867926 -7.580659 1.1323291 5.277812 -3.9356053 -1.049978 3.2465775 0.44412982 4.2013135 -6.6284647
e_95_01HOOFD 1.044192 0.5001449 -2.7610343 0.56836635 1.9598019 -1.1754583 7.2533855 -3.195238 -4.4467487 3.9717505 -0.9642435 -3.391163 -0.82996833 -1.8233373 3.9204276 -3.4670453
e_208_05EIND -3.8937695 2.1522233 -2.90742 0.97812194 4.805508 0.47243848 -5.969704 0.81797606 5.278806 1.3396673 -0.6871526 -2.28974 -6.7107196 -1.4168673 -0.55305886 -5.840083
e_109_06VD -1.132857 0.6654134 -1.0111734 5.096585 5.57861 -0.4062388 0.08403192 2.8881924 -3.0443528 1.0590252 -0.2426639 -2.4872456 -1.2322377 -2.8246253 1.9804218 3.239934
e_48_05EIND 3.855269 -0.9961789 7.4974504 1.8765298 4.627933 4.9654307 -2.2077565 2.9969773 2.1487339 -1.358483 1.529924 -0.7368971 1.1293194 0.87620723 -0.11736116 -3.8745985
e_194_05EIND -1.5963207 -1.1734664 -1.6778702 5.610475 4.1308637 3.002912 -3.1239088 -1.0287896 4.316189 3.0993893 -2.3584826 1.4273852 -7.0535917 3.920569 5.448249 -1.0474977
e_78_01HOOFD 1.3887793 1.6210034 -1.2482375 1.577674 4.4617834 -2.2294528 9.000443 -0.36185536 -2.2979772 2.5473602 -0.14133047 -1.2925799 -3.505094 -0.47076395 3.2914991 -5.2316885
e_106_06VD -1.88374 -0.5600066 -1.3315892 2.7799985 0.63116336 3.307936 1.2813773 -0.17775185 -2.695198 1.685861 1.6948678 -4.995167 0.69322693 -0.9226371 2.9706738 4.5531926
e_29_05EIND 0.39788026 -2.3884597 6.119069 3.547836 5.7060056 3.199982 -4.258056 3.1781967 2.5248878 -0.11934285 2.4610634 -0.41926172 1.9655282 1.6747504 -0.22533736 -6.179423
activityNameEN_enterdateterminationrequestreceived -6.137325 -1.2553209 0.24392532 -5.2181334 0.9717721 0.44292676 -5.41956 4.996315 9.008082 1.8446296 -3.2883012 3.4583094 3.8092449 3.3557796 12.033178 0.7111349
e_169_06VD 5.8019123 -3.9070148 -9.250932 7.2504463 -2.453421 2.1178212 -2.8776093 2.6127243 1.487773 1.5004098 4.90035 -2.5814476 3.0601654 -0.3007713 -2.623938 -1.6611824
e_55_01HOOFD 1.4156556 -1.5104375 1.451294 1.657935 4.0614557 1.146438 6.3397126 0.18464229 -0.8976113 5.25937 0.78279036 -1.2047908 1.9879318 2.3105361 0.6795178 -10.079252
e_114_04BPT -2.7993047 -0.8070589 1.2681408 -0.96917915 1.5782162 5.4582133 4.683194 1.2037183 -1.0435632 -0.7422397 8.08964 -0.9983847 -8.221237 -5.614728 -3.7150836 -4.287223
e_43_06VD 1.7036929 1.0171776 0.010493333 2.9280105 4.9426136 -0.8559042 -1.6284283 5.527922 -0.52376205 3.201041 6.2003784 -5.1324615 4.5221505 2.853542 -1.0053946 -6.003221
e_207_06VD 7.28835 3.3995702 0.08524153 0.15343694 0.5005042 5.457028 0.19991882 0.18021916 3.8770998 1.3343728 -5.439256 -4.010739 -2.7239504 3.2612486 3.7374284 5.8259864
e_71_06VD 0.3644323 1.488138 3.8317227 0.89637434 7.4672813 -1.621576 1.6088585 1.2431493 -0.49576667 3.656411 2.9671476 -4.351636 -1.1650608 -3.3357294 1.2373229 5.0485525
e_24_05EIND 6.522092 -0.086774655 4.2355494 0.84574264 1.4588892 2.9661384 -6.995829 -0.49714 1.7548516 -1.8856357 5.879139 -3.598139 1.8834358 0.47678795 2.8157647 -3.115688
e_181_05EIND -1.7894187 1.6382787 -2.633088 5.415387 -2.7841644 6.8170447 -2.5307994 -5.6530194 4.6302133 3.9464931 0.22280905 0.23483756 -1.6364554 1.7024449 0.51631624 -1.8040524
e_177_05EIND -4.594206 -1.6262045 -1.7117345 6.2267036 3.7108011 1.4487584 -4.6127615 -0.6732782 2.2594292 -0.4002575 -1.7751087 2.4246855 -9.138512 4.400436 4.245398 -3.3452604
e_92_06VD -2.6538281 3.2703502 2.205847 2.9197474 4.7653065 0.7343897 0.58700854 0.9648951 -1.7063854 1.1695056 0.6378879 -5.1485467 -1.2340138 1.0618042 3.4894712 4.3789186
e_171_06VD 6.9151807 -3.7784157 -8.576936 5.6700716 -3.1457489 2.5966716 -3.435085 0.5066788 0.68752784 1.260692 1.9686285 -1.5126395 1.1424612 -1.76807 -2.3769567 -0.04174496
e_230_01HOOFD 0.9992385 -0.30821434 -4.464057 1.4181119 1.6525632 -0.78336257 1.842554 -1.1151662 0.013071092 -1.8658941 -6.5077386 -2.8242636 -2.0659366 0.1586582 5.278153 -6.624997
e_105_01HOOFD 1.9937273 -3.7044587 -0.019074384 -1.1835128 0.24109392 1.2291597 7.202039 -4.212211 -2.2674456 -2.965838 0.5276216 -2.4797518 -3.9773457 -4.3281994 6.077469 -3.050854
e_219_06VD 6.280609 4.318788 1.1212214 1.1890855 2.2611625 1.0460618 -1.6005546 0.7791476 1.7433716 -1.3709853 -3.6371324 -4.1928773 -5.413894 3.332128 -0.10863576 6.0996113
e_9_06VD 6.7255616 -1.128595 4.530753 1.2293426 2.0888193 3.2702928 -0.87329304 0.7550984 2.5998209 1.1300212 8.048306 -6.4468336 2.7853913 3.0623183 -0.76767105 -1.6687832
e_211_06VD 6.920048 2.608188 0.22705035 -0.5935333 -1.0711381 5.101076 -2.6965227 1.4295821 3.0629864 -3.598814 -2.9571254 -5.822292 -3.295216 1.6131868 -2.5518203 3.7958145
e_48_06VD 6.9789743 -2.0963988 5.2801185 1.6154265 5.251594 3.7462866 -0.65858704 4.238386 0.42543972 1.4754685 1.9459933 -2.670773 0.5113451 1.943952 -2.1122067 -1.7944068
e_4_06VD 5.7127647 -0.95173854 -0.160976 -3.1086931 6.1503882 -4.1502213 -3.3043268 2.5004897 -0.47240713 0.015330846 1.7722198 -5.100557 -2.3304684 2.8514607 11.752 -3.7034159
e_142_06VD -0.46932003 3.8919797 0.6912437 4.3523273 5.1493826 0.09367869 2.9108515 4.031818 2.531289 -0.5627852 2.7411723 -2.1876342 -4.284918 -1.0869803 -1.4172007 2.9650316
e_184_06VD 0.7723873 0.30871502 -5.032019 4.370501 -2.3475235 5.6190453 -0.585539 -2.9455233 -1.0014449 5.287839 1.168478 -3.7945838 -2.4280126 4.7235703 1.1342574 0.6023877
e_193_06VD 1.2895545 1.2537895 -4.7908106 3.2930956 -2.4581275 5.8609657 -0.9651528 -3.1305285 -1.2529483 6.054382 1.9013506 -3.3945618 -3.2220078 4.0708337 0.6161205 0.53851044
e_60_05EIND -5.673547 -1.7277389 -0.6968036 4.541288 -0.27433115 0.73570377 -3.2751153 -1.6918858 5.674072 -0.46652165 -2.6370072 -3.7068377 2.1656928 5.130739 0.46691826 2.0787816
e_187_05EIND -1.645436 2.1119251 -2.302291 6.575936 -2.4084148 8.274527 -1.7162273 -4.829816 4.0690994 3.9928675 0.050685324 -0.05666134 -1.2152895 2.0190148 1.0394931 -1.655667
e_164_01HOOFD 0.818486 1.2757878 -0.6528351 2.194967 3.8938515 -1.5893371 6.481806 -2.5509834 -1.8519666 3.7818258 -0.086875 -0.7106005 -1.3924055 -2.696472 3.4802115 -3.5956326
e_182_06VD 6.6119056 -5.6633544 -7.8168783 6.4344516 -2.181397 2.8655763 -3.2669454 1.2154789 2.1871371 0.54452217 1.6998342 -1.0517188 0.815284 -1.5753076 -1.7115756 1.0717552
e_9_05EIND 4.315764 0.37720248 6.736397 1.4134998 1.3513292 4.082289 -3.2238612 -0.72891957 4.4890175 -2.1061046 7.5278945 -4.009779 2.8161664 1.2056786 0.5775586 -3.1443174
e_25_06VD 5.3604903 -3.5163434 2.5713587 1.5875975 5.8788095 -2.025446 -5.6972003 1.7872921 -1.2470367 1.7128868 3.9642413 -2.6789548 -0.86116105 2.4960167 2.633278 -2.0710008
e_166_05EIND -2.515325 2.2858682 0.2534828 2.0172687 1.2523609 4.7682667 -3.2493293 -3.4619892 -2.609392 -0.017481994 1.8393273 -1.6554959 -2.663034 -6.9830327 5.2238607 1.1215675
e_179_06VD 0.25523424 0.119871266 -5.160994 4.3399606 -2.1878529 5.506263 -1.1044612 -3.0373182 -0.80601627 5.0082216 0.68456817 -3.0906713 -2.689893 3.89238 1.5852108 0.52314454
e_2_06VD 7.819173 -0.5913497 3.7064626 0.34921527 1.5131623 2.7887201 -1.8096366 2.2553291 1.0011634 0.5792069 5.5240526 -5.281846 3.096773 2.8566103 -1.6324307 -1.0837084
e_160_05EIND -3.8026664 2.125886 -1.1429274 3.8604746 -0.06459873 0.055630445 -2.558599 -3.4746158 3.6979406 -1.3146565 2.5893784 -2.661968 -0.7841453 -1.6145217 4.4883885 3.7757208
e_24_06VD 9.141307 -1.9909928 2.4699085 0.37779173 2.137585 1.5456492 -4.6871076 0.4803835 -0.23256755 0.7192524 6.0467486 -5.447162 1.8190085 1.3054011 0.9900847 -1.431637
e_30_01HOOFD 0.60600406 2.2041552 6.746476 -2.0997374 3.8295703 0.14147136 2.9948921 -5.4025717 2.2619278 1.4577427 -4.0540085 -6.4349523 1.5934747 4.4167123 5.4372854 -4.710122
e_167_01HOOFD 2.8094585 1.9486407 -0.18377277 1.0548284 0.1577516 2.9358673 7.2787027 -2.312672 4.3798857 0.19288749 -0.08806026 -2.735325 -0.017290568 -1.8813124 1.8445785 -3.043346
e_116_05EIND -2.526358 -0.9447425 -0.409849 4.628282 4.8951 1.2330756 -2.0773807 2.2769408 -2.4588385 -0.564957 -1.1362133 0.5655001 -2.2796433 -5.705119 1.1594028 0.76418066
e_66_08AWB45 1.347169 -5.7111998 4.59275 3.323898 1.4112309 2.4815762 5.7199802 -9.577493 7.9012017 4.8992767 0.16665877 3.2259107 -2.6605468 -3.595807 -1.6068085 0.55378264
e_203_05EIND -2.1033492 4.4131527 -0.77390265 -1.3511696 3.8738883 1.4538633 -5.4233356 1.4900653 5.020955 0.06544979 -1.3703805 -3.9933393 -5.1002207 -1.5928081 -1.9607141 -4.5751934
e_206_06VD 0.8456815 3.0535479 -3.045906 -2.1164482 4.4963174 0.3324201 -3.250201 2.7297697 3.457573 3.3614576 -1.2644887 -6.399434 -4.972933 -0.9664534 -3.9076183 -1.9903804
e_101_05EIND -4.19391 -0.825798 3.2005026 6.8141656 1.9755158 4.9519677 3.1647675 1.5865012 1.6695484 -4.608751 2.3904624 0.24658006 -2.3871393 0.7619342 2.5675426 0.2838104
e_181_09AH -1.4566083 1.4417806 -1.708323 6.608909 -2.8726864 3.7526379 -2.0710177 -7.9897847 1.6061426 4.5786285 0.6331403 0.68985265 -2.669466 2.9372025 -3.2842 -1.1463437
e_201_05EIND 3.5161872 3.9001713 4.1140666 1.7958537 0.53890646 2.6274226 -2.6656623 -2.4663184 4.304127 -4.7559137 -4.208416 -2.255446 -5.022455 2.7893045 2.3610144 5.9383287
e_91_06VD -0.13544266 1.2874227 -1.1869483 2.6799557 1.312427 -1.8677037 1.2015862 -3.83069 2.865052 2.2051513 5.0659103 -6.3692875 -0.1300591 -1.0076385 2.8542755 5.7806683
e_190_06VD 1.7411145 0.64661545 -4.7189755 3.5087836 -2.3233795 6.2566805 -0.47127056 -3.3373 -0.6314594 6.1219387 1.543568 -4.058163 -3.0196402 3.9288354 -0.100668 0.294035
e_58_01HOOFD 2.480223 -0.7349863 1.814578 -1.6471157 1.9920926 -1.209312 -0.32145143 -7.251209 -1.1048682 4.3566236 -1.9357646 -4.9118056 2.7597842 1.5603533 7.8392057 -4.7837176
e_156_06VD -0.8265174 -1.0268172 -1.228839 0.39684802 0.41226447 3.9999924 1.4198344 -1.5835842 -3.702807 2.4296412 1.3274423 -4.8384857 -1.2968751 -3.0534658 1.9573523 3.3747547
e_33_06VD -2.1822371 -5.431836 -1.1937863 3.3497777 4.6081576 4.679227 4.7994313 4.960776 -0.2087797 7.839035 3.645831 -3.7998013 3.5037975 3.1825318 -0.20121183 -6.2268977
e_182_05EIND 3.2368402 -3.3987563 -6.3207564 6.850012 -3.603049 4.8866305 -5.4494085 0.5799129 3.9274406 -2.9426029 1.9742702 0.99279135 1.278551 -2.8980064 0.10243549 -1.0373739
e_175_06VD 1.4115069 1.8511764 -5.843966 5.0881 -2.2564502 3.0094445 -0.9539241 -4.312389 0.8988806 5.340267 2.7322536 -3.1472082 -3.0108826 4.9180417 2.5204077 0.92914104
e_170_06VD 6.0969477 -3.576306 -8.903565 6.9121356 -2.379806 2.0698202 -2.9483368 2.2396896 1.0974416 1.658836 3.9745414 -2.7169628 3.0607243 0.07347554 -2.5175629 -1.7163901
e_172_06VD 1.122379 0.8533339 -6.659663 6.2811337 -1.728339 1.8112829 -0.8138723 -2.9844837 1.1314762 5.8693776 5.194549 -2.9424582 -1.2617885 4.9491577 2.050397 -0.6233827
e_174_09AH 3.1403706 4.195402 -2.1047943 9.659793 1.7441766 0.55825144 -1.8291335 1.0144666 -2.0438685 2.906453 2.3950963 3.9793565 -3.2201085 3.0345197 -6.2334824 -4.9365344
e_187_06VD 1.269369 0.7068716 -4.453316 5.78487 -2.5597107 6.773666 0.66907215 -3.7530365 2.320773 6.2130346 0.6145737 -1.8645527 -1.358586 3.2535589 -0.65898275 0.58569837
e_90_01HOOFD 1.287715 1.7684141 -1.3337282 1.1282053 4.4544244 -2.7647915 7.5047393 -1.583308 -3.098145 3.9176357 -0.7215933 -1.4548455 -2.095198 -2.154924 3.5447617 -4.2942677
e_227_06VD 5.2194986 4.3183255 1.6370245 -0.5786468 2.5379965 4.166096 -2.521639 2.457789 0.86061376 -1.1588778 -5.2142158 -4.6831203 -5.8016844 3.7424383 -0.26861358 3.0895715
e_190_05EIND -0.5210281 1.9409575 -3.0439405 4.095934 -2.3255932 7.11541 -2.821326 -3.95557 1.2552096 3.6495693 1.4923105 -2.0156581 -2.5714052 2.8249648 2.110254 -1.9612013
