29 16
01_HOOFD 0.00905723 0.021714991 0.026882298 0.019261945 -0.0072259293 0.0031732733 0.004597907 -0.0055898037 0.024180062 -0.007958884 -0.03046617 -0.030210795 0.001942306 -0.027798919 0.029263249 -0.027388338
08_AWB45 0.009840408 0.014565657 0.030683633 0.024060216 0.006805271 -0.015089088 -0.017606016 -0.027686693 -0.016100965 0.011856033 -0.009619138 0.003993799 -0.025414692 -0.0011143581 -0.023764314 -0.029787246
ArtificialStartTask 0.008902791 0.022100117 -0.010461498 -0.020503644 0.02443306 -0.012417128 0.0045303935 -0.016843505 -0.028167557 -0.00045388675 0.030253999 0.0051738094 0.017381176 0.001556573 0.0008328701 0.028254094
ArtificialEndTask -0.028950876 -0.00994289 -0.0057524904 0.022138514 0.019682802 0.0074024564 0.02265156 -0.019456254 -0.023794338 0.021606218 -0.018302444 0.0022429645 0.0031140212 -0.027037535 -0.02522154 0.029597506
09_AH -0.019679686 -0.004606237 -0.011188301 0.009091633 0.0065841335 -0.012411466 -0.0053596334 -0.030018155 -0.01166092 -0.008102231 -0.014341608 -0.023434468 -0.013827173 0.027568113 -0.00051348493 0.01618275
04_BPT 0.018182082 -0.0040468867 -0.0057057673 0.02285393 0.028732685 -0.009322831 -0.027607784 0.017595727 0.011472996 0.015588514 0.002194867 0.014654472 0.011557912 -0.01632419 0.017154206 0.004056712
01_BB 0.014474872 0.0221264 0.029962882 0.0041372133 -0.011785897 -0.012772268 0.013024604 -0.009740287 0.016943535 -0.00953801 0.019106038 0.0023837967 0.010761476 0.029149933 0.028792042 -0.026051093
02_DRZ 0.014426213 0.021839345 0.0016676545 0.003984251 -0.00627219 0.010109772 -0.0029665455 0.004719479 0.016081316 -0.01405742 0.008035971 0.009260447 -0.027140737 -0.01352679 -0.019350516 0.015417024
11_AH -0.009402688 0.0013564129 0.02403717 0.0064388127 0.021369394 -0.011824924 0.019762112 0.020559832 -0.0021458725 -0.025867263 0.0215965 0.025214521 -0.022807188 -0.012796975 -0.026120214 -0.029634396
05_EIND -0.016883982 -0.007070024 0.030399816 0.026629047 0.010958196 -0.022849582 0.017621648 -0.012398558 -0.011246099 0.021635236 0.021326553 -0.020279909 -0.02638172 -0.007820415 -0.0169421 -0.016651176
03_GBH 0.008808193 -0.0023731457 -0.0040353527 0.0019087666 0.012951116 0.0032993187 -0.008313243 0.019510595 0.020489044 -0.011229091 0.022563197 0.004638474 -0.01748862 0.008423905 0.012103035 0.013801512
06_VD 0.024736747 -0.013126954 -0.024679745 -0.0061260425 -0.03115586 -0.010168412 0.0003357809 0.016505335 0.023685226 -0.0294881 0.009146959 0.023502318 0.014928712 0.009762335 -0.01165004 -0.014694432
13_CRD 0.02007237 -0.011189298 -0.02242747 0.013312829 -0.009719167 -0.01655362 -0.030326378 0.027376115 -0.0016511915 -0.017603157 0.027535915 -0.007221593 -0.022447856 0.019332444 0.007371722 -0.011031451
10_UOV -0.026604936 -0.011216646 0.021203758 0.0010024537 -0.025543194 0.0125294905 0.00053667877 -0.0037704764 0.022544827 -0.010317632 -0.009267975 -0.021614427 0.031185132 -0.01097288 -0.011019008 0.029345505
14_VRIJ -0.023491275 -0.019016061 0.020256426 0.015920151 -0.003910248 0.004157477 0.0038098781 -0.0020783092 0.006342358 -0.015551122 -0.025550557 -0.017823895 0.029645741 -0.015373593 -0.025953904 -0.009939971
16_LGSV 0.01036423 0.0015982265 0.026415154 -0.028660359 -0.022897225 -0.016948268 3.2716944e-05 -0.00016568173 -0.02696963 0.008300025 -0.03070341 0.019274453 -0.020391738 0.0051149684 0.001423846 5.9284666e-05
07_OPS -0.0118467435 0.011195809 -0.011946052 0.013679441 0.002580308 0.0013382706 0.005498927 0.013611888 -0.008060161 -0.0030733175 0.025234867 -0.028749414 0.015724856 -0.028405473 0.010725194 -0.02874751
16_LGSD -0.028165435 0.0024042518 -0.01440916 -0.023356626 0.018125808 0.026128076 0.029683633 -0.028585475 0.017834863 -0.01843125 0.01466784 0.00032890897 -0.0038735538 0.0074843206 -0.020063037 -0.017402088
09_AWB45 0.017892826 -0.031179467 0.021462096 0.015582246 0.011018931 0.02133448 -0.029138327 -0.0012138592 -0.0006906807 0.008790483 0.012627546 -0.013880711 0.02687111 -0.029739304 -0.009820401 0.0054639904
15_NGV -0.004099441 0.0061419 -0.026184753 0.025939645 -0.027830336 0.009382416 -0.0010709596 0.023220887 -0.0023495902 -0.012871636 -0.028329387 0.01236032 -0.019954916 0.0062254635 -0.01622079 0.01758938
12_AP -0.025025258 -0.024836103 0.007655733 -0.009834684 -0.014161687 0.005631231 -0.02686928 -0.008421502 -0.014327714 -0.008200904 0.0009067206 -0.0018086559 -0.02421334 0.01091136 0.030792858 -0.0065129157
01_OLO 0.002280249 0.010181707 0.025310326 0.027703313 -0.02584537 0.020105945 0.022795858 0.025598688 0.012032531 0.023058206 -0.0022026547 -0.021538358 -0.017476197 0.008092688 -0.00076433644 0.030872704
99_NOCODE 0.024044564 0.004562062 -0.012798343 0.029974833 -0.00568228 -0.01942289 0.015237013 -0.0071031763 -0.008645889 0.019478858 0.024049012 0.010617545 -0.013126511 -0.009385855 -0.008385537 -0.021284867
03_VD 0.0241057 0.009342024 0.027566655 -0.01417975 0.009833416 -0.009513168 0.018837074 -8.972938e-05 0.023743607 -0.012726669 -0.01930825 -0.0060574356 -0.012305001 0.022254145 0.020823315 0.0009667157
08_OLO 0.016321734 0.0071262512 -0.019050708 -0.0050001983 0.027234813 -0.0068817507 -0.030779494 0.011263592 -5.057081e-05 0.029211165 -0.0039192936 0.026927654 -0.014869391 -0.026338516 -0.02673841 0.029364957
10_OLO 0.016070707 -0.007488927 0.018628139 -0.015929854 0.00287587 -0.014801295 0.020398635 0.00609687 0.007049008 -0.008114948 -0.028673068 -0.0002753691 0.0035434158 -0.018284004 0.021013904 -0.013287827
11_OLO 0.016121391 0.0089025 0.0021116363 0.0065583903 -0.024814123 -0.013784597 0.0065567396 -0.0065561794 0.002214948 -0.025246555 0.008641558 0.020592172 0.025566572 0.012217673 0.0021779155 -0.023397107
06_OLO 0.030975955 0.010658754 0.02213341 -0.013961765 -0.03016419 0.028407993 -0.0069041695 -0.007586397 -0.019854065 0.021290783 -0.010077621 0.0016387657 -0.010235981 -0.010194502 -0.008105961 -0.030572608
02_OLO 0.026400186 -0.010592269 -0.020783912 -0.00957556 0.004843204 0.009330426 -0.024443591 0.005514806 -0.02900208 -0.010270281 -0.019530728 0.0038939957 -0.026061477 -0.023952445 -0.013133757 0.024817374
