54 16
Activity -0.017402684 -0.006198652 -0.025617654 0.0153699145 -0.019704415 -0.018756798 -0.012342698 0.0120602 0.02467422 -0.019320354 0.021190533 -0.025167093 -0.030306479 0.0062929345 -0.004849501 -0.017543597
DATABASED%GWC%2 0.008894086 0.026878355 -0.003845778 -0.01576018 0.028543042 -0.018625692 0.0015928763 -0.008588674 -0.030006634 0.0042614057 0.015943365 0.0055204993 -0.0033429884 0.011331521 0.014375812 -0.003957486
DATABASED%GWC%0 -0.0012999959 -0.02675776 0.029350406 -0.020768413 0.01882392 -0.027275208 -0.02129359 0.016782723 0.0109379105 -0.028866112 0.008912802 0.0028302558 -0.021098008 -0.006440718 -0.019333944 0.010629369
DATABASED%GWC%3 0.024939882 -0.018863635 0.01981367 0.0031104626 -0.029002184 0.018429482 0.01638717 0.011608436 -0.015212672 -0.026206052 0.020750348 -0.00046086227 -0.0011235924 -0.0034112718 -0.020071317 -0.013568666
DATABASED%GWC%1 -0.023961172 0.0016866697 0.014375688 -0.018702658 -0.028630255 -0.0106678 -0.007937771 -0.013427124 0.010977403 -0.0069171456 -0.020353485 0.02867969 0.019478794 -0.011795955 0.018604109 -0.012760075
DATABASED%GWC%5 -0.0038112958 -0.016014395 0.010627097 -0.0132557275 -0.031058261 0.030684596 0.0039766426 0.027123138 -0.019287774 -0.01408157 -0.013346124 0.027998537 0.011865857 -0.016992748 -0.017816845 0.025232062
DATABASED%GWC%4 0.00549619 0.015760675 0.00082326686 -0.029546883 0.011748032 0.012510376 -0.018372066 0.017906565 -0.022273812 -0.021527052 -0.025161356 -0.0061179046 -0.01435255 0.028531332 -0.026981473 -0.022688987
DATABASED%GWC%7 0.013492012 0.029159438 -0.018974245 -0.029514387 -0.012774424 0.0020833493 0.024927648 -0.023574809 0.027042408 -0.011973697 -0.008359286 -0.030454354 0.019573973 -0.031098168 0.025733253 -0.024531243
DATABASED%GWC%6 0.018059874 -0.0074632224 0.0043460587 0.009834749 -0.015130371 0.020945663 -0.0036257398 -0.0053905374 -0.022846809 0.008274356 0.022175232 -0.005013188 -0.00059903605 -0.008168405 -0.02704182 0.02163669
E -0.005693277 -0.028120486 0.02518369 0.020699034 -0.005507388 0.02531061 0.027927069 0.022564866 -0.019255623 -0.0022751528 0.0025251813 -0.02294106 0.013747262 0.009567907 -0.0065235975 -0.022864273
A 0.0027349968 -0.0039273454 -0.01612739 0.008982195 -0.01241976 -0.00035063125 -0.008239379 -0.029597394 -0.0260675 0.0066470327 0.015438125 -0.030217048 0.021075785 0.0080242045 -0.014742226 -0.016609196
C -0.021187373 0.019482458 0.01445084 -0.017584857 0.0029717195 -0.0035779376 0.013933093 0.017941525 0.023635222 -0.021859888 -0.010030533 0.0131164985 0.001109242 -0.010489384 -0.0108337775 -0.004568149
P -0.0108091915 0.004680629 -0.00936432 0.02550444 -0.015105158 0.019842781 -0.023888886 0.014814621 0.011694515 0.010280291 -0.020132534 0.023629494 -0.025673881 0.024703888 -0.01888049 0.03072852
J -0.014683576 0.007153696 -0.013892932 0.01446162 0.022978613 0.019313002 -0.014649642 -0.004393348 0.02405307 0.00062908017 -0.02145154 0.018409576 -0.02217363 -0.0018316177 0.014494079 0.030135186
B 0.018814215 -0.01771062 -0.008373701 0.030104665 -0.0001965889 -0.015666423 -0.029237824 -0.030597731 0.010136564 0.013431152 0.016591702 0.022465186 0.012604533 0.011382875 -0.026786411 -0.019449478
R -0.016158829 -0.012606073 0.018008338 0.017109133 -0.021429734 0.009303744 -0.017054953 -0.003296449 0.020089269 -0.0045481874 -0.019388672 -0.018978763 -0.028498217 -0.024760682 0.014364083 -0.030290658
S -0.006928559 -0.028355066 -0.0011961613 -0.021395823 0.017048255 0.021119466 -0.013225543 -0.025284922 0.0161792 0.024448108 -0.00018947598 0.003191782 0.007629222 0.0033761093 0.010832716 5.6661127e-05
I -0.002851993 0.0015884041 0.014849088 -0.00055944984 0.016234232 -0.012447405 -0.01001101 -0.022307554 -0.016579455 0.021165749 -0.016066784 -0.0003313636 0.01983014 -0.011541872 -0.031220414 -0.008814726
N -0.009536333 0.022391703 -0.01150035 0.006380486 -0.025723392 0.026794976 0.01333758 0.027546722 0.0059282365 0.011790409 -0.010872263 -0.02273718 -0.006817138 -0.019339671 0.011613094 -0.0037194486
G 0.020175844 0.01055769 -0.009683698 0.016590746 -0.022855762 0.007283 0.01857816 0.007680232 0.017096914 0.026462775 -0.0060802978 -0.03065335 0.024655161 -0.007850471 0.024504527 -0.017962033
K -0.02622716 -0.008377411 0.007199731 -0.024265407 -0.008440954 0.0039462284 0.00868595 0.001161718 -0.022307852 -0.025608538 0.01853533 -0.030461999 0.005125126 -0.018940046 -0.007075115 0.026199235
H 0.020257993 -0.009923379 -0.022400899 -0.021935036 0.012360577 -0.0058735767 0.0039218348 -0.0054946896 0.016655216 -0.006895053 0.003990306 -0.016167266 0.005037698 0.0033556025 -0.015819784 -0.0076207104
T -0.009172823 0.01634525 -0.026771178 0.009478831 -0.013375108 -0.014832441 -0.008657953 0.025206253 -0.02185355 0.018246664 -0.020533219 -0.0129022915 -0.026010431 -0.028211385 0.0049288967 0.022702962
F 0.010629241 -0.012886855 0.018561192 0.012433385 0.02247813 0.010775267 -0.004518764 0.0027033982 -0.028315043 -0.009968123 0.010334063 -0.021629095 0.0162817 -0.03000111 0.013261068 0.00577503
M 0.023566753 -0.020108866 -0.021980664 0.025076395 0.01757173 -0.016870385 0.021364892 0.013010729 0.02019983 -0.007114721 0.019166991 -0.026705312 0.002174705 0.023754247 -0.021045567 0.020408072
O 0.012409012 -0.027493324 0.028452372 0.011611075 0.01816983 0.014691721 0.02394078 0.0062055173 0.02115046 -0.008235106 -0.019445546 0.027339572 -0.018992158 -0.020633597 -0.010556477 0.020206865
D -0.024980487 -0.0036029862 0.0057248306 -0.014708652 -0.016398642 0.021130586 -0.0013742185 -0.01901154 0.02484145 0.03067792 0.008790968 0.019565685 0.012745046 0.0053087655 -0.002852103 0.007755858
Q -0.028284648 0.017307986 -0.0133949965 0.013703262 0.015259419 0.025408033 -0.019418452 -0.02832571 -0.014188804 -0.008718853 -0.016281657 0.0083847735 0.024907751 -0.0066960533 -0.022480484 -0.006784717
L -0.00018402403 0.0153460065 0.0019632133 0.0027308143 -0.0062175044 0.008776044 -0.024591805 0.009853736 -0.018261237 0.026563803 0.005027078 -0.026295537 0.0010117843 -0.00830793 0.03053707 -0.011390417
U -0.028270418 -0.004563206 -0.0028661215 -0.015571664 -0.027352296 0.024371564 0.02916955 0.006956292 -0.02186479 -0.008977612 0.008566136 -0.017252857 0.021612184 -0.024575232 -0.018590111 -0.02321927
W 0.021194413 -0.008403385 0.02438992 0.0017982923 -0.021116024 -0.02329277 -0.021236466 -0.0147530865 -0.0121844085 -0.013211919 0.009884795 0.011209618 0.025779596 -0.013316645 0.016881425 0.011071192
X 0.017231176 0.01107674 0.014745643 -0.022124853 0.029754909 -0.002245252 -0.012467395 0.007181221 0.0051550795 0.017620921 -0.020767588 0.0060067344 -0.022016112 0.028611371 -0.014634214 0.025670268
V 0.0049587702 0.010731104 -0.020805174 -0.0060104025 0.024938807 0.015291687 0.0026634436 -0.012742268 -0.024132222 -0.010845267 0.0045562303 0.02407088 0.027808148 -0.0071353135 -0.012054016 0.01940745
Y 0.029817691 0.008570505 0.02256458 0.0069326437 -0.031073205 -0.0014593917 0.02394079 0.022513164 0.011765188 -0.01801299 -0.00597054 0.021440662 0.00347204 0.025600113 0.012079768 0.01512361
End -0.012529626 -0.024048254 -0.015752992 -0.0011556657 -0.005740072 0.021340715 -0.020572547 -0.014714298 -0.027601708 0.02036662 -0.010849782 -0.019054668 -0.01799389 -0.010060931 -0.007360236 -0.022405868
Start -0.0020264487 0.017117314 0.00141452 0.002102516 0.019482302 0.028832918 0.028085342 0.026044562 -0.028366297 0.011596322 -0.0132196 -0.0137184 0.0152006885 0.012532916 -0.0025477756 -0.0143806245
DATABASED%GWC%8 0.010478614 0.0027923023 0.029648736 -0.002501076 -0.027047135 -0.0033991593 0.0042386986 -0.008628584 -0.017805919 -0.0063775075 0.008217591 -0.0065772287 -0.009741364 0.0014156954 0.0034545823 0.008505438
Z -0.025987156 0.030667508 -0.024822293 0.013358779 0.027613686 -0.0117663 0.008008917 0.01724424 -0.008758213 0.024372 0.020111147 0.0037750585 -0.013223267 -0.014348044 -0.0056320108 0.011025544
PARALLEL%GWC%1 0.024760535 0.013837478 -0.0062868935 0.0016147356 -0.0026558724 0.0018727991 -0.0071875947 -0.012161189 -0.010355301 -0.016532611 -0.017650725 0.01020857 0.01129216 -0.002202972 0.00933342 0.01450419
PARALLEL%GWC%7 -0.028451428 0.02322904 0.007302235 -0.025508557 0.020773493 0.018394195 -0.019664638 -0.0041014366 -0.024421984 0.025668954 -0.020572858 0.020988338 -0.017323382 0.023908684 -0.0046472894 0.030064834
PARALLEL%GWC%3 -0.013663382 -0.013007526 0.030092731 0.006348817 0.014804514 -0.027971877 -0.020380491 0.02938526 -0.011508096 -0.017406102 0.023924159 0.007338287 0.0013607135 -0.010200832 0.02214058 -0.028839534
DATABASED%GWC%9 -0.010622864 0.024822023 -0.02451914 0.006687747 -0.02468717 -0.02146206 0.017946666 0.014191292 0.013695697 0.025312414 0.020233592 -0.016186899 -0.014960005 -0.008928323 -0.00020950992 -0.017806867
PARALLEL%GWC%6 0.021317214 0.006088769 -0.013846069 0.016020825 -0.008250368 0.011372778 0.020134956 -0.004101918 0.008241969 0.000617915 -0.020965476 0.0052722297 0.027319415 -0.01134127 -0.015958214 -0.029371187
AA -0.02737152 0.011419748 -0.008050956 0.025244012 -0.018419046 0.010568362 0.0307964 0.029799117 0.017285915 0.020985357 0.0061141895 0.008037762 0.022470186 -0.021001928 -0.016969131 0.021989213
PARALLEL%GWC%4 -0.015685385 -0.021711294 0.013664915 0.020737095 0.025039108 0.026175361 -0.0007491125 0.025462147 -0.017261837 0.014474712 -0.008327114 0.006388626 -0.0045367824 0.009882605 -0.0009993357 -0.019113673
PARALLEL%GWC%5 0.008589733 0.010158976 0.015656171 -0.020074252 -0.0062153954 0.0074165137 -0.0051545072 0.014122112 -0.019736487 -0.01057066 -0.02808482 -0.014540103 -0.007104497 -0.000504567 -0.028109938 -0.025132047
AC -0.008199572 -0.025815012 0.023631657 0.006245158 -0.004001885 0.003988671 -0.0029239065 0.028078174 -0.0113572795 -0.0031336045 0.0036752734 0.02925484 0.020081043 0.025359586 0.016857753 0.016402172
AB 0.020110834 -0.02661015 0.0070919585 0.029363172 -0.007586349 -0.02132519 -0.004059911 0.010759967 0.011095706 0.017556222 -0.007762789 -0.016930439 0.0058659683 -0.01790734 -0.029002704 -0.02562857
PARALLEL%GWC%0 0.025767436 0.026152972 0.014856823 -0.0030764395 -0.0014869879 -0.028516354 0.019869834 -0.025094613 0.016374586 -0.016127937 0.012202359 -0.0292316 -2.249277e-05 -0.017050108 -0.022885155 -0.013709246
DATABASED%GWC%10 -0.027279625 0.0013933452 0.02259437 0.026578756 -0.021839721 0.02739697 -0.013530554 -0.012205339 -0.02850643 0.007374671 0.023836356 -0.031032074 0.023090828 -0.008536936 0.0135473 -0.0014034337
AD -0.030481564 -0.0028082493 0.027992902 0.00012558294 -0.018412951 -0.030868 -0.018907595 0.0035970123 -0.01572704 0.010987184 0.020215075 0.0071140733 0.023336401 -0.025369635 -0.027558189 0.019618835
DATABASED%GWC%12 -0.005087028 -0.0008462579 -0.0102432445 -0.009448224 0.0044615692 -0.02238711 0.016361855 -0.019274704 0.011094844 0.011436862 0.018697906 0.012985041 -0.00950883 0.01374103 0.020748107 0.028028082
DATABASED%GWC%11 0.030177379 -0.0051875045 -0.011868802 -0.008692937 -0.0020608383 -0.017395664 -0.024389083 -0.024073048 0.030732317 0.011470998 0.031159157 0.014040904 0.028151112 -0.009621322 0.009115293 -0.026585732
PARALLEL%GWC%9 -0.00031364043 -0.031005386 0.02952161 0.0113989385 0.007261014 -0.027434887 0.012592811 0.027525146 0.019288458 -0.020707807 -0.023114713 0.024641776 0.003872271 0.010920178 -0.022580594 -0.019306405
