30 16
ActivityA -0.029782645 0.019070473 -0.0123949945 -0.023461405 0.021808835 0.016444912 0.01898614 -0.013115726 0.0020680258 -0.020029465 -0.002439287 0.004030882 0.0139395865 -0.027633056 0.016402936 -0.012785447
ActivityR 0.015872594 -0.0006786577 -0.0068325475 0.026023198 0.027412917 0.013722236 0.0015158085 -0.030753495 0.017235363 -0.029307116 -0.014768657 0.020177193 0.016380528 0.022997757 0.017616665 -0.009931909
ActivityB 0.019731719 -0.021219807 0.011108437 0.0027374704 -0.0033284049 0.017105546 -0.002453331 -0.00717591 0.009539073 0.028747216 0.012446707 0.025036875 0.026211359 -0.025160909 0.007673954 0.025888864
ActivityQ -0.014589862 -0.02024958 0.028345788 0.015704637 -0.008482006 0.022896327 0.011329215 -0.030017842 0.015692012 0.022559447 -0.02472431 0.025510501 0.019988935 0.024311239 0.028034208 -0.016925462
ActivityF 0.019506607 -0.0027409554 -0.0070168795 0.013131835 -0.019638943 0.014593346 0.015218374 -0.015613478 -0.019622326 0.022509087 -0.012196197 0.00022720933 -0.020555837 -0.030111538 -0.001041716 0.01607782
ActivityS 0.0044540255 0.028663957 0.001476777 0.021233208 0.0074774786 0.003044298 -0.022493493 -0.0023281095 0.022299517 -0.0030764386 0.028916046 -0.001961545 0.026434464 0.017172452 0.01840813 0.009203973
ActivityT 0.009338625 0.027492264 -0.022527179 -0.0035604304 -0.027769057 -0.0051162373 -0.027893307 0.023614181 0.019623902 0.02962554 0.019541632 0.020724814 0.019427048 -0.020859433 0.02184944 -0.026792482
ActivityP -0.0041806335 -0.029371807 -0.011251918 -0.001422574 -0.008403566 -0.011061065 -0.013636871 0.016547346 0.006516077 0.019926727 0.022298556 0.02331252 -0.010812383 -0.030193027 -0.0021197766 -0.00826735
ActivityG -0.026226586 -0.01258596 0.015270423 0.008045638 -0.026415842 0.017356008 -0.00036518296 0.029498609 0.026062487 -0.017866943 -0.022709614 0.030084245 -0.02052967 0.0004338853 -0.0051910104 0.0145070115
ActivityO 0.021848833 -0.017369399 -0.0033513757 -0.023662686 -0.0020772438 -0.016872806 0.02289218 0.0036120347 0.014981412 0.019519635 -0.011841723 0.006101416 0.006600579 0.013449846 -0.011191882 0.02090183
ActivityE -0.013245634 0.015523749 0.018697675 0.030860182 0.021060301 -0.029225837 -0.011643029 0.022066379 0.01379482 -0.014957534 -0.027421454 -0.010774875 -0.028328786 -0.0028894686 0.013792854 0.020498233
ActivityC 0.0077293045 -0.006048531 -0.004843166 0.0025590335 -0.0278616 0.005743161 -0.007254871 0.0035638874 0.0026693891 0.031061333 0.008387008 -0.005919613 -0.024157459 0.018886873 -0.013278106 0.013323484
ActivityJ -0.012341482 -0.02669028 0.02597361 -0.023162873 0.013268801 -0.0088912165 0.019997751 -0.021536633 0.02969326 -0.027332801 -0.0038880792 0.024404006 0.0063239015 0.029227467 0.0053704684 0.019099882
ActivityD 0.012728223 -0.016853012 0.019099 -0.0011620821 0.022342665 0.0028026267 0.019289969 0.015418367 0.005035355 -0.02424737 0.009681213 0.011880337 0.02245098 -0.023178082 0.010206363 -0.014208424
ActivityI -0.03019064 0.02730213 -0.00789047 -0.021490615 0.030333329 0.020275377 -0.025218546 -0.018290484 0.020848004 0.009880927 0.03043881 -0.028219322 0.030153003 0.005568456 -0.024338823 0.025057802
ActivityH 0.004727845 0.031108584 -0.0033160748 0.01936113 0.0049998993 -0.0005296886 0.031119876 -0.025391597 0.022432404 0.026813209 0.0010188664 -0.007709257 -0.029225737 -0.0076563735 0.0048422813 -0.008797269
ActivityM -0.029497212 0.029423798 0.031080067 -0.002560918 -0.012879375 -0.0011316345 3.4765097e-05 0.00014392863 0.005716963 -0.018221503 -0.02215504 0.024121737 -0.007000117 -0.025713285 -0.017805502 -0.009460304
ActivityL -0.012630385 -0.019552406 0.0039123525 0.0014401233 0.01292192 0.015122091 -0.00017244469 -0.016803376 -0.0037534335 0.03089701 0.0026824318 -0.0029097486 0.0012571148 -0.021805277 0.0052398443 -0.022895979
ActivityX -0.026647085 0.018298578 -0.012467395 0.018836671 -0.013733154 -0.027738286 0.03011321 0.0040109972 -0.026109736 0.01252822 -0.028390355 -0.023232074 -0.008165989 -0.029146794 -0.0045802104 -0.00016143617
ActivityU -0.018452885 -0.025602292 0.0057526436 -0.019616922 0.0048579066 -0.024949953 -0.011119863 -0.031172825 0.019978384 -0.00054974953 -0.014309008 0.023783779 -0.006932922 0.021399869 -0.029689565 0.029372433
ActivityY 0.027365418 0.01881121 0.008675508 -0.004538237 -0.011538555 0.028709123 -0.01714915 0.008074958 -0.027834909 -0.02092773 0.015266754 -0.021304565 -0.004434856 0.015040223 -0.011638742 0.01806792
ActivityZ -0.0034715068 -0.023367314 0.011586349 0.0006479412 0.019231599 -0.03016772 -0.030338261 0.02293012 -0.026298463 -0.022356968 -0.006354872 0.012044219 -0.013423605 0.010043223 -0.013517957 0.017857527
ActivityK 0.016807025 0.005449334 -0.02743206 -0.020626638 0.008855657 0.01137706 0.008241424 0.019116258 -0.001334117 0.0049458263 -0.024684412 -0.0214042 0.0056082606 0.00482645 0.018160399 -0.02177609
ActivityN -0.0150636025 -0.019933831 -0.028580613 0.031129118 0.030102618 -0.02416519 -0.029984273 -0.012716297 0.028078461 -0.029628323 -0.026289146 -0.007370305 0.025011545 0.016305573 -0.027677443 -0.0059854477
ActivityW -0.02418182 0.02633798 0.0287805 0.0072103594 0.022408905 0.02029556 0.0058237887 0.012489005 0.009808573 0.005431488 0.0092175575 0.017710133 0.0017683068 -0.028714927 0.016638314 0.022205113
ActivityV 0.018654553 0.022682255 0.018495899 0.022246318 -0.0014738889 -0.020739796 -0.017884728 -0.011695857 0.028018571 0.019263588 -0.008727211 0.022235809 -0.024153246 0.009958632 0.013992322 -0.003740301
ActivityAA -0.029697288 0.031076467 -0.021440914 -0.018642167 0.020150354 -0.0018031477 -0.009833313 0.020960102 0.015040207 -0.0055205324 0.013107379 -0.0047981543 -0.023249943 -0.0122164395 -0.013687487 -0.02104894
ActivityAB -0.02419249 -0.019925803 -0.021960767 0.005668833 -0.009041455 0.01225521 -0.008370179 0.016604414 -0.013393811 -0.0061763325 0.02282842 -0.022257736 -0.0014559414 0.02889733 -0.019688005 0.029465701
ActivityAC 0.02715913 -0.0133171985 0.010562812 0.0128982095 -0.018375019 0.019472776 -0.028555928 0.0024899838 0.026784666 0.022764226 -0.00029353477 0.029720988 0.022727598 0.0050485274 -0.024077518 -0.026319671
ActivityAD -0.0010462659 0.027892366 0.0017400812 0.021413136 -0.003694872 -0.020249287 0.020514827 -0.014598552 0.019327387 -0.023436911 0.0057131033 -0.026069518 0.007144493 -0.019657427 0.023768045 0.025109632
