29 16
01_HOOFD 0.007701368 0.0048541026 0.0029414252 0.00010675254 -0.022885956 -0.02829666 0.03034854 0.006986666 -0.018715376 -0.009553108 -0.006068209 -0.015946303 -0.013813285 0.0076082693 0.018326681 -0.0123985475
08_AWB45 0.01709203 0.010626036 -0.0008775254 -0.016327307 -0.019358778 -0.013797463 -0.0056821303 0.013092695 -0.026206143 -0.017920977 0.015259334 0.011553994 -0.016780362 0.023248766 0.013059899 -0.030347485
ArtificialStartTask 0.010143913 0.0061326534 -0.0027764747 -0.014708197 0.020963551 0.014963102 0.010993975 -0.0031300834 0.030265966 -0.001154304 0.015689658 -0.022803463 0.00466042 0.028958226 0.008186302 -0.009006425
ArtificialEndTask -0.009243688 0.010914931 -0.0069873943 0.001770862 -0.0155113675 0.023727564 -0.028648067 -0.016502338 -0.003300565 0.009252903 -0.025921866 -0.022596328 0.024151616 -0.006549957 0.008989403 -0.022255143
09_AH 0.024737975 -0.026641792 0.023341274 -0.021953242 -0.008648649 -0.016637566 -0.031104822 -0.025898498 -0.0052820486 0.02233252 0.027337579 0.008047282 -0.0077383574 0.02331301 0.020619916 0.004702985
04_BPT -0.013055443 -0.0091320835 -0.000493921 0.019466998 0.0039737015 -0.029452486 0.026016071 -0.017059976 -0.027602313 0.0065976446 -0.010968656 0.020456051 -0.015261306 -0.02228434 -0.029050164 -0.026197465
01_BB 0.007992863 0.030420296 -0.0020145983 -0.007078776 0.012576913 -0.027451104 0.014697187 -0.0031532324 0.017903607 -0.0105219735 0.02410259 -0.01242391 -0.007511428 0.012414447 0.0023566738 -0.027121436
02_DRZ -0.01863862 0.030887352 -0.013259692 0.022654323 -0.002681869 0.0010416793 0.021825757 0.005215133 -0.02287982 0.016325757 0.026430583 -0.026153082 -0.016727997 0.0059020855 0.023611194 0.00014821015
11_AH 0.006456109 -0.02415167 0.025936954 0.018725881 -0.015998853 -0.007980398 -0.022252651 0.022927647 0.020615011 -0.009009578 0.023440568 0.031131586 0.013254871 0.030012399 0.031030541 -0.007056115
05_EIND -0.0030805918 0.020896364 -0.027361972 -0.020058708 0.010688109 -0.024298796 -0.022558825 -0.030531459 0.011994997 -0.015012842 -0.030642692 -0.0044483407 0.031235473 -0.030140694 -0.022770187 0.02145814
03_GBH 0.026205994 -0.021198211 -0.010000063 -0.019796345 -0.00443267 -0.008845303 -0.022274785 -0.0060548685 0.01736199 -0.028442595 0.007138484 0.025124285 -0.019016577 -0.0111285215 -0.029996395 0.024906864
06_VD -0.008795295 -0.005109949 -0.020786079 -0.009982954 0.018349031 0.021840757 -0.029703133 0.020371258 -0.022139436 -0.0060958024 0.027729718 0.004223318 0.017192818 -0.018887673 0.027592573 0.011350136
13_CRD 0.029030351 -0.02600309 -0.009381663 -0.02701369 -0.012233669 0.0038937598 -0.017641207 0.026921477 0.027958002 -0.006059173 0.02647432 0.019649819 0.002065989 0.017436838 0.014267243 -0.02647426
10_UOV 0.016828483 -0.016795589 0.014776098 0.003818092 0.022527989 0.0025392352 0.024784349 -0.013051344 -0.02294959 0.012429342 -0.010529587 0.01449596 -0.018961838 -0.016686443 -0.030451484 0.005311827
14_VRIJ 0.0061092544 -0.012808782 -0.008857727 -0.021407869 -0.028690303 -0.009025188 0.0069904393 -0.027610445 0.021364305 -0.01329165 0.0132135 -0.0008175197 0.01460677 -0.007012561 0.008113867 0.009407612
16_LGSV -0.019439956 -0.018040255 -0.015811117 0.0036478236 -0.013453186 0.020902872 0.016482938 0.029874926 -0.014512082 0.010711785 -0.028936993 -0.01310186 0.012285885 0.022993214 0.012561585 -0.014978075
07_OPS -0.013399593 -0.01018785 0.0089017255 -0.007285938 0.0063098455 -0.0048972676 0.018141609 -0.00759754 -0.006992417 0.015471871 -0.028637879 -0.0015234427 -0.015255672 0.012828517 -0.014948388 -0.020813541
16_LGSD -0.016824514 -0.022129236 -0.028915726 0.009401122 0.01449853 -0.025427263 -0.01528825 0.014351496 -0.0113551915 -0.017774824 0.006087076 -0.0050477 -0.02656769 -0.004653349 -0.025292296 0.029785791
09_AWB45 -0.018613277 0.020959856 0.006387963 -0.024933081 -0.0233876 0.008829909 -0.009161605 0.01777069 -0.02247854 0.013588383 0.019002873 -0.029295484 -0.010065348 -0.017078778 0.014350146 -0.029387346
15_NGV -0.026412647 0.006533071 0.00516078 -0.00047858027 0.022036862 0.012500674 -0.023056531 -0.0032002989 -0.0018963862 -0.0021766387 0.025194753 0.027513616 0.020418001 -0.014949305 0.014110992 0.0037671118
12_AP 0.01933504 0.020419741 -0.025873441 -0.0074369707 0.029644663 0.014719776 -0.015872488 0.0035090372 0.013401668 0.02881167 0.031066854 0.023806108 -0.0035529397 -0.027135056 -0.0025096457 -0.021711351
01_OLO 0.0118620815 0.007402432 -0.008747295 -0.018017953 0.031145224 -0.019600919 0.0026329698 -0.026867459 0.022702608 0.010500815 -0.022461828 0.00462305 0.019204415 0.018255929 -0.010511249 0.005156839
99_NOCODE -0.0033919024 0.023068054 0.0011882698 -0.007424509 0.009833863 0.02980888 -0.028430276 -0.024992641 0.02403709 -0.02925435 0.025429605 -0.024289116 -0.02155096 -0.022779917 0.022699036 -0.0057111704
03_VD 0.003952898 -0.013908599 -0.024967711 -0.007761027 0.023928963 -0.020720676 -0.02605031 0.01080648 -0.00092504325 0.012318534 0.019087248 -0.0019465067 -0.030212304 -0.015495857 -0.026799064 -0.011782769
08_OLO 0.0047777244 -0.0045926548 0.0060830005 -0.018684302 -0.019105384 0.012360937 0.017314699 -0.014865056 0.029061146 -0.030565219 0.008170186 -0.023710962 -0.030395262 0.010096014 -0.0012938099 0.022152383
10_OLO -0.029175406 0.00792898 0.0063134423 0.021470364 -0.0076213083 -0.029771656 -0.016041968 -0.0064826054 -0.0009194167 -0.005053046 -0.012573791 0.030902669 0.015268896 0.010840978 0.015846971 0.0014491513
11_OLO 0.02263256 -0.023220204 -0.025862634 0.028814139 -0.0044949315 -0.0030445661 -0.012759549 0.011189488 0.03110708 0.017091691 0.029452195 0.0259457 0.0069380314 0.008134051 0.031245172 0.0057836603
06_OLO -0.008849537 0.0005485138 -0.025391838 0.008354497 0.016175231 -0.00047242615 0.010980245 -0.0007163222 0.009796601 -0.022545727 -0.029027821 -0.02535326 -0.00010076322 -0.014022114 -0.026043277 -0.018490171
02_OLO -0.028672233 0.0092145605 -0.00045772086 0.02445443 0.01979113 0.007751196 0.023359846 -0.0010921041 0.023676042 0.021462183 0.00052331435 -0.010979973 -0.023349058 0.010166568 0.0004973251 -0.016264359
