54 16
Activity -0.02286474 0.012538649 0.022436496 0.007183431 -0.029313413 -0.016424505 0.020358916 -0.0052902224 0.011289456 -0.0049121287 0.024823532 0.031062488 0.03088411 0.021681054 0.026807034 0.018444272
DATABASED%GWC%2 0.0057661748 0.029912949 -0.021256082 -0.029613553 -0.026683858 -0.014589688 0.028386507 0.01831933 0.015891239 0.025666306 -0.027667928 -0.010424 0.027931934 0.02570731 0.014566231 -0.011413518
DATABASED%GWC%0 -0.015668996 0.0014525929 0.020085836 -0.014599772 0.0145769175 0.012455232 -0.024104804 -0.010006436 0.012443847 -0.011929688 0.020110786 0.014296455 -0.024125233 0.0003125313 -0.015072219 -0.021788795
DATABASED%GWC%3 -0.022439344 -0.0020008571 0.018539883 -0.01174124 -0.020907218 0.005376019 -0.024330638 0.010801378 0.0012059199 0.029900325 -0.007320657 0.031118952 0.009442329 -0.012481734 -0.012882749 -0.005918728
DATABASED%GWC%1 -0.02821511 -0.011395837 0.026562253 0.011027613 0.021679316 0.0088978745 0.019998265 0.013754271 0.001744496 -0.014707654 -0.02887628 0.0015448902 -0.012950423 -0.026500601 -0.02222851 0.0074850693
DATABASED%GWC%5 -0.029931787 -0.0076179598 0.01775642 -0.008635585 0.0029319269 -0.018627208 -0.012498371 0.0048163217 0.009740808 -0.019801483 -0.021557085 0.030437952 -0.01365779 0.006898766 0.024076166 0.020472014
DATABASED%GWC%4 -0.005150731 0.005233688 -0.021418417 -0.0019658802 0.017554186 0.011220826 0.005514931 0.023199296 0.01087233 -0.0153658 0.012832487 -0.0026616645 0.009347077 -0.004151948 0.002761319 -0.019026993
DATABASED%GWC%7 -0.0039841966 0.014302961 0.0057630846 -0.020685602 0.010108751 -0.021645077 0.028291034 -0.008415277 0.010251314 0.014653768 -0.014305324 0.007667863 -0.010077146 0.009048826 -0.021585613 0.0011858494
DATABASED%GWC%6 -0.0041181534 -0.021969598 0.010454186 -0.012113089 0.0019004944 0.016230345 -0.012159382 0.009886756 -0.028366815 0.0156041775 -0.00830745 0.0076318556 0.0045191064 0.024957385 0.029000558 -0.029546581
E 0.020130461 -0.01829324 -0.025682643 0.012416641 0.020142293 0.0004618463 0.023975791 -0.007995573 0.005371095 0.00903222 -0.017771006 0.003462507 0.023376888 -0.02566833 -0.011040128 -0.0051980624
A -0.024144124 0.012437369 -0.007629243 -0.028192405 -0.0073572015 -0.0020151113 0.00039532952 -0.022942439 0.022444686 -0.020572035 -0.0052896393 -0.024683721 0.009119876 0.02700536 -0.0058165686 0.022599015
C 0.016532766 -0.0044681905 -0.0107241385 0.029560363 -0.017645005 0.0051597436 0.019824667 0.007360381 -0.001855569 -0.011935909 -0.029117007 0.022594118 0.013347403 0.0005718339 0.020918708 -0.028780533
P -0.0067964406 0.0037151186 -0.004832646 -0.0106801465 -0.008197291 -0.008533168 0.029989265 0.009749069 -0.02956335 -0.025951171 -0.013384396 -0.00838537 -0.016123861 0.029576736 -0.023362705 -0.019680725
J -0.01867622 -0.015861802 -0.027670253 0.020538785 0.0031343289 0.019915393 0.024625978 0.018913765 -0.006061748 -0.030597243 0.0034382984 0.02848289 0.024709947 0.027517127 0.025789056 0.011709823
B -0.0077641965 -0.010600549 0.022783073 0.023694485 -0.00997474 0.021096071 -0.018429017 0.022452498 0.02405256 0.0033986317 -0.011765469 0.013630884 0.028219556 -0.02196578 0.018107623 0.008849733
R 0.0150914425 -0.0029385884 0.007005849 -0.004745637 0.016161533 0.019232618 -0.002224591 -0.003375681 -0.01444721 -0.021339973 -0.010445476 -0.005001649 0.03106476 0.029955277 0.005120628 0.018592706
S -0.0060137473 -0.0014085168 0.018013919 0.023692017 -0.025429914 -0.012578537 -0.0031090723 0.0001092437 0.01858836 0.004641354 -0.0069598663 -0.006975535 0.016121225 -0.0022896258 0.008302492 -0.014824842
I -0.029277224 -0.015184505 0.014322679 0.0059262617 -0.006633148 0.018608795 -0.023359068 0.02057278 -0.0024163409 0.02961235 -0.0067888503 0.017205907 0.02898734 -0.0065411194 0.019882256 -0.026715921
N 0.009398604 0.021899696 -0.012972949 0.014986792 0.030702535 0.013757316 -0.00416645 -0.006945351 0.00524644 0.026160737 -0.026731517 -0.02644075 0.0064772293 0.0031463595 -0.026865756 0.0033051835
G -0.012023875 0.024199933 0.011121363 0.009392424 -0.0067488616 -0.021132769 -0.0028108028 -0.011695475 -0.029991522 0.02029083 0.025010357 -0.030107856 -0.021340486 0.013773155 -0.021545777 0.0020372753
K -0.01925222 -0.021026598 -0.028680854 -0.0065714307 -0.0013191637 0.001050587 -0.012766813 0.0054039224 -0.011992795 -0.024451064 -0.023623036 0.0077260365 -0.0069693914 -0.029194469 0.017217217 0.0252011
H -0.010664513 -0.015243042 0.024012296 0.005217603 0.005720102 -0.02621747 -0.001162212 0.021729715 -0.016897272 0.019763954 0.0011890508 0.008120073 0.022122586 -0.007582065 -0.017757196 0.030286659
T 0.015864104 -0.024105404 0.020669965 -0.0012853919 -0.018238245 -0.02943216 0.017721359 0.014867944 -0.0018539487 0.00059029507 0.0014569758 -0.017272372 0.010583114 0.02074319 -0.006097216 0.01742151
F -0.0035294925 -0.026477668 -0.018804908 0.02217175 0.011760064 0.009976621 0.010581747 -0.026211089 -0.006391002 0.029936867 0.009273687 0.020322058 -0.000119502154 0.016670905 -0.00856298 -0.02894607
M 0.002739021 -0.029281473 -0.004469227 -0.026706211 0.0063299392 -0.027278408 -0.013410305 0.010513518 -0.005672665 -0.003171284 0.006411274 -0.018679993 -0.015972901 0.0016585581 -0.020960853 0.016990608
O -0.019762529 -0.030900477 0.026754148 -0.018627653 0.030319244 -0.02791214 0.0022077002 0.021506678 0.004342413 -0.010189848 0.013677567 0.025724636 -0.016098294 -0.0011900113 -0.025428763 -0.016688209
D 0.018063487 0.0050796024 0.00052909285 0.02982025 -0.01436759 0.0011221129 -0.0104658445 -0.02630543 0.01263973 -0.008671155 0.027266864 -0.024893831 -0.012990519 -0.013428624 0.0025604332 -0.022432236
Q 0.015298678 -0.003056854 -0.018520346 0.00022470356 -0.021052176 0.020391084 -0.03060159 -0.006297715 0.0014679437 -0.028515382 -6.545677e-07 0.029988445 -0.025679722 0.016996158 0.015786096 -0.005360907
L 0.016420538 0.015343928 0.0153243495 0.02425588 0.024966963 -0.0003140683 -0.013595231 -0.028212037 -0.0010688809 0.024407696 0.020504255 0.02453979 0.0063492097 -0.031048719 -0.024898505 0.0273903
U -0.008065934 0.025727382 -0.022285562 0.028409664 -0.0046527116 -0.010434607 0.020887837 -0.007438749 0.0095073 0.01812999 -0.031232331 0.01024963 -0.012251724 0.007062986 0.026790883 0.00539945
W 0.023005484 -0.02148258 -0.00037520076 -0.0071039395 -0.025410397 -0.013991323 0.012217533 -0.017360836 -0.012813841 -0.011165041 -0.010794417 -0.020895207 0.025858007 -0.016052958 -0.023539841 0.016695546
X -0.016703656 0.025623132 0.026959041 -0.02618628 0.010937705 0.0055139987 0.0136950845 -0.024365759 0.01552093 -0.019154863 -0.019582437 -0.0175633 0.0069008614 -0.009864783 -0.018091045 0.019483956
V -0.028698914 -0.005289298 -0.010774358 -0.002568098 -0.026296228 -0.00639565 0.018807461 0.021136167 -0.00048340217 -0.013758513 -0.029484518 -0.009908155 -0.026965598 0.029676747 -0.010201945 0.025166139
Y -0.00079143053 -0.017785735 0.007325192 -0.016088173 0.02106624 -0.02006654 0.02325722 0.004245414 -0.0037726292 -0.020663394 -0.012203994 0.018034574 0.018252894 -0.010609291 -0.020524886 -0.009035858
End -7.7485325e-05 -0.0286427 -0.00034390468 -0.02539294 -0.0056240982 -0.021182777 0.0045059337 -0.025955036 0.022920914 -0.0034260442 -0.00864836 -0.0011141895 -0.019539766 0.030922635 -0.022750696 0.025320873
Start -0.025992068 0.014877304 0.019707363 -0.0018372433 0.020105943 -0.0040706107 0.029718786 0.012372954 0.023423962 0.019341243 -0.030457394 0.011854536 0.019607937 0.006233881 0.015936518 0.026503902
DATABASED%GWC%8 -0.013673869 -0.0056788796 0.016028302 -0.012733488 0.005131438 0.023918321 -0.018127173 -0.0055663423 -0.020670354 0.0037814847 0.00018386096 -0.0057705413 0.012166579 -0.0060144453 -0.0007809004 0.0067104986
Z 0.015084303 0.012647518 0.0013601977 -0.005398093 -0.006527533 -0.020745654 -0.00518905 -0.0024098807 0.027445817 0.0070048613 -0.0070724967 0.010562017 -0.0032755923 -0.025265401 0.022516739 -0.029862456
PARALLEL%GWC%1 0.027057853 0.026586995 0.020439114 -0.021417499 0.030434007 0.0146328565 0.0075376267 0.011529325 0.0015744367 -0.025917558 -0.020832231 0.012564323 -0.019784221 -0.021674762 0.025289796 0.0037759212
PARALLEL%GWC%7 0.01257126 0.017704442 0.013547799 -0.01613114 -0.028412938 0.011660639 -0.017730901 -0.014946298 0.01739886 -0.012153461 0.023850555 0.024628164 0.014829386 -0.028698782 0.022642788 0.020879155
PARALLEL%GWC%3 -0.006436749 0.022888275 0.00926118 -0.03082401 0.008824189 -0.028575223 0.026985113 0.030710561 -0.018285349 -0.011565551 -0.023843573 -0.024439411 0.025209026 -0.023217639 -0.008883586 0.01700408
DATABASED%GWC%9 0.009518978 -0.007935357 0.012829263 0.0054698377 0.030701023 -0.016772212 0.020440264 -0.004066089 -0.014302167 0.01718878 0.003630356 -0.020994013 0.028036607 0.030431 0.020157807 0.014957174
PARALLEL%GWC%6 0.030898573 0.013257945 0.016525144 0.030035395 0.020927973 0.009056769 -0.0077548004 0.01644153 -0.024602111 -0.023540884 0.018717632 -0.0077135246 0.019768562 -0.010134397 0.0054656025 -0.011241703
AA 0.004296091 0.022059614 -0.018950427 0.0163863 0.013195159 -0.020338025 0.019461855 0.02874561 -0.012161312 0.022621779 -0.0065406547 0.016481597 -0.004792112 -0.01432194 0.006107277 0.016991016
PARALLEL%GWC%4 -0.0023650879 0.010188856 -0.0011036636 -0.01753907 0.007102401 -0.019033894 0.030921264 0.015927523 0.010111061 -0.003951659 -0.023284635 -0.0067248507 0.009374503 0.0071704304 -0.0298997 -0.0068475707
PARALLEL%GWC%5 0.003963915 -0.017424015 -0.025684059 -0.009285915 -0.00979175 0.010735778 0.024587115 -0.025261188 0.008651123 -0.0031643107 -0.030543292 0.01686019 0.015282819 -0.014419364 0.0037480125 -0.018349338
AC -0.015906084 -0.008989203 -0.021626258 -0.026852963 0.00875186 -0.0021785893 0.020244725 -0.006728375 -0.0059568295 -0.0102303345 -0.017257541 0.026921531 -0.018893631 0.01919035 -0.0091064405 -0.0010955175
AB 0.014579927 -0.013876482 0.0043218546 -0.028268581 0.0041568023 0.0019267525 0.024834482 -0.015480924 -0.023744872 0.00045769752 -0.007882383 -0.029077383 0.006857221 0.0063395463 -0.02201536 0.005697108
PARALLEL%GWC%0 -0.016183179 0.0022228153 0.027499784 0.030878529 0.0049458067 -0.023396835 -0.01346491 -0.0015683916 0.004709065 0.00030735426 -0.018630859 -0.027748315 0.008141047 0.017715048 -0.0040894356 -0.030420724
DATABASED%GWC%10 0.03003418 0.005724121 -0.025251357 -0.014301228 0.0040426417 -0.017408868 -0.02388104 -0.02638607 -0.009891873 -0.017328776 0.011311482 0.028176561 -0.003394129 0.005806477 -0.02319389 -0.0156153655
AD -0.030149648 -0.030969013 -0.025837138 0.00140043 -0.016538428 0.00081569987 -0.024146233 -0.027132116 0.028049523 -0.025183517 0.0012801773 0.009538203 0.025510391 -0.029154059 0.017420556 -0.025525967
DATABASED%GWC%12 0.0012367311 0.010750578 0.0049956585 0.004931225 -0.02498014 -0.028734004 -0.0185552 -0.010845141 -0.011086291 0.009717333 0.012189539 -0.015766272 0.018699678 -0.030554298 -0.004064933 0.031038254
DATABASED%GWC%11 -0.025477754 0.018821837 -0.014249284 0.010587106 -0.0057063187 0.0077896654 -0.01963673 -0.0014774882 0.026493486 -0.0074734716 -0.0012721185 0.018936923 -0.02888723 -0.026061414 -0.02087909 0.028855227
PARALLEL%GWC%9 0.018926896 0.008202751 -0.002572515 -0.024534687 -0.024717791 0.012652788 -0.01370733 -0.024873726 0.00974338 -0.011315139 -0.030916728 -0.0064405277 0.007501885 -0.016112752 0.028857391 0.004454684
