trace_0 0.003945652 -0.0010711594 -0.00392659 -0.003859473 -0.003963927 -0.003485916 -0.0047121476 0.0034836277 0.0023542405 -0.0037529792 -0.0049488284 0.002123225 0.0046318867 0.0009924625 -0.004210822 -0.0035658877 0.0046234448 -0.002925084 0.0014721048 0.00043928772 -0.0019067139 0.00122283 -0.00016686019 0.0027525441 0.0036206916 -0.0018589868 -0.00075976196 -0.004274338 -0.0004959039 0.0047364845 0.00026722776 -0.0021156059 0.004235761 -0.004753918 0.0049307337 -0.0011517014 0.00033349474 0.0008370175 -0.0021832439 0.00042717572 -0.0033715544 -0.003956851 -0.003693686 -0.002253725 -0.0014441207 0.0011001121 0.0034198463 0.004591533 0.004780912 -0.00055204344 -0.0025317017 -0.0036597736 0.0024312816 0.0011892831 0.0017903323 0.003256408 0.0019581637 0.003539801 0.004150552 0.001967762 -0.0028625596 -0.0020628152 -0.0027130095 0.0037432592 0.0048512546 -0.003000623 0.00036028624 -0.0030273062 0.0038119587 -0.0034557362 -0.003628434 0.0024939799 0.0010849542 0.0012732967 0.0044886195 0.00031635055 -0.002780034 -0.0011266542 -0.004376255 0.0008518572 -0.0011837542 -0.003876362 -0.0006353461 0.0023914438 -0.004466026 -0.0005608779 -0.0011341725 0.001935311 0.0019685912 0.0016493921 0.00096511265 0.0042824373 -0.0027593733 0.00058681116 0.00145713 0.00045875987 -0.0021904695 -0.0022287755 0.003928713 0.0006886788
trace_1 -0.0041668094 0.003654603 -0.00031433662 -0.0025596416 -0.0013729071 -0.0007854906 -0.0017065782 0.0030567106 0.00023951371 0.0047171684 -0.0037394755 -0.00041991976 -0.0010794771 -0.00070269534 0.0027903612 0.0011015966 0.002766559 -0.004829049 0.0012579097 0.0005475126 -0.0025276355 -0.0035319284 0.0037574277 0.0041339523 0.0028200718 -0.00080091367 0.0049464502 -0.0009081383 0.003900501 -5.9802205e-05 -0.0041072425 0.004776581 0.002759256 -0.0011626134 -0.0028898777 0.002182506 -0.0037022256 -4.3926982e-05 -0.002039289 -0.0047703437 0.0018855573 -0.0025091968 0.00089035445 0.0035910737 -0.0022048918 -0.001075584 0.004331451 -0.0037018515 -0.003363313 -0.003311026 -0.0045110537 -0.0028361161 0.00089006795 -0.004868215 -0.0003308153 0.0022515971 -0.00028774864 -0.0021889936 -0.0009963864 0.004435799 0.0010250773 0.0006812987 -7.7997924e-05 0.001339294 -0.0012812652 0.0027052206 0.0029639762 -0.0050012283 -0.00014114947 0.0036921813 -0.0044954433 -0.000677005 0.004906808 -0.0016169882 -0.0002528816 0.002883787 -6.991638e-05 0.0009921241 0.00064947264 0.002327229 -0.0024858469 -0.003565852 -0.0019632494 -0.004003911 0.0009473667 -0.0010816103 0.0042374902 0.0020337917 -0.003961934 -0.0047934647 0.0011923551 0.0009473611 -0.0013415148 -0.004048014 -0.0031652024 -0.00078475854 0.003321091 0.0027826324 -0.0025308207 -0.0033236803
trace_2 -0.0048084524 0.0020966681 0.0020091967 0.001699513 0.002517308 -0.0042241267 -0.0029122436 0.0047900463 -0.0017090982 9.9252844e-05 -0.0009359587 0.0029832192 -0.004436146 -0.0019377649 -0.0033909783 -0.004597334 0.002721402 0.0013898703 0.003502947 0.00060781755 0.000853172 -0.0005130525 0.001526633 -0.0036582437 0.0031386095 -0.0027061007 -0.0028373275 -0.0026720995 -0.0028650626 0.0006248182 0.0008599011 -0.0013507608 0.002890086 -0.0029610018 -0.0005342688 0.0048295697 0.004200476 0.003856877 -0.0007667146 -0.0011498833 0.0044515817 0.0018851183 0.00011064398 0.0034446034 0.0016692741 -0.0050268406 -0.00049640844 -0.0003553728 0.00305578 -0.00048428148 0.0032517868 -0.00096044963 -0.0003579126 -0.0036246045 -0.00033748057 0.0012208472 0.004332188 -0.0026905756 0.00471103 0.004120468 -0.0010215525 0.0035557193 0.0016694412 -0.0042378916 -0.004204569 0.005067077 -0.0038654348 0.0031267859 0.001210096 -0.001990384 0.0006415967 -0.00458964 -0.00108673 0.0032097762 -0.0002206387 0.002512609 0.002107483 -0.0038389221 0.00038166676 0.0014223913 0.0039569414 -0.00034727986 -0.0037202614 -0.0025091674 -0.0035287982 0.0042715822 0.0041553215 -0.003282666 0.0034143701 0.0037365158 -0.0013853725 -0.0016594816 -0.001926976 -0.0028053035 0.002748475 0.0034920466 0.0021769064 -0.0048084958 0.0016318458 -0.0048723696
trace_3 0.0032260912 0.00044535045 0.0030149154 0.0046652416 0.0034624194 -0.00019365097 -0.004274008 -0.0049746633 0.001926094 -0.0031127848 -0.0038805085 -0.0034953128 0.00024313974 0.0015976438 -0.0026555953 -0.0012047742 -0.001376484 -0.0030548414 -0.003948473 -0.0045217862 -0.0007861667 0.0015100341 0.0006958705 -0.0003884563 -0.002346648 0.000790343 0.002327424 -0.0030816612 -0.0018955027 -0.0035787132 0.0030196724 0.0043250863 -0.003488036 -0.004628248 -0.004207594 -0.002039249 -0.00038242628 -0.0015725526 -0.0028167916 0.0046252753 0.001345137 -0.004110504 -0.0007147543 0.004384805 0.0010516577 -0.00068187923 -0.0043641925 -0.003186 -0.0043130293 0.0003566213 -0.004601508 0.004423538 0.00028547784 -0.0041396697 -0.0043962235 0.0041644555 -0.00031718865 0.004083312 0.0002254431 -0.0024084945 0.00012294944 -0.002429759 -0.0012049659 0.0024305957 -0.0015054754 -0.0016502041 -0.004606192 -7.622913e-05 -0.0035637561 -0.0046673645 -0.001563203 0.001253676 -0.0013745659 0.0019249825 0.003957505 -0.0023790763 -0.005069604 -0.0011437486 0.0022901266 0.0018626584 -0.0029913718 -0.0034516142 6.720154e-05 -0.005111633 -0.0035322555 -0.0009368956 0.003761238 -0.00171985 -0.0019264221 0.0016475619 -0.0004123979 -0.0005791345 0.0013255521 -0.0017460615 -0.004144109 0.0001331608 -0.003811221 0.0037186828 0.0034859495 -0.0017277139
trace_4 0.0023863076 -0.0024751204 0.0022031707 0.0027382986 -0.0027644562 -0.0032455155 -0.003099124 0.0034463496 0.0017476694 0.0017068492 0.0015234181 0.00033259866 -0.003432819 -0.0037432043 -0.002724224 0.001531029 -0.0027131154 0.0011463929 -0.0022766264 -0.0050187935 0.00427347 0.0037090275 -0.0034302957 0.003703199 -0.004293211 0.0027509048 -0.0016791061 0.0007240995 0.0033744462 0.0033173258 -0.0045910226 -0.0007499768 0.0010813716 0.003083644 -0.0015031253 0.00042950825 0.0013813997 0.0011466345 0.004776713 -0.00050818006 -1.4684323e-05 -0.0022288894 -0.0021015862 -0.0049301335 -0.0019467012 -0.004155112 -0.00016568154 -0.00047890568 0.002081553 0.0022566745 4.8239297e-05 0.00094045664 0.0004793026 -0.0013999178 0.0010668389 0.003143644 0.0012032927 0.0008483627 -0.003679629 0.0016093715 0.0049592536 -0.0035459145 0.0039038686 -0.0005444624 0.0037966957 -0.0035384614 0.0027048048 0.0028347243 0.004432855 0.0017930516 -0.0030801015 -0.00025614066 -0.00096220116 0.00503269 -0.0014528321 0.0003546783 0.0025628316 0.0040672584 -2.3211634e-05 -0.0031000983 -0.0042428216 -0.001970633 -0.0039852085 0.00042808766 -0.00010837939 0.004585029 0.0015104266 0.0029664363 0.0014244857 -0.0049509336 -0.0046540475 0.0036379476 0.00058631215 0.0016254872 0.0001879721 -0.00036493083 -0.0019519593 0.0022761892 0.0011534191 0.0030066748
trace_5 0.0047273394 0.0024576536 0.0015405682 -0.0036700699 -0.004860566 0.00028995879 0.004245192 0.004214564 -0.0028320185 0.00030381634 -0.0048574745 -0.004917832 0.0016793795 -0.0016519635 0.0009941258 0.0048618205 0.0017831797 0.0047289357 -0.004128932 -0.00062701 -0.002524437 0.0037464432 -0.003049027 -0.002326235 0.0037791387 0.0044588894 -0.0026182872 -7.379931e-05 -0.0032712317 0.00063124875 -0.0008022727 0.00084742584 0.002206585 -0.0032721495 0.0021859696 -0.0025330118 -0.0047474196 0.00027514008 0.0038586764 0.0015789638 0.0036832506 -0.0023661058 -0.00043074405 -0.0022070587 -0.0012929875 -0.00013742683 0.0027431676 -0.0021916516 -0.0027127536 0.0019231574 0.0037789564 3.740774e-05 -0.00033630113 0.002351143 -0.004483358 0.004165514 -0.0040041627 0.0031608527 -0.0034588415 -0.0011815331 0.004748987 -0.0029599485 0.004333995 0.00385157 -0.002252159 -0.0023699026 -0.004370223 -0.0015362345 0.0044504832 0.003146626 -0.0006052955 -0.0010543511 0.0039098295 -0.002620293 0.0020393254 0.004700052 -0.0021825216 -0.003025999 -0.00023820403 0.0013036968 -0.0004107869 0.0017012367 -0.005078272 0.003937819 -0.0014191481 -0.005024463 0.0043666814 0.00471664 -0.00077798223 0.0042269994 -0.0007528226 0.00065905595 -0.0024526068 -0.0014534764 -0.0039476487 -0.0034817038 -5.396743e-05 0.00010035321 0.0042639473 -0.00082871853
trace_6 0.002600832 -0.0030625898 -2.2034628e-05 -0.00157733 -0.000848083 0.0021921773 -0.00411229 -0.0030881462 0.0021375935 -0.00069083826 0.0020465488 0.00018391808 -0.00085304177 0.0014273208 0.0050332625 0.003038018 0.0022328193 0.0012691579 -0.0032982712 -0.0011097305 0.0011427483 -0.0029496872 -0.0030609053 0.002007897 -0.0012948309 0.002905619 -0.004852919 -0.00331137 0.0014387191 -0.0033323152 0.00069485436 0.0016923696 -0.0032984337 -0.0015971169 -0.00028643123 0.003044101 0.0005074732 0.0045372993 -0.0037654454 -0.0027883397 0.0028138238 -0.0037924866 0.0011548984 0.0014572248 -0.0032159602 0.0016545606 -0.0029981895 0.0036652829 0.001628925 0.0009045124 -0.0017334148 0.00023481788 -0.0032125674 -0.0005442946 0.0023944215 -0.0020889186 -0.00022266533 -0.0043519484 -0.0017050598 -0.00013047355 -0.0012180577 -0.0040979655 -0.0026637588 -0.00405858 -0.0035341992 0.003473147 0.003158799 0.0012162244 -0.0029359795 -7.249744e-06 0.0010473332 0.0014218474 0.0001774809 -0.0028279286 -0.0032782762 -0.0021032703 0.0012049862 -0.00085006154 -0.0019800037 0.004949204 -0.00028218958 0.0038652231 -0.0035402372 0.0012102776 -0.001437816 -0.004346647 0.000607721 0.00011093255 -0.004591373 0.0039521614 0.0014010711 -0.0011191085 0.0018469656 -0.0002586705 0.0027919726 -0.0021706438 0.0012756392 0.0047340645 0.002387302 -0.0026744858
trace_7 0.0025534155 -0.0022537394 0.0015369691 -0.0025695814 -0.00026593014 0.0027576624 -0.0023778037 -0.0048270603 0.0020233856 -0.0033866894 -0.0027829523 -0.0010695906 0.0020107997 0.0024692072 -0.0013246518 0.00091187825 0.0003010457 0.0027824547 -0.0042050513 0.0027663552 0.0008329089 0.0005945741 0.0007879024 -0.0011877901 0.0024830354 -0.0014767038 -0.0045140195 0.0017138815 0.0039360817 0.0022488572 0.002900455 -0.004376188 0.0026855413 0.000499129 0.002327428 0.0005759853 0.0025674226 -0.00044876017 0.0043452773 0.0038601402 0.004988036 0.0036375064 0.001812557 -0.0011791968 0.004408281 -0.0025827652 0.0030251094 0.0019426057 -0.0026604114 -0.0036636614 -0.00027403477 -0.00018071434 -0.0014041129 0.0035319286 0.0012324608 0.0001544312 -0.004116643 -0.0042369007 0.0035643904 0.0023831362 0.004207216 -0.0029016568 0.0014895716 0.0043390584 -0.0038853562 0.004788215 -0.0015392526 0.003450567 0.0028733124 -0.0039961343 -0.0032574101 -0.0011335958 0.0028193516 0.00067025685 0.0005414174 0.0014029857 0.003006604 -0.00085082225 0.004315668 0.002654842 -0.003708517 -6.9334485e-05 0.003980598 -0.0033268908 0.0025583345 -0.0040406086 0.0026351984 0.0052650324 0.002684649 0.003701282 -0.0034762828 -0.0046636527 0.004442676 -0.0028520823 0.00092589104 0.0024722323 -0.0007064082 0.0002499993 1.4040163e-06 0.004168019
trace_8 0.0004469797 -0.0010255608 -0.0039405767 0.0032855235 0.0037559418 0.00449635 0.0049563395 2.6571764e-05 0.0024686658 0.002515559 0.0013820735 -0.0023166263 0.0011614326 0.0016956653 -0.0008782203 0.0042191874 0.00015461708 -0.00019060356 -0.0036340796 -0.0046865344 0.0030665123 -0.00089002994 0.0020660649 -0.0038793925 0.003559311 -0.0021174077 -0.00063499087 -0.0021355494 -0.0016466328 -0.004298258 -0.003638607 -0.004571278 0.0022026254 0.0021025932 -0.0045847106 -0.0040307455 0.0031885577 -0.0024482608 0.00044722224 -0.001175405 0.0025548907 -0.00143098 0.0013566375 -0.002062991 -0.0025824322 -0.0045392285 -0.0041293367 0.0036207992 -0.0039112936 -0.0025747353 -0.0016214907 0.0048963903 0.0031982055 0.005183616 -0.0039195907 -0.0023713643 -0.002729985 0.004248519 0.0040499126 0.0017933885 0.0040589347 -0.0020739548 0.002827936 0.0014010909 -0.00051063066 0.0032951834 0.0038453857 -0.0032547305 0.0034914305 -0.003405639 -0.003424509 0.0003105707 0.0002743953 0.0010650089 -0.0045540854 0.0043275068 -0.0032064337 0.0016259941 -0.0029138778 -0.003480629 0.0015612703 0.0039486615 0.004751116 0.00086168793 0.00032052037 -0.0018397791 -0.0016517736 0.0036227014 -0.0014368141 -0.0035052618 0.0011010309 -0.0037956843 0.0014910826 0.0023671456 -0.0032798753 0.0036522243 0.0043640593 -0.0021176108 -0.0045863222 0.0028724037
trace_9 -0.0013329288 -0.0041517173 -0.0028098202 -0.00045072584 0.0039707236 0.0040017567 -0.00042195956 -0.0033967851 -0.0040849354 0.0031329275 -0.004656202 -0.002551808 0.0036280076 0.0026546186 0.004092763 -0.0032523528 0.0012233693 0.0013311894 0.00049647084 0.00024714135 -0.0032054759 0.0019948676 0.0031036541 -0.004087039 -0.001277575 0.0038382404 -0.002962974 -0.004113493 -0.0021942093 0.0035425515 -0.0024393094 -0.0031446991 -0.0008877964 0.003293547 -0.0047844304 -0.0024044309 -0.00016742485 -3.6506066e-05 0.0026586442 -0.002401648 0.00042275465 -0.0012719333 0.0014777699 0.0032276437 -0.000131328 0.0038739387 -0.0020622346 -0.0040905327 -0.0050568744 0.00022490924 0.0007996363 0.0019030828 -0.004898858 0.002334105 0.0037824155 -0.0018876264 0.00062434643 -0.003074483 -0.00036450473 0.0034346571 -0.003753821 -0.0030018536 -0.002074893 0.0038584985 -0.0017043093 0.0036899312 -0.00044244636 -0.004566188 -0.002930064 7.154236e-05 0.0031354374 0.0039213225 -0.0024918057 -0.0023514421 -0.004361928 -0.0015828729 0.00014007535 0.001983251 0.0031543388 -4.0571113e-06 -0.0017747971 -0.0040786127 0.0012756886 0.00243532 -0.0019790134 -0.0002357179 -0.0015776394 -0.0005553897 0.003485514 -0.00513712 0.004029852 0.0038430903 -0.0025764825 0.0027007957 0.0023142255 0.0017296332 0.004563558 0.0035194 -0.001963923 0.0007924235
trace_10 0.0013671806 -0.0041059386 0.0033622892 -0.003736526 0.0006370762 0.0040019476 -0.0038124463 0.0009830325 0.002858007 0.0015713212 0.0032893682 6.895066e-05 -0.0048953947 -0.0013925564 -0.00127082 0.00081315025 -0.0021665182 -0.0018923774 0.0016616744 0.002988217 0.004250842 -0.0027569467 -0.00296125 -8.7450666e-05 -0.004722136 0.003054074 0.0013673285 0.00064482295 0.0039054446 -0.0042940527 -0.0010226907 0.0018445762 0.00057470147 0.003851876 0.0013867901 -0.0006639378 0.004028732 -0.00038120348 -3.9571452e-05 -0.0008512516 0.0012972482 0.0018802424 -0.0022487533 -0.0014310101 -0.0045230133 0.002421148 -0.00023921706 -0.0034552615 -0.0003589973 0.0006457251 -0.0047478448 0.0011992372 0.0027142887 0.002939738 -0.003813496 0.0033848186 0.0022212663 0.003643589 0.0010712945 -0.005029059 0.0034657689 0.0050393497 0.000102256905 -0.0015478699 -0.0046541994 0.00084716396 -0.0011436093 5.0327304e-05 0.0033696303 0.0041856132 0.0023017041 0.0028014525 0.004072123 -0.004683013 -0.0017731312 -0.0050035324 -0.003140473 0.0025858744 0.0039626444 0.0005291198 -0.0051207747 -0.00053945073 0.0010326782 0.004561913 -0.00013519653 0.0041343486 0.00015244728 0.0014668723 -0.0023384332 0.0009062029 -0.0019301245 0.00330678 -0.0023724388 -0.0023552475 -0.0023332604 0.004094206 0.00039715512 0.000836403 -0.0028595845 -0.0021990284
trace_11 -0.0026051474 0.0013828625 0.00224345 0.0009018598 -0.0042828447 -0.0010946877 -0.0049058725 -0.0016831723 0.00066455855 -0.0037474867 -0.0045521148 -0.0020875242 -0.004838899 0.004267301 0.0025089344 -0.0034154407 -0.00043492633 -0.0010488931 -0.00034697854 0.0024221234 0.0046457485 0.00038206627 0.0015901456 0.0009278727 0.00062013796 -8.862243e-05 0.004513147 0.0031938395 -0.0005161006 0.0013829888 -0.0007688519 0.0021840634 -0.0038686544 -0.002061998 -0.0043677515 0.0019195952 0.004360079 0.0005255551 -0.0016061022 -0.0019043523 -0.002584136 -0.00078855135 -0.0042988136 -0.0047887913 -0.0027584764 -0.0025551994 -0.0019571069 -0.0046702623 -0.004734762 0.0025230332 -0.002452537 -0.0016115715 -0.0005219628 -0.0006019743 -0.0018561286 -0.0018423634 0.0038251511 -0.003844563 -0.00254622 0.003406122 -0.0030085496 0.0026288473 0.004973044 -0.0045921304 0.0015655842 0.0053507867 -0.0024040036 0.0004408639 0.001443338 0.0033100902 -0.0006825862 0.00485039 0.0033404427 0.00042517253 0.0012267162 -0.0015815373 0.0028962796 0.0016781877 -0.0016212779 0.0015775127 -0.003831497 0.0034394963 0.0017521305 0.0017829267 0.0019047218 0.0010810526 -0.0008787592 -0.0023637128 -0.001333071 -0.001423492 0.004792067 -0.001581736 0.0048648687 0.00489024 0.00022728191 0.004415382 0.00071243756 0.0014912183 -0.0038660015 0.003486268
trace_12 -0.004928718 0.00014749056 0.0001490429 0.005033402 0.0033334314 -0.0041611185 0.0026198064 0.0015231571 0.0003428809 0.0014848232 -0.0016026093 -0.0024630795 0.0045515243 0.0011750183 0.00068590784 0.0022969032 -0.0036378177 4.7106565e-05 0.0006717162 0.0001460478 -0.0049906564 0.0015292392 -0.0034274687 0.0012313222 -0.002080121 0.00068250834 0.0004261275 0.0029289136 0.0042100763 0.0032557633 0.0033781747 0.0017434118 -0.0015473766 0.0012448418 -0.0020339282 -0.0007928173 0.0026646038 0.001512465 0.004837632 0.0038945877 0.004466498 0.00033587264 -0.00066248927 -0.001881554 0.0021241035 0.0022078406 -0.0025443737 0.0041341763 0.000240419 -0.0030747438 -0.0049488368 -0.0036692151 0.004473596 -0.0017249974 -0.0025243242 -0.002842276 -0.0024962472 -0.002841548 0.002535996 -0.003128405 0.0034421831 -0.004556105 -0.0017918202 0.0036166087 0.004200539 0.0016603917 -0.004042061 0.0023363752 -0.0033314931 -0.0016879527 0.0008738306 0.0027301095 -0.004890986 -0.0016564921 -0.0008051564 -0.00493632 -0.0025755675 -0.003260959 0.0007161883 0.003952134 -0.0045019076 0.0036227424 0.0034032122 0.0022278326 0.0043346747 -7.946928e-05 -0.00064541085 -0.0011194748 0.0021172215 0.0030744614 -0.002051397 0.0020652004 0.00088883535 0.004741671 -0.0019865236 -0.0005410152 0.0044003557 0.003939074 -0.0010776735 0.00048113096
trace_13 0.0037765221 -0.0027513348 -0.0050230115 -0.0017755036 -0.000103301136 0.004940887 -0.0030042594 -0.0021914267 0.002271741 -0.00048131507 0.001807144 -0.003832552 -0.0038589195 -0.0053392975 -0.0023822058 -0.0028930434 -0.0050321077 0.0029128962 0.0018542783 0.0009794204 -0.0030326573 -0.0047249645 -0.0031265437 -0.00055524893 8.808195e-05 0.004205432 -0.0029360356 -8.611013e-06 -0.004770359 0.00015862887 -0.00020637427 -0.0020769597 -0.001622519 0.0022039735 -0.004516375 -0.004624189 0.0022077544 0.0030605423 -0.0015189288 -0.0013770063 0.004055223 -0.0002826254 0.0031160605 0.0022056745 -0.00031557083 -0.0012862125 -0.00413651 0.0019619262 0.0030763568 -0.0005902429 0.0034212328 -0.0007940351 -0.004550807 -0.001088635 0.001272494 -0.0006259767 -0.0033313988 -0.0019170779 -0.0019110929 -0.0006525551 0.0040232926 -0.0038447797 -0.0019816884 0.0036109095 -0.001203179 0.005323805 -0.004033536 0.0021371786 0.004568284 -0.0022919835 0.0026399808 0.00066690706 -3.122572e-05 -0.0045752916 -0.0026913967 0.000532546 -0.00075781444 -0.001157175 -0.0014758554 -0.0016309334 7.065004e-05 -0.0025930025 -0.0008297475 0.0039976765 0.0018117959 -0.0043980544 0.0039709974 -0.0021523684 0.0017162925 0.00061168906 0.0012730162 0.0037688839 -0.0020849807 0.0037987097 0.0010484563 0.005250589 -0.0018603408 -0.0036658219 -0.003344026 -0.0036321627
trace_14 -0.0032416529 0.003877505 0.002275017 -0.0023193436 -0.0001865789 0.004305842 0.0017084412 -0.0011911587 0.0039823423 0.0025571196 -0.0016171162 0.0014981533 0.00029573686 0.0023722227 -0.0007255663 0.0048359088 -0.0023841888 0.0022344857 -0.002012603 -0.0030097833 0.00063056836 0.000104717365 -0.0014015121 -0.0033453954 0.00027303386 -0.005629587 0.00081435463 -0.00209901 0.0046246313 0.0023231616 0.003290921 0.0026272885 -0.0026166039 -0.0002814759 0.0040804786 -0.0014477286 -0.0036223575 -0.0013686696 -0.0034640117 -0.0026145678 0.0037194367 -0.0010561532 -0.001464256 -0.0041900766 -0.0037472756 2.9974148e-05 -0.0036414503 0.0027806486 -0.0017312323 -0.005114489 0.0027993468 0.0035964246 0.0033061416 0.0028123553 0.002118579 0.0007434148 -0.004305787 -0.0012300726 0.0029481156 -0.0012010927 -0.0032991734 -0.0040913215 -0.004029236 0.002911378 -0.0033331052 0.0049364828 -0.0015918986 0.003457223 0.0035031957 -0.0012507552 0.0020247104 0.0038924443 0.002782292 0.0045455927 -0.0036397416 -0.00014544382 -0.002591316 -0.0028868576 -0.003606348 0.0023671929 -0.0010551268 -0.0035055138 0.004140242 -0.004805117 0.003090357 -0.0005191888 -0.0029382391 -0.0028814971 0.003616785 -0.0021424033 -0.0049197287 -0.0029745903 -0.0033377304 -0.0029665104 -0.0024431264 -0.0028324104 -0.00017094889 -0.0024042241 -0.0013726334 -0.0033412965
trace_15 -0.0018266956 -0.00010216449 0.0037266687 0.0047056177 -0.0029428506 -0.0030613837 -0.004561176 0.0040803216 0.00051753863 0.0026173564 -0.004802946 0.0012306209 -6.209138e-05 0.0034308275 -0.00035803352 -0.0041314657 0.0024751872 -0.0027085678 -0.0027847877 0.0032161325 0.0018265081 0.0029249138 0.004400071 -0.0050240606 0.004895243 -0.0017056831 0.00012053466 0.004088593 -0.00085047167 -0.001028722 -0.002214502 0.0020362008 -0.003926077 0.002019136 -0.0018871202 0.00024076128 0.0024872948 0.0013505404 0.0048983237 -0.0042591644 0.004881044 -0.0003418051 0.0006079072 0.004861852 -0.0032910407 -0.0048011267 0.00021054123 -0.0019710432 -0.004258416 -0.00405656 -0.0039913664 0.0044301148 0.004493957 -0.0023979752 -0.0028373091 -0.001101693 0.003304517 -0.0028562064 0.004203564 0.0029447614 -0.0036661008 0.004871005 0.0048898445 0.0024524587 0.0044117235 0.002222561 0.0029483328 0.003189022 -0.0029218278 0.0037479417 -0.0020637787 -0.001015101 -0.0027265602 0.002685509 -0.004069265 -0.0029434802 6.3377156e-05 0.000772373 0.00087717973 -0.002165634 0.00387316 0.0013393534 -0.0024176363 -0.0048792735 0.0019726963 -0.0032418598 0.0016410981 -0.000866089 -0.0023493909 -0.00011430242 0.00094263884 0.0002599045 -0.0017638134 0.0026766132 9.598861e-05 0.0018616562 0.004034434 -0.0027570194 -0.0015253418 -0.00027440046
trace_16 -0.0013098102 -0.00030223912 0.003726049 -0.0038770335 0.0029343045 -0.0016343184 -0.00093802874 -0.0003195179 -4.1387666e-05 0.004746074 -0.0014387611 0.0016252908 0.0022117298 0.00031843153 -0.0028488862 -0.0019630399 -0.0033648077 0.002063008 -0.00015826004 0.000159531 0.0014226859 0.00027311096 0.0040794597 0.0012380907 0.004805192 0.0022094103 0.0004621538 0.0011569224 -0.004509378 -0.00029512524 -0.0015834428 -0.00047064398 0.00028345498 0.0034227723 -0.0043281205 0.0047826464 -0.0041120434 0.0037691868 -0.00017914879 -0.00030684602 -0.004799043 0.0046907756 0.001326013 0.0048417742 0.004231169 0.004344495 0.004244641 0.0041810772 0.0015797764 0.00025042656 0.003636331 0.0008453159 0.0033415775 -0.003969685 -0.0005466078 -0.00032331157 0.0049172123 -0.0012218964 0.0030592626 0.004765415 0.0018722841 -0.0007491518 0.0005234867 -0.0043552537 0.00467173 -0.00095244317 -0.0024888653 0.0039056593 -0.0039825193 0.0009824226 0.0031647952 0.0028696237 -0.00021657294 0.0017855844 0.0014443928 -0.00029176218 0.0021605724 -0.004181813 0.0006134905 0.004656322 -0.0040461062 0.00030194875 0.0040336507 0.0038750793 -0.00457136 0.0036303787 -0.0025196439 0.0016227317 -0.004793032 -0.0005864371 -0.0033186262 -0.0029141724 0.0014423787 -0.0029080296 -0.0014554093 0.0018218274 -0.00062430755 -0.0021195272 -0.0049525388 -0.0020773988
trace_17 0.0015319939 0.0014876275 0.0049024187 0.0019714595 0.003322096 -0.0012511925 0.0031622006 -0.0022823685 -0.002003663 0.0021449693 9.075236e-05 -0.0013412111 -0.004655665 -0.003901798 -0.0012445723 -0.003633254 0.0009453018 -0.0017509896 -0.0041974206 0.0032868602 0.0026433931 0.0035147478 0.0035904122 9.9602235e-05 0.0039290152 -0.0044929013 0.0039606374 -3.3464385e-06 -0.004750004 -0.002910464 0.002609058 0.0020825115 -0.0019877402 -0.002576176 -0.0010977397 0.0005571072 0.0016678767 0.0035883572 -0.0025060566 -0.00049552124 -0.0017506416 0.0038980006 0.0034245127 -0.0023121925 0.0040767184 0.0024729723 -0.0003486818 -0.004663867 0.003935693 -0.004701386 0.0012742596 -0.0032665743 -0.0012583187 0.0044907853 0.002046775 -0.0030766511 0.004480242 0.0042446526 -0.00057199167 0.004203906 0.00022128462 0.0025304542 0.0006420286 0.0026312 0.0031399834 -0.0015753695 0.0022093859 0.0040292614 0.0044128965 0.0039753285 -0.0004937629 -0.00044141492 -0.0012787271 -0.0030530521 0.003618405 0.0011764697 0.0013621809 0.0023828817 -0.0040395046 0.0039826864 0.0032228027 -0.0022530959 -0.00099654 0.0007113713 -0.0019329048 -0.0052920165 -0.0022011178 0.00041327157 0.002483408 -0.0036554548 -0.0026027265 -0.0033142762 5.1565556e-05 -0.0013573541 -0.0015129352 0.0003370724 -0.0013821926 0.00213373 0.0044401814 0.0017901947
trace_18 0.00027584776 -0.00065826514 0.004431619 0.0037407796 -0.0041699717 0.0033419102 8.4880194e-05 -0.0008019168 0.0017964328 -0.0044974233 -0.0052312277 -0.0037015993 0.00028656967 -0.00022840688 0.0011206197 0.0037293294 0.001256166 0.0037648997 0.00091885024 0.0029095341 0.002624778 -0.0035757655 0.0031836298 0.003603638 0.0039975094 -0.0030057968 -0.0005959531 -0.0008119744 0.002812406 0.0040023704 0.0007359812 0.005341038 0.00391034 0.0032007485 7.948738e-05 0.0003396253 0.0042246766 -0.0036250069 -0.0023932934 -0.0032536157 0.0031979412 0.0009751329 0.0020124423 -0.003087215 0.0048269676 -0.001354102 -0.0026380455 0.002276354 -0.00045831793 -0.004117108 -0.0018979694 -0.0044220854 -0.004076824 -0.0012684405 0.0034225571 0.00093524833 -0.0042024124 -0.0042463727 -0.0035571435 0.0019366941 0.0026537476 -0.00012255552 0.0026222153 -0.0005131364 -0.0016224382 0.0024924055 0.0015583431 0.0016970302 0.0031739294 -0.003966777 -0.0037155987 -0.0028431634 -0.0041905595 -0.0015264574 -0.004635432 0.0027360818 -0.004336105 0.0006748718 0.0032199677 -0.0048501883 -0.004863675 -0.0035466023 0.0013336983 0.004439576 0.004462448 0.0012798556 -0.0004894701 0.0046667545 0.00047230022 -0.00062432373 -0.000967037 -0.0035869095 0.0011590235 -0.002359132 0.0008644158 0.0005860509 0.003915586 -0.00051502313 -0.0045174006 -0.002955254
trace_19 -0.00029256722 0.004199877 -0.00062901236 -0.0029572158 -0.0041547706 -0.0024031184 -0.0016939449 -0.004483238 -0.0045059 -0.0005508491 -0.0038410497 -0.0032864145 -0.000121489706 -0.0012347116 0.0029136185 0.004943204 0.0038248983 -0.0045051016 0.0030559406 0.0034400057 8.682514e-05 -0.003061183 0.0012795838 0.0020730232 -0.0045802384 0.0035991434 -0.0017932701 -0.002056336 -0.0044346405 -0.0014743578 0.0038553912 -0.0042935256 0.005137 -0.0037169787 -0.0023993813 0.0009705924 -0.0041690236 0.0012827273 0.00043072534 0.0033032463 -0.0036192327 -0.0012412992 0.004887693 -0.0029832567 -0.0049353326 0.0030412162 0.001177895 0.0009078526 0.0023259271 -0.0020412744 -0.001667668 -0.0043206178 -0.0037197687 -0.0037754956 -0.0026749002 -0.0005379046 -0.0009359026 -0.003668038 0.0013746882 0.0017356179 0.004950409 0.0038504144 0.0044360617 -0.005251361 -0.00054893614 -0.0043756217 0.0010997732 -0.001199788 -0.004023187 0.0015735588 0.0016098601 0.0011756078 -0.003583754 0.0032994973 0.001057743 -0.004672288 -0.0035743087 0.00475566 0.0035652905 -0.002229204 0.003641614 -0.0018852869 -0.00046445272 -0.00041512513 0.0024047531 -0.002640577 -3.5847952e-05 0.001163044 -0.004731205 -0.00015688749 -0.00015128592 -0.0042208396 -0.0006382208 0.0034877458 0.004833298 -0.000120307246 0.0051291073 -0.0036119397 -0.0012909968 -0.005034056
trace_20 0.0031759995 -0.0028204517 0.00046406765 0.0004475533 0.0012726556 0.0011364651 0.0026087454 0.000128899 0.0025998955 -0.0035511646 -0.0008167173 -0.003911759 0.00024928935 0.0032899128 -0.0013322969 0.002641491 0.0030886377 -0.0014943037 0.0022547536 -0.0047562206 -0.00056686526 -0.002589631 0.0019023535 0.00011842667 0.0035876709 0.0039894814 0.0024147748 0.001785937 0.0032397083 0.0010883297 -0.0031065342 0.0024012944 0.003218923 -0.002290677 -0.004095838 0.002401151 7.694279e-05 -0.00025890148 -0.0021039336 0.0031801227 -0.0032422927 0.0013922337 9.687842e-05 0.0023683317 -0.0018448475 0.0036476695 0.0039138845 0.0012007101 -0.0008748262 0.0002710793 -0.0044699204 0.0042661848 -0.0013576682 0.0010709875 -0.0036850045 -0.0036878795 0.005146862 -0.003844867 -0.0025973448 -0.0019353414 -0.0010249979 -0.0010949263 0.00289446 -0.0013936311 0.0034207131 0.0045623234 -0.0007746556 0.0045478493 0.0013021706 -0.0039580762 -0.0034992252 -0.0011484963 -0.0034331316 0.005059292 0.0025150285 -0.0046457173 0.0006518539 -0.0039220555 -0.004116483 0.0007713016 0.0018382118 0.0025428818 -0.0006327699 0.001691355 -0.0012439318 -0.004850111 -0.0018099562 0.0007796722 0.00488887 0.0013097659 -0.0011225732 -0.0049008047 0.0022501082 0.0046016965 0.0013409277 -0.00092205463 0.0046969834 0.0044217063 0.0011025505 -0.0043302146
trace_21 0.0019292585 -0.0022559995 0.003002516 -0.0020473877 -0.00037173525 -0.0023940534 -0.0011459072 0.0043568215 0.002690063 0.0007663765 -0.0026222023 -0.0045992536 -0.00409892 0.004473547 0.0015430398 -0.0047023958 -0.0019638787 -0.0028276555 0.003780498 -0.0040960256 -0.0017968987 0.002349953 -0.0038708157 -0.0045017917 0.0018929548 -0.001409222 -0.0002515476 -0.0016822375 0.001145922 0.0019101906 -0.0007849846 0.002773007 0.0038138125 0.0041729906 0.00075831026 -0.0031934457 0.0048699565 0.0018750161 -0.003144568 -0.0033466704 -0.00018925776 -0.00238838 0.0032123937 -0.0044372943 0.0031181728 -0.0038601535 -0.002534166 0.0012324759 0.0015431592 -0.00030949633 0.0035447709 -0.0042482587 0.00031283766 0.0014910849 -0.004411935 -0.00027262466 0.0043770005 0.002301209 0.0016791384 -0.0017180914 0.00430703 -0.0039644334 -0.0013955577 -0.002700733 0.0031918148 0.004672556 0.0028350994 -0.0029902733 -0.0025978684 7.66058e-05 0.0039948914 0.0013447562 -0.0040632472 -0.003476226 0.0033825657 -0.00055513316 -0.002293082 0.004973404 -0.00020777674 0.0049707033 -0.0036068137 -0.0035889887 -0.0037201587 0.0021436245 -0.0036691113 -0.0010604609 -0.004030402 -0.0031707028 -0.00022789527 -0.0024583885 -0.0025890146 0.00045292586 -0.0044124387 -0.0018660771 0.0033661078 0.00282221 -0.0018222762 -0.0023866005 0.002127419 0.0015468824
trace_22 0.0030462234 -0.0012846929 -0.0018133442 -0.004435591 0.0009149679 0.004916915 -0.0037584456 -0.0006579363 0.001256037 -0.0003785712 -0.0031276222 -0.0032043005 -0.00053819764 0.0016081315 0.0029270088 0.0037265618 -0.003912514 0.0016546358 -0.0013747051 -0.0038593898 -0.003198699 -0.0046717855 0.0012883948 5.878035e-06 0.0028542543 0.0024812666 0.0018370296 0.0027878084 -0.000701669 -0.004193719 0.001642639 -0.0005087755 -0.0016703237 0.0009150298 0.0035602553 -0.0009271881 0.00435114 -0.0007688719 -0.0022675525 -0.0045485767 -0.0009258029 0.0036809803 0.0028202503 -0.0041569797 0.0040766583 -0.004575282 0.00047453563 -0.0043758857 -0.0034580643 0.00011787653 0.0048142406 0.00081753475 -0.0040762667 0.003920514 0.004093221 0.0037949164 -0.00048676215 -0.0025912276 0.00085541134 -0.0038931223 0.004289643 -0.0048192632 -0.002041924 -0.002569595 0.002333249 -0.0022759524 0.0008393698 -0.0042631966 -2.3312195e-05 0.00028471454 0.0021836064 -0.00035504703 -0.00429801 0.004967242 0.00045643907 0.002062239 -0.003930505 -0.0037994154 -0.002984516 0.00090478547 -0.0024167926 -0.0023977614 -0.0045831758 0.00042664848 -0.0048733987 -0.0032884052 -0.00079418626 -0.0043425113 0.0029313806 -0.00087825936 0.002856229 0.0046954365 -0.0010778371 0.00039965054 -0.0027456724 -0.00048238417 0.0047403523 0.003949917 0.0006386613 0.0041967463
trace_23 0.0033975348 0.001684719 0.002697536 -0.0029135263 -0.0020741073 0.0032878015 0.0031220857 -0.004281637 -0.002920372 0.0022630286 -0.0022172723 0.0034702409 0.0027475483 -0.004652559 -0.004336762 0.0021015638 0.002917796 0.0048943604 0.0032610467 -0.004165208 0.00071653374 -0.0029651579 0.003525072 -0.0015323967 0.0038029163 -0.003948485 -0.00412882 0.0014159834 0.0022502546 -0.00071633514 -0.004028351 0.00095935265 0.004704743 -0.00060269755 0.0037197354 0.0039242473 -0.0013744032 -0.0009829322 0.00078278023 0.0036729006 -0.0012522375 -0.003459037 0.0042816224 0.0020216592 0.0007766468 0.0049508703 0.0036775677 0.0031346148 -0.0037004682 -0.0009331269 -0.0010067897 0.00400533 0.00053782354 0.0011335512 0.0013309479 -0.0032656512 0.0047163055 -0.0035164615 0.004521112 -0.004248267 -0.0008136952 0.0016136665 -0.0015374281 -0.0042181658 0.00219194 0.0025579757 0.0019067836 -0.0037178008 0.004126471 0.0029239303 0.003816403 0.00026283067 -0.0016652871 0.0014476313 -0.003024519 -0.001463636 0.00024437477 0.00083352684 0.0029217682 0.0017795331 -0.0032181193 -0.00447701 0.0024662525 -0.004098245 -0.0023206067 0.0043446408 -0.00017756956 0.0017318291 -0.00014398304 0.0046824 0.0040990133 0.0020938925 -0.0038201266 -0.0048697535 -0.003470967 -0.0018133338 0.0034091924 0.00015498398 -0.0043875645 -0.0023030716
trace_24 0.0023826968 0.003973968 0.0041076792 -0.00013050037 -0.00480584 0.0020644595 -0.0036928118 -0.0042196517 0.0011964093 -0.0045623435 0.004362887 0.004356868 -0.0009355704 -0.0023896825 0.0018974147 0.0012832758 -0.0020264848 0.0020643375 8.089118e-05 -0.0015998263 -0.0044576703 -0.0021358384 -0.0031691603 0.0027965861 0.0030775594 -0.0046562767 0.0018338644 0.00019762892 -0.0002539939 0.0038953302 0.00097643235 -0.0032602567 0.0012587596 0.0005871905 -0.0002977717 -0.00069726765 0.004543508 -0.004984762 0.00024774997 9.052312e-05 -0.00053277647 0.00079716044 -0.0023350604 -0.0034249488 -0.0025911636 -0.0015419326 0.001599024 -0.0038597116 -0.0030299241 -0.0018115534 0.0046817507 -0.0027706844 -0.004698493 0.00032548507 0.0019651072 0.0017777451 0.0045278114 -0.00020158527 -0.00026702162 -0.003846786 0.0022005597 0.0016131072 0.002590307 0.0030864181 0.0030221744 0.004408445 0.0009007043 -0.0028263936 0.0013201224 0.0046266494 0.0010685889 0.0044876733 0.00031238736 0.004604632 -0.0018231816 -0.0009956452 -0.0025942607 -0.00046198932 0.0022758653 0.0046016825 0.0038717082 0.0045674606 0.00017039238 -0.00014918811 -0.0019007499 0.0013310844 -0.0019616005 0.0034927533 -0.0017732114 -0.0037545224 -0.0048688785 0.0014968952 0.00021580375 -0.0028524646 0.00081130164 -0.0021452287 0.004260784 -0.00088797923 0.004386008 -0.00064694264
trace_25 -0.0030558645 0.00029586765 0.001628251 -0.0028772112 0.0041381377 0.00095014897 0.0036998682 0.0013877153 -0.002077487 0.0007806529 -0.0044769794 0.0049375733 0.00012239288 -2.6969396e-06 -0.00068756944 -0.0011293149 -0.0041278666 -0.0023404823 0.00097286614 0.002128618 -0.0016902083 0.0009760766 0.0027470905 0.0016791122 -0.0033761328 -0.0007981356 0.0041562733 0.0012743722 0.00049635087 0.0017928391 0.00058293325 0.0011392487 -0.004088972 -0.0037752802 -0.00424127 -0.0046631484 -0.0027596224 0.0020496752 -0.004303344 -0.00077328936 0.0012539541 -0.0042498363 -0.0037013052 0.0010475588 0.002010359 -3.1462834e-05 0.0037836628 -0.0037421137 -0.0033299879 -0.0051467563 -0.001262623 -0.0031072975 -0.0015043651 0.0015010557 -0.00017997228 0.0019333471 0.0024412868 -0.00055569224 0.002447992 -0.0042928956 0.0010991159 0.0019009826 -0.0036161628 0.004177896 -0.0031976 -0.001176103 -0.0035923065 -0.0020154086 0.0048943004 9.1868555e-05 -0.0031304343 0.0035108614 -0.0029456378 0.0023331575 3.322136e-05 -0.003193509 0.003258459 0.00235153 -0.00173606 0.0011530971 -0.0009158658 -0.0019863446 0.0048502963 -0.00497365 -0.001153254 -0.00043798215 0.003012683 0.0049052024 0.00019082488 0.00081092777 0.0029875813 0.00069767307 -0.0039285817 0.0036294968 0.0023558768 0.004172023 -0.0012972906 0.0038153625 0.0041314894 -0.002178343
trace_26 0.001490417 0.0040941965 -0.0030968837 -0.0011453673 0.0038146186 0.0005336385 0.0049514794 0.001274363 0.0046204287 0.0033996084 -0.00072911533 0.002375858 0.00091583794 -0.0025771821 -0.004168733 -0.003908889 -0.0025556337 -0.002920378 -0.00039242845 0.0035603829 -0.0001442206 0.0038833662 0.000998027 -0.0011232194 0.00493668 0.00465554 -0.0036288975 -0.0023789266 0.002812946 -0.00018176874 0.0027828426 -0.004099094 -0.00313922 -0.001562139 -0.002927697 0.0030529883 -0.004536425 -0.0021273836 -0.00032111644 -0.0034230659 0.0045700865 0.003425885 0.0007356083 -0.0017538929 -0.0024793497 -0.0010114992 -0.0034038727 0.004700695 0.0021626055 -0.0026409137 -0.0031928064 -0.00037484174 0.0016853242 0.0032126145 0.00024705447 0.0009659858 -0.000752937 8.961113e-05 0.00475739 -0.0038172053 0.0006011659 0.0026866354 -0.004184646 0.0040114904 0.004412876 -0.004264624 -0.0006365208 -0.0040150485 0.0013925454 -0.0014689583 -0.0028548306 -0.001699391 -0.0043883687 -0.0007561648 0.00096827274 0.0027004995 -0.001278749 -0.00073661545 -0.0018203754 0.0038808368 -0.0019767329 -0.0017303964 0.00455811 -0.0050546457 0.0007355479 0.00313617 0.0040111043 0.0039968058 0.0019750497 -0.0015880278 0.0030940142 0.003266179 0.0039037112 0.0025950354 -0.0007280983 0.0039688437 -1.3120989e-05 0.0013363572 0.0018624096 0.0014292655
trace_27 -0.0012063854 0.0001528 0.00023969926 -0.0015207875 0.0014617635 -0.0023854075 -0.0046658157 0.0016035843 0.0013935304 0.00425135 -0.0037133526 0.0012073958 -0.003632064 -0.0049872175 -0.0025427109 0.0033467715 0.0007431688 -0.0046493807 0.0010204945 -0.001862199 -0.00021860348 -0.0014340713 0.0035296134 -0.0042237123 -0.00069471315 0.00024084121 -0.0021338216 0.001456931 -0.0024188526 -0.0036572635 0.004178582 0.0025762313 -0.004434551 0.0011847144 -0.0028424896 -0.0020785662 -0.0039367094 0.0013095179 -0.0029174283 -0.0022509536 -0.0035492943 0.0014070177 0.004506997 0.004800877 0.0015982047 0.0042215222 -0.0029247967 -0.00217358 -0.004436102 0.00052745483 0.00048324247 0.0035405327 -0.002765796 -0.0037758427 0.0016944634 0.0035324607 -0.0016546464 -0.004264942 -4.2593645e-05 0.00040576348 -0.0019543779 0.0040707323 -0.0020087014 0.0009504853 -0.0043399245 -0.0034087042 0.0035730759 0.001183536 0.0039956877 0.002778208 -0.00065588433 0.0021227493 0.0016254645 0.0031809385 0.0015822093 0.003078623 0.0033692762 0.0028016346 -0.0029551035 -0.0047596633 0.0024697983 -0.0016623806 -0.0026649851 -3.313377e-05 0.0010241986 0.00035485558 -0.0040132958 0.0022802032 0.0011718904 -0.0024514652 -0.0029289247 0.00095645426 0.0021431646 -0.001624785 0.00421609 0.0040680226 -0.002642735 0.0026509748 -0.0009202271 0.0032237333
trace_28 0.004581693 0.0016657611 -0.004131525 0.0036539743 -0.0028467244 0.0009218299 -0.0037109063 -0.0023686988 0.0029005143 -0.0037135968 -0.0049021454 -0.0024668186 -0.0022624636 -0.0023204852 -0.0018222791 -0.0015445938 0.0029848104 -0.0031050087 0.0039227894 -0.0048487713 -0.0018728215 -0.00010033978 -0.0007285321 0.0007398975 -0.003767614 -0.004459057 -0.0032701818 -0.0026856132 -0.0036069893 0.0037978692 0.004507503 -0.004633458 -0.0009627974 -0.0034574564 0.0034743035 -0.001573381 0.0050531155 0.0019764928 0.0028512294 -0.0039473637 0.003721741 0.002459262 0.0029691013 -0.0047622263 0.0040007015 0.00067259284 -0.0047922065 0.003306772 0.004575309 -0.0019971256 0.0031579603 -0.003940897 0.0033618538 -0.0011783602 0.0044653295 0.00057793525 -0.004205603 -9.133709e-05 0.004263503 0.002363403 -0.0038021258 -0.0027675785 -0.0022908335 0.0014420138 0.0028188294 0.00021100654 -0.0003881245 -0.0027216307 -0.0014085001 0.0037676177 0.0038455257 -0.0026845306 0.0023390406 0.0022594482 0.0017161659 -0.0047350787 -0.0034925642 -0.0014174426 -0.0036001313 0.0013721671 -0.0006004316 -0.0012307295 -0.0049345056 -0.00028481553 -0.0015922684 -0.00058055244 0.00080669404 0.0021318956 -0.0034899584 0.0012123542 0.0041896594 0.0039800415 -0.0002622136 0.0017019877 0.0033085176 -0.00037152861 -0.0042720605 -0.0016243248 -0.0034425787 -0.00157197
trace_29 0.0005839802 -0.003095691 0.0023649912 0.004599734 -0.0017421446 0.0039863363 0.0008461947 -0.00019693011 0.0007246279 0.004349545 -0.0046594488 -0.0035512978 0.0030955605 0.0035223411 -0.00076827774 0.0022183554 -0.0040482627 0.004138825 0.0042652474 0.0016754395 -0.0039075883 -0.0025559561 -0.0002372682 -0.0025099837 0.003067236 -0.004148873 0.0030478756 -0.0013545562 0.004026679 0.0016808842 0.00047106616 -0.00067241286 -0.0012209018 0.0023327884 0.0013832212 0.00040599366 -0.001655096 -0.0029761428 -0.0037256312 -0.0016086831 0.00083001226 0.0007356523 0.0018362718 0.0010319551 0.0026945614 0.0007758619 0.0034990276 -0.0034291584 0.0023242328 -0.003115365 -0.0024864266 0.0022275622 -0.0038188428 -0.00077447406 -0.0039142696 -0.001867722 -0.0012900913 0.00058362534 0.0040801 0.0035675378 -0.0010662474 0.0019091337 0.003246747 0.0018071259 -0.001293901 -0.0044754148 0.0026215126 0.0025182464 -0.00078337314 0.0025827175 -0.0028355855 0.0009741687 0.0044850465 0.004116113 -0.00077246904 0.002059971 0.0010362113 -0.003160492 0.0030094965 -0.002863002 -0.0007573288 -0.0015733824 -0.0019407822 0.0027222913 0.002037791 -0.0030819317 0.0045143035 0.0034325526 -0.00056486024 0.00457401 0.003564284 -0.0009050358 0.0043609687 -0.002984281 0.005009182 0.004683424 -0.003246993 -0.0020744842 0.00078553846 0.0040771943
trace_30 -0.0045803543 0.0038394805 0.0007852849 0.004008846 -0.0011993363 0.0032883787 0.004252673 0.00044729526 -0.0013300558 0.0032535014 0.0010793919 -0.0021694482 0.002085479 0.0031867141 0.0019489779 -0.0009397463 0.0033295148 0.0049860566 -0.0035054397 0.00410506 0.0031857085 -0.0048942147 0.0023452984 -0.0013656623 0.0025319874 -0.0029626798 0.00011206421 0.0027194172 -0.0004773665 0.0035328285 0.0014354032 0.0003926147 0.0023394893 0.00043641214 0.0033564016 0.0026027048 0.0024088917 0.0038887977 0.002763974 -0.0051885303 -0.0024916572 -0.0006707848 0.0044952612 0.00069654157 -0.0042704535 -0.005027916 0.004778199 -0.0003979772 -0.00097038154 0.0013042691 0.0010762257 0.0041068615 0.0006842206 -0.0028340158 0.0016383404 -0.0028318842 0.0030760523 0.0046465634 -0.0031157986 -0.004970487 0.0043169875 -0.0011852935 0.002433675 -0.004291364 -0.00025374256 -0.0012137974 0.0020653438 0.003871665 -0.00078743685 0.0042770803 -0.004687962 0.0013095625 0.001777607 0.0009817613 -0.0045465925 0.00333575 0.004071694 4.126493e-06 -0.0004917783 0.0024363284 0.0026729798 -0.001328967 -0.0044475505 -0.0045220335 -0.0025799337 0.0043890113 -0.00087007956 0.0053360993 -0.0030398623 -0.002396128 0.00091841456 0.003738891 0.0010503599 -0.0014557507 -0.002526934 0.004544947 -0.0025622903 0.0026505822 -0.0010267205 0.0027475911
trace_31 -0.0018715132 -0.0044837156 0.0014484876 -0.00043460654 -0.0012296856 -0.004852548 -0.0016643639 0.00063149945 -0.002111218 -0.0026934915 0.0027473238 -0.00086857495 0.002876279 0.0039316635 0.0047789887 -0.0007133701 -0.00042740983 0.0019061698 -0.0006240173 -0.0038896361 -0.003193271 0.004255083 0.000643025 -0.0035047294 -0.0011399324 -0.0027222482 -0.00168929 -0.0015833232 0.00055302883 -0.0035752296 -0.0028703976 -0.0017941042 -0.0014774463 -0.0038904897 -0.0021039345 -0.0018122415 -0.003242096 -0.0003347079 -0.003908932 -0.0042678895 0.0011808496 -0.0037298927 -0.0018520548 -0.0047763907 -0.0020131797 0.0017402549 0.0020419776 -0.0010568395 0.0032416873 -0.0015049565 0.0047906144 -0.0046633733 0.000110353896 -0.0013787928 -0.0011544544 0.0004140057 0.0008795946 0.0034338143 0.0025357113 0.00031519163 -0.0009775606 -0.00447063 0.0010061732 0.0007577874 -0.0031924755 0.0004365965 -0.0032849072 0.00015632073 -0.0036703758 -0.002518949 0.0003897322 -0.0020214908 0.00021517502 0.0014032272 -6.359257e-05 -0.0008397899 0.0008762487 -0.00022584616 0.002595714 -0.0008171613 -0.0011715367 0.004478969 0.0016907427 0.004568896 0.0037865487 0.00040397356 -0.0027066567 -0.0022543976 0.00060285436 -0.002809423 0.0030812293 0.0047354246 0.002295459 0.0018682483 0.0014463543 -0.0027692372 0.0031361533 -0.0029043595 0.00096103357 0.004029245
trace_32 0.003915058 -0.0011884073 0.0019519931 0.0022945257 -0.0024735476 -0.0038701866 0.0017342826 -0.0011013804 -0.0042932606 0.003909873 -0.002751593 -0.0017317336 0.003149372 -0.0055352603 -0.00093535753 -0.0042869835 -0.00071165303 -0.0027621482 0.0031211586 -0.0033122697 0.0027404728 -0.003963568 -0.0023120278 -0.0047461167 0.0038169993 -0.003927345 -0.0003135412 -0.0029055735 0.0042415964 0.003025825 0.0034949572 0.004977426 0.004570858 -0.0004921366 -0.0024633578 0.0021195558 0.0027851127 -0.0024216033 0.0018602979 0.0002648262 0.00037270642 -0.00039146125 0.0017331119 0.0019344573 -0.004686619 -0.0006749419 -0.0029630908 0.002718792 -0.0047943066 0.004439562 -0.0007359558 0.0046842843 -0.0040314426 0.004607099 -0.0013235118 0.0021899203 0.005222579 0.003240874 0.0033025125 0.0012325472 -0.00043434056 -0.0021963236 0.0022401833 -0.0036074177 -0.0010191142 0.0053294757 -0.0036795554 -0.0020638467 -0.0034128116 0.00024101889 0.0040684813 0.0031504172 0.00044391974 -0.0029260719 0.0012552364 0.004774706 -0.0027973442 -0.0005626618 0.003830265 -0.0026574011 -0.0023880026 0.0049807555 0.0042551295 6.8760615e-05 -0.0008762434 0.0035448151 0.004053845 0.0050579584 -0.0046052127 -0.003960667 0.00041881076 0.0048717633 0.003798593 -0.0043369904 0.0023287458 8.065651e-05 0.00048739192 0.0027081438 -0.0020805215 -0.004360489
trace_33 -0.0044480665 -0.001492145 -0.0019860351 -0.0009889608 -0.0009345737 -0.0006284994 -0.0047956523 0.0023760376 -0.0050272797 0.0026689882 0.0028378826 -8.006784e-05 0.0029895904 0.0038571784 0.00034102093 -0.00094252254 0.0043127304 -0.000577342 0.0019412959 -0.0030779191 -0.0021295275 -0.00090994535 -0.0028314025 0.00086496177 0.003323736 -0.0030418388 -0.00028172357 -0.0042632786 -0.0045453995 -0.001563976 -0.0050361594 0.004017143 0.004764235 -0.0036499016 -0.0015682934 0.0010439351 -0.0005076482 -0.0008795084 0.0026324305 -0.003667856 0.0011890911 -0.0012240659 -0.0045979954 -0.004384222 -0.0036116352 -0.00013130688 0.002279925 0.004976728 0.0001406977 0.0036178278 0.001567737 -0.00026123069 0.000244682 0.0023520936 -0.004079986 0.0035878823 -0.0004049161 0.0025356582 -0.0018182261 -0.004000605 0.0004594101 -0.0004299061 -0.00050463254 -0.0033591494 0.00036767725 0.0031803204 0.00027830095 -0.0017282838 0.0015658664 0.0019138064 0.002125571 0.00016403086 0.0017770149 -0.0035270336 0.0044437465 0.0023098728 -0.0014707799 -0.0037935304 0.0002809179 0.0007558937 0.0031255574 -0.0026781033 -0.002255789 -0.0015940666 0.004077352 -0.0010866458 0.004920436 -0.00285593 0.0048449007 0.0006178752 0.0034413405 -0.0009222066 0.0035183528 -0.0013050716 0.00012457982 -0.003606822 0.0038847667 -0.0019342783 6.797587e-05 -0.0037173226
trace_34 -0.004346772 0.0018874533 0.0037587672 7.881885e-05 -0.002637464 0.0006551964 8.352434e-05 -0.003916853 0.004395275 0.00044163704 0.0023405247 -0.0022059595 -0.004255518 0.0036474443 -0.0021905473 0.0036901576 -0.004373183 0.0050030956 -0.003370326 -0.0036030815 0.0043668295 -0.0023743776 -0.0043073692 0.0011356849 -0.000659761 0.0006630727 -0.0027755746 0.0049063256 0.00040963735 0.0029061674 0.0011314505 -0.00065142463 -0.0016577876 0.002596274 0.0007484696 -0.0006149543 -0.00019544452 -0.0038174232 -0.002643822 -0.0013456392 0.0033877743 0.0028795544 0.003930838 0.0012189467 -0.002769166 -0.004702591 0.0024639692 0.0025428038 -0.0009247172 0.001968711 -0.0024973643 0.002106397 -0.0022897164 0.003803426 0.0020039545 -0.004890167 -0.00032585362 -0.002709316 -0.0003895495 0.0037957954 -0.0008123044 0.0021504622 0.00208872 -0.0023082632 0.0008499963 -0.0036304428 -0.0028157074 0.0006133054 0.0026582484 -0.0031143732 0.00237038 -0.0017887293 -0.0015563593 -0.0013608937 0.0007815415 -0.0023491147 0.0049254387 0.00238839 -0.0043250322 -0.003400124 0.0021206376 -0.0033381958 -0.0005350556 -0.0012437771 0.0029319744 0.002587497 -0.0032067674 0.002015167 0.00443063 -0.0010057664 0.004551553 -0.004381792 -0.0019272586 0.0033848688 -0.0034529665 -0.0028544855 0.0021770436 -0.0033812425 -0.0032948544 -0.004571008
trace_35 0.00051217293 -0.0018511777 0.002160539 -0.0034276587 0.0021497535 -0.0040658084 -0.0024117208 0.0018656582 0.0002907911 5.8553243e-05 -0.0042246697 0.0040268404 0.0035895612 -0.0010218796 -0.0005946272 0.002474976 0.0025569303 0.00019733961 0.0014033371 0.0038326245 0.0017176144 -0.0011850792 -0.0049484037 0.003932624 0.0015282314 0.004618955 -0.0021644854 0.0015398946 0.00060627074 0.0048904135 -0.0005270358 0.0049297125 0.0022619113 0.0029222283 -0.0008330752 -0.0006489001 8.24463e-05 0.0013949927 -0.0009240163 0.0033314887 0.0013049702 -0.0020686414 -0.00013111978 0.0026187613 0.0045332685 -0.004769644 -0.002409865 -0.0021391287 0.0027086204 -0.0030612873 -0.00036769087 0.0006762233 0.00029935484 -0.003046823 -0.002540266 0.0035575328 0.0030343365 0.004792562 -0.0023952168 -0.00492551 0.00091314485 0.0049131103 0.0021716042 -0.00089737616 0.0013728479 0.0011813596 -0.0011346183 -0.0001852338 0.00035372566 0.00080744404 0.0014329383 0.0045893756 -0.0034682213 -0.0034419645 -0.004825041 -0.004777933 -0.00021292758 -0.001077217 -0.0023962345 0.003372677 -0.00032715316 0.0014036499 0.0034034108 -0.0025670556 0.0048156986 -0.0043742596 -0.00460594 0.002455815 0.0041852864 -0.0029246097 -0.004149434 -0.0035873512 0.0019428297 -0.00027524188 -0.0027416917 -0.0036025306 0.0034051924 -0.0043790014 -0.0038284198 -0.00032600423
trace_36 0.00032610283 -0.0010917239 0.0027415752 -0.0035368672 0.0019776933 0.0042515956 0.0009416645 0.0047014877 0.004615349 0.00057269604 -0.0027047447 -0.004331939 -0.0041424967 0.0008284598 0.0027466752 0.0045785396 0.0027430912 -0.0016743398 0.0015332686 -0.0019231108 -0.001835237 -0.0032585198 -0.00056597625 0.00075149006 -0.0032708545 -0.0001450245 0.0026109882 0.002689623 0.00079963333 0.0017326867 -0.002574745 0.0045379326 -0.004007012 0.002424448 0.0026487326 0.0036467994 0.002528445 -0.0018239169 0.0044099092 0.004212614 -0.0013521344 -0.00054362515 -0.0036127183 -0.0038366304 -0.0016606613 -0.0029653555 0.0029686154 -0.0015116908 -0.0024281698 0.001527471 6.095364e-05 -0.003625675 -0.0035416323 0.0021465071 -0.002330085 -0.0042366465 0.0019937288 -0.003446166 -0.0011708122 -0.00043486228 0.0016676846 0.0038160179 -0.00046500162 0.0009414095 0.004237358 0.0043959855 -0.0011579387 -0.0012330851 0.0036162871 0.0042257477 0.0045708 -0.0026488968 0.0038402097 -0.0038032024 -0.0035350516 -0.0020330758 0.00070231303 -0.0007547603 -0.0044855834 0.0027692176 0.0034749124 -2.3396373e-05 0.0007221546 -0.003092281 0.0030943647 0.0023437787 -0.0042841774 -0.0042047054 0.0047422135 0.00092403026 -0.00039369907 -0.0045857625 -0.00142097 -0.0026499068 -0.0012533634 -0.003537458 0.0019787059 -0.0013672801 -0.001059233 0.0014930957
trace_37 -0.0011003113 0.0043182787 0.00085831754 0.0018244439 -0.0014528749 0.0018520448 -0.0017428867 0.0033400853 -0.0026538998 0.0013863465 -0.0036205528 -0.002954035 -0.0037344063 -0.0038525283 -0.0021866446 -1.6074217e-05 -0.0031412381 0.0007265645 -0.0006886664 -0.00033345752 0.0039365673 -0.0023779075 -0.003287353 -0.0006626842 -0.00012254709 0.001243508 0.00064960314 0.0032641727 -0.0035739813 -0.004942053 -0.0014544112 -0.0020158417 0.004220174 -0.0016138788 -0.0042509404 -0.004675684 0.0023829984 -0.00196237 0.003741789 0.0021137393 0.0026400664 -0.0028988428 -0.0034750672 -0.00019402234 0.0015859838 0.0019087669 -0.004862027 0.0032116675 0.001530337 0.0010761635 -0.0010622274 -0.0034638229 0.0028238422 -0.0006629451 0.00073366746 0.00063521217 0.0039650993 -0.003939837 0.0023379652 -0.00381768 -0.0025714347 0.0027651994 -0.00039715314 0.0045832773 -0.003745693 0.0032753292 0.0019214284 -0.002109535 0.002792616 -0.0017258198 0.0012204853 0.0035617556 -0.0019964008 0.0032856052 0.00089925004 -0.002110499 0.0020293235 -0.00039460833 -0.004695617 -0.002817548 0.0009357228 0.002122676 -0.0036130943 -0.0051549836 0.003078811 -0.002483618 0.00049114536 0.0013033987 -0.004641116 0.0044713295 0.0043626707 0.0037679384 -0.0019494498 0.0040572574 0.0019510265 -0.0044946712 -0.004900277 -0.0016779841 0.0019399974 -0.003073589
trace_38 0.0034899903 0.0046651084 0.0022330396 0.0016434389 0.0038472812 -0.0034847313 0.0026618855 -0.004434472 -0.0035800342 0.0049685934 0.0041699884 -0.0032468757 -0.0013939658 -0.0030795506 0.0033921737 0.0013304964 -0.0041251965 -0.00030282815 0.0034396145 0.00240852 0.001995446 0.0005697248 0.00037305366 0.0024727166 -0.0022052405 0.0019320122 0.0016638045 0.002250149 0.0012060788 -0.0024476897 0.0014624071 0.003596174 -0.002772487 0.0040258714 9.5591604e-05 -0.0007184677 -1.6258262e-05 -0.0047214353 0.0017340606 -0.0018915741 -0.002503992 0.0005069632 -0.002596874 0.002221441 -0.00026691976 -0.002283633 -0.0033298845 0.002394043 0.0023900548 0.00070909737 -0.0009509948 2.9704284e-05 -0.0041615563 -0.00291184 0.0026609832 0.0020845311 0.0035621808 0.0012461757 0.0043800874 0.004080252 -0.0048866267 0.0004019522 0.0048156017 -0.00095885544 -0.0007323387 -0.0017898155 0.0017545667 0.0047462313 0.002299088 -0.00048909255 0.0030838884 -0.0036258723 -0.0013686032 -0.00080700207 0.0031917326 0.0028284255 -0.0042141764 0.0036773058 -0.0016681668 -0.0015037656 0.0013420094 0.004554996 -0.00025312655 -0.004864305 -0.00057151215 -0.0008479206 0.004791801 0.005329257 -0.0047853263 -0.004157557 -0.0025572428 -0.0006085741 -0.0009903584 0.00393136 0.0014361244 -0.00451274 -0.0013488907 0.0004610906 0.003611632 0.0017185656
trace_39 0.003334374 0.0018795518 -0.0007016293 0.0032138543 0.00038642736 -0.0044587133 0.0031970937 0.0034885039 -0.002162638 -0.00085265125 0.0018173184 -0.0035565884 0.0002883917 -0.00013969844 0.00423405 0.00083530304 -6.090357e-05 0.0049427976 0.0008369816 0.0048804483 0.002265141 0.0008945196 -0.004517638 -0.0036234038 -0.0042656306 0.0027583912 -0.0036235617 -0.003110169 0.0027135774 0.002201801 -0.0035554273 0.0005865139 -0.001827163 -0.0011603159 -0.003677221 0.00072969735 0.00051374984 3.7055826e-05 0.00317622 -0.0028576872 0.002734036 0.0031926672 -0.0023905467 0.0011368258 -0.0046895854 -0.0023472046 -0.0021764454 -0.0042900653 0.0021269496 0.004441027 -0.0011907121 -0.0048956308 0.0036659897 -0.0020700374 -0.002748264 0.00042691475 0.00028448543 -0.0005323283 0.001974366 0.0047103134 -0.0009261663 -0.001017436 -0.002173234 0.0020750337 -4.9222024e-05 0.00014052015 -0.002858563 -0.0020708574 0.0038082802 -0.00044787905 0.00055479095 0.002106359 -0.004705133 -0.0033611185 -0.0013954404 -0.0018847882 -0.004653357 -0.004018108 -0.0041129305 -0.002425279 -0.0020145837 0.00033533265 -0.0002343317 0.0003042115 -0.0015561816 0.0044980063 0.004390384 -0.00026232805 0.00038927945 0.0017538823 -0.0020291882 0.0014512665 -0.0019230552 -0.00059785374 0.003998523 -0.0026989034 -0.0009975348 -0.0032135805 -0.0010575973 -0.003165263
trace_40 -0.0042664884 -0.000612697 -0.0049169464 0.004511498 -0.0048141433 -0.00092387554 0.0013345636 -0.0012155079 -0.0011132137 0.0025478068 0.0022215422 -0.00018083942 -0.00020446123 -0.004874429 -0.001391369 4.857718e-05 0.00060361 -0.00066988316 0.0037781724 -0.0037121968 0.0033659171 -0.004008655 -0.0041677565 0.0006390269 -0.0039819777 0.0038185357 0.00026154733 -0.0035244771 -0.0038438258 0.002527927 0.0046305023 0.0030547783 1.8333567e-05 0.00089853175 0.0009689521 0.0025671746 0.0032151346 -0.004640497 -0.002852951 -0.0024421832 -0.0013240298 -0.00188226 0.0034584291 -0.00020713414 0.0030175596 -0.00211024 0.003764508 -0.00087768474 -0.0049571428 0.0008856062 -0.00012136195 -0.002959831 0.0043607024 -0.0038306797 -0.0023736071 -0.001390826 -0.0013322142 0.0037501762 0.0035105443 -9.941775e-05 0.0044169743 -0.002793266 -0.003961838 0.0029172183 8.19331e-05 0.0030359796 0.0001010111 0.0013979744 0.0018231497 -0.0031213076 -0.0033689095 0.003254229 0.004307638 0.0010341317 -0.0028144524 -0.0047355313 0.0021047397 -0.0023943312 -0.0042309077 -0.0018694407 -0.0022698906 -0.0049717934 -0.0031917626 -0.0019639493 -0.0014201951 -0.003170546 -0.0023505162 -0.0002906428 0.004984497 -0.0029104105 0.00087275944 -0.002065379 0.002245317 -0.004282091 -0.0023857327 0.0014840266 0.0036264844 -0.0011853101 -0.0045235846 -0.0027433417
trace_41 -0.003743758 0.0025339737 -0.0022627704 5.063277e-05 -0.0014875131 0.0012578449 -0.0007896921 -0.0031249884 0.0028917147 -0.004306424 0.0012662691 -0.0012749278 -0.0016443381 0.0017397149 -0.0030238964 0.00082736945 -0.0038933551 -0.0015266328 -0.003333444 -0.004071682 0.004066312 -0.0036398533 -0.0047548898 -0.0038381268 -0.0019068567 0.0003342209 0.0005513635 0.002246513 -0.0013080403 0.0009857544 0.0014576117 0.0028344016 -0.002310406 0.00024569055 -0.004950332 0.00029129276 0.003822491 -0.0032995879 -0.0032133104 -0.0022123132 -0.0006954926 -0.0024993964 0.003277214 0.0024293915 0.00077599357 0.004136656 0.0018135497 0.00020025413 0.0016528979 0.0019270928 0.0017973395 -0.0010991946 -0.0012313115 -0.0017024596 -0.004521222 0.0018949276 -0.0004033183 0.002009065 -0.0033621443 0.0033679924 0.0033225308 -0.0006801297 -0.004843113 0.0019732122 -0.0042514214 0.0051191263 0.0034874647 0.004024055 -0.0035047452 -0.002740812 -0.004059263 0.00039911253 0.0028640928 -0.003802495 0.002183898 -0.0020717417 -0.0027900077 0.004376182 0.0028946109 -0.00013516775 -0.0049095997 0.0030110045 0.00313845 0.0015718017 0.00094824174 0.0029345585 0.0025842465 0.0038670173 -0.0042554713 -0.0045839287 -0.0046067946 0.0038295258 0.0046259435 0.0028210515 0.0050886767 0.0012396944 0.0024631582 -0.0007048109 -0.0005908128 -0.001853765
trace_42 0.00018047438 -0.0032460378 0.00022621614 0.0034495536 -0.003606374 0.00427453 -0.0042005964 0.0036200965 -0.002140089 -0.0009401214 -0.00033062452 -0.0031104265 -0.0050971527 0.0011978751 -0.00015253254 -0.0031126835 0.0033815557 0.001927614 0.0034515671 0.0030798975 -0.0019917283 -0.003918227 -0.00306158 -0.0018901253 -0.003493854 0.0031588026 -0.0043974626 -0.0044207713 0.0033306673 0.00015812821 0.00369626 0.005461776 -0.0008872746 0.0023243397 0.00030503303 0.0005926383 0.0011021114 -0.0038852803 -0.0018918113 0.00078714057 0.004375118 -0.0040772674 0.0004090298 0.004625184 -0.00088665454 0.0036544844 0.0049328986 0.0037084469 -0.0038896052 0.0037841755 -0.004145955 0.00023406261 0.0010149087 0.0045706253 0.004242029 0.0044508763 -0.0021206336 -0.0031522363 -0.00093787594 0.0014873842 -0.00077348284 0.0037284172 -0.0007395706 -0.0042549586 -0.0044926587 0.0029812304 -0.0043650893 -0.0029515033 -0.0034978946 0.0015161358 0.00091841933 -0.0024313142 -0.005046679 0.0041934084 0.0024419632 -0.0048368373 -0.00015315588 0.0049831397 -0.0051819547 -0.004720521 -0.004555965 0.0017260861 -0.0016464372 -0.0049422486 -0.00052080787 0.00017070281 -0.0041655786 0.0034790775 0.0002476484 -0.00033478712 -0.0030737247 0.0020057093 -0.0024495851 -0.0034455154 -0.0038288275 0.0017896353 -0.0022590945 0.002065993 -0.0046404763 -0.0015400681
trace_43 0.004425589 -0.00038643423 -0.000568088 -0.0016393965 -0.0022095873 -0.0029718825 0.0006077823 0.0032945091 0.0018259779 0.0005395067 0.00064142497 -0.003913613 -0.0017237958 -0.0012793841 0.003230311 -0.0028216217 0.0015724223 -0.0032255067 0.0020011838 -0.00020508737 -0.0048129344 0.0033400587 0.0037558128 0.0021293699 -0.0018261524 -0.0044190846 -0.0023951533 0.0009126332 0.0017421681 0.0045565455 -0.0003894063 0.0023983205 0.0032628959 0.0025929448 0.003137791 0.0033543496 0.005182551 0.0041788644 -0.0042314837 0.004786606 0.004893703 0.004606626 -0.00039693346 -0.004643659 0.0038024778 -0.0041463887 -0.0015129027 0.0030367293 -0.002122147 -0.0039479854 0.004589607 -0.0039215065 0.0013814972 -0.0038654504 0.003194503 0.0017507501 0.00045645016 -0.0019660287 0.004193187 -0.00042015317 0.0003030896 0.0043060696 -2.7745926e-05 0.0006904723 0.0007430513 -0.0023286706 0.00082814007 0.0034174644 0.0028180294 0.0044537056 0.00029212094 -0.001524785 0.0038817863 0.004569484 -0.0022288098 -0.002190312 0.0030654222 0.0014037321 0.0033463452 0.0032763476 -0.0049583325 -0.0043905075 -0.0013972669 0.0022853673 0.0036754375 -0.002753177 -0.0044041234 0.004303265 -0.0038571972 -0.0043158503 0.001079896 0.0043085427 -0.0013258866 -0.0045947335 0.0027975847 0.0012468776 0.0013308157 -0.0034813466 0.0028325303 0.003688033
trace_44 -0.0036775835 -8.239444e-05 0.0030870994 0.003411642 -0.002693851 0.005162036 0.0025265075 -0.003697234 0.0006620966 -0.002935081 0.0021087122 0.0045317127 0.0048764325 -0.0018482894 -0.0040150806 -0.004214456 0.0030617295 0.00038156033 0.00062452565 -0.0042032693 0.002477151 -0.0038806433 0.0035970828 0.00075779116 -0.004464519 0.00029279175 0.002617893 0.0006544025 0.0046777404 0.0022181452 0.003094266 -0.0013204844 -0.003827242 0.0006680665 0.0045226337 -0.00032221078 0.0040047173 -0.0015074476 0.0026655628 0.003877708 0.0013798982 -0.004570475 0.0045977817 0.0020457031 0.00093706907 0.0007897565 -0.00021376833 -0.002957411 -0.0048116036 -0.0033812907 0.0025811782 0.00016366043 -0.0031581577 0.0014989484 0.0026375556 0.0020660134 -0.0035000464 0.0031298664 0.004198462 0.004252151 0.002941675 0.003960323 0.0014868457 -0.0045450204 -0.00051375176 -0.0036717409 -0.0011193122 2.5641375e-06 0.0023076944 -0.0007421755 0.0041565862 0.0034891684 0.0016381115 -0.0040534777 0.0010217724 -0.003265526 -0.0040068054 -0.0023426865 -0.0005110054 0.0041589197 0.002820305 0.0022674182 -0.0015511839 -0.0031971585 0.0029174956 -0.0002683294 -0.00055158307 0.0026267557 -0.0037006345 -0.0017419397 -0.0043097665 -0.004881918 0.004029586 0.0021372542 -0.00369577 0.0027812151 0.0023332736 0.0031959452 -0.0012494898 -0.0019465513
trace_45 -0.0023312918 -0.0044432757 0.004316865 -0.0013621451 0.0011446413 -0.0018520029 0.0013487597 0.0024945778 -0.0038569767 0.0039821737 0.0043793363 0.0030116623 0.0046444936 -0.0012606228 0.002764558 -0.0037541417 0.0028795535 -0.0010062963 0.00066203304 0.003508337 0.0033512698 -0.0024997268 -0.0015349375 -0.00017480047 0.0020034015 0.0032862155 -0.0030826277 -0.0033366089 -0.00027087217 0.0007035223 0.0019107026 0.005239451 -0.0033711249 -0.0015539426 0.0024591088 -0.004003717 -0.001409201 -0.0009663927 0.0005130396 0.0021616956 -0.0027831942 0.0005584602 0.00217453 -0.0012703222 -0.000521043 0.0019306407 -0.0025577464 -0.001339656 -0.0019700108 0.0037561327 0.004390611 0.00070515444 -9.5616255e-05 0.0029926344 0.005143725 0.0037655772 0.0012247834 -0.00077791786 0.0002733242 -0.0011338182 1.1564776e-05 9.4336734e-05 -0.0024552091 -0.0011713807 0.003550149 0.005601423 0.0037777082 0.0029948908 0.003975641 0.0033000505 -0.0039487476 -0.0015067003 -0.0036475642 -0.0031769015 0.0024077764 0.003579092 0.0035176275 0.0048540826 0.003701725 -0.0014966127 -0.0039899307 0.0041806456 -0.0042131557 0.0022486274 -0.0041134516 0.0032575657 0.00080999424 0.0053572133 -0.0026685954 0.0017519412 -0.0032362577 -0.0024483495 0.00032666742 -0.001314324 -0.001655776 -0.0015013389 -0.0025032298 -0.0049427133 0.0046271225 -0.0041419794
trace_46 0.00085263455 0.004720765 -0.0023161652 6.6097396e-06 0.0043582926 -0.001229672 -0.00022280423 0.0015803823 -0.0038914366 0.00168345 0.0030480823 0.0032889596 -0.0016087026 0.0015949165 0.0020843048 0.0029005345 -0.0047755796 0.0038525232 0.0035925892 -0.00078193407 0.0035118957 0.0049060197 -0.0022908875 -0.004042496 -0.00019304885 0.004687434 -0.0023735259 -0.0043154117 -0.0024801241 -0.004765908 0.003787865 0.0022403914 -0.000735462 -0.0019596582 -0.0028542925 -0.0022275234 0.0037492926 -0.001408392 -0.0026046769 -0.0038050925 0.0008320259 -0.0046488503 0.003736344 -0.0024373308 0.0035620085 0.0022873615 0.0043611177 0.0019657149 -0.0044860295 0.00052436866 0.0004140953 -0.0017247443 0.0037344054 0.0048750783 -0.0036557904 -0.0038782838 -0.0038545567 -0.0018709031 -0.003456919 -0.001891981 0.003804732 -0.004842457 0.0023009279 -0.0045865946 -0.0024503856 0.0048308526 -0.0015639067 0.00285684 -0.0035869132 -0.0011495077 0.0009301073 0.0025640477 -0.0016174102 -0.0019075663 0.0047596125 -0.00011194336 0.003855906 0.00038276377 0.0020669992 0.0028609694 -0.0014601913 -0.0018988807 0.00012382607 -0.00089695945 0.0034995815 0.002303825 0.00327501 -0.0013506094 -0.0045892717 0.0024431478 0.00044880947 0.0028813623 -0.0015969201 -5.2864147e-05 -0.0038435764 0.005092518 -0.0013573634 0.0021620668 0.00074152416 -0.00035380383
trace_47 -0.0037693556 -0.00080874556 -0.0005517098 -0.0020574955 0.00090556795 -0.0023699477 0.0050146044 -0.0016444167 -0.002927262 0.0026241343 -0.0034656741 -0.0031185723 -0.00014542372 0.002094909 -0.0026578219 0.0040333974 -0.0019747738 -0.0020337803 0.0032439956 -0.002729571 0.002156986 -0.00060199195 -0.0017244614 0.001900481 -0.0024427348 0.0038197096 -0.0050494852 -0.0038983787 0.0040431404 -0.004849093 0.001765318 0.0004505514 0.005184673 0.0026696138 -0.0024965955 -0.0043270774 0.0028888877 -0.0003136005 -0.0025575345 0.00280132 -0.00031446363 -0.00210402 -0.0032348991 -0.0046237824 0.0020523544 0.0009588408 0.004746335 -0.0033829683 -0.0034764989 0.0021716044 0.0004590665 0.003155024 0.0021061692 0.0011285702 0.0026734616 0.0043351003 -0.0040756646 -0.0014769797 0.0025355055 -0.0014487021 -3.867068e-07 -0.0048300186 0.0014174778 -0.0038762325 0.004379853 0.003582485 0.001035044 0.0046355575 -0.0024181749 -0.000121504345 -0.00091424416 0.0014061498 -0.0017463942 -0.004529679 -0.00030982532 0.003696326 0.004273421 0.0020739418 0.0007845468 -0.0035163828 -0.0009912064 -0.002483124 0.0031991773 -0.0036699723 -0.00022615957 -0.0027704253 -0.0027090798 -0.002132447 0.004922637 -0.0021307413 -0.004996971 -0.0031248573 0.0020394453 0.0034878 0.00023035739 -0.0021852052 -0.0042544533 0.0020494508 0.0030599707 0.0024724633
trace_48 -0.0017851078 -0.00082273764 -0.004209803 -0.0017614835 0.00045626867 0.0010598102 0.0017086413 0.0040914905 0.0025473547 0.0020110782 0.0012811646 0.0047273003 0.0017987693 -0.0021661192 0.0015324916 -0.00011083438 0.0011870018 0.003259276 -0.00048753945 0.004305505 -0.002566971 -0.0019956066 0.0031542382 0.0013126249 -0.0009002219 0.001799081 0.00017370396 0.0004180619 0.0012936323 7.564838e-05 -0.0006952476 0.00068207335 -0.0014343426 0.0024377548 0.0012883199 -0.0036053185 -0.0018411203 0.003476014 0.0038306084 -8.469653e-05 0.0016655528 -0.00054232206 0.0007379613 -0.0006758748 0.0034225485 0.00074592873 0.0021909114 -0.0010589667 -0.0036999646 -0.0032307988 0.003980881 -0.003930565 -0.0001230357 0.004452411 0.00022066786 0.004322484 -0.002859089 -0.0026398594 0.0004380076 -0.0009805334 0.0002614228 -0.0023103864 -0.0038291593 -0.0031077203 0.0033723647 0.0013295094 -0.0006042783 -0.0005526585 -0.00090014614 0.003016156 0.0040316368 0.0020754226 -0.0045590736 0.0015896495 0.004476055 -0.001348614 0.0008608842 0.0039224885 -0.00020348003 -0.0036877163 -0.0028399536 -0.0021700563 0.0014966396 0.004030447 -0.00443844 -0.002648977 0.0025736568 0.0008103534 -0.0039778706 -0.0027938203 0.0045486395 0.00042617743 -0.00075872923 0.004221742 8.8258515e-05 -0.0019165601 0.0006546817 0.00096440356 -0.0018579091 -0.0038596971
trace_49 -0.00068890786 -0.0015626826 0.002193315 -9.283555e-05 -0.0025935401 -0.0044966466 -0.00080868934 0.0027554128 -0.00065718446 -0.004123298 0.0030828344 0.001564352 -0.0026864265 -0.00048898224 -0.0036645369 0.0014684304 -0.0022184318 0.0020737199 0.0005838112 0.0010851491 0.00351101 0.0016050088 0.0015123165 0.0043508797 -3.246627e-05 -0.0014169471 -0.001634152 0.0017881691 0.0011883309 -0.0019762525 -0.0006557211 0.00013574134 -0.0013636162 -0.003953828 0.0020237728 -0.003833582 0.00013550604 0.0020204368 -0.0026400895 0.0021649618 -0.00427789 0.003957685 0.004335684 -0.0009056245 -0.00464298 0.004525782 -0.0040623946 0.0050449637 -0.0017790443 0.004708876 0.0040362733 -0.0005570937 0.00038693927 0.0003867035 -0.0012133683 0.00058934226 0.004474675 0.0032737975 0.0033810108 -0.00035966726 -0.0019511455 0.0009993401 -0.0013766468 -0.004806749 0.0038230766 -0.0029794232 -0.0034069964 0.0008058643 0.0016331874 -0.00056374597 0.00078813906 -0.0026663262 -0.002150736 -0.0020391473 0.00038209016 0.0016893842 -0.0035971797 0.0017814605 -0.004467526 0.0035279004 -0.0005995818 0.0016230858 -0.0017477528 0.0027842685 0.0032448045 0.0037238633 -0.004895315 0.0006028668 -0.0026030277 -0.0022451899 0.0006771995 0.0031654404 0.0024845644 -0.0036568404 -0.0021166722 0.0049872063 -0.0017516329 -0.0045295013 0.0025217717 0.004384658
trace_50 0.004248164 0.005008821 -0.00093069725 -0.0015058581 -0.003840513 -0.00404237 0.0047627054 0.0003638673 -0.00085575297 0.00062572025 0.0024408747 0.001304968 0.00392004 0.002429545 0.0028360898 0.0044472683 -0.0017008581 -0.0025953425 0.0027224533 -0.0029194627 0.0046995524 0.0007901221 0.004184832 -0.0023348096 0.0040216395 -0.0014998512 -0.0014196676 -0.0037783345 0.0038492002 -0.0030695563 0.0024824184 0.0012089763 -0.0037050894 -0.0024261253 0.0039327126 -0.0047390973 0.003870019 -0.0048163356 0.0024512566 0.0037022731 0.00021047918 -0.003676257 -0.004719212 -0.00238526 -0.004888267 0.0035231845 0.0049753026 -0.0028482024 -0.00016080007 -0.0029244618 -0.0017480579 -0.0013390891 0.0027988285 -0.0037799417 -0.0039811167 -0.0033369826 0.002653926 0.0015138418 0.0006552686 0.0011168869 -0.00037614003 -0.004424721 -0.00033263388 -0.0040384126 0.0025376845 -0.0009188525 -0.0005176239 -0.0049700304 0.0035201865 -0.004266307 -0.0030900738 -0.0020174477 0.00090097386 -0.0017003518 -0.0043024416 -0.0032604046 -0.00085776555 -0.0011796006 -0.0030505646 -0.004084635 -0.0003635105 0.004212595 -0.0024982926 0.0024900944 0.00256402 -0.0017289454 0.0018384212 0.00037759228 0.0035538576 -0.001468911 0.0034986825 -0.0032276025 0.0030097228 -0.0040343544 -3.120547e-05 8.152164e-05 0.0018260595 -0.0038897765 0.0012329997 -0.00027714414
trace_51 -8.781593e-06 -0.00017536464 0.0011741016 -0.0019678026 -0.004920484 0.0038084185 0.0016987801 -0.004661842 0.0024177541 -0.0024660926 -1.9063482e-05 -0.002333929 0.00076500204 -0.0049229623 0.0015434601 -0.0027199946 0.0044670906 -0.0032605133 0.00469527 0.0008640471 0.002662976 0.0026312105 0.00039387995 -0.001796635 0.00073381717 -0.003535272 0.00125432 -0.0008079037 0.00398966 0.0025027427 -0.0024509614 0.0010387563 0.004603865 0.0034440109 -0.0029076957 -0.00070301647 -0.00032137538 -0.0030230687 0.00405492 -0.0022760998 -0.002858894 0.00456741 0.0030161818 0.0008694666 0.0035724468 0.0012593607 -0.00079569325 -0.0039597373 0.0020756077 0.00028265364 -0.0004634467 0.0037929204 0.0023851483 0.002182636 -0.00043015025 -0.0025116722 0.003288552 0.002505318 -0.0013582064 -0.0040732375 0.0030500214 -0.00460715 0.0006869696 -0.0031773453 0.0005748295 0.0004942104 -0.0003177876 -0.00039215776 0.004026129 0.0041661817 -0.0034112823 0.004869505 0.0044261566 0.00074517314 -0.0035712505 0.0023002026 0.0025227207 0.003969759 0.0030245385 0.0028427895 -0.000489562 -0.0013829478 0.002529163 0.0019362175 -0.003233868 -0.0035245563 -0.00408022 0.0036299203 0.0011477274 -0.00066558394 0.004209017 0.0017012168 -0.00024420817 -0.0028162436 -0.00037242426 -0.0024737357 0.004314614 0.0023394276 -0.004434035 0.0037134872
trace_52 0.0021161179 0.003221401 -0.001621178 0.0007818531 -0.004442281 -0.002241739 -0.0033740231 0.0034364788 -0.00022256262 0.0027441375 -0.0032989474 0.0038235541 0.0004925762 0.0032873573 -0.0015962463 -0.003123529 0.004036638 -0.0023781634 -0.0042815404 -0.00083625596 0.004711192 -0.0034065284 0.0025728238 -0.0018318191 0.00018690583 -0.0032131234 0.00341421 0.0020498864 0.0036057013 0.0018865489 -0.0031122246 0.005101023 0.0032071425 -0.00086910103 -0.004269229 0.0009793538 0.0050505656 -0.00030642722 0.0048316913 -0.0016561024 -0.0018176433 0.0024000932 0.0030876892 -0.004855311 0.00391986 -0.0028190203 -0.00090534 -0.0027357356 0.0020937636 0.0041651083 -0.0024554892 -0.0018368738 -0.0035948805 -0.002462886 -0.003858157 0.0037680168 -0.0011117681 -0.0014715514 -0.003412078 0.002282376 -0.0047818054 0.0048691723 0.003175124 0.0009133447 0.004799049 -0.0044257585 0.004587125 -0.0015473233 0.0047762296 0.00035425916 0.0005915577 0.0027586771 -0.001537225 -0.0029129593 0.0031149664 0.0005776827 -0.0029933127 -0.0005036289 0.001896272 0.00010803681 -0.005000952 -0.0016235999 -0.0032979678 -0.0038546391 -0.0027519295 0.00071406626 0.0019066902 -6.141867e-06 0.004834941 -0.0036507293 -0.00071895163 0.00042013466 -0.0011856057 5.9468846e-05 -0.0036455388 0.0032314996 -0.0013332115 -0.00406332 -0.00077478983 -0.0023062623
trace_53 -0.001118934 -0.0037877646 0.0029163887 0.0039024933 -0.00054504746 0.0010910627 -0.0030382213 0.002837909 0.00033423095 0.00014636238 0.004053748 0.00344174 -0.003025952 -0.0027692206 0.0031676323 0.004064106 0.0023621449 -0.0021188327 -0.0026422408 -0.000648248 -0.0024476077 0.0036032605 8.1028455e-05 -0.0022531932 -0.0034918608 -0.001792947 -0.0020608448 0.0026336194 0.0046211546 -0.0022930086 -0.0042499695 -0.00071410753 0.0011016984 -0.000718536 -0.0027701838 -0.0016942838 -0.0010111226 0.0015984073 0.0013474647 0.00096975575 0.0027107922 0.004561992 0.0035615307 -0.004507372 0.0011365361 0.0019844703 0.0046779905 -0.00024090109 -0.0043788864 -0.00086320715 -0.001328896 -0.0043895417 -0.0023274755 -0.0031068507 0.0021134494 0.0021751514 0.0051665795 -0.0011764372 -0.00187463 0.0033293117 -0.0042800554 0.004309328 -0.0034983582 9.533206e-05 -0.0035031263 0.0007136876 -0.0025894982 0.0004867254 0.0012951789 0.001137824 0.0033044145 0.001253592 0.004654429 0.0034525355 0.0006361864 0.003346357 -0.0047900532 -0.0043321317 0.002155583 -0.0004355872 -0.0025424506 0.0030079738 -0.00036050816 -0.0012170279 0.00302 -0.00463368 0.00042168703 0.0023656064 0.0019442639 -0.0014795305 0.0035453588 -0.00092869956 -0.001060876 0.0039182287 -0.00021484814 -0.003018986 -0.00029890655 0.003832508 -0.0015865976 -0.004205871
trace_54 -0.004149135 0.0017067533 -0.003096062 0.003460132 0.0021817002 -0.0027885558 -0.0036392065 0.001595416 -0.0012959366 0.004026939 -0.0031192293 -0.002952755 -0.00072039076 0.0017704552 0.0043859533 -0.004399658 -0.0023789871 -0.0029641748 -0.003090216 -0.0009923102 -0.0035949918 0.0048965705 0.0025661737 -0.0014437248 0.0018360515 0.0018963933 -0.0037736744 0.002168068 0.0046436586 0.0015907967 0.0008643958 0.003009366 -0.004632802 -0.0036753004 -0.0007794659 0.0042294203 0.0026172646 -0.00308814 -0.004670536 -0.0038736179 -0.0021902712 -0.0040405486 0.0011449683 -0.004396083 0.0043767057 -0.0023891854 0.0029191882 0.002724555 -0.0029230781 0.0030636862 0.0018590895 -0.0033778513 0.004856937 -0.0011264981 -0.0030426388 0.0010068853 0.0024343417 0.0015923902 0.00046698604 -0.002420475 -0.00053164334 0.0035102759 0.002647192 -0.0016694181 -0.0027992234 -0.00038112325 -0.0044524143 0.003375899 -0.0031403427 0.0020192198 -0.0014212184 0.0036734 0.0036372305 -0.0037748974 -0.00042926782 0.004668329 -0.0015332446 -0.0021064763 0.00083727506 -0.002738654 0.004562684 0.003915869 0.0015347116 -0.0029351674 0.003481874 0.00014807933 0.0034279542 0.004036568 0.00010519989 -0.0028427248 -0.0020985438 -0.003734093 -0.0013472771 0.0051590693 -0.00064696814 -0.0021801444 0.0036803624 0.0026951157 -0.002208503 0.004208519
trace_55 -0.00169105 -0.0022658452 -0.003388781 0.0013003872 -0.004022329 -0.0031048637 0.00092053437 -0.0033342184 0.0017311651 0.0032565147 -0.002476008 -0.003787114 0.004779001 0.004133086 -0.0013729327 -0.003973189 -0.0038153133 0.00056443 -0.0031129888 -3.503256e-05 -0.004239321 0.0040746834 -0.0006473955 -0.0040192134 -0.0001317629 -0.004441587 -0.0039095287 0.00025620597 -0.0030851834 -0.0015903955 -0.0032745043 -0.004238717 0.004236334 -0.0013489117 -0.002046895 -0.00074124447 -0.004101107 0.00070857606 0.0030778495 0.0042082574 -0.0032771144 -0.0017202428 -0.0039547305 -9.494133e-05 0.0039508045 -0.0005300131 0.0003668681 -0.001541464 0.0029777132 -0.0018026262 0.0033693993 0.002471812 -0.0043072635 0.0028513684 0.0004946625 0.0019151781 0.0001788896 -0.00078827614 0.003035103 0.0016321754 -0.0015515921 0.0022700417 0.0011268498 0.0039707893 0.002859967 -0.0008523209 -0.0035667703 -0.0039384477 -0.0027177422 -0.004592715 -0.000255194 0.00042382415 0.0036336414 -0.0005403049 -0.0002896672 -0.00024891237 0.0018136714 0.005067916 -0.004636423 0.0011526484 0.0010395551 0.0024253423 -1.2779653e-05 -0.0021383334 -0.0019488954 -0.003914987 0.0051350333 0.00014567244 0.001021814 0.004114349 0.0028808084 0.0037702722 -0.0045521166 4.2880278e-05 -0.00083047646 -0.0045980755 -0.0029267212 -0.0008932279 0.001253711 -0.0035476454
trace_56 -0.0028339373 -0.0041452977 0.0004935553 -0.0037251494 -0.0029700068 -0.004121621 -0.0011231937 -0.00083833415 -4.713084e-05 -0.0019853942 0.00029083976 -0.0047597964 0.0045807045 -0.0022061027 -0.000244203 0.0047738217 0.0041964077 -0.004994499 -0.0028462552 0.0016970189 -0.0011483271 0.0049194354 6.8902205e-05 -0.004679884 0.00047669574 -0.0008878245 -8.689514e-05 0.0011684395 -0.004965458 0.003478712 -0.0019159121 -0.0036518397 0.0010232823 0.0045879623 -0.004708011 -0.0015890031 -0.0021774366 0.002042296 0.0015468277 0.004395603 0.00162613 0.0011868422 0.002772778 -0.0013234128 6.567124e-05 0.003523077 -0.003991679 -0.0019927865 0.002253177 -0.00032725732 0.002655611 0.003098564 -0.0023316229 -0.0015968627 -0.0034925789 0.0034896887 -0.0014531874 -0.0040803496 -0.0003862749 0.004641423 0.003061374 6.9267226e-05 -0.001698462 0.0037004247 0.0049087163 0.0034791415 -9.7272576e-05 0.0018371592 -0.0038274112 0.0012015188 0.00018890541 -0.0015448605 0.0026238202 -0.0038912892 0.00042313282 -0.0023529415 -0.0020012583 0.0031377634 -0.004260994 0.0011990314 0.0018717304 0.0022052464 0.0015363938 -0.0005194336 -0.0015435234 0.0016431869 0.0022392028 0.00044404977 -0.0041873297 -0.003585543 -0.002661921 -0.00023136391 -0.0022523955 0.0045883157 0.003871585 -0.0009977693 -0.0012869536 -0.0025736266 -0.0004534643 -5.116018e-05
trace_57 -0.0009394328 -0.0008482618 0.0006030851 -0.004014087 4.241522e-05 -0.0043293843 0.0033317276 -0.0031367836 0.00089772523 -0.0037042191 -0.0049083605 -0.0032509158 0.002475328 -0.00066910725 0.005142402 -0.00026370026 0.0027231693 -0.0027714304 -0.0027636315 -0.0035227027 0.0029668615 0.00013100408 -0.0012224934 -0.00068416406 -0.0010393098 -0.004185661 0.00080908235 -0.00088564673 -0.0037243974 0.0015202268 -0.001558921 -6.797469e-05 0.0006297826 -0.002725096 0.002258754 -0.0049690492 0.004055134 0.0042014006 -0.0034746444 -0.0044728024 0.004483326 -0.0034944345 -0.00034599032 -0.0030352755 -0.0044205724 -0.00045890984 0.0025001774 -0.002295357 -0.0016090175 -0.0017644503 -0.0044464925 0.003907214 -0.0048321816 0.0016481213 -0.0011363737 0.00045168863 0.00016246534 -0.0045011486 0.003813847 -0.0033619986 0.0043370198 0.0029833196 -0.0015953592 -0.0032811146 -0.0042743166 0.0047311117 -0.0013066075 0.00012834811 -0.003154024 0.001215747 -0.0010321296 0.003662501 -0.0011640788 -0.0013141113 -0.0047895424 0.001142616 -0.0047391327 1.662648e-05 -0.0025104876 0.00080693996 0.0028013547 -0.0017274022 0.0008238422 -0.00076574343 -0.0027798153 0.004654966 -0.00451437 -0.0047178837 0.00023505912 -0.0036835114 0.0033502404 0.0032110247 0.0011996173 0.0011143002 -0.0021874958 0.000461071 0.004751287 0.0022278933 0.0036078275 0.004660007
trace_58 0.0047046375 0.0009352922 -0.0011240211 -0.0013041666 -0.0036692298 0.002519083 -0.0028229062 -0.0027167213 -0.004710448 0.0008849694 0.0042392625 -0.004202258 -0.0024292402 -0.0012461715 0.0018039241 0.0050507993 0.002948176 0.0033064634 0.0026330894 0.002706935 -0.0002409854 0.0022690452 -0.0020768892 -0.002807964 0.00043952654 -0.0035576548 -0.0046798005 -0.004322025 -0.0005273655 0.0028012297 0.0015141837 -0.0047143125 -0.0019675596 0.0038470922 -0.00065278425 -0.004593442 -0.004708428 -0.0039237035 0.0021581382 -0.0008748996 0.0050390665 -0.0037485498 -0.0026340452 0.0018162898 -0.004711715 0.0034289532 0.0031553314 -0.0019303007 -0.0030662264 0.0041526193 -0.0037828272 -0.0036217 0.004760943 0.0045063645 0.00066362746 0.0024389883 0.0050450256 0.0016810462 0.0017731491 0.00039072544 -0.002137353 0.0013033258 0.0036203985 0.0010192615 -0.0011398391 -0.0016709194 -0.001203375 -0.0027258322 0.0002240956 0.002914848 0.002241726 0.0012224047 -0.0012309677 0.0034441121 -0.0033357872 0.004050535 -0.003660425 0.0011577009 -0.0015076543 0.0009837272 0.0027837402 0.0044441796 -0.0023614771 -0.0051138555 0.00054019684 0.0017461373 0.0006796856 -0.0029521955 -0.002055935 0.0011318903 -0.0018460213 0.0018176462 -0.0046032895 0.003101748 0.0006258602 0.0048807748 -0.0028910353 -0.003324156 -0.00070264854 -0.00025302835
trace_59 0.0036866048 0.0013954927 -0.0018874793 -0.0044871406 0.0014355138 -0.0016325952 0.0028672446 -0.0027807096 0.0029959648 -0.0010535376 0.00096184417 -0.0027274173 0.0025932053 0.0034655451 -0.0027796358 -0.003532102 0.0038464773 -0.003915428 -0.00083836226 0.00027217413 -0.0034488603 -0.0025531799 0.004007606 0.004474877 -0.0049725114 -0.00058140355 -0.0035949806 0.00070648885 -0.0017295503 0.0009780065 0.0033303804 -0.00234417 0.003841897 0.0006857091 0.0003005243 -0.00020726986 0.0014774882 0.00301317 0.004523023 0.0023589588 0.0009914613 0.0042041037 -0.0030757824 0.002068622 -0.0006717749 0.0003820906 -0.0035117916 0.004112772 0.003310352 0.0039604674 -0.0023298303 0.0023471352 -0.0044585634 -0.0015281453 0.0046517695 -0.0049635465 -0.0005075742 -0.00047571736 0.00034948564 0.0041297204 0.0026923711 -0.0029494443 -0.0028686286 -0.0020107897 -0.003172884 0.002753449 -0.0023838973 0.004418916 -0.0025584595 -0.0009914091 -0.00020724122 0.004826833 0.0009549086 -0.0017727074 -0.0007077208 0.0025800138 0.003058349 -0.00365259 0.003924416 0.0018170881 0.00477239 -0.004819462 0.0031183527 -0.0039355336 -0.0021548136 0.0035697536 -0.003357363 0.0027489446 0.0045680576 -0.00446312 -0.0016436729 0.00034895865 -0.004653025 -0.0035285894 0.004310033 -0.0025437481 -0.0009339023 0.0034269728 -0.0032678617 -0.0010761961
trace_60 0.0007078863 -0.0038527467 0.0048142476 -0.0033823422 0.0033997009 0.003811252 0.0048148353 0.0031767325 -0.0037651306 0.0015035664 0.00078886026 0.004671401 -0.00071050785 -0.000822898 -0.0006248616 -0.0022754413 0.0011792091 -0.0043909294 -0.002829324 0.00319888 0.0036904747 0.00029665933 -0.00053725624 0.004427687 -7.933055e-05 -0.0022453314 -0.004158679 0.003517441 0.0001755689 0.0020546555 0.00074761885 0.0026093828 -0.0012888756 -0.002339577 -0.0029184506 -0.0048133954 0.0011725435 0.0005073903 0.0048599583 -0.00257674 -0.0017759276 -0.00084056426 0.004669295 0.000652137 -0.00020170628 -0.003890512 0.00073455955 -0.00012702303 -0.0036350968 -0.0004239192 -0.004095227 0.0026231077 0.003968102 -0.0023641305 -0.00045456717 -0.0014610835 -0.00231954 0.0035253037 0.0004958858 0.0012130961 -0.00068954745 -0.0038785264 -0.004051399 0.0028676987 0.004527947 -0.0035435546 -0.003119082 0.0036359294 0.0031772957 0.0026686082 -0.00013220025 -0.00036749762 -0.0012483429 -0.001982183 0.0011936708 -0.0028797707 -0.0013832841 -0.0015437271 0.0030066445 -0.0021397963 0.0012595404 -0.0022141444 0.002433212 -0.0005254219 -0.00121162 -0.0015459358 0.0024957822 0.0011081027 0.0027672476 0.0039569754 0.00040517355 -0.0028789649 -0.0012013203 -0.002172842 -0.0002522482 0.004297073 0.0035490221 0.0013699877 -0.0031574282 -0.00039642176
trace_61 -0.0012294687 -0.0032327194 0.0045301165 -0.003076824 -0.0038598997 0.003220411 -0.0017008295 0.0009290123 -0.00014160965 0.0011582968 -0.0020680167 0.00043337463 0.0006449554 -0.00031770652 -0.002766993 -0.002768254 -0.0031752556 -0.0013121668 0.0037925509 -0.0004901485 -0.0040394864 -7.86752e-05 0.0015608768 0.00265988 -0.0026357728 0.0020721746 0.0006202142 -0.0013598151 0.0015258838 0.0025052738 0.0040706117 -0.0012933525 0.0017216869 0.0047040754 -0.0018752045 -0.0008479972 -0.0008694087 -0.0042256927 0.0027766558 -0.003737264 4.9471797e-05 0.001786504 0.0049543083 0.0023272631 0.0032934751 0.003875455 0.0014889314 -0.003483758 -0.0011686694 -0.0003769623 -0.0038199807 0.0047154776 0.0048632976 -0.0014362688 -0.00081314764 -0.0012988801 0.0008798231 -0.0015691784 0.0032391802 0.0009482899 -0.0028867228 -0.0019829466 0.0008530605 0.00068158534 -0.00077547407 -0.0014906222 -0.0026397826 -0.0038863607 0.003874013 -0.0018398721 0.0012537135 0.0036482515 0.003006057 -0.0041541522 -0.0015326276 -0.001407205 -0.002146028 0.005157229 -0.004441924 0.0014107972 0.0007163622 0.004193463 0.0023437624 0.0023328916 -0.00023545908 -0.00021348668 0.0029425926 0.004137702 0.00045328875 -0.0018109903 0.0008926546 -0.003852203 -0.0013354352 -0.0026758818 -0.00015648946 -0.0024487835 0.004329825 -0.001337379 -0.0022448944 -0.00136605
trace_62 0.004103661 0.0023350746 0.0010340671 0.0029726492 -0.00088880846 0.0006318534 -0.003860466 0.0007069323 -0.0033595425 0.00020759735 -0.002811124 0.00073769287 -0.0042940434 0.004083645 0.0031588692 0.002742439 0.0036423877 -0.0026488323 0.004658856 0.0036854958 -0.00063522335 -0.004614313 -0.003785587 0.0046119723 0.00044627706 0.0009960827 -0.0048220307 -0.003937962 -0.0014681603 0.0035680581 0.0044324747 0.0039658044 -0.004689116 0.0045613 -0.00080527697 0.002599111 0.0049340436 -0.0023185422 0.0024356078 -0.0036617955 0.0029536027 0.0043929825 -0.0010058515 -0.0014277289 0.0015725425 0.0031893812 -0.0047442624 -0.0027629996 -0.0039842646 0.0024123336 0.0010400689 0.004309755 -0.0029744816 0.00057912245 0.00034705875 -0.00080520596 0.0023959628 0.0033746434 -0.0018313689 -6.605189e-05 -0.004246804 -0.002130355 -0.0027265004 -0.0042079748 0.0023887109 -0.00047380902 0.0008508498 0.0037014307 0.0027841644 0.001519839 -0.0003089686 -0.0040622856 0.0008371309 0.0029647695 0.00018497313 -0.0024784203 0.0048603145 -0.0007360421 -0.0020119946 -0.0028491947 0.0027943153 -0.003385454 0.004632712 0.00018210676 -0.0036785693 -0.003353669 0.0015034749 0.0004028639 0.004329761 0.0010915265 0.0037964254 -0.0033963993 0.002659246 0.0044684215 0.0002469159 0.0019015257 0.0029852588 0.0034208754 0.0047956347 0.005012057
trace_63 -0.0008693929 -0.00016642039 -0.0007393041 -0.0015288664 0.003466339 -0.0034197455 0.0034722425 0.0034544151 -0.0037350017 -0.0008247372 0.002193375 0.0015731431 -0.003290947 -0.004015036 -0.0024204322 -0.0006157441 0.0026577234 0.0039217705 -3.0174218e-05 -0.0024313638 0.0003000059 0.0022685 0.0034080676 0.0029669546 -0.0029548286 0.0019731265 0.0017100382 -0.00017503693 0.0036768673 0.0024428067 -0.00011448045 0.0022127924 -0.0035681531 -0.0010926035 0.0018721052 -0.002590578 -0.0013796063 0.0036166462 -0.00462571 0.00055413786 -0.0040153554 0.0049574245 0.0023852335 -0.0033928948 0.0037414057 0.003764605 0.002578709 -0.001741911 -0.00047323445 0.0015291075 0.0020482445 2.8631974e-05 -0.004544551 0.0033709274 0.0035892364 -0.0021818369 -0.0019050444 0.0021731295 -0.0041229036 -0.0010607975 -0.0023981673 0.0036533829 0.0031059284 -0.0030175087 0.0027218736 0.0043690517 -0.00378464 -0.002184586 0.0011871995 0.0024813474 -0.002657049 -0.0029344931 0.003319162 -0.0012982803 -0.0013696409 0.00027992314 -0.0036474888 0.0017838724 0.0022473887 0.004682006 -0.0008621897 -0.0032386521 0.0013335035 -0.0042852233 -0.004395403 -0.0041464367 -0.00390009 0.0004138418 -0.000626565 -0.004072353 0.0030781026 0.000734152 -0.0021227377 -0.0036294844 0.004662888 -0.0041425293 -0.0020629256 0.004381335 -0.0019005117 0.002194164
trace_64 -0.002960308 -0.0037050862 0.0016888628 -0.0021524432 -0.0041730106 0.0009873386 -0.0032540166 -0.0012614893 -0.004792646 0.003355222 -0.0021183616 -0.00021039417 -0.004433494 -0.00259691 0.0018902306 0.004064539 0.0033778332 0.00465251 -0.000691327 -0.0019951512 0.002848916 0.0028649918 -0.001135487 -0.0013023373 -0.0028896134 -0.00094925007 -0.004824707 0.0010560481 -0.0038735669 -0.0048408303 -0.0025344756 -0.0018392333 -0.0024986495 -0.0022869036 -0.0034064278 -0.0034639393 0.0011056375 -0.00185361 -0.0007138114 0.0012924861 0.005073039 -0.004242441 0.004621172 -0.00037443952 -0.0013936948 -0.00021434299 0.003630806 -0.0027652828 0.0046359813 0.0033342703 0.00023615106 0.001736159 -0.0010566033 0.0049772314 -0.001920772 0.004319064 0.0034273975 -0.00081094814 0.0037655674 -0.0030681244 -0.0009967966 0.0025152462 -0.00012876908 -0.0020077152 -0.0038303856 -0.0017486706 -0.00032168173 -0.0031246077 -0.0035475004 0.0024803344 -0.0037851697 0.0017492917 0.0011507559 -0.0033257469 0.00031005073 0.00018735955 0.0018398773 -0.003767837 0.0036534485 -0.0026242202 0.0021721162 -0.0031041356 -0.0040832628 -0.0014418795 0.0019518927 -0.0019246439 -0.0011001087 0.0009937005 -0.0022371828 0.0012880407 0.001968956 0.0012562847 -0.0018127406 -0.003252676 -0.0027867723 0.003447098 0.004507709 0.00048600457 0.0047283946 0.00082033494
trace_65 0.00023411855 -0.0044409474 0.0010349451 -0.0026616715 0.0016210874 0.0035410873 0.0006007478 -0.001430044 0.0041667144 0.00080481754 -0.003471566 -0.0013359684 -0.0030441855 -0.004748995 -0.0016346548 -0.0006469373 0.0025024356 -0.0030271392 0.0012996172 0.0045762355 0.00023955142 0.004577119 0.0022893855 0.003607958 0.0033774066 -0.0045912866 0.003380807 0.0019930967 0.004888157 0.0025921266 0.0035587198 -0.003944874 -0.0031675883 -0.0003854518 0.0031065822 -0.0040958165 -0.0007228365 -0.0038271851 0.0041637337 -0.0021123372 -0.0009485064 -0.0044801766 -0.004051196 -0.0037108422 -0.003158163 0.004613586 -0.0008867874 -0.0011201481 -0.0034296662 0.0018054267 0.004037928 -0.00014582636 -0.0010468519 -0.0026687765 -0.0010741377 0.0025226504 0.0018698086 0.0018653831 0.0044933553 0.0019514001 0.0036566744 0.0007473152 -0.0040456266 -0.0037793694 0.002187957 0.004407166 -0.0016032371 0.0011262075 0.0009649897 -0.0037866454 0.0040340475 -1.844812e-05 0.0010219773 0.0008486373 -0.004737028 0.0036438957 -0.000638841 0.0012631573 -0.0050016553 -0.001097571 0.0018525122 -0.002366344 -0.0025761279 -0.0033905494 0.004695303 -0.0048827464 0.0007742978 0.0014993459 -0.0005221943 0.0027343906 0.0018210139 -0.0047245016 -0.0029397209 0.0031078504 0.0032297568 0.0013378328 -0.0037649097 -0.0049929805 -0.0039535 -0.0043384456
trace_66 -0.0026935302 -0.0018947979 0.0010486637 0.0014802788 0.0033681174 0.0011770229 -0.0037579965 -0.0022164984 0.004627189 -0.0042126104 0.00083091005 -0.00057351444 -0.000303774 0.002276045 0.004214379 -0.00012943133 -0.0026788234 -0.0007178069 0.0038472246 0.0028025212 0.0022600247 0.004256441 -0.0013435662 -0.0019770144 -0.0048794146 0.0044786637 -0.00133736 -0.0029457149 -0.003798284 0.0030027658 0.0004988367 -0.0036010838 -0.00016404943 0.004617705 -0.004972088 -0.0028511528 -0.0015109038 -0.004881072 -0.0041878787 -0.0034641887 0.0009951482 -0.0038465883 0.0042711874 -0.0014757074 -0.0006606069 -0.001255981 0.002657993 0.0032692505 -8.703736e-05 -0.0036601508 -0.00078513136 -0.0027138013 -0.0030275092 0.004326913 -0.0035398873 -0.0020746351 -0.003353902 -0.0028852392 -0.0039218157 -0.0046071494 -0.0047810315 -0.0024910504 0.0010651622 0.004515051 0.0005872749 0.0012453243 -0.0030209569 0.0013017231 -0.0022221662 -0.004503361 -0.0025747425 -0.004023961 0.0014094322 -0.0003346739 -0.00059573713 -0.0034721203 0.0039494997 0.001766305 0.0002525225 0.0036394487 -0.0037828602 -5.9490496e-05 -0.0036504003 -0.004886401 0.0032867312 -0.0026705984 -0.0010511085 -0.0025739984 -0.00027939017 0.0008965095 -0.0024003768 0.0009755092 0.00013453873 -0.0025214944 -0.0006020815 0.003786112 0.004433353 0.003044551 -0.004973019 -0.0013108819
trace_67 -0.0017516194 0.003504095 -0.0012202066 0.0035227956 0.0038928562 -0.0007183415 -0.001977334 -0.0011421423 0.0020693054 -0.00036741458 -0.0025487135 -0.004724849 -0.0012840623 5.443983e-05 0.0033638002 -0.00034684976 0.004743588 0.0010511 0.0013137797 -0.0034645891 0.003946617 -0.0006832622 -4.115884e-05 -0.0028835137 0.00021819849 -0.0030716334 0.00040119953 0.0035923505 -0.0049115596 -0.00016040228 0.0016067945 0.0050122873 -0.00056843087 -0.0038710856 -0.0021313662 0.0017570881 0.00016249502 0.00042562318 0.0019491082 -0.0044466667 -0.0028977755 -0.004924401 -0.0035648188 -0.0021192895 -0.001147163 -0.00021321599 0.00070256396 0.0049405308 0.0004665537 0.0011888237 -0.0026654387 -0.003925796 0.004549025 0.001888623 -0.0038317305 -0.003711616 -0.004800063 0.0012582387 8.78438e-05 -0.0022514223 0.0029291708 -0.0033801517 0.0036620793 0.0019302209 -0.0034372585 0.0034030674 -0.0048883497 -0.0011130497 0.0035364202 0.0039303275 0.0002012485 -0.00042168153 0.0027200184 -0.0018680443 -0.0018737151 -0.002571878 -0.0017584532 -0.002456931 -0.0020469283 -0.003665497 -0.0016400453 0.0045360746 0.0014938922 0.0041381535 -0.0033445952 0.00085339 0.00042339528 -0.00026815562 0.003793222 0.0015597561 -0.0021881417 0.004518218 -0.0015990495 -0.0003078806 -0.00043178222 -0.0024063396 0.0042729727 -0.003542365 -0.0013286123 -0.0045250566
trace_68 -0.002838146 -0.0003295492 0.00024490757 -0.0037530744 8.038564e-05 -0.0034438372 0.0049549574 0.0030712057 -0.0016954121 0.0018149498 0.00077271555 -0.0011005476 -0.0053675375 0.00073541986 -0.00048075174 0.0015020092 0.0013343706 0.002752067 0.004222723 0.0024304222 -0.0034932722 0.0047720717 -0.0016435517 0.003779344 -0.0029652778 0.0008005791 -0.0035164566 -0.0042502712 -0.0034808062 -0.0034379477 0.004005405 -0.001877473 0.004735141 -0.0012352478 0.003270948 0.0033400317 -0.0038516994 -0.0032980547 -0.0035428642 -0.0018160859 0.001187312 -0.0023321558 -0.002633218 0.004055241 -1.3584446e-05 -0.0029271492 -0.0006612123 0.004568431 0.0027423042 0.001976037 0.0019115678 0.0011889557 -7.914792e-05 0.0051112263 -0.002946195 0.001827924 0.0013834342 0.0014454311 -0.0006410741 -0.0009719704 -0.0005319382 0.004632519 0.0045168437 0.0041514067 0.0027137347 0.0037240088 -0.0043137996 -0.002423654 0.0043673324 0.0012357063 -0.0045959004 0.0010526982 0.0023824102 -0.004027335 -0.0031866485 -0.0023712697 0.0018155961 0.0022448746 -0.0025494657 -0.0021385318 0.0005642614 -0.0015900529 -0.0034599088 0.0034746975 -0.00015938564 -0.002615531 0.004609408 0.0047776834 -0.0017148715 -0.0037116522 0.003932273 -0.0044595944 -0.0034135676 -0.0012491789 -0.0035002457 0.0017474943 -0.0032453001 -0.0007611178 0.00046517214 -0.0007345688
trace_69 0.0022825706 0.0005874335 0.004160381 0.0022562356 -0.003972809 -0.0042513 -0.0014966882 0.0013699242 -0.0028934958 -0.0020317996 0.0041377223 -0.0029327683 -0.002476802 0.00044519594 -0.004691825 0.0026067328 0.000770511 0.0013085303 0.0045540235 -0.0019324837 -0.0039652046 0.0032166073 0.00062718126 0.0041704634 -0.0038287756 0.0023741368 0.004502371 0.0036653993 -0.0035475122 0.0009333088 -7.047634e-05 -0.0006452083 0.0017110767 -0.004537494 -0.0042647105 0.0035407043 -0.0016952043 -0.0019681302 0.0025604654 0.0020990383 0.00060437695 -0.0028131513 -0.0028419548 0.002703229 -0.003992299 5.7170648e-05 -0.0012984411 0.002275572 -0.002244322 -0.0011201956 0.0026800728 0.0016083427 0.004062496 -0.0019565467 -0.0016485697 -0.003916542 -7.145518e-05 -0.000576921 -0.0016665425 0.0046441895 -0.004936446 -0.004051119 -0.001984653 -0.004626191 0.0017207649 0.0034802188 0.003501033 -0.000414574 -0.0012274808 0.0046285223 0.00030951505 -0.0010687915 0.0034927828 -0.00013573031 -0.0007385464 0.00083154195 -0.0025997502 -0.0037909576 -0.004087726 0.0028989646 -0.00034749391 0.001497545 -0.0027378686 0.002679223 -0.0018669715 0.0029212951 -0.004825776 0.0025346943 0.00027759513 0.00047460338 -0.00018983393 0.0009045167 0.0007429601 -0.00018262357 -0.00013380515 -0.0014974106 -0.002119466 0.0012529499 -0.0007290554 0.00018581733
trace_70 -0.003394207 -0.0023349621 -0.002960221 0.0042029945 -0.0004940202 -0.004653439 -0.0023568755 0.0018614992 0.003995112 -0.0038286657 -0.001955341 -0.0048626917 -0.0009292951 -0.0027957878 -0.00049847516 -0.0003639014 -0.0036596607 -0.0028588453 -0.0027001372 -0.0018808119 -0.0007862903 0.0017496998 -0.0012758565 0.003616276 0.0031641931 0.0017702316 -0.0030977435 0.0022077542 0.003650717 0.0022811708 -0.0012166173 -0.001017266 0.0037005357 0.00020205634 0.0034997973 -0.0020494848 0.0009762755 0.004260189 0.0005411271 -0.0013730961 -0.0029364254 0.0013111826 0.001572791 -0.004270442 -0.0028518315 -0.0049376404 0.0041052136 0.0035002672 -0.0015239706 -0.004627836 0.00076178275 0.0038592785 -0.002968124 0.0050130296 -0.0044971365 -0.0026400385 0.004188641 0.00023562211 0.0029033774 0.0044944054 -0.0005372726 0.004219857 -0.004072 -0.00022492422 0.002397041 -0.0040007345 -0.0013277162 0.0037835857 -0.002286678 -0.0010662171 -0.0004496642 0.0001913729 -0.00019384205 -0.0025653692 -0.00024349196 0.003304238 0.00041718755 0.002483139 0.002676123 -0.0003319284 0.00018521138 -0.0032597468 -0.0006985234 0.0042071473 -0.0047953646 0.002967688 0.0010670112 -0.0016739301 0.0029996473 0.0037056415 0.002334633 -0.0027993866 0.001329296 -0.0009062182 -0.002729651 0.004537298 -0.0028896534 -0.0026326117 0.0017222107 -0.0044125365
trace_71 0.00071264175 0.004591358 0.0023289933 -0.0013039872 0.0017956882 -0.0014223675 -0.0018911068 0.0042595016 0.0030304275 -0.0015056665 0.00015312832 0.0002765059 -0.004285298 -0.0045807287 0.004134938 0.000224658 0.0021524432 0.0031151546 -0.002644414 0.00034367063 0.0019856796 -0.003829592 -0.003913703 -0.0025058181 -0.0036056205 -0.0019673295 -0.003904995 -0.00078700273 0.0018380332 -0.0033747135 -0.002518958 0.003030482 -0.0005492552 0.0029271462 0.001752649 -0.004097306 -0.002905085 0.0033999204 0.0010789408 0.0021950945 0.0027591977 -0.0041522835 0.0049406793 -0.0008551699 -0.0029402038 0.004016737 0.0037888049 -0.0034741063 0.0019514761 0.00029519733 -0.0018346814 -0.004929007 -0.0046768747 0.0037589418 -0.0002893937 -0.003984163 -0.002453077 0.000115580144 0.0043345154 0.0035808957 0.001275012 0.0028738182 -0.0036383707 0.004289825 -0.0022197708 -0.0038854636 -0.0031146675 0.0019959603 0.0042872033 -0.0039416207 -0.002804505 0.0029079835 -0.0047270195 0.005001007 -0.0039199945 -0.00024463123 0.0030867928 -0.0014815101 0.004267173 -0.00069007045 -0.0030849553 -0.00054730714 -0.0047789295 -0.004360692 0.004747302 -0.0018801988 -0.004756974 -0.0038726921 0.0037254519 0.0024807027 0.004458291 0.00045656852 0.003268952 -0.0005255045 0.0025626875 0.003743527 0.0008564004 -0.004174363 -0.004974917 0.0048298603
trace_72 0.0035922017 -0.0009135746 -0.00031647846 0.0001827584 0.0034569148 0.0013756827 0.0048416243 0.00086085015 -0.0044864607 0.00089743617 0.0017743172 -0.00037279795 -0.0013138072 0.0024393967 -0.0019614974 -0.002147259 0.00011823386 -0.0038691433 0.0048048887 0.0038377298 0.0014786951 -0.0023521758 -0.0041661337 0.0015453292 0.0009466176 0.000459262 0.004103534 -0.0025596307 0.0038476079 0.0034376034 0.0014816949 0.000959158 0.0023519783 -0.0041890917 -0.0046121846 0.0034866557 -0.0023233027 0.0034323002 -0.0043743416 0.0044116285 -0.0022172052 -0.004605355 0.005014908 0.0041521657 -0.003404114 0.001988161 0.0035646583 -0.0031597405 -0.004466026 0.003645228 0.00017335037 -0.0046491534 0.0019073978 0.0010551222 -0.000163988 0.004540767 -0.004776117 -0.004147454 0.003526665 -0.00016310687 -0.003671937 0.0030939388 -0.0023280322 -0.0050053163 0.00089441705 -0.0025046999 -0.002443858 -0.0043830504 -0.0028171076 0.004069413 0.0011704883 -0.0026136572 -0.002089513 0.0028232653 -0.0030315553 -0.001597369 -0.0020749546 -0.0036831265 -0.0036924924 -0.0012009859 0.0016871186 0.0028533535 0.001215129 -9.75577e-05 0.0008775829 -0.0005823926 0.0021229417 0.0013312264 0.0036419176 -0.0010273609 -0.003211964 0.001473886 0.0017789052 -0.0021044388 0.003399821 0.00051897345 -0.0039882865 -0.0043647876 0.0009692259 0.0046655447
trace_73 0.0039958917 0.003948941 -0.003627204 -0.0006231996 -0.003935193 0.003614255 0.0036005187 0.0034685167 0.0027412025 -0.0012119835 0.002610639 -0.00139118 -0.0042934394 -0.0013341599 0.0030193166 0.003338969 -0.0010468542 0.00011555296 -0.0005212758 -0.0009039831 -0.0020088244 -0.0025381497 -0.0042989217 -0.0047453884 -0.0017656186 0.00059892645 -5.0338476e-05 0.0049258703 0.0015288234 -0.004165195 2.9007846e-05 -0.0004210421 0.0015911398 0.00065228104 0.004885868 -0.0002437646 -0.002070064 0.0008474971 0.0027375235 -0.0039991504 -0.0020409625 1.2838787e-05 -0.00081221457 -0.00039935036 -0.0001675664 -0.004331854 0.0034587695 -0.0012710425 -0.00432742 -0.0019385859 0.0030342776 0.0008498819 0.0011438173 -0.0036390992 0.0008695916 0.0029748108 -0.0046533365 0.0011691359 0.0017670421 0.003025593 0.0015923919 -0.0025896307 0.001111474 0.0036695076 0.0010166046 -0.0046147513 0.0047508 -0.002749123 -0.0021723958 0.0040660175 0.0003360563 -0.0035631582 0.004169031 0.0017982459 -0.0037809578 -0.0029913594 -0.0049705585 -0.0040012277 -0.0051054447 0.0022602964 0.0029893876 0.0025643443 -0.0033728844 -0.003987006 0.0019464126 -0.0015951128 -0.00041822478 -0.0016662957 -0.0050393385 -0.0015265805 -0.0018820721 -0.004873086 -0.0036946232 -0.0036929178 0.001531436 -0.00041844725 0.0029087483 -0.0009626124 -0.0012738679 -0.00053557823
