12 16
01_HOOFD -0.015736526 -0.015212351 -0.017769618 -0.017470807 -0.025075486 0.0040207035 0.026237236 -0.00058927975 -0.0124697825 0.0128992265 -0.030397879 0.0036176895 0.01273323 -0.01919291 -0.028438395 -0.030718014
ArtificialStartTask -0.028066471 0.006611226 0.017170494 0.0137654515 -0.023354597 0.020533282 -0.014769687 -0.027559096 -0.009109255 -0.020594561 -0.023973405 0.0050713457 -0.009815623 -0.003289933 -0.013574693 0.0052272845
ArtificialEndTask -0.0008170769 0.026106443 0.029464673 0.0019682094 0.020000895 0.005818643 -0.0034864186 -0.02335729 0.022630874 0.028549898 0.0090447515 -0.008479008 -0.0018601931 -0.0001825575 -0.012897127 0.015918572
05_EIND 0.023300907 -0.016432172 0.013449475 -0.0028356747 -0.0028209325 0.017486772 -0.0032328696 -0.0051226956 -0.009063133 -0.020237101 0.018118829 0.014656785 0.010686687 0.024091015 -0.0146693885 -0.005924259
06_VD -0.016357902 0.0031931992 -0.028918386 -0.028812572 0.0051066587 -0.015248538 -0.020755913 0.028973704 0.031134097 -0.008530877 0.0057119713 0.019509334 0.030209025 -0.01411559 -0.012801446 -0.031120721
09_AH -0.005101436 -0.029324252 -0.018256145 -0.013476617 -0.0037048953 -0.0054087588 0.023027185 0.008400324 0.029414402 0.027106915 0.0022696853 -0.0059226733 -0.011683792 -0.017071808 0.009292446 0.0003762449
08_AWB45 -0.0037886596 -0.021543102 0.027697928 -0.021693775 -0.026743565 0.011342206 0.025308223 0.004968232 -0.0067079957 -0.011450552 0.018157808 0.003236802 0.025342645 0.0033735312 -0.024665054 -0.009539226
01_BB 0.0026561564 0.027628921 -0.0022041698 0.010452525 -0.0043359525 -0.024793232 -0.008780777 0.028452886 -0.0028261112 -0.006945297 0.008323786 0.027064707 -0.024868043 0.004444489 0.006154862 0.022548467
04_BPT -0.014350137 -0.00042652004 0.00017007464 0.028055506 0.0014986224 -0.012151812 0.026240582 -0.031142065 0.015733501 -0.016251436 -0.015043131 -0.0041255355 0.023961425 -0.0034185403 0.0086842375 0.022097154
10_UOV -0.020145854 0.02313783 0.015955508 -0.020404521 -0.003928915 0.016988175 0.025109906 0.029831758 -0.026130602 -0.0025700552 0.010086266 -0.012212946 0.02410401 -0.00026634132 0.022552194 0.010380399
02_DRZ 0.0041020242 0.018024843 -0.023791663 -0.028078713 -0.026733667 0.018502105 -0.012396706 0.02035914 0.0027053086 0.031011408 -0.028912844 -0.0055337865 0.006908843 -0.030601759 0.008479184 -0.0008275567
12_AP -0.01469188 -0.0010867827 -0.028127741 0.0043899114 0.022535793 0.015584894 -0.020938301 -0.024340194 0.02723615 0.001526471 -0.02895525 0.0035873991 0.01601147 -0.026458792 -0.020699305 -0.027382279
