29 16
01_HOOFD -0.027792627 0.009024941 -0.011907566 -0.010994015 -0.0016758281 0.0018298601 0.025521472 0.0124726435 -0.004694224 0.013169532 -0.016634624 0.017192947 -0.018513717 0.0036903364 0.022404423 0.01808525
08_AWB45 0.0070562037 -0.006675475 0.016509656 0.0040564504 -0.004027695 -0.009974421 -0.0105370805 -0.01868818 0.030575372 -0.023952508 0.025198786 -0.016849259 -0.0037270735 0.011121549 -0.012901172 0.02158944
ArtificialStartTask -0.024155775 0.0015652946 0.014736046 0.013773645 -0.026298864 -0.02705591 0.02923764 -0.01379258 0.030114269 -0.015948527 -0.00038292402 0.012542362 -0.026089361 0.025922585 -0.004412397 -0.012701114
ArtificialEndTask -0.030847419 -0.003984411 0.0015447326 0.010854914 0.00487615 -0.02007794 -0.0016308003 0.021883445 0.01160229 -0.016963389 -0.0048004994 -0.0036116238 0.008627074 0.02676733 -0.027429447 0.024568584
09_AH -0.029959504 -0.010510392 0.023297051 -0.014412244 -0.012548545 -0.01802046 -0.0022600503 -0.00438498 0.0012990625 0.006341065 -0.011727223 -0.013129632 -0.028142659 -0.010539649 -0.025823249 -0.019530538
04_BPT 0.012823753 0.008880038 0.006920917 0.006689926 -0.011623633 0.00587217 -0.0045042667 0.00901046 -0.02718367 -0.018470375 0.019985322 0.028445287 0.022398928 -0.013358659 0.011098141 -0.011984533
01_BB -0.024864027 -0.029310882 -0.020231672 -0.013251314 -4.8106875e-05 -0.008918008 0.013814616 -0.022380771 0.01820514 0.008116075 0.0098137455 -0.022759592 -0.010837661 -0.0013519048 -0.027851922 -0.020642959
02_DRZ -0.0036770971 -0.019544085 0.030158607 -0.0049518817 -0.025277698 -0.02509807 -0.014939014 0.030783653 0.024401898 -0.015031031 0.009786857 0.016868157 0.029982684 -0.005520559 -0.024233628 0.018495956
11_AH 0.00030668723 0.021068204 0.021076608 -0.007063206 0.00018902974 -0.00439834 -0.019710453 -0.022150114 -0.028281573 0.020650968 -0.0021204427 -0.024937065 0.0027711869 0.03109289 -0.01235431 0.01676668
05_EIND 0.020000286 -0.022764375 -0.015973033 -0.0146841165 0.003942931 0.029878585 0.022437807 -0.01904023 -0.005283353 -0.016005721 0.017965654 0.00091472105 -0.014782765 8.111754e-05 0.015196459 -0.02306271
03_GBH -0.00910197 0.03001613 0.01914613 0.019648982 -0.016001202 0.020372659 -0.001745094 0.028544975 -0.023345146 0.0073388694 0.0049431026 -0.0019744032 -0.017306177 0.0016169373 -0.009071595 0.025186688
06_VD 0.015677532 0.02130456 -0.024515808 0.005520674 0.020948945 0.0124148745 -0.027260292 0.017336087 0.013830508 0.0028916046 0.021580996 -0.001493623 0.015559173 -0.007392524 0.027122859 0.0013183359
13_CRD 0.0072434447 -0.029588154 0.025587551 0.00072713924 -0.022967072 0.031194523 0.009392624 0.010943939 -0.0051687076 -0.01750566 0.007185949 0.007905033 -0.029262187 -0.013043729 0.012373961 0.0074402057
10_UOV -0.027343338 0.00035384076 -0.020546913 0.024491614 0.0038988828 0.020257967 0.030231804 0.0076991883 -0.02885482 0.020386068 0.015543569 -0.020628976 -0.015179265 -0.017383318 -0.031082314 -0.014524368
14_VRIJ -0.019052118 -0.011970917 -0.011394983 -0.03059598 0.02231002 -0.009333203 -0.008668067 0.018423023 -0.0038967282 0.02449145 0.002961471 -0.014943874 0.008754955 0.0057804314 0.0022185168 -0.029812532
16_LGSV 0.008283791 -0.02514307 0.021340476 0.030414324 0.0005945945 -0.02944569 0.0047742263 -0.0016829459 0.028307235 -0.027942503 0.030129129 -0.01026271 0.028507639 -0.017983753 0.019127127 0.014021346
07_OPS -0.02057476 0.0045656585 0.0034359302 -0.0074116765 0.007572344 0.023968192 0.0031723564 -0.022179944 -0.0040260456 -0.02266609 -0.017741093 0.017243057 -0.011634318 0.017440103 -0.031233605 0.016276294
16_LGSD 0.004759473 -0.005090064 -0.021880733 -0.024663756 0.00900132 -0.011941133 -0.023729192 0.021444743 -0.012207089 0.019812258 0.002476754 -0.004495124 -0.0105291195 0.023225024 -0.0128330765 -0.021927543
09_AWB45 0.015947703 0.015755506 0.0017880709 -0.014105647 -0.028476445 -0.019698713 0.00023888798 -0.0008793598 0.008567944 0.020071665 -0.024810532 0.015077015 -0.027650302 -0.011407308 0.017946817 0.008217337
15_NGV -0.009619054 0.015565891 0.004232619 -0.017629536 -0.0059632487 0.0020854843 0.027131673 -0.024803834 -0.0039943014 0.0051564313 -0.007931218 0.023049485 0.010055501 0.013328028 0.0025988345 0.013850786
12_AP 0.016091278 -0.0125395795 -0.024997985 -0.02531189 -0.027818788 0.004614458 0.012026559 0.006422152 -0.016456833 0.007237243 -0.0039231763 0.015758174 0.026683532 -0.030577933 0.0021824401 0.02593407
01_OLO 0.025267467 0.016842205 0.005554918 -0.025506202 0.029937187 -0.008135261 -0.0061840285 -0.020494126 0.031013962 0.003346015 0.025557393 -0.012044719 0.021465521 -0.009280345 -0.008041325 0.010904542
99_NOCODE 0.018181114 -0.01635437 0.0210196 -0.025897386 -0.009853607 -0.015684422 -0.0012191122 -0.0025842043 -0.00018231239 0.01409426 0.020055698 0.004822747 0.0017170548 0.029954119 -0.025286874 0.026808076
03_VD -0.009376356 0.005821978 -0.018814892 -0.024553321 0.015006708 -0.0066431104 0.014360936 0.010258865 -0.0049672714 0.02179181 -0.018206058 0.015278115 -0.021606695 0.025281768 -0.00078030996 -0.012984819
08_OLO -0.021745682 -0.023834338 -0.011869223 -0.004586439 0.009105659 -0.0033135433 -0.011389432 -0.014285791 0.029440086 -0.0031211558 -0.006372566 0.012654882 -0.0060877916 -0.0017216076 0.015983991 -0.0072923824
10_OLO 0.013910019 0.024375722 0.014812144 0.010145814 0.018534368 0.0152742565 0.0026337155 0.0051028384 -0.030322883 0.019655306 -0.010726772 0.02389333 -0.029841963 -0.0061057312 0.02891708 0.02660043
11_OLO 8.7629225e-05 0.013786215 0.003074206 -0.0007860622 0.009904144 -0.016062513 0.014284261 0.029953763 0.00800246 0.018833924 0.018894577 0.007190278 0.030116357 0.015813451 -0.0019708667 -0.016895395
06_OLO -0.0044017234 -0.027826944 -0.020073246 0.0011356247 0.019449592 0.0037140644 -0.016685992 0.005307558 0.013616137 -0.010605788 -0.00877913 -0.0042154742 0.0050826976 0.01498474 -0.01089956 0.0073573934
02_OLO -0.013306068 -0.026613656 -0.017987601 0.02660435 0.013372155 0.028692879 0.023855947 -0.011735461 0.014231035 -0.019323649 0.005666039 -0.006284713 -0.012562015 0.0024661426 0.017531922 -0.026504032
