1508 16
requestComplete_1 -0.0010772734 2.5656512 1.3357265 -2.9916136 -5.2413797 -1.1459225 1.9692103 -0.5883729 3.6263902 -0.20225771 1.4791805 0.68869567 7.1317577 -3.2020164 0.8135657 1.0259947
caseStatus_G -0.6638044 2.113057 0.9740965 -3.1958022 -5.321016 -1.6715899 1.2744192 0.6173215 4.076926 -1.1340708 3.0958052 0.46760127 6.4417553 -3.1685538 -0.11722178 2.0251405
termName_EMPTY 0.36816832 3.161099 1.722841 -1.9109979 -5.457659 -1.1745219 2.8473413 -0.7809278 3.636449 -0.14750473 1.1579548 -0.64677364 5.395291 -4.704413 0.76891017 2.7241678
question_False -0.17763337 3.9840558 2.9858475 0.61806726 -5.1031046 1.8675923 0.840449 1.9307673 2.9151256 -1.6438822 -0.9910064 0.2959182 8.731511 -3.4759612 -0.44926196 2.8689291
SUMleges_EMPTY 1.3730813 4.980637 -2.3175569 -1.3736213 -4.7833586 -0.3702766 1.0415746 -0.43825486 4.761425 -3.5869336 6.8522243 -2.6522486 6.422443 1.2334399 6.4607596 -5.011641
question_EMPTY -0.6750839 0.6438391 -1.259102 -10.556419 -5.466484 -6.997343 4.391157 -6.872517 4.574265 3.4375303 7.8462253 1.7718364 2.718413 -2.1585824 0.9985215 -1.7216961
monitoringResource_560696 5.470686 0.74263865 -5.2341847 -0.10714744 -7.595427 -0.4763504 -2.1215036 5.972688 7.4684258 0.71227753 4.664089 5.1454797 3.5466626 -0.3204075 2.486359 1.638103
parts_Bouw -1.1994292 -1.1379855 -2.3456516 -5.4551573 -9.096048 -2.4506876 7.7883883 -2.5020287 -0.94115794 -0.35428876 -4.852125 3.903764 5.3292747 1.5438416 -1.0112946 6.678914
Responsible_actor_560696 3.8676944 -0.18480293 -4.820878 -1.8852978 -7.087942 0.63108706 -5.409136 6.6055584 6.819286 3.0701597 4.221065 3.5033305 3.3019252 -1.5288845 3.077598 -0.47021583
last_phase_Adviesbekend 3.5364652 -0.33178705 -2.2462003 -2.8295758 -10.600047 6.051846 -4.2412543 3.7142737 7.136981 -0.2993931 5.8383064 1.2331792 3.4903471 1.7889359 0.8421984 1.4053897
eventName_01HOOFD 0.02655348 -0.6046585 -3.016635 -10.731629 -5.223567 -4.208057 3.723505 -8.689991 4.852025 4.9132433 8.724621 2.5702083 2.2104833 -6.0018625 4.3580823 -2.364225
activityNameEN_registersubmissiondaterequest -0.09063446 -1.9192845 -3.5522716 -9.9765215 -5.2597537 -3.9024262 3.9919624 -8.735095 4.1429386 5.5506716 8.291538 1.8318673 2.198906 -6.528948 3.7313578 -3.4479032
action_code_01HOOFD010 -0.21944243 -1.8275459 -3.482362 -9.988981 -5.4390893 -3.846681 4.085711 -8.759019 4.146649 5.5218663 8.233886 1.9342319 2.0430331 -6.4664707 3.8172815 -3.5988348
eventName_05EIND 6.3695455 2.7229683 8.667592 -3.366049 -3.3701892 -3.1974738 1.927341 7.657265 1.2368162 -4.94272 -5.4630675 0.019069951 6.30766 -1.6839318 4.0696507 -0.19879663
action_code_05EIND010 6.33796 2.8137445 8.655529 -3.1180756 -3.4088206 -2.7543738 2.0421 7.62882 1.7095275 -5.175197 -5.272422 -0.42040828 6.5185647 -1.5825968 3.4057157 -0.2963221
eventName_06VD -8.74349 4.924746 1.337755 5.51536 -10.690958 -0.35224676 0.60360044 0.35594863 0.84385896 1.16173 0.1741239 5.292564 5.3023043 -5.8579054 3.1989794 -1.8423095
activityNameEN_terminateonrequest 6.5252557 2.789829 8.844401 -3.21191 -3.4164052 -2.96417 1.9885781 7.6992474 1.4483064 -5.0145264 -5.4636045 -0.19145563 6.2692857 -1.6735796 3.6680398 0.009918801
action_code_06VD010 -8.580618 5.0349307 1.0035343 5.5356007 -10.722877 -0.16979428 0.71266174 0.41827884 1.0406772 0.8707729 0.36636624 5.2519 5.3702993 -5.76882 3.4189432 -1.7340579
activityNameEN_extendprocedureterm -8.556035 5.195633 1.2941322 5.585512 -10.561398 0.015828082 0.7717593 0.41909382 1.1531 0.79075944 0.28621444 5.535626 5.052402 -5.8575845 3.1338048 -1.5945048
parts_Kap 1.3896408 6.9704366 1.2657425 -3.1840942 -5.201836 7.9305277 -1.0105346 2.455485 2.2506714 -3.621119 8.397403 -7.3702965 1.8476979 -5.840936 5.4162855 -1.5035061
eventName_09AH 5.2201605 -0.9217589 -0.20358127 1.5460473 0.6376524 5.6683555 -2.8567207 -2.6585402 2.9159474 -0.06573447 -0.47494352 -4.6933565 12.182246 -3.119733 -1.774244 9.858829
activityNameEN_article34WABOapplies 5.081114 -0.8407892 -0.3419962 1.218938 0.4431401 5.657469 -2.7107968 -2.540262 2.5822506 -0.12191987 -0.6353318 -4.474465 11.890342 -2.8850238 -1.64177 9.945003
action_code_09AHI010 5.082567 -0.8271354 -0.12248767 1.4809358 0.3676768 5.64142 -3.0021217 -2.5842721 3.0714068 0.002432203 -0.4500802 -4.6551485 12.100004 -3.0156054 -1.8223933 9.785157
last_phase_Vergunningverleend 2.8152022 2.13857 6.94176 -5.9605875 -3.8252008 0.83048844 2.4648485 -3.840497 -8.854187 3.432234 2.0861907 5.3242674 15.042599 -0.9524662 -1.1715447 1.0742797
last_phase_Zaakafgehandeld -0.7434311 4.8784814 -2.0700042 0.15831943 1.3601162 -6.681985 -3.4249942 3.4747138 8.952482 1.1396369 -2.3612883 8.8229475 4.3850565 -4.5645075 0.81476563 10.906506
parts_Sloop -0.58539516 4.0030956 7.57856 -1.1732336 4.5865874 -3.3609579 -2.4049807 -1.6470654 3.556268 7.076924 -2.334062 3.7582936 12.991621 -9.763381 -4.215912 -2.7786245
org_resource_560454 6.264073 -5.2693954 -2.837361 1.8264637 -11.120243 -7.5888114 -0.7570025 4.205698 0.9538929 5.028945 2.4480865 5.449071 1.3670461 -0.949065 -0.35097685 8.286588
action_code_01HOOFD370 -2.352607 -3.228487 -5.6469264 -12.329078 -1.6154563 -4.378315 0.09249503 -6.2047124 3.43746 6.668536 9.001167 -0.44793284 5.625098 -10.816602 2.4768915 -0.40658376
activityNameEN_assessmentofcontentcompleted -2.1813514 -3.0689068 -5.0088654 -12.395578 -1.3516032 -4.4513445 0.09705901 -6.4092426 3.5561788 6.473405 8.932039 -0.6726144 5.607064 -10.601322 2.4364982 -0.44647267
last_phase_Besluitgenomen 2.0929985 -2.3451312 4.574351 6.1098795 -1.3378875 -0.395581 4.082746 -8.206749 6.691676 -3.1263096 -3.1092346 -8.754709 7.776755 -9.714618 7.3896723 -4.5395284
last_phase_Vergunningonherroepelijk -4.1998715 9.233438 2.8105369 -6.802741 0.15007557 1.1796522 7.6549788 3.9775205 3.1192617 -0.7443521 -2.453484 -3.1849647 2.7030392 -12.818599 -9.466959 6.882822
monitoringResource_560925 1.8452263 2.8738136 8.8219385 -7.1031065 -8.113967 8.089402 5.2903776 -5.888289 -4.532789 0.9354068 1.6685374 3.2154994 10.288049 3.39741 -4.5595317 -4.8268843
question_True 3.7187781 5.5499473 0.91838086 -13.670768 -8.278389 -10.15753 2.6093602 -3.298137 6.420274 9.324062 1.2035949 -5.157978 2.628025 1.5061638 -0.3613455 -0.38132998
termName_Termijntotbesluit -1.3606495 1.0474893 -1.9291953 -8.322464 -0.5092605 2.530648 -5.4721293 0.010329948 2.5978975 -0.8452979 1.9363681 10.386952 16.354633 6.4061146 3.0605688 -4.0588717
Responsible_actor_4901428 -2.4668338 -1.1561053 10.764533 -7.5292068 -3.919482 -2.1314495 -0.64334893 -7.6562448 -6.339865 2.1548152 0.81949824 3.438912 14.6251955 2.4567797 -2.1591623 0.10721227
action_code_01HOOFD100 1.2457623 0.78320724 -4.593813 -15.010622 -5.2780924 -5.3712974 3.4218712 -4.3386784 10.892247 3.5497303 8.139394 2.302561 1.2974509 -7.39869 3.3803563 0.6001525
activityNameEN_registrerdateofpublishingreceivedrequest 1.1356627 0.8306596 -4.5518003 -14.598567 -5.483191 -5.266947 3.3322031 -4.26779 10.990371 3.1019754 8.122599 1.7054772 1.1261337 -7.281869 3.7354746 0.50866246
org_resource_2013365 -3.3352633 -8.004126 1.6035532 -8.806657 -4.947749 3.3274338 -6.5266037 2.0530221 12.054896 -0.7651297 -6.647627 5.9887505 5.7169514 -2.8431826 1.4362569 -0.6850901
monitoringResource_560604 -5.7119417 8.305481 -5.707337 -6.6687503 -0.39995372 -5.259907 11.241344 2.8309517 2.7975917 -0.49942943 -6.068577 -2.5317705 6.1059833 -6.8474 -6.7237673 4.7903
Responsible_actor_560604 -5.8048954 8.016287 -6.282146 -7.0187716 -1.0807247 -5.2236767 11.176304 2.5158043 2.964334 -0.19416286 -6.5040793 -2.8645535 5.436755 -5.983017 -6.4673142 4.8200207
last_phase_Procedureafgebroken -5.413553 7.2424016 4.1325035 -5.177564 -7.0314503 -13.938141 8.450842 -4.074866 1.0532348 -4.20076 2.4369888 2.765386 -1.1394408 4.0939226 5.394831 -3.710499
org_resource_560429 -5.941391 9.039721 3.545039 -8.872643 -1.528085 -2.2329826 6.8850975 -0.41637778 8.083507 0.3249441 2.025386 0.1102997 -0.4441227 -8.535467 -11.898012 6.7115016
org_resource_560752 -1.2224874 -0.86064535 3.29185 1.474566 -3.458336 -0.9144915 3.907043 -6.8407345 6.8533206 -8.170391 2.1429615 -12.254225 5.347218 -6.1643577 7.712445 -2.8332078
org_resource_560749 5.7389965 3.3919475 -9.491015 -1.0487103 -3.6012373 2.7192128 5.3093877 0.7955047 9.605688 -4.914489 8.690184 3.7337432 6.708021 3.728062 -1.0055307 -1.6384815
caseStatus_O 4.0685487 4.5197124 2.2370627 -0.37008685 -4.6172495 2.2263467 6.037258 -10.567113 -0.656151 6.2797394 -11.157267 1.3733594 10.564444 -1.597874 10.170256 -5.5594053
monitoringResource_560872 -0.95131975 5.555096 4.178085 -7.147317 -4.4076905 -7.0824037 0.88390285 -5.426255 -13.149107 2.1184368 5.3930597 -1.7310275 9.802629 1.9468948 7.1845164 4.587712
org_resource_560741 2.5535638 -0.09409011 -2.496402 -7.6553297 -4.7423425 1.4616741 -8.547971 6.116021 8.060156 5.8011475 10.518566 0.014688353 2.0762475 -4.6064816 -0.43010414 -4.564234
action_code_01HOOFD120 2.0148027 -2.5541017 -3.665085 -8.293323 -2.51116 -4.467931 3.7667348 -2.9759445 5.580385 1.0523747 14.141699 8.92952 3.2002933 -12.238191 2.1590931 0.9928239
activityNameEN_subcasescompletenesscompleted 1.7816403 -2.3472996 -4.0628734 -8.301409 -2.535864 -4.0223107 4.0871496 -2.868321 5.4879603 0.93038464 14.056494 8.509916 3.1453497 -12.730701 1.8363787 1.5862769
org_resource_560696 5.0551076 8.090451 -0.12601286 -0.12314973 -4.717562 1.2186408 -8.417501 4.3674655 6.1176176 2.4266694 2.7779417 5.83273 1.8230067 -0.4585362 10.5846815 3.889858
activityNameEN_phaseadviceknown 7.1890874 3.2850027 1.576096 -5.2964444 -8.317101 0.86252815 4.467038 -11.171856 11.756265 5.856192 6.92662 5.3333473 0.7547538 -7.0958714 4.4848857 1.798201
action_code_01HOOFD375 6.8011675 3.2859414 1.5916684 -5.853199 -8.240851 0.760664 4.441416 -10.889837 11.472722 5.8637896 7.2371817 5.135289 0.6665941 -7.4249477 4.079146 2.014642
monitoringResource_2013365 -4.5624638 -7.213681 0.7866818 -10.736895 -4.6575937 4.983997 -7.9366446 1.3804159 8.891518 0.21201292 -5.288628 4.528374 5.71537 -3.6723852 2.3304558 1.8481295
org_resource_560872 0.62033504 9.301163 2.4490774 -6.834525 -6.280131 0.69640374 3.4711175 -6.1888156 -9.701772 -0.38466147 11.357936 -2.5436223 5.056324 3.4676416 4.975676 1.8482687
monitoringResource_560812 -0.54162127 0.76140183 4.039418 1.1488074 -0.7028595 1.3973337 1.1326346 -4.382133 6.550355 -8.75094 2.3908045 -11.342226 6.6024356 -6.449561 8.725506 -3.9693785
org_resource_560673 3.4666357 -5.9348984 -9.763169 -6.1601725 -8.667246 0.14205262 1.9367919 1.364872 1.0158736 4.1568284 5.898198 6.06568 -1.4830462 -8.054527 7.6573343 -0.40472588
org_resource_560890 0.79044586 4.6981745 5.0746303 -7.9962897 -1.8138616 1.6758968 3.9431908 -4.5879884 -9.289813 4.1442056 -3.57561 7.786861 13.2661 -3.4647636 5.3560033 -1.9709977
Responsible_actor_560812 -0.804084 1.0725093 3.9269843 1.3309594 -0.7760657 0.99462044 1.3679502 -4.4402394 6.0258 -8.535479 2.8097818 -11.34064 6.5611105 -6.804795 8.521663 -3.636553
org_resource_560604 -3.9339237 6.44884 -6.7556043 -6.1015573 -0.52966475 -5.519068 10.453678 2.8806696 2.7706318 0.6500964 -7.8584795 -3.640308 6.748362 -7.146938 -4.009076 3.2536056
Responsible_actor_560600 -3.5823674 4.1979175 8.706853 1.4193382 2.7204187 -5.5035324 3.7532496 0.9702777 4.937554 -7.141906 5.7755933 7.4596386 3.134324 -7.2218404 -8.38403 6.6639924
activityNameEN_closecase -5.0910635 7.9972897 -3.8261766 -11.036236 -3.1753755 -3.592994 6.637057 -7.814608 8.998468 4.259598 9.670075 -0.70870763 -1.9750848 -9.003199 -3.3082838 2.5407972
action_code_01HOOFD790 -5.169331 8.295232 -3.7712224 -11.200528 -3.3622806 -3.3681014 6.7055454 -7.7916775 9.128744 4.3285403 9.662922 -0.7224733 -1.7254812 -9.091267 -3.2290893 2.252231
Responsible_actor_2013365 -5.3589773 -5.3653355 -1.2048377 -9.939258 -7.1829963 4.251321 -2.0560231 1.1127234 9.9609165 -6.7008114 -5.458631 6.1551886 2.9011154 2.8769956 1.7931514 4.3241134
activityNameEN_objectionlodgedagainstdecision -4.888152 14.073736 1.8746582 -7.179091 -0.94586736 6.3503184 4.6003942 2.5469024 3.6998568 -6.9714794 4.455581 -1.1122725 1.9816273 3.34502 -11.71319 8.679641
action_code_01BB540 -4.9388013 14.495804 1.9941707 -7.2091374 -1.4088535 6.1062417 4.790763 2.4480643 4.0176177 -6.946951 4.8602333 -1.0412003 1.5338573 3.3694282 -11.598996 8.67434
monitoringResource_560600 -3.3754013 3.8474298 7.5214486 0.7544896 3.015504 -6.4398885 4.370885 0.25764507 3.569558 -8.095834 6.8229346 6.805244 3.385308 -6.2587786 -7.02173 7.443005
eventName_01BB -5.257411 14.360683 2.011545 -7.293756 -1.3804245 6.561891 4.662398 2.548838 3.6637003 -7.0172057 4.665183 -0.93329704 1.7496713 3.2458038 -11.665042 8.5859585
org_resource_560881 -2.6582322 -3.568383 8.583104 -9.405939 -2.6518586 -3.5232034 -2.6922715 -5.6672235 -6.8335013 3.0233774 3.9479148 -0.6663324 14.076207 -0.37282965 -2.517944 -0.10203364
e_77_01HOOFD 10.200512 4.828372 -1.0126523 5.6918807 11.243432 4.9671803 7.2464085 -1.2293323 2.3445673 -3.3894413 1.1158175 3.7237723 -7.447352 3.102191 -4.7941937 -4.5608635
last_phase_Aanvraagontvangen -0.11338095 -8.997797 -5.102984 -7.8975883 -10.685475 -3.1380432 5.0840044 -1.092736 1.6759411 1.1328676 2.2625754 1.9218026 1.9573369 4.9567285 1.2552954 -13.92067
org_resource_560600 -2.9013195 2.3890386 8.481247 1.8709428 2.3378894 -7.927037 4.6730933 0.5114321 2.5349622 -7.2323275 6.1198297 7.363808 4.2144265 -8.36113 -5.24325 5.493283
e_212_01HOOFD 2.7502048 -0.12960921 -0.7598279 -0.8177005 9.294335 -0.07061093 5.341099 0.2036576 -0.61242455 2.9954548 -9.39741 0.72048956 -11.1189575 2.7679932 -10.305787 0.4885417
SUMleges_116.79765 -0.9881274 3.3088224 9.947171 -4.731455 2.238667 -0.6590993 -2.7241156 -4.2319965 -3.6598828 4.1891637 1.4283018 6.5850797 16.107285 -3.1486466 -1.7122513 -3.9761927
Responsible_actor_560454 10.2180395 -7.6249747 1.054787 2.5869052 -10.787508 -5.71605 4.2599883 2.197161 -2.5305777 1.8430682 4.155708 1.6619674 2.3591933 -5.012675 -0.46903569 7.3949203
e_221_01HOOFD 2.3446453 0.32030383 4.750771 -1.4271295 13.076459 -0.69917566 -1.0740919 0.025331564 -0.21171233 3.1436572 -3.8679423 -1.2987627 -10.633857 0.7097027 -9.732455 -0.9916725
parts_BouwSloop -1.1357265 -8.015082 8.22127 -3.3200836 -11.539332 -7.3924813 -9.1724615 -2.1874933 2.0601003 -0.26763234 4.671206 -1.1414204 1.2917985 2.2936995 4.5201497 8.089888
Responsible_actor_560925 0.80939597 3.8367434 5.3914404 -6.5834913 -9.529468 11.122396 7.371609 -3.2869232 -3.9681885 -3.7056124 5.3013606 -1.8089279 3.4559677 1.8901337 -1.5838791 -7.4121547
e_70_01HOOFD 1.999144 -7.2188888 -4.155138 -2.0062077 9.764766 -0.9718343 -5.1410594 2.5786533 1.6934763 2.0893493 -6.191576 5.4637766 -5.92628 4.282265 -1.7470609 -1.8235096
e_72_01HOOFD -0.95457023 -7.3850074 -4.3398294 -3.9468427 3.0913208 -0.2133605 -3.4590821 0.18926291 0.049064394 -0.021025278 -6.9475346 2.5018191 -8.620959 8.387092 -1.3345693 3.9529462
e_116_01HOOFD -0.32651007 -2.729956 -6.3692408 3.7329845 3.7442265 5.7395372 -4.0001197 -2.4280875 -2.7234204 6.251806 1.7608726 4.411776 -10.593636 3.7520425 -6.036711 2.888508
activityNameEN_entersenddateprocedureconfirmation 1.0597454 1.9558306 5.2491665 -6.45112 -7.856389 -9.951341 4.722421 -7.2474537 7.6341925 6.754405 6.3898025 9.31982 -3.3771274 -5.746297 0.6767306 -1.863794
e_99_01HOOFD 7.0906224 -9.483248 4.2097216 3.853869 4.222241 -1.9580802 -6.191082 -2.7254043 -2.664508 1.6238962 0.41497266 2.5552993 -10.252896 4.441663 1.0561553 3.502342
parts_BouwHandeleninstrijdmetregelsRO -1.9392376 -3.479279 8.933746 -0.9295249 -4.7528224 1.3589272 -3.3733945 2.4075062 15.619307 -0.42218158 1.1789025 4.90038 -0.77698374 -3.6389863 -11.906007 -2.1003778
e_41_01HOOFD 0.38008097 -3.2497456 5.0776553 -1.8836308 8.797199 2.7563136 -1.9582424 -5.048997 -6.879236 5.564581 -4.829054 1.5443261 -3.852885 5.197111 -8.424764 -2.8071294
e_25_01HOOFD 1.8019145 -3.2348993 2.7711036 -2.8043401 7.599224 -0.6874962 -4.159212 -4.2762733 -11.478592 4.537382 -4.4336185 -2.0104992 -4.1278205 7.827154 0.1358466 0.26510876
e_82_01HOOFD 4.1717677 -3.7996721 -9.579734 0.22247308 10.142361 4.256168 0.49348402 3.0231657 -0.1597732 -4.3019605 1.1442981 1.6641929 -7.5750213 4.986106 -2.1446521 -0.6322116
e_48_01HOOFD 3.7787564 -5.6396933 7.6449275 -1.6124306 7.222718 3.6659179 0.72066355 -3.4429426 -7.9415803 0.31677637 -2.222108 4.279845 -6.142206 4.4794416 -6.601971 -1.7255659
monitoringResource_560673 0.83232844 -7.4877768 -9.552747 -6.4023895 -8.523126 -2.4536588 1.4407364 -0.8008636 1.3456033 6.460466 7.1503744 5.4454207 -3.2835155 -8.43271 5.8149757 -2.871787
e_107_01HOOFD 8.736746 -2.4213648 -4.968649 -1.1987289 12.723752 3.5415037 1.0000169 2.6822731 -3.463293 -2.9185674 2.3243597 4.1600466 0.45053133 5.874806 -2.995441 -5.1038227
e_216_01HOOFD 1.6068869 1.9180089 -5.46232 -5.256179 11.8347 1.9683934 4.2415295 2.2638025 -1.6854788 -2.6443198 -8.018162 -4.3602886 -8.6159 2.855331 -3.9797804 3.3685722
e_233_01HOOFD 3.800403 -1.2203271 4.434431 -0.07249536 9.297785 -4.392243 2.2770314 -0.12297263 -2.3830502 -3.925486 -2.2536225 2.99028 -12.918593 4.6815453 -2.1910825 1.9660465
e_201_01HOOFD -0.36108375 -2.9129977 4.4406123 3.1812773 12.520495 -4.2428513 -3.2648933 -0.6654472 -2.008558 -3.2127385 3.4282315 4.1397433 -9.987603 1.12977 -5.587671 3.9325347
e_3_01HOOFD 3.496244 -3.2434578 7.3982286 -2.2873745 4.661811 3.2870028 0.15413022 -5.8520603 -4.9687786 1.3728615 -6.2150683 -0.024642281 -8.013836 8.881201 -5.8542914 1.5343463
e_1_01HOOFD 4.605182 -4.2716546 8.296249 2.968175 5.6738334 4.0304494 -0.68874735 -7.518618 -4.9035854 0.1344505 -2.910882 6.1969457 -6.592566 9.241894 -4.5271053 -0.23902953
e_210_01HOOFD 1.3725917 -1.1472272 6.7895236 3.6780572 11.624955 0.31333217 -0.78719145 -1.2550393 2.049831 -6.2289305 0.3902414 6.3549094 -11.500977 3.0005615 -6.796914 4.40606
parts_EMPTY 1.7758694 4.0225205 -2.852474 3.210858 -1.6998842 -2.28429 0.8485995 -4.463163 13.261538 -7.5161967 4.228136 -5.0955176 7.7647085 7.2001815 3.201147 -2.4492013
e_114_01HOOFD -0.039002355 -2.7536707 -0.5121482 -4.319133 8.963228 10.172874 -4.8220468 -1.3377689 5.408731 -2.8680475 -6.1248107 1.8764584 -9.629754 5.842442 -1.2272475 -1.9158641
e_206_01HOOFD -0.7559013 0.13786802 -4.983295 -3.9614599 11.41932 0.9699402 3.7838378 2.7564797 -3.1372325 -0.59735787 -6.570042 -3.6819506 -8.327734 0.4015382 -6.5760293 0.7810221
e_36_01HOOFD 1.7151446 -2.5925708 5.5390935 3.6393921 10.335565 2.3640559 -4.118429 -7.4240336 -9.180888 3.3551567 0.7159457 4.2343874 -3.5201883 3.5974815 -2.0829515 -0.32521507
action_code_01HOOFD110 -0.8703532 -2.4469733 1.2097574 -5.676275 -4.5041275 -4.01976 -3.2267828 -14.683068 7.714544 8.6645975 3.7055504 4.7700624 5.2408414 -3.001508 8.619045 -4.954642
e_73_01HOOFD 3.3744895 2.618703 -6.72856 5.8751807 9.910407 6.950401 1.7277561 -2.3324008 2.6667783 0.62129146 1.5146589 0.59973454 -5.259952 4.1429663 -6.718694 -4.418281
e_209_01HOOFD 4.3584313 2.808054 3.0730903 -2.7418134 6.6208377 6.502226 0.6057199 0.97781694 -3.3476357 0.6553529 -4.0008993 -5.6707263 -15.545359 -2.8352964 -0.77771777 3.864484
activityNameEN_treatsubcasescompleteness -1.0137743 -2.9108405 1.4579191 -5.723769 -4.3782125 -4.1432195 -3.578168 -14.536133 7.9584556 8.284471 3.6145482 4.6580625 5.338774 -3.1742592 8.691903 -4.641421
e_76_01HOOFD 5.1698327 3.1073732 -4.4557266 0.30453247 6.6255774 6.357051 -0.5397634 -0.5612651 3.3732586 0.015783207 -1.0345871 -3.8961377 -7.83432 7.811521 -3.0841565 -2.452228
e_59_01HOOFD 2.021561 7.298806 1.3336843 -1.7865282 13.719876 1.0109748 -4.8697877 -2.9367576 1.6816814 -0.020388836 -5.711774 -0.9655544 -7.0576897 7.246006 0.17629372 6.0133333
e_81_01HOOFD 4.43188 -0.9403221 -5.999213 3.456133 8.866738 3.7813423 -0.2833476 -0.5993037 5.0730066 -5.901677 1.03022 0.39466467 -7.890238 7.7357025 -1.2484406 0.38023454
SUMleges_51.423 -6.3530264 5.018464 -4.653687 -7.387787 -0.06645578 -1.0331525 9.638128 2.886726 -0.03689628 -4.914002 -2.3114533 -0.21336654 5.7515435 -7.7584286 -6.2177906 9.230145
e_42_01HOOFD 4.3543744 0.9808404 4.326589 1.5003864 4.865607 -1.9969285 -3.2491229 -4.649213 -8.104178 -1.9930892 3.5700839 -0.91620976 -10.841116 7.004794 7.986 2.7398555
e_224_01HOOFD -0.6469602 1.8319864 -1.9296603 -3.1111884 14.198569 -0.033354547 0.93696946 1.608938 -2.5708022 2.019855 -6.3368797 -5.045697 -8.772529 -0.94330364 -6.2649407 -1.2820306
e_229_01HOOFD -0.1842741 -1.5535469 4.028815 -4.093562 9.517279 2.5255742 -2.585568 0.9263456 2.5520544 1.5748441 -3.51703 -7.2517366 -11.093461 -0.21176684 -9.672886 -1.7723789
e_200_01HOOFD -0.25793448 3.0470524 4.32444 -1.5729263 6.8832517 7.343253 0.30061308 0.20852888 -3.4817932 0.22609676 -1.1934507 -3.7383692 -13.790241 -7.383259 -1.3643783 1.0275155
e_74_01HOOFD 3.5880008 -7.6750813 1.8976015 0.23710653 6.180278 1.0579251 -3.3293877 0.015517393 5.1315875 1.6037818 -4.4428554 4.138966 -9.355412 5.502539 -3.9415421 -9.063361
e_231_01HOOFD -2.9508104 0.902796 -4.8147645 -5.566254 10.898322 -1.3236598 -0.59454787 3.3189375 -3.8860874 0.74480474 -5.348823 -7.146966 -9.520486 1.0332454 -3.5724876 1.2386014
e_217_01HOOFD 1.5537635 2.871428 4.9758363 0.42535302 5.4835114 6.00284 0.78001976 -0.86385345 -2.9025602 0.33083192 -2.5050926 -3.0988317 -16.446377 -6.151482 0.47918412 2.9449751
e_177_01HOOFD 2.2174964 -3.0340276 -0.29039872 -0.026195997 2.1032166 1.160418 4.933458 -5.539802 0.8480959 -6.444577 -3.1163044 -8.291459 -13.071755 6.6617675 -1.0485109 5.770361
e_223_01HOOFD -0.87317944 -2.3031437 -4.740498 -2.0490487 11.556115 0.762054 4.8125787 2.4569728 -4.7425184 -3.4360173 -4.0313005 -1.9610637 -9.452182 -1.7483327 -5.4989333 2.6839657
Responsible_actor_560464 5.012772 9.808144 0.52625763 -3.708026 -2.6534197 5.1416306 5.5989923 -5.5101333 -6.1047378 5.846568 -6.1545677 6.5558953 9.630885 -1.2462633 6.212902 2.2172582
e_14_01HOOFD 4.3288274 0.47771615 3.1271992 -1.945599 4.642904 7.6438684 -0.64699894 -2.8245344 -5.475139 -0.07078772 1.0235344 -4.4774313 -7.810307 6.8673654 -2.9390583 -2.702388
action_code_08AWB45010 -0.7885925 -3.542336 2.9473162 -0.60563576 -2.816356 -12.800864 2.4069765 -4.6831303 5.1466703 -0.49586648 0.9685698 0.6538604 9.556751 8.209587 -8.123744 -0.65635186
Responsible_actor_560849 5.439363 -1.4543924 3.6312394 6.5601287 -0.6632743 -5.0525913 0.46176806 -4.4766474 4.525007 8.560604 -4.329336 -4.7575464 6.299368 -8.451408 1.4087173 -6.6240125
e_62_01HOOFD -1.8968831 1.5532598 1.1226484 1.4600077 8.209041 -2.202295 -3.486632 -7.845729 0.9685379 0.17717971 -4.3189597 -1.2829555 -7.9962487 7.7555175 -0.9013091 7.661967
parts_InritUitweg 0.88083094 7.459624 -2.780451 1.8390918 4.142616 -0.6591543 -6.7715154 0.6198144 6.4365273 -1.2380791 0.5173977 -0.06577105 6.8664236 -6.2921424 14.914129 0.3440071
activityNameEN_termforsupplyingmissingdata -0.8311057 -3.666821 2.8463278 -0.7740884 -2.736837 -12.736573 2.4341698 -4.8363404 5.0188146 -0.7074155 1.4337488 1.0148107 9.352642 8.32977 -8.098802 -0.7978948
e_11_01HOOFD 1.6314677 0.13683924 3.8269968 3.8538804 10.703801 3.7794416 -1.799685 -7.158642 -7.2673297 5.5070395 -5.9075556 8.287878 -3.8290806 3.994589 -0.31335053 -5.0095067
e_225_01HOOFD 1.735366 1.3954518 -4.889316 0.8871169 11.607672 -0.09736527 4.961364 0.65626746 -1.4261416 -2.1282306 -6.7346845 1.3352238 -11.026928 0.8004608 -3.5215623 5.3676095
monitoringResource_560849 5.3417892 -1.6190416 3.292322 6.134773 -0.9051463 -4.866478 0.5235738 -4.655423 4.0154667 8.650415 -4.4874268 -5.2236624 6.764281 -8.183269 1.6970168 -6.7720904
e_222_01HOOFD -0.05093797 -0.6996189 -4.681857 0.15593046 14.955877 -1.0699701 1.8361996 1.2814568 -1.5411161 0.7078685 -5.482491 0.2666754 -4.3168073 -3.0132241 -5.1194386 -0.26616088
eventName_08AWB45 -0.89003134 -3.6167443 3.2744286 -0.7858947 -2.7231216 -12.5726595 2.2778869 -5.0211034 5.1140037 -0.6826667 1.2574558 0.5053646 9.909851 8.133046 -7.902925 -0.9259597
e_61_05EIND 0.8435903 9.754225 6.200172 2.025722 3.1675308 -8.3130865 -0.9885775 1.14348 1.2203653 -2.2493472 -4.4589176 -4.014869 -4.5308785 9.493678 2.1682508 -0.95610464
e_226_01HOOFD 0.24003884 -1.3532661 2.5955482 3.7190795 11.403488 3.3048227 -0.30253297 -2.2653866 4.616984 -0.5962621 -2.895245 3.1167364 -11.617693 -0.4341447 -9.358377 1.2651844
e_88_01HOOFD 2.5040038 -4.622504 -0.99404216 -3.0344481 11.458864 5.127546 -6.7942314 0.24176508 -0.13329485 0.84373474 -4.3194227 3.0829315 -2.207409 4.7236323 0.6636715 -5.845631
e_215_01HOOFD 0.96239954 0.96005976 1.4752631 -2.9786062 9.239309 7.0850396 0.046574418 2.3172543 -5.2821717 -1.7205049 -1.1014636 -2.642886 -13.761422 -5.5341563 -1.3623474 3.6036286
e_77_10UOV 10.520054 8.187806 -2.793315 7.362523 5.6340437 -3.2847102 5.1739535 0.49841598 -0.6751212 3.3212025 3.5238035 -0.9772347 0.3939145 6.0523424 -6.191463 -3.684687
e_152_01HOOFD 3.498499 -2.3167028 -6.1911774 0.87797654 7.8371205 6.0592933 -0.23569664 2.6572647 -2.3060892 -3.9110806 2.0852325 0.1576553 -10.6294365 1.4126796 0.7876171 0.111976735
e_228_01HOOFD -1.8486489 0.3942767 1.6141108 -0.47879314 13.938695 3.2002 -1.3364106 -0.93168384 0.32056233 1.9473495 -2.9935884 -2.681531 -7.958676 -2.4415374 -9.410684 -2.105068
e_150_01HOOFD 9.78723 1.9684169 -2.5749638 -0.8878512 7.374088 7.027876 -0.6308301 2.7700949 2.1265423 -3.815046 -1.1161202 -0.5493428 -7.9212317 7.391975 0.6265924 0.22915478
e_80_01HOOFD 6.625594 -1.5649954 -4.547876 -0.1095469 8.648194 7.9385448 -1.3657691 3.1994512 -0.20908695 -3.8966434 0.26762363 4.781649 -6.6960645 4.5333476 1.7799884 -3.2690713
e_202_01HOOFD 0.04709735 0.66851825 -2.562868 1.0232505 11.574512 -4.2314467 6.709679 1.9033996 -2.6249712 -3.701735 -3.8106494 0.08262637 -12.27317 1.0276889 -3.574595 -2.924352
e_115_01HOOFD 3.9167147 2.5843227 2.433356 5.8473434 5.0506268 9.056172 -7.786083 -3.73728 1.3025656 -1.5170033 5.000675 5.155517 -7.9628124 6.158227 4.0919375 -0.13867415
activityNameEN_applicantisstakeholder -2.6180203 5.94443 -3.074912 -15.355287 -5.2582703 -5.124216 1.1717967 -7.7394104 3.8896422 12.428658 1.3361324 -4.40457 3.2338138 -1.6625543 -1.8699969 1.4319808
e_166_01HOOFD 9.549956 -2.2070508 -0.96302724 0.6173566 5.4027386 6.239315 -2.164282 6.002603 0.26081824 1.425282 3.2207963 -0.8750994 -5.682609 -1.2551994 -2.67557 -6.397151
action_code_01HOOFD050 -2.8667486 6.2855916 -2.5278003 -14.940079 -5.6635966 -5.3087544 0.7519146 -7.7328362 4.4882674 12.450776 1.3506129 -4.832898 3.0920575 -1.9947925 -1.5534307 1.5294836
e_32_01HOOFD 2.2269113 3.392093 -1.0631088 -4.2514167 9.150201 1.9711577 -1.5106152 -0.7430539 -9.456326 -0.14447804 1.7598536 -5.8680034 -6.843156 5.7126327 0.48401073 1.3599379
e_156_01HOOFD 3.9335413 -0.28814447 -4.396525 -1.035712 8.865251 6.5518084 -2.0381424 4.8063807 -0.34650004 -2.469449 2.5881221 -0.10984093 -7.389835 2.096554 -2.4153726 -2.898897
e_101_01HOOFD 2.631554 -5.526215 2.0745335 -1.5737009 2.668063 3.7819107 -6.070778 -1.3202227 2.9972172 -4.527721 -3.589721 0.17185691 -9.891758 8.464558 3.4550772 3.6031942
e_104_01HOOFD -1.7361097 -4.2734046 -7.519802 -2.8948696 8.209357 0.174894 -6.3710403 5.1472383 -3.1367705 -1.9506685 -1.7869614 4.146744 -7.729185 3.70884 2.8641593 3.996048
e_61_01HOOFD 1.7710006 4.8334503 3.1181376 3.3218443 10.479766 -0.39575413 -1.5352911 -6.6388307 3.0564609 -1.9871538 -4.7896724 0.8709843 -11.131244 9.719253 1.8751742 -0.3355696
e_8_01HOOFD 1.4685174 0.414299 0.83609545 -2.4657154 9.276838 7.403761 1.7304521 -1.4482958 -7.9486513 -4.9885325 2.5501223 -0.42472237 -5.819667 4.141301 -1.2427467 -3.2879305
e_65_01HOOFD -0.9175377 3.6696208 -1.8349565 -1.5090044 6.1751127 1.4668977 -4.137993 -6.095769 -0.44520485 1.7667619 -7.8883657 -3.6393082 -5.3731413 11.537413 3.9035814 0.9551733
e_84_01HOOFD 5.1132936 -3.9361014 -6.1469855 -0.559183 7.1998334 5.948717 -0.27613005 3.8232198 -2.2653344 -2.792113 0.12433526 1.0890771 -7.9074483 0.33746588 2.4714482 -2.668503
e_26_01HOOFD 4.7053266 4.558163 1.6592424 0.6673731 8.70807 -5.513167 -0.06730604 1.1311628 -8.489087 1.3095901 4.962233 1.7742532 -10.491657 5.8037925 0.94562036 -4.1530194
monitoringResource_560458 -4.254869 11.505567 4.3724556 0.9519275 -1.970819 -3.3850012 -3.5305948 -6.544172 6.9349737 1.0527103 -4.833687 -1.4055866 1.9899876 6.6737695 2.5440686 6.9551134
e_45_01HOOFD -2.044313 -2.521482 -0.22306208 -2.1983318 7.034321 1.1090444 -2.6590898 -5.465856 -11.939933 5.329892 -2.2145598 -2.1415715 -3.5954611 3.7670453 -2.355533 2.0279481
e_148_01HOOFD 2.5129952 -3.982601 -9.955658 2.9093585 10.157916 -5.38169 0.112847574 -0.052578572 -0.15402605 -5.549237 -1.7743132 0.24831869 -2.6070442 4.6289263 6.80315 1.5481769
e_127_01HOOFD 2.4313474 -2.8624222 -3.2119994 -3.327372 11.787041 2.8582063 -1.2096294 2.7285385 4.1576695 -8.12929 -5.8937044 6.701869 -5.332554 3.2061505 2.6732564 3.192769
Responsible_actor_560458 -4.8195157 11.878859 4.7785063 1.3185236 -2.3416076 -4.0027685 -3.499102 -6.5486536 6.859043 1.3476394 -5.2982316 -1.4930396 2.2107694 6.5420413 2.2646365 7.180945
e_111_01HOOFD 7.9996896 -5.6361146 1.8386995 4.2339177 0.83349067 3.0002027 -1.8159744 0.78200644 0.3530457 3.084715 -1.520508 2.5356743 -12.487604 3.4714172 -3.170519 -0.7568169
org_resource_560925 1.7754241 1.3274871 4.9908543 -12.316569 -7.527314 5.3307686 7.8612967 -8.129349 -2.1216345 3.2455919 3.9315958 3.2083395 3.7592652 -0.18245466 -1.2370273 -8.983668
org_resource_2670601 1.9953712 -0.21937338 10.610559 -4.9876757 -5.7919846 -2.0589645 1.0045191 -9.400869 -0.102345325 3.9033172 0.44396424 5.4357805 11.135311 6.736736 -5.4704304 -0.6779641
e_208_01HOOFD -0.74341375 -0.6908446 -5.557244 -3.2884662 7.6899304 -0.092192 3.5394294 -0.9571861 -3.2199585 0.35953134 -7.0358367 -8.747788 -8.575157 2.837278 -4.1592507 2.7138076
e_87_01HOOFD 1.2615253 -5.901776 1.0477736 -2.1284912 9.550141 4.2127376 -8.968768 0.8690873 -0.18482034 0.59000754 -1.7013571 1.3321874 -4.752288 4.5739846 -1.2774197 -3.1831632
e_174_01HOOFD -0.85184485 -8.425487 1.3374401 4.8615484 6.556466 2.8670464 1.0229981 -10.277697 -1.6505264 -1.6312733 -8.001368 -0.57457215 -5.3233624 0.2025799 3.6148024 -0.9614794
e_18_01HOOFD 7.564168 1.9790559 0.68911964 -0.20861533 5.7548556 4.5304737 2.0537412 -4.8814015 -11.06192 3.468907 -5.892221 -0.031550106 -6.4476104 6.8518357 3.1733637 1.7945654
e_142_01HOOFD 2.9079132 -3.7638233 -3.7122962 -1.974163 6.2922306 6.4110975 0.46269792 0.9170269 3.7902026 -4.67334 -7.741222 6.2732606 -6.924771 5.7571154 -0.7198719 2.240286
e_211_01HOOFD 1.0710636 1.1860715 5.120466 3.672089 12.31934 1.511433 2.702076 -0.1178629 -1.3311228 -2.375146 0.25944364 1.9427079 -9.8879385 -3.780105 -8.555348 0.32796383
e_203_01HOOFD -1.4614624 -0.57740223 -3.928374 -3.0332692 9.550683 -0.69339347 2.9153683 1.1466246 -4.8042097 0.0128382435 -5.264816 -5.605163 -8.77873 1.175449 -5.9052343 2.4250386
e_85_01HOOFD 4.925529 -7.8952346 2.332156 -2.173962 7.203047 7.68118 -5.495819 2.8196511 0.923385 -2.932674 -2.4862132 3.9935648 -8.952723 0.00972325 0.90150595 -0.6849561
e_86_01HOOFD 9.2252655 0.69514596 -0.3786223 0.06824968 5.0145364 4.2912354 -5.6450295 1.6454159 1.0911952 3.0717828 -2.057531 -1.2974056 -9.337598 6.5030227 2.4579072 -1.1408118
e_102_01HOOFD 6.755977 -5.0165358 -6.255602 -1.077148 2.325348 1.9215347 -1.3714432 2.5333674 -3.3567913 2.6323683 -4.2884192 -2.6185148 -9.820221 4.8324194 1.5699707 2.033129
e_157_01HOOFD 10.0467 -5.1790648 -3.8668702 0.6187236 5.495957 -2.2150326 0.7991912 1.5814776 -3.8270454 1.3052605 -3.478592 -0.41816577 -7.3632116 3.685283 0.4287931 5.181532
e_204_01HOOFD -0.85517794 -0.90837884 -3.5145786 -2.726724 10.319933 -0.699515 3.1932886 1.2114276 -4.6995153 0.26365784 -5.255787 -4.778039 -8.628663 0.31811374 -6.730318 2.4857273
e_119_01HOOFD 8.536347 0.5983481 -1.1192644 0.71186537 7.0172706 3.7996218 -5.611462 1.6579607 0.5512567 1.1541985 -1.9429891 -0.66243356 -8.643587 5.171488 4.763245 -0.66156745
e_145_01HOOFD 9.969106 -6.7496734 -3.0606046 4.164404 3.2369387 2.1203842 3.610095 0.65142787 -2.9340968 -3.685392 0.7304827 2.5968924 -7.896862 4.099786 -1.4163417 3.9956086
e_113_01HOOFD 0.6594202 -7.0769315 -0.090324305 0.9343171 2.3852625 5.357668 -3.836219 -2.6928315 0.94540673 0.9362022 -7.0459695 5.5937357 -11.453212 4.195953 2.3572152 -0.6191951
e_94_01HOOFD 7.5588245 2.7359123 -0.22567543 -0.58262146 4.8409553 3.1292655 -6.3889246 1.8306915 -1.4335017 4.940592 -0.53912973 -2.2760293 -8.694137 7.3031774 1.084127 -1.4051225
e_219_01HOOFD -1.993212 -2.1639504 0.27697828 1.7138311 12.082309 -0.38956943 1.3632425 0.06224591 -3.222593 -5.8615675 1.1494906 4.4600067 -9.541088 -0.83293575 -5.3525705 5.275915
e_178_01HOOFD 4.394754 -3.9697435 0.8250546 9.091771 10.743293 0.6187148 -0.22459234 -6.7895827 -1.0616639 3.3922431 -2.0065744 -2.8170373 -5.7264338 -4.0718374 0.6579871 -4.9922934
monitoringResource_560741 3.337439 -1.4071314 -2.1700213 -12.127688 -3.538109 -2.456577 -6.503323 0.38387543 9.163847 8.116407 8.481724 4.0258007 2.365088 -5.5255303 3.1435692 -4.248092
e_213_01HOOFD -2.395945 -0.4609507 0.98276126 1.8714321 13.714303 -1.3241804 0.7044227 1.8180387 -3.3130882 -2.5337193 0.942633 -0.34536964 -8.272383 -4.6010613 -6.7106094 0.5451004
e_70_06VD -5.7138686 -5.1436343 -2.6071606 -2.2668498 -1.0727478 -7.1944537 -9.11401 7.0882134 -0.24620208 7.912934 -6.077208 2.7354808 -3.7770064 1.5178287 -1.735499 -2.1412034
e_103_01HOOFD 10.38785 -5.123799 2.8668602 6.343787 3.4581063 1.4484944 1.5232956 -0.2790338 -6.6651096 1.5550765 0.8251156 6.90584 -8.832243 0.6806497 -1.3626771 2.3607419
e_69_01HOOFD 4.1933208 -4.822371 3.8262794 2.1898394 5.0793414 8.837385 -4.8805895 1.5827336 4.1800756 -1.5702423 -0.73717296 6.144751 -9.092127 0.76642174 -2.984183 -2.2810278
e_5_01HOOFD 2.8189988 3.1241033 -0.7216803 -2.0754418 10.682855 3.2612576 -0.5513008 0.0846121 -10.270941 -5.2844057 4.778594 -0.9154974 -6.694047 4.435836 1.8774601 4.822816
e_91_01HOOFD 2.973988 -0.13746375 -6.268466 1.3551909 11.248309 3.542561 -4.315902 3.507268 -2.0891593 -1.1810881 -1.2780032 5.660678 -4.895441 1.6223942 5.137815 -1.9023904
e_43_01HOOFD 7.210946 0.22723296 -2.521622 -3.9256997 6.480607 7.6077833 3.730844 -1.6655991 -8.483746 4.661093 -8.70154 1.0899414 -2.8730562 4.4643736 -0.2587878 -3.6168299
e_37_01HOOFD -0.53915584 -7.4341364 5.9241524 0.6596097 5.9731956 -0.45425642 -7.0989695 -6.235675 -9.555488 1.7521582 0.99124295 -1.195951 -5.142679 5.8603578 -0.006638507 1.0482345
e_135_01HOOFD 2.8395677 -4.6078043 0.50303483 3.9384363 6.4048133 3.8903685 -5.188573 -2.161882 0.9424078 4.4906874 -8.859721 7.856858 -8.65288 1.0688093 3.5189986 -2.2648578
e_60_01HOOFD 0.9486994 6.8088956 0.82577693 1.2403263 8.889742 2.1455271 -3.321283 -4.469418 1.4806005 0.72836244 -4.2601857 -2.8172808 -8.790893 7.3910728 0.18087837 3.6368144
e_98_01HOOFD 1.0106432 -9.741016 1.8604043 -4.298338 6.967772 2.554369 -8.373576 2.8872101 -0.7800468 -3.5075436 -0.0823326 -0.060685813 -8.410644 2.017018 1.0226562 0.9308187
activityNameEN_activitiesregularprocedure 8.684071 2.2275772 -2.5264566 -12.82226 -10.362904 -3.5484378 0.96555495 -4.123224 4.73673 10.202457 4.090711 -3.4485364 1.2823108 -1.9074003 6.0031486 1.1306111
e_74_08AWB45 -1.0671723 -9.603073 1.5929977 0.31020573 -0.89531845 -5.4026785 -5.390216 4.039654 5.145308 1.3003554 -0.47974738 -2.5641484 -4.0867257 8.498788 -8.673931 -10.313142
e_162_01HOOFD 0.8778028 -8.1971035 -1.8731827 -4.7345495 6.5593734 5.5458093 -3.889302 2.824465 -0.2604525 -5.111121 -2.420365 2.1709921 -7.7068458 3.024314 0.14308158 0.97332937
e_182_01HOOFD 7.136951 -3.7358084 5.8157144 8.436341 7.2011395 -2.4821618 -1.0564675 -5.7416368 0.5156149 4.8229985 -2.9981418 -1.979648 -6.268549 -0.6764886 -1.8308486 -3.6569166
e_83_01HOOFD 7.935153 0.63419056 -1.7075832 0.35111284 4.0782 5.076766 -3.1358376 1.4660095 -0.7517125 0.317544 -1.7934271 -1.7434411 -10.230453 5.288238 4.155982 0.4029638
e_155_01HOOFD 0.28434703 -1.529668 -3.1550243 2.9044793 14.025512 -1.7722559 -7.9335494 -1.2657503 -1.4808468 -0.13409437 0.22574665 2.0191822 -3.9326372 -0.7794577 7.070309 0.11424458
e_138_01HOOFD 7.0682173 -2.9232874 0.40382728 7.3066916 0.32135177 3.474663 -0.459592 -0.8904049 -1.0412124 1.9782046 -0.84392136 4.2225037 -13.322897 0.35425055 2.3811998 1.328635
e_96_01HOOFD 2.743526 -1.4885173 -1.909014 1.6863995 6.5143504 6.558274 -6.745944 -1.1321706 -1.8737884 0.07173309 0.14261712 0.81682014 -9.49633 2.8724322 6.9329944 -1.9376186
action_code_01HOOFD180 8.973451 2.174443 -2.096746 -12.972545 -10.512259 -3.2822738 0.9593337 -4.3768554 4.777386 9.724998 3.8628929 -3.6800323 1.5938108 -1.734499 6.240379 1.9184357
e_147_01HOOFD 9.2401085 -8.021059 1.0549542 3.401733 2.836484 1.0897717 -0.9730267 0.29962483 -1.7195306 -3.8786812 2.2219439 1.5323852 -9.573988 4.5391355 -0.10218391 4.7079225
e_205_01HOOFD -3.4684405 -1.8634615 -5.896216 -0.7407386 10.289606 -0.51045454 2.1069224 -0.85652614 -2.6194808 0.053280853 -4.3808074 -0.17832264 -6.99496 -1.0895307 -5.300584 4.083287
e_38_01HOOFD 0.70730585 -8.151136 1.6061541 -2.426661 2.9959178 7.3973646 3.918465 -0.13733011 -11.020381 -1.8678905 1.3958367 -1.666315 -0.6423845 -2.3902183 -4.550865 -6.9581985
e_220_01HOOFD -3.2462666 0.021509696 -0.028657898 -1.0796854 13.285891 1.2181813 0.66429335 2.5906115 -4.4259863 -8.514185 2.188602 1.7472286 -9.012095 -1.1745946 -4.798815 6.7129517
e_133_01HOOFD 0.80643886 -8.643642 -1.9772686 -1.4351256 10.264433 2.6762862 -5.474829 2.4381406 -1.2982926 -0.61821985 -5.20381 3.9787204 -6.899169 -2.7928438 1.8301582 0.81263256
e_161_01HOOFD 5.8177767 -3.6457863 -2.4074576 1.4123348 11.196635 -0.84576833 -5.956705 4.4884353 -2.4161186 2.8931777 0.07293905 3.7648642 -6.485841 -0.19590303 -1.071774 1.0398849
e_10_01HOOFD -2.926902 -1.947291 2.0806074 -1.3191024 10.680703 -0.25983706 -3.2893054 -0.86545664 -9.172515 0.39435738 -0.77518976 1.493545 2.3026114 0.7492443 0.73142576 -7.0309396
e_42_05EIND 2.093281 7.0813646 5.7419367 -0.52433765 1.3501186 -7.107338 -0.7904908 3.679106 -6.923753 -1.8521019 1.0937983 -5.8650804 -4.691231 5.8744116 3.989182 -1.4489516
e_63_01HOOFD -0.043135084 3.4801807 0.45686302 1.2920911 9.935125 -2.9200504 0.81918824 -3.234259 1.9314877 -3.0421708 -5.133664 4.153434 -11.32635 6.2165837 4.649627 -3.8380349
e_143_01HOOFD 0.39877713 -7.5645094 -2.9466622 -3.3566685 6.6278896 6.4336624 -1.5115848 0.7623846 0.6329805 -6.0969377 -3.676148 4.0926595 -6.1999764 3.9046204 -0.47083497 1.5556574
e_128_01HOOFD 4.1459413 -4.2652483 -3.8639932 0.47022521 6.7518344 4.9459195 -3.562151 3.763841 -2.5454152 -1.6003519 2.8521395 -0.0064565106 -8.85983 0.63416696 1.1989366 -1.9300166
SUMleges_126.45 5.070905 -1.8729838 4.2794495 6.536934 -0.1342816 -5.1398187 0.30427134 -4.5585833 4.0689225 8.096249 -3.6906483 -4.5598392 6.265351 -8.594273 0.64243585 -6.1895823
e_112_01HOOFD 6.628776 -0.9423187 -3.9219642 3.2316537 7.3764725 2.3627603 -0.48823643 0.6739847 -0.059300255 -3.4413235 -0.6940971 5.046481 -7.320367 5.4926577 2.5304365 2.494411
e_28_01HOOFD 0.19736381 -4.63213 3.462666 -0.7831228 5.595109 1.8803338 -5.6925516 -4.71294 -5.5840282 2.6587512 -1.6056472 -1.0177119 -6.379177 11.784334 -2.7335365 -5.7748313
e_9_01HOOFD 0.29253286 -2.2627246 5.3403945 0.32751262 9.445554 6.2434125 -2.2233331 -3.0398343 -8.289729 -0.01683642 -1.4479526 4.0577946 0.3559373 2.6121259 -2.3004222 -6.0575414
e_12_01HOOFD -3.5804207 -3.3747184 1.3638413 -1.4418595 11.055302 2.1559875 -3.9191246 -1.5521563 -9.17401 0.1074921 -1.9755186 2.7405052 3.0564091 1.525787 -0.057916768 -6.2575216
e_134_01HOOFD 3.99484 -4.471414 -3.8226554 0.30300424 7.047722 4.2848907 -3.7232797 3.4585884 -2.8718624 -1.4815677 3.1375842 -0.44035998 -8.816933 0.5310435 1.4421681 -2.081593
action_code_08AWB450202 -0.73838305 -4.3482823 2.9506445 -1.6554688 -4.046882 -12.351868 3.407211 -3.541048 3.6093745 -0.7703351 1.435418 1.5537562 9.381411 8.045689 -9.004077 -0.5320031
e_108_01HOOFD 4.205662 -1.3313496 -2.1765437 1.8248072 9.125154 -0.7441609 -5.0644517 2.513928 1.4344835 -0.4517306 -1.6793783 3.9260352 -8.841775 2.6425078 3.7753782 -0.11909877
activityNameEN_sendprocedureconfirmation 1.9795474 2.5026138 -9.176295 -12.509345 -1.2695105 -0.36956847 5.209135 -1.2274405 11.496677 4.748716 4.9212646 4.811962 6.034462 -6.1237755 -1.5804566 -6.1904187
eventName_04BPT 0.523795 4.871109 -9.944405 -2.1761713 0.25834417 6.9103985 3.6637466 7.34225 8.93171 -0.599332 -5.9700737 1.9481093 6.9864655 -0.1345556 -4.2005687 -6.6363773
e_199_01HOOFD -3.4768648 0.3464499 1.212761 -0.6477099 4.3029838 -4.232924 4.4275293 0.10388153 -0.9877431 -1.2330188 -6.245539 0.14578293 -12.760084 3.565627 -4.748949 -1.1694273
SUMleges_118.9473 -1.3054707 7.522555 5.7272096 -0.42561665 6.0757895 -4.139738 4.197952 2.2768147 4.8279643 0.69389844 0.8635696 2.980305 7.5455446 -11.374311 -10.06757 1.6042125
e_75_01HOOFD 1.8969376 -2.288081 0.7662655 -0.4245691 -0.25099614 -5.803261 -0.966827 1.0113915 -0.24679995 -0.294488 -3.6907158 -1.7883024 -14.309624 5.7300425 3.6495776 0.9728661
e_44_01HOOFD -3.5566385 -3.0923288 -0.9130683 0.0007192835 6.7047896 2.2489493 -0.85833997 -5.691115 -13.309252 2.4134576 -1.0096436 1.7007432 -1.9145522 1.46237 -0.49503544 2.4229712
e_233_05EIND 1.6525899 4.817279 7.993184 1.1090347 3.9799109 -9.994903 0.77779394 4.3725634 -2.7509952 -4.5929337 0.23384283 -1.9730036 -5.7085466 3.946789 -0.32293597 0.42916405
e_227_01HOOFD 0.31270698 -1.3082056 2.4994833 3.4693625 9.411984 1.8019775 3.7986445 -0.9648076 -2.4781055 -6.4317985 1.5296888 2.5665274 -10.553016 -1.7698343 -5.821947 5.0106516
e_15_01HOOFD 3.6298702 1.8015822 1.9594376 1.2053305 5.0368185 10.233789 2.143966 -2.6287723 -5.805986 -3.4993439 3.4124675 0.5592289 -8.935861 4.591578 -2.0795872 -2.141784
e_16_01HOOFD 0.7163144 0.26454005 1.1468728 -0.53419054 5.623441 9.0306835 -1.0451869 -4.66529 -4.9655185 -1.2908674 2.1191251 -1.9164156 -6.991412 5.324512 -0.6824862 -4.1391354
activityNameEN_entersenddateretrievemissingdata -0.83019525 -4.1695657 3.1387365 -1.6262428 -3.3669822 -12.406696 2.9940832 -3.7047384 4.3466115 -0.77178115 1.1314663 1.3494264 8.995107 8.07677 -9.273592 -0.4759493
e_64_01HOOFD -2.294929 3.2244682 7.2649317 0.663869 3.1165633 -3.2940688 -3.1644626 -5.2867866 -0.9234297 0.87004584 -6.076917 -3.0910954 -13.6321945 6.222717 2.630867 3.0477343
e_149_01HOOFD 7.930326 -0.33826736 -3.4162629 -0.9494615 7.176775 2.7640688 -1.8712198 1.0700763 1.707018 -4.531136 0.69181347 -2.735324 -6.016222 9.48899 0.94422394 1.6473845
e_24_01HOOFD -1.8811438 -2.568415 3.31826 -0.87050974 8.821053 0.70260084 -3.4879367 -1.6686263 -11.782587 1.6019357 0.34312186 -0.598315 0.95180833 -0.5676452 0.20912299 -3.5434284
e_141_01HOOFD 4.646964 -2.7400522 -6.457675 2.4284418 7.9545856 3.7895422 -0.29508442 0.68340135 2.3040211 -4.327095 1.3256273 0.8933374 -3.1033313 5.138953 0.078041196 -3.205231
e_186_01HOOFD 1.7191242 -3.4539707 1.2381514 1.5006839 8.291268 3.5530388 0.021704106 -4.0136547 -1.1165508 -6.170387 -0.53962046 -6.693978 -7.2771587 -2.194262 6.048642 -1.5641977
e_140_01HOOFD 10.768227 -5.1828165 -1.9627358 3.6656644 -0.020678177 1.7956946 1.6154579 -0.96298975 -3.9669857 3.5563529 -2.1588678 -2.9640598 -11.177903 3.9631991 -0.7699753 3.2719064
e_121_01HOOFD 2.45288 -0.85387576 -3.0890415 4.4922037 0.14838912 -4.6991615 2.7630155 2.0626578 -3.5324802 1.3244126 -0.68117434 5.9202094 -11.579816 4.0279365 1.2289747 -2.036843
action_code_01HOOFD0651 1.4955542 2.3196619 -9.131979 -12.646668 -1.5532751 -0.8674695 4.9442005 -1.0681331 11.487313 4.5427785 5.038077 4.697619 5.8884134 -6.3731112 -1.1993951 -5.821939
e_158_01HOOFD 4.4678426 -3.5925333 -5.5710087 0.80505127 8.164135 5.361921 -1.5737385 1.6064281 -1.9156753 -5.477674 3.0649843 1.8300174 -4.2340565 5.513497 1.3061882 -1.5029597
e_29_01HOOFD 3.0711086 -3.119072 2.0855844 -3.9677162 3.8570065 4.914429 0.68122274 -3.5622478 -8.734896 3.8259284 -6.032045 -3.4216266 -4.052136 7.0301423 -4.2258024 -2.1923394
e_195_01HOOFD 1.1787542 -3.1062784 0.8862197 0.5813573 7.7920136 2.9038112 -0.87651646 -3.3692267 -1.2810522 -5.498918 0.023458734 -7.436266 -6.7469196 -2.2688954 6.490432 -1.8568853
e_37_08AWB45 -4.79793 -8.647361 6.733362 1.3091258 -1.1774327 -7.3626747 -5.68616 -2.7459548 -8.432011 -0.09735327 1.8894217 -3.8440971 1.2918164 6.013718 -2.875139 0.33604184
e_93_01HOOFD 5.677939 3.1184745 -0.88721144 0.06645114 7.414019 1.2871878 -6.661335 2.218637 0.96986806 4.7161345 -1.9986675 0.088676445 -8.331394 5.373411 -0.0021303864 0.27360353
e_187_01HOOFD 4.142749 -0.112986274 1.8878542 6.782913 6.4949074 3.053482 3.237004 -6.600877 3.2528899 -6.889698 0.6826862 -4.8555555 -3.1922245 1.7059853 3.1050844 -3.6441462
e_151_01HOOFD 6.160405 -3.078466 -5.6915264 1.0886222 8.515253 2.5361273 0.2735455 2.885981 -5.6508565 0.31404337 -2.4385524 5.6025634 -7.8412986 -2.7497802 4.57532 2.573366
e_110_01HOOFD 1.892667 -7.1466794 -3.3076472 -3.9035957 1.6611568 4.8346705 -5.062042 1.1198673 -2.1570067 2.2428806 -6.1560326 -2.9836833 -7.5218 3.994353 2.06514 0.6595309
e_159_01HOOFD 8.886372 -7.3349624 -0.58131695 -1.8446096 3.4055078 -0.89264476 -1.3099537 1.6006277 -7.752343 3.9634275 -1.2511028 -2.0074205 -6.1307406 3.0181315 -1.7265975 2.417503
e_109_01HOOFD 8.760445 -2.7131748 -1.5727074 1.9995053 1.8698243 2.9959745 -2.9161227 1.0599349 -0.6444874 3.937375 -2.5145078 -0.011931881 -9.510798 5.6475496 -0.6967819 1.4848499
e_97_01HOOFD 2.7290742 -8.080783 -6.3532877 3.2630017 3.0194402 2.5825636 -5.002216 -1.9366083 -5.3462353 2.8757677 -1.0336258 4.6874533 -5.254218 6.0247955 3.3926127 0.15655741
e_180_01HOOFD 4.246161 -4.9585986 -0.66444546 0.7710623 6.0057216 0.29311872 -0.9913244 -3.1183136 -2.0571942 -1.7200015 -0.93017346 -10.885481 -6.1161447 0.20569228 5.25689 -2.8799012
e_26_05EIND 2.7462068 7.429944 4.682742 1.3108652 2.3684676 -8.95903 -0.4165199 4.6863303 -8.183382 0.71161765 2.4874156 -3.7145529 -4.242613 5.4959946 2.2115312 -4.2615037
e_68_01HOOFD -4.814161 -7.545947 -0.74759734 -1.492631 8.225546 8.121211 -7.941605 -1.5822358 2.472637 -0.8545639 -2.270646 2.9916239 -4.907023 2.5323722 -3.8224432 -3.4238634
e_197_01HOOFD 5.0600576 -6.1385965 1.1967963 6.9450693 11.410801 -1.7639819 -2.521674 -4.477461 -2.193295 3.420125 -2.0301287 -1.2664254 -4.329958 -3.3120065 1.9671819 -5.027965
monitoringResource_560912 -3.0666158 2.817855 4.0368404 -7.23767 3.9975069 -6.803094 -0.046625342 -4.6668997 -0.86018723 0.5374756 -1.5386949 7.8385515 14.406947 2.6226926 4.018506 -8.127052
activityNameEN_MERpresent 0.34779936 5.5325828 -10.195352 -2.6852615 0.514192 7.1990685 3.9151902 6.6973224 8.828286 -0.7132948 -6.8736596 2.9216576 6.8381777 0.6940472 -3.4411058 -6.2556634
e_196_01HOOFD 3.8853114 0.6194797 3.1838882 2.524514 7.9911017 5.502563 0.08086108 -3.7204766 1.1004664 -9.096409 -0.027016243 -3.9350634 -8.183406 0.16529487 7.8213882 0.9263038
e_71_01HOOFD 2.637324 -5.576105 -4.9294105 -1.1787589 6.176712 2.8999119 -5.069152 3.6022522 -5.0440364 0.7184459 2.3291085 6.2040086 -5.2514806 5.1413484 -2.0153124 0.6829632
e_33_01HOOFD 5.8001037 -2.980365 -0.11571759 -2.7385085 0.69250983 8.147338 3.4902391 -2.4488347 -4.5230317 1.4744933 -6.244965 -3.8863618 -6.728318 6.93027 0.6992461 -9.6595125
e_183_01HOOFD -2.7014487 -3.9144902 1.2662063 0.7016581 7.583144 2.2940993 -1.6005833 -3.2162983 -2.7899492 -4.927101 1.2722685 -6.8921485 -2.2145963 -2.893433 4.545749 -5.876834
e_160_01HOOFD 5.3553796 2.1997216 -1.6176335 0.8519077 8.935891 1.3861012 -6.427921 1.5615093 0.6257994 3.1944056 -2.8739994 -0.9023423 -7.6185145 4.0799985 2.7553194 -0.27393904
e_117_01HOOFD 4.9693456 -0.7474233 -1.7515408 -1.4075187 8.547777 5.202368 -4.232934 4.40877 -1.5536532 -5.2681227 4.0130987 0.69306165 -7.2320113 3.236141 1.744343 1.0525408
e_146_01HOOFD 2.671217 -6.810915 -1.9687617 3.586702 5.4173007 -2.7405179 -5.724357 -1.4473549 -0.7665259 0.2387831 1.4807199 1.1160254 -6.398837 4.9136086 -0.66114455 4.7739472
e_19_01HOOFD 4.2012997 4.5534534 1.2193736 3.2030742 6.619912 5.9717565 2.0456426 -6.653998 -11.998789 2.7706428 -3.0675726 3.119064 -5.824303 -0.5979091 7.9427814 1.3531879
e_131_01HOOFD 5.4700737 -0.5205475 -3.9759414 5.5930924 7.9543333 -0.8327822 -0.22257125 0.10423875 -0.2379851 -5.810599 -0.1861461 7.346482 -7.052576 3.5926602 6.1371536 6.087809
e_193_01HOOFD -1.9185432 -4.5719385 0.6854849 1.4008566 7.5692587 3.2442424 -0.42781606 -3.1015487 -2.6384566 -5.9807463 0.8576255 -5.977461 -1.4623045 -2.9733307 4.0678067 -5.0017824
e_185_01HOOFD 2.2540278 -10.09139 -2.0124407 4.864006 7.5155106 1.0341235 5.2168264 -6.439377 -3.3662252 -4.8030353 -4.348233 0.49091947 -4.2641954 -3.177387 3.01263 0.3678124
monitoringResource_560454 9.492078 -8.120432 -0.6259202 -0.67575145 -8.977513 -6.016345 3.45619 -1.2194215 -2.9232745 4.3024845 3.1800756 1.5371307 3.8183587 -3.6566339 -0.08694073 8.213097
e_181_01HOOFD 1.8932632 -4.3338413 -1.0855225 2.8382535 9.067193 -0.5408934 -0.6894004 -3.6143537 1.504775 -5.838977 -0.35047966 -8.184425 -3.5772011 2.0222836 3.6982822 -3.7709403
action_code_04BPT010 0.025623929 5.5243435 -10.107544 -2.4933186 0.6315228 7.2483983 4.0186787 6.345731 9.228548 -0.8288462 -6.963867 2.854519 6.686457 0.6764187 -3.5807369 -6.5215855
e_190_01HOOFD -0.18054987 -6.4069233 0.31596974 0.36638954 4.6732836 2.4694228 0.6282719 -1.0878273 -3.1050832 -5.5470157 2.184249 -8.471176 -1.5250849 -3.6552112 2.485205 -5.1180563
e_153_01HOOFD 3.8868234 -7.04118 -4.5081244 3.052889 2.005718 -2.223155 1.3148264 0.13649347 -2.5235174 0.5758852 -1.0771614 4.7880087 -9.546452 6.1457853 0.13599756 -3.9073985
e_189_01HOOFD 0.49234584 -6.044452 -0.75799763 6.79312 5.334881 5.670026 5.347204 -9.5802355 0.32892632 -2.7752998 -5.67921 2.0519485 -4.644688 -1.1188595 -0.8648456 0.70679516
e_120_01HOOFD 3.0507026 -4.9862394 -5.9041877 3.8399155 4.7816925 0.89613646 -1.0620915 1.4331397 -3.6039717 1.5657628 -0.8848317 4.9243226 -9.008208 -0.14461055 0.60649705 3.0908315
e_74_06VD -5.074224 -4.315063 -0.02583324 0.1838841 -2.7710323 -2.6324272 -5.901603 5.08617 2.20843 5.2350216 -3.3692582 1.3927227 -6.3124285 2.9683862 -3.3703413 -9.625597
e_192_01HOOFD 2.3071043 -6.5779247 -0.14373587 6.3510246 6.049026 4.5809584 5.599167 -7.574925 -1.3078115 -6.3598385 -3.619437 2.4329863 -6.2234435 -1.7472423 3.1254272 1.3803016
e_232_01HOOFD -3.7794173 3.7681088 -4.3744764 -3.1695924 6.8605165 -3.3820179 2.2987332 1.1660212 -3.3902209 1.5094169 -6.094977 -6.211377 -9.864006 3.2652035 -0.7044756 -3.5816288
e_129_01HOOFD 5.388993 -3.7661314 -1.474391 -0.6955911 4.437633 -2.5180662 -6.983509 3.5239928 -2.1904986 3.2903612 3.6796362 -2.7804809 -6.812186 4.665262 -1.9331912 1.3670979
e_46_01HOOFD 1.1693573 -3.0297518 2.1148868 -4.141304 5.8017435 4.172312 -2.2177877 -2.1568472 -8.946425 3.1646123 -2.0222707 -5.078163 -2.500198 6.0968723 -4.5867205 -4.156171
e_28_08AWB45 -1.874099 -6.6464677 2.2622373 -0.2264441 0.30344173 -4.832322 -4.377113 -0.56194675 -2.2569969 0.6840607 -0.16423629 -2.5153384 -1.1387824 13.51256 -6.677117 -6.932999
e_34_01HOOFD 5.838877 2.1830568 1.4362075 1.8604349 7.7024984 9.080076 3.3882692 -4.0981956 -10.442325 1.992219 -3.950196 7.591381 -4.8948283 0.7649442 2.078983 -1.1684797
e_137_01HOOFD 2.7491274 -4.7048354 -4.252792 1.6917734 5.5478263 5.0182343 -3.8376184 2.8117933 -3.689192 -0.5185684 3.5551572 0.62834746 -7.8932 -0.1882018 1.4150088 -2.3330078
e_194_08AWB45 -5.849189 -5.7845807 1.5878263 4.0096974 -4.416129 -7.6632595 3.0613282 -2.7015917 0.05612558 -6.4670453 0.46249887 -8.174886 -2.4964232 6.1523714 -2.822665 -1.9510707
e_118_01HOOFD 1.8150594 -9.193952 -3.485386 2.389391 3.0885494 1.1706078 -4.9289746 1.0372019 -4.779681 -0.76435053 3.1430295 1.1814679 -9.226332 1.7728376 1.306362 2.995636
e_207_01HOOFD -0.6589331 -3.1124458 4.907504 3.7944684 7.581717 -4.6507764 2.6659935 -0.06722988 -2.2229366 -6.5193424 3.017365 5.939838 -9.241625 0.11560637 -1.8322695 -3.1645832
e_48_08AWB45 -0.64349014 -7.5384045 4.274962 -0.3652912 0.2244283 -4.550973 -0.42308918 -1.0782838 -5.7416816 1.9097377 -2.2684765 -1.9630301 0.44862476 8.810103 -10.297154 -2.5947154
e_139_01HOOFD 5.8426156 -9.950222 -2.4395146 1.780605 4.104736 0.62648356 1.4429202 0.68550754 -9.252353 0.6318003 0.74269015 2.7337604 -6.684813 -0.99878633 -1.316321 2.2652235
e_176_01HOOFD -1.9818847 -1.2095133 0.3311453 2.1281261 6.118855 3.0188997 -1.0754265 -5.097668 -1.108676 -4.1354365 0.92521846 -8.031506 -6.180137 -2.2636614 5.9252977 -2.7359543
e_179_01HOOFD 3.7537274 -1.8395926 2.922944 4.099291 4.7858586 0.4548622 -0.6296052 -5.7681026 0.61430883 -3.318607 -0.618532 -8.717185 -7.773353 2.417561 4.9781046 -1.3852702
e_11_06VD -4.816655 2.9531605 2.3205857 1.2780042 2.7214994 -0.04638995 -3.2533877 0.34101576 -8.092627 7.9652257 -8.409278 5.2338524 -0.81592363 1.3176144 0.5972593 -6.464777
e_49_01HOOFD 0.38159397 1.7642753 3.41341 0.2761941 1.2117199 1.6711053 5.8301725 -2.929361 -4.309358 0.384718 -4.7136736 3.4515796 -8.433068 5.5509963 -1.7194914 -7.4977837
e_124_01HOOFD 5.2256536 -2.6662667 -3.1387339 6.1086497 7.4989495 1.7748089 -2.197618 0.835037 -1.9065973 3.246362 -1.3503397 7.756775 -8.150961 -0.7854698 -0.35910407 1.8161004
e_171_01HOOFD 1.245042 -5.354083 -0.67492676 6.8334403 8.888261 -1.0472049 -1.0520711 -5.40732 -2.087189 4.6605515 -2.3026888 -4.6244617 -3.025585 -4.3911424 -0.6668984 -5.54387
SUMleges_16.86 -0.3951986 8.711296 6.47813 -5.546735 -4.263022 7.608681 1.9772537 2.0042255 -1.1043563 0.93804425 -0.80027115 -3.5810504 -6.7383842 -11.300761 1.1069697 6.500946
e_173_01HOOFD 3.043072 -3.5709202 -2.302302 6.4062624 6.8357754 -0.76861614 -1.5269488 -7.1450963 -2.2424407 6.305685 -4.300425 -4.690862 -3.7989562 -0.21383008 4.748718 -7.7160997
e_17_01HOOFD 2.4477217 1.758002 -3.503403 -1.6856633 6.394265 2.3022587 1.1536103 -3.9209366 -11.803092 5.1537886 -5.917986 -2.7116098 -3.3564734 5.045944 2.2931006 0.30633253
Responsible_actor_560596 -0.56208694 8.962636 6.4936666 -5.37526 -4.3295565 7.795142 1.929727 2.3393686 -0.71620196 0.78800726 -0.7991272 -3.741671 -6.87554 -11.338351 0.7935896 6.26636
monitoringResource_560596 -0.65362203 8.982702 6.8273907 -5.063321 -3.678681 7.7825565 1.7494403 2.4718328 -0.7199377 0.35359812 -0.84105337 -3.306551 -6.7295117 -10.965005 0.4999394 6.269604
e_163_01HOOFD 5.101752 -8.684776 -5.4245906 2.738912 5.9685454 -1.3521035 0.3580058 3.906181 -6.5668936 -0.53237534 1.2009615 2.600193 -5.996776 -1.7782234 -1.1942973 2.7876022
e_188_01HOOFD 2.169047 -4.920478 0.008966646 6.530881 5.48918 4.725591 3.7044027 -10.532224 -0.43066734 -2.1122704 -7.5480733 2.4269657 -4.6194563 1.6737409 4.087671 -0.31460726
e_13_01HOOFD 0.8609943 -4.965022 2.6593866 -0.22634819 9.700261 5.9539304 -2.931121 -2.5052652 -8.512103 0.43487972 0.8044583 5.7424703 -1.5600665 4.071609 -4.3521543 -4.465785
e_2_01HOOFD 1.4567435 -3.3172214 2.5518575 0.106301926 9.201239 5.287217 -0.73628944 -1.5808771 -10.327831 1.3671407 -0.3361917 4.493824 -2.1053517 0.2520865 -2.6940026 -4.1988816
e_169_01HOOFD 2.3171349 -4.159271 -0.33601183 6.6795354 8.323777 -0.6910283 -2.4174898 -6.6591296 -2.1901612 5.3787045 -4.818967 -3.815065 -3.8761623 -1.3988122 3.9363468 -6.634734
e_172_01HOOFD -1.8541456 -2.699937 -0.9710519 3.449716 8.635107 2.171769 -3.3272429 -7.3097863 -1.4751989 -2.0123448 -3.1135182 -4.6593843 -3.8214855 0.3054325 9.230184 -4.7430854
e_66_01HOOFD -0.5088167 -4.7280755 -5.205358 3.5470457 7.9287925 1.5527219 -4.7887907 -7.573574 1.9010915 -0.6957938 2.3191433 -1.4480515 -0.7858434 9.792112 -0.068906404 -4.901867
e_184_01HOOFD 1.455477 -1.0605409 2.5749154 5.164303 5.08416 4.640548 -0.22694546 -5.7242503 -0.18819568 -4.5678086 0.869782 -5.7505136 -8.156269 -2.0871377 6.2706685 -1.8507855
e_136_01HOOFD 3.2267742 -3.311304 -2.0956948 0.6530036 6.536301 4.099284 -5.1644354 2.7724922 -2.1094465 -0.4219713 4.5070877 -0.24377407 -6.5580187 0.17324214 0.7107557 -2.748763
e_70_08AWB45 -1.5284212 -8.708846 -2.1576169 0.8873806 0.664672 -9.495398 -4.6077757 4.0471263 2.0174742 2.581917 -3.7375722 -0.49811366 -1.0870866 6.060959 -5.9728026 -1.5221614
e_106_01HOOFD 5.5633836 -1.3663127 1.4951392 3.8150158 3.9585474 5.1969028 -4.54683 0.09707745 0.9305341 1.093798 2.4994712 2.2598968 -9.471591 3.051696 0.31597626 -3.4895306
monitoringResource_560852 0.58138466 -5.8932986 1.0413902 4.953034 -2.320101 2.011255 8.591902 -9.087926 3.5267303 -5.256657 -7.8257647 3.015309 3.7729614 -4.6774993 3.8793705 2.02056
e_214_01HOOFD 1.55405 -1.8668829 4.230246 3.3137572 13.2008 -2.15083 0.35528043 0.6523011 -5.9554605 -2.0222013 1.3806531 5.635764 -6.0048275 -2.212375 -4.9802604 0.14586914
e_47_01HOOFD 0.0041711554 -5.3176622 -1.0078348 -6.6795354 9.536856 0.5381999 -0.2895184 0.51056635 -6.8988543 -2.7387972 -3.8200176 3.0683937 -2.5651486 7.605859 -0.22145462 -6.630182
e_92_01HOOFD 5.531801 1.0946889 -0.9610938 3.243575 3.4406836 6.004423 -1.2213241 0.9051738 -1.7031306 -4.147551 0.5829365 7.5869265 -8.57257 4.8780317 2.2437432 7.2966504
e_170_01HOOFD 2.850138 -4.288717 -0.40141645 6.876964 8.873622 -1.3782091 -2.3527596 -6.5405974 -2.3778105 6.5033092 -4.72907 -3.116253 -3.6601224 -2.1189733 3.1253533 -6.819878
activityNameEN_WAWpermitaspect -2.1058095 -2.8922896 4.9673395 -7.965657 -6.648021 -5.5517855 -1.8544344 -12.593046 5.8578057 9.98176 7.167119 3.6717923 2.7849338 -3.3691292 -4.0670233 2.1742752
e_75_05EIND 2.11268 2.3842545 2.2428749 0.88807267 -2.6867895 -8.3680315 -0.669392 6.6446886 -1.4959391 0.29445463 -4.152625 -1.8810163 -8.670631 4.94402 3.176059 -1.1662891
Responsible_actor_560852 0.4717973 -6.3593287 1.0008245 4.976913 -2.051995 1.695033 8.594911 -9.354316 2.6665754 -5.0350623 -7.6840916 2.785371 3.6356719 -5.4009724 3.8999944 2.5716207
monitoringResource_560429 -1.9740449 5.55693 8.791058 -2.5505712 0.39313775 0.23101203 -0.5649721 0.037447568 11.491365 3.7761323 -1.1221144 -1.7900907 2.5141733 -6.2644506 -13.238385 -0.057267834
e_194_01HOOFD -3.7840602 -2.4113486 0.6566109 0.7709199 1.3583771 -1.6806667 3.6272855 -5.705771 -0.6088832 -4.841368 -0.9284855 -6.554441 -11.626907 4.0452366 0.34880993 -0.45935777
e_218_01HOOFD -3.4263878 3.1154213 4.426832 -2.5446827 2.454721 0.9866152 1.3577358 -0.3910499 -3.3672233 -0.7743823 -2.3194072 -4.3853297 -15.676856 -1.0142121 0.12779568 -0.41086307
e_49_05EIND 1.5992984 3.094597 6.551051 -0.9187999 -1.6588489 0.5666739 4.6017084 2.4218857 -6.352387 -1.3196383 -6.225167 -1.7373366 -6.6441007 5.830348 0.07885508 -7.591331
e_175_01HOOFD 1.3634669 0.28084153 1.548004 4.860908 6.332569 3.7385879 -1.2145133 -5.1113424 0.51857525 -4.4725275 -0.37830058 -4.3517385 -7.502485 -1.8770655 8.537488 -1.4799794
e_123_01HOOFD 2.6239297 2.0058649 -3.6548603 2.2658508 10.020974 2.5538538 -4.3993897 1.5874784 -1.3641733 -3.7239301 1.4759151 4.2663617 -5.346803 1.5123242 5.7448506 3.7087557
e_121_05EIND 2.585128 2.4281263 1.5734329 1.8194929 -1.5848702 -7.3279614 0.42001176 5.959249 -3.3382533 -0.9183067 -1.5498337 -0.66041344 -5.569157 5.70981 1.9315553 -1.6994727
action_code_01HOOFD130 -1.7682338 -2.6465697 6.2999935 -8.75169 -6.061065 -5.817025 -1.5279269 -12.10705 5.8705645 8.958086 6.744039 3.396383 3.0916698 -3.7013376 -3.2399786 1.221973
e_27_02DRZ -3.8861108 0.5411748 3.3300967 -3.7700062 -2.3800569 6.00357 7.1018567 -1.7015541 -4.617894 -9.017982 0.019337455 3.4206803 -5.6286607 7.227648 -2.1225443 -3.9415503
e_116_12AP -0.9357904 0.0757475 -6.932085 2.761156 -4.528096 2.081673 -1.8922193 -0.030910803 -1.8440571 9.5838375 -0.63565814 5.3110323 -5.3414254 6.022506 -8.520899 3.4014678
parts_HandeleninstrijdmetregelsRO 0.53996074 2.5289125 -5.4238 1.537398 1.6191154 -8.595855 0.27947587 2.118934 9.493073 -5.991545 -3.323574 7.3645687 4.4389887 -0.8898159 10.934234 3.3229718
org_resource_560821 5.506965 -4.7139835 2.1179237 3.4874997 0.28204158 -8.079616 3.1229305 -7.0014915 4.9859395 5.5298715 -0.043637693 -7.1358423 4.419885 -8.934807 1.8397372 -5.3486156
e_67_01HOOFD 2.5505495 -6.060966 -8.32466 2.5074368 6.2536902 -0.9815311 1.8998392 -4.0338387 0.46629325 -3.2845979 2.6697083 -1.5060438 -2.9633503 10.72693 -2.3453171 -5.458928
e_25_08AWB45 -2.536099 -6.537768 1.72871 -0.70925903 2.5952451 -7.5281644 -1.8229294 -0.64492714 -8.466144 1.7724771 -1.7584456 -4.42555 1.5817481 7.792241 -5.621464 -2.7872252
e_232_05EIND -2.4955816 4.4573374 -0.765781 -1.9026728 1.8190397 -7.846998 1.3804804 7.178101 -3.1486576 -0.65408045 -6.455042 -7.426652 -4.4257374 3.2254713 0.88580275 -3.6209939
e_201_08AWB45 -4.4919577 -6.291994 2.6770506 4.856863 5.5440927 -12.376402 -3.9790123 1.6554475 1.1345068 -4.223657 5.582835 0.080089815 -1.2682425 3.0006642 -7.634366 1.6537938
Responsible_actor_560912 -1.8657066 4.9528756 4.4949856 -6.875381 -1.0200579 -9.9937105 0.8773685 -3.6232016 -3.8548043 0.14804433 8.597302 3.4220755 8.018051 5.6637473 2.5888047 -7.698164
e_199_08AWB45 -6.7411623 -4.237033 -1.1519079 1.9626517 0.92169213 -10.241686 3.3405056 0.9067326 -1.2739519 -1.8893944 -1.6224724 -5.230747 -3.7050622 4.924659 -8.637057 -2.9954956
e_218_05EIND -0.25495493 5.269731 7.882855 -2.4300027 -0.8438734 -1.2596766 0.62929106 6.2188373 -4.504787 -0.6835875 -3.5273287 -5.406652 -11.347469 -0.5220771 0.29095024 -2.3657463
e_212_08AWB45 -2.6676948 -5.372981 -1.3829521 0.8774214 1.818131 -9.223516 3.3482318 2.257407 -2.0745935 1.7530221 -4.9684687 -6.53448 -1.7740715 3.739883 -10.91477 -1.9223062
e_72_08AWB45 -3.4524834 -8.710383 -2.2514336 -0.049800284 -3.5776014 -5.484358 -2.355348 1.1977458 1.6318846 -1.5578241 -2.939912 0.057776876 -0.52128977 9.780869 -5.960147 1.4971054
org_resource_560852 0.74186134 -5.942631 1.4467912 5.114722 -2.044206 1.6714671 8.093567 -8.754113 3.3135154 -4.4480486 -8.620746 2.6583304 3.721943 -5.4433184 3.6766474 2.5913327
e_22_01HOOFD 2.629967 0.30138448 0.22822145 -0.4892339 5.026117 9.267657 1.2605187 -4.0352454 -8.732091 1.0482669 -3.833309 7.59437 -3.3086977 6.4334216 -0.84034806 -0.3213308
e_27_01HOOFD -1.0580214 1.7694302 0.84036136 -2.9017742 4.4327664 5.705365 4.6627493 -2.4600546 -4.744901 -6.5847936 0.040873516 2.0704188 -8.519752 6.53708 -0.86402076 -1.5841029
e_107_10UOV 8.2651615 3.517917 -4.599745 2.1653087 6.8064756 -2.3889894 1.8202201 3.1961932 -4.8216705 2.2164679 3.579286 1.5029953 3.910054 8.945772 -5.8312907 -5.0036583
e_113_06VD -5.37225 -2.8033457 -0.5388429 -1.5251045 -3.5684907 1.7398765 -4.8930707 2.6970232 0.012253399 1.9914176 -7.2283006 2.4325562 -5.4825096 2.9846065 1.8223232 -1.193531
org_resource_1254625 -4.6470947 3.0916495 -0.4683767 -9.631218 -1.0648752 -8.682194 7.8311367 -4.944439 6.6727734 3.522712 5.5669756 3.215771 0.040956605 -12.240834 -5.4933076 3.4234214
e_122_01HOOFD 1.6762697 -6.094517 -1.849327 -6.5952754 3.166649 3.0687032 -2.929832 1.4804307 -0.3936668 -2.7165794 -7.4696403 -0.6726121 -5.72873 9.996134 1.9753408 -2.474014
e_63_05EIND 0.12584592 5.9152694 2.3102753 -0.18443431 3.1578548 -7.1667466 0.37072206 3.7841182 0.6078712 -2.4578285 -5.6802545 -0.4708564 -5.4995866 5.9205446 4.8354907 -4.5841074
e_182_08AWB45 1.886905 -5.3916316 3.542574 7.53437 3.2061431 -9.712793 -1.2138045 -2.8152046 0.22673136 4.889285 -3.1765046 -7.5143685 0.2489022 1.356263 -4.5956883 -5.7166758
e_7_01HOOFD -2.4528131 -2.8299944 -0.32356402 2.3987646 6.2340555 -2.2425427 -0.34320015 -6.4388247 -7.0907426 0.8665401 -4.5775256 4.1610675 -2.737251 8.203106 4.52918 -8.115353
e_221_08AWB45 -2.8921194 -4.5638466 4.3164015 1.2045591 4.3825107 -7.9327044 -1.820011 2.390409 -0.22503309 2.71284 -1.3218993 -7.101633 -3.0168352 1.6124275 -12.892825 -3.1509862
e_52_01HOOFD 0.56754243 -0.14916182 0.743235 3.702077 3.5929837 -4.990949 2.403535 -4.321622 -8.280926 0.3405378 1.3921133 3.1692948 -6.1116805 9.347186 -0.5649077 -3.8730295
Responsible_actor_560872 -1.8153658 8.423106 0.68944395 -7.9970894 -3.786517 -3.798577 0.4983286 0.60550135 -10.197161 -3.2899938 9.169675 -3.5794275 3.3329072 2.2272887 6.89402 5.5200605
org_resource_560912 -4.093989 2.4827228 2.2167027 -10.805394 1.123576 -3.443345 2.0601497 -5.9432297 -2.7974985 -1.9376497 4.462986 3.6375065 9.560412 2.914268 4.336781 -7.903669
action_code_01HOOFD1902 2.4866111 -2.1322877 5.27944 -4.5078444 -7.773073 -6.3951826 1.5635983 -5.645145 7.419432 9.110329 5.514817 8.115477 -2.6006715 -8.737273 -1.013808 -2.2170632
action_code_01HOOFD0302 1.7932903 7.115832 -2.1672614 -11.354425 -2.191188 -2.171494 2.1651506 -4.0248766 8.684602 -4.54257 10.818676 5.4356747 3.421265 -1.978272 5.815588 7.4603662
e_0_01HOOFD -3.1080387 -0.26013795 -2.1500475 4.8006067 3.5882912 1.0209346 -0.8672415 -8.6820345 -7.8197927 2.0821843 7.5089226 -1.3788137 -3.811695 4.096104 -1.1241997 -1.3592374
action_code_01HOOFD0652 -1.8340029 4.852637 4.476542 -7.4327064 -5.866008 -10.417256 7.3391232 -7.7404733 6.32241 3.0420098 5.944257 8.481857 -1.6312618 -2.253916 -1.0838718 -1.390532
e_20_01HOOFD -9.077088 -1.555267 -1.6559547 -3.2176192 9.421856 1.3329953 -3.4351141 -4.5961647 -4.5957665 -2.479215 -0.30288187 4.4012246 -0.0040603704 6.494335 0.2865021 -6.688043
e_107_04BPT 1.6601356 -0.6046898 -8.983153 2.147711 4.5750895 2.919172 2.2721581 5.6333127 -2.5622668 -1.5789858 -0.3055583 2.6217546 7.8600645 4.385802 -4.517457 -7.0769563
e_62_08AWB45 -4.932999 -0.7019239 0.9882308 3.2267373 0.9901538 -8.365177 -2.9318278 -4.4776845 2.5039876 0.3469964 -4.225677 -1.3094764 -0.2778014 10.038404 -4.797399 5.117455
org_resource_560458 -4.3972015 11.188822 5.2548733 0.64671165 -4.182642 -4.267928 -2.9476924 -6.114988 6.565062 0.7509969 -3.575937 -1.775199 -0.053995512 6.4044313 3.4187613 5.652446
e_177_01BB -5.536896 -0.18340966 -2.271227 2.9886026 -5.7870173 -0.9750744 3.1080995 -1.7859273 0.39699307 -3.5475085 3.3899765 -10.188681 -7.673432 4.1303563 -6.500776 4.492717
e_7_08AWB45 -3.6698503 -4.8534293 0.41175658 4.0164776 2.6018353 -7.5299587 1.8090429 -3.300921 -6.830164 -0.9764989 -4.551066 0.969252 2.4654846 9.58212 -1.044168 -7.4414005
activityNameEN_entersenddateacknowledgement 1.5103852 7.2993426 -1.8753272 -11.7680025 -2.3077893 -1.8581922 1.6776786 -3.8754275 8.29189 -4.303775 10.934633 5.593299 3.201176 -1.845968 5.6755533 7.8418255
e_211_01BB -5.86175 2.9964955 2.1392827 5.5677733 3.646216 -2.0409281 -0.8948577 3.1483347 -2.1561592 -0.29561585 5.0162015 -3.921202 -5.9227433 -2.0078344 -10.584624 0.6092597
e_47_05EIND -1.6286955 -2.6994517 2.44507 -3.9767308 2.9806225 -4.046688 -2.0758524 4.9829726 -7.9755926 -1.838668 -5.297241 0.28775162 -1.1557533 8.36925 0.88531786 -5.955499
e_62_01BB -7.0624065 6.720009 -0.8856083 5.213485 0.575167 -2.464463 -3.1003175 -1.5297655 0.6661871 1.1458062 0.12310947 -4.249749 -5.8956423 5.8062596 -5.005627 5.2830462
e_215_01BB -5.0790896 4.1649117 1.0140022 2.022138 -0.2230638 2.3029232 -1.6837168 3.541289 -3.3689778 1.288454 3.268143 -7.155761 -9.803465 -3.1250339 -5.966428 2.0858064
e_32_01BB -4.2691474 5.6913652 -1.3843539 2.3450186 0.39463985 -0.47745624 -1.8112109 1.4240562 -8.135881 1.1237879 6.7082825 -7.2563734 -3.7942803 3.3951783 -3.755774 0.68553436
e_64_05EIND -1.4214653 3.5548403 7.967131 0.9159011 -0.048140537 -6.1096177 -4.230957 0.9472762 -0.84520555 -0.90667856 -6.3592396 -3.814124 -6.5379477 7.2221675 2.9657373 1.267272
e_116_01BB -3.7577257 1.6631339 -4.595556 2.7935557 -2.4990056 1.7275506 -3.3476486 3.2535827 -1.2362087 3.8136446 4.6310716 -2.4739926 -6.558622 3.6509686 -8.265399 1.4479536
e_217_01BB -4.6550364 4.6522183 1.2957003 2.4749174 -0.6516788 2.42868 -1.2380005 3.0896573 -3.1910734 1.5725615 3.3680065 -7.43648 -9.898804 -3.338731 -5.8596754 2.2140563
e_231_01BB -8.502707 3.621057 -4.6806645 0.28173202 1.629668 -2.9127276 -1.8613139 5.4632735 -3.0172524 1.3138355 1.5147734 -8.484845 -6.263275 0.17402016 -6.8983893 0.8904415
e_200_01BB -4.937515 4.2786784 0.97578 2.2614584 -0.26355445 3.002609 -1.4093769 3.0422895 -3.3898785 1.4420191 3.372471 -7.7882385 -10.0523615 -3.4926367 -5.820684 1.8381349
e_203_01BB -6.92378 2.0432434 -4.0262322 1.9347934 1.1317314 -1.9836236 0.8080797 3.5448902 -3.74601 0.8908995 0.72667116 -7.3116417 -6.5072665 0.35699052 -8.363816 1.8028895
e_228_01BB -6.8937964 2.7739997 0.90045387 3.128053 3.148197 -0.4958062 -2.8440611 2.079738 0.30605403 3.3017085 1.8992193 -7.2009788 -5.3038588 -1.452671 -11.107289 -1.6857518
parts_Milieuvergunning 3.4831502 0.12453363 -10.573064 -1.7362573 -0.38018143 -0.85012645 4.3049603 2.9028823 -1.0032575 -4.0528226 8.604529 1.5205535 10.678787 5.958115 -2.7450106 -2.9072268
e_82_01BB -2.7744231 1.8379008 -6.751792 3.143571 -0.06323276 0.6119462 -1.0548732 4.2914567 -0.18631871 -0.7654667 6.961135 -4.1224065 -3.734901 3.9317806 -6.8857937 -0.8081594
e_206_01BB -7.00944 1.3592871 -4.6111917 2.0340106 0.9199916 -1.8493836 0.8202285 4.1799955 -3.0666142 0.49568698 0.90923095 -7.0782604 -6.611471 0.1738816 -8.593296 1.2457451
e_67_08AWB45 -1.6169257 -7.2473426 -5.4809704 4.202811 1.9456892 -5.881128 0.12571278 -2.0084937 0.94614786 -2.5366998 3.5000408 -2.9819002 2.499925 9.749054 -5.379971 -6.563631
e_76_01BB -2.515883 3.9676096 -4.7548637 3.59599 -0.8255522 1.9235617 -2.0448446 3.5909436 1.2033901 -0.34975582 5.684695 -5.212945 -5.128883 3.4996367 -5.047825 -0.515921
e_1_08AWB45 -1.4699949 -6.725323 4.5093737 3.2625723 -1.4110785 -2.390852 1.6841893 -3.4477584 -4.788928 -0.5322968 -0.93132424 0.7171735 1.102624 7.516993 -8.465926 -2.4981546
e_204_01BB -6.9952984 1.6877006 -4.239919 2.4682684 0.98543334 -1.9470509 0.97505444 3.5034645 -3.954434 1.1324934 1.1112353 -7.1212797 -6.617778 0.08235831 -9.017461 1.8730406
e_207_08AWB45 -4.0318627 -5.603242 4.3912287 4.475381 3.288149 -9.726095 1.1571541 0.96328616 -1.2663592 -6.632467 4.248793 -0.2131401 -3.2666788 3.0992448 -5.705233 -3.0085225
org_resource_560596 -0.23968849 6.7057333 5.6530046 -4.1942 -3.1800547 8.308033 0.5773664 1.9542234 -1.6467956 2.1825135 -2.377337 -3.3446255 -5.1417727 -13.406485 2.5177503 5.8985353
org_resource_560922 1.217256 0.75657564 -7.597945 3.8637643 -2.1495225 0.6513402 -0.8991831 -5.115443 10.891165 -0.25940976 5.6699834 -3.5727851 6.4904623 7.8701696 -3.3620038 -3.8046937
e_99_08AWB45 2.1794548 -10.40218 2.7958312 4.089708 -3.4845042 -8.007716 -3.357386 0.62987137 -2.0595458 0.2523522 3.7705276 -2.3211923 -2.6299536 5.18739 -4.552989 1.2889313
e_153_08AWB45 -0.23624738 -8.384356 -3.215009 4.1228614 -2.3433347 -7.101996 0.057593483 1.6242703 -1.0318211 -0.28927636 0.9065393 -0.054458298 -1.2519038 7.2746906 -3.923577 -5.0793943
e_3_08AWB45 -2.0956993 -6.2487206 3.9471393 1.6274058 -0.5253899 -2.8877923 0.86935496 -2.9910932 -5.7325945 -0.056234483 -1.8653531 -1.1666617 0.12031768 8.045502 -8.114035 -1.6587553
e_6_01HOOFD -5.805926 0.65720725 -1.4148977 -0.97837216 3.5013692 -2.7283914 1.1300074 -3.2814155 -6.8268137 -1.6557422 2.2890599 -0.32764095 -5.964757 4.0463033 3.4019225 -6.390342
e_56_01HOOFD -1.7772325 -3.9012358 0.37067926 -2.0679817 0.08962201 4.4989777 4.442398 -1.7466838 -5.9842005 -0.8904056 1.7148482 -0.29056433 -7.004061 3.0240555 -3.8795557 -10.15508
e_210_08AWB45 -4.1470737 -6.3700504 4.331376 4.361107 3.532288 -7.7921286 -1.9720345 1.1817929 3.0802002 -5.333735 3.146584 1.1509365 -2.2815018 2.9663212 -8.663103 0.026880518
e_52_08AWB45 -2.936348 -3.8908381 0.50659764 3.7747245 0.25314584 -8.423189 0.4793491 -2.1834416 -6.4566016 -0.4972024 1.2961414 -0.5854455 -1.0036052 10.072636 -3.3118055 -4.70161
e_41_08AWB45 -3.3728478 -6.2943463 3.4992025 2.4152598 2.7207313 -3.5834043 -1.5317374 -1.2709723 -7.1041374 1.6932226 -0.41130716 -1.0722347 2.8848047 5.2872157 -8.534428 -4.98862
e_36_08AWB45 -3.096685 -5.6377773 3.2833967 3.136657 3.137793 -5.560324 -2.3776658 -1.3329108 -8.127832 1.8785684 0.99333125 -1.4026282 2.6846187 4.7933903 -6.3559484 -3.7509975
e_202_08AWB45 -5.478309 -3.5646236 -3.0282173 1.9311972 1.9993045 -10.698014 3.5113306 2.753013 -1.4780495 -2.2930112 -1.1955292 -5.2666936 -1.6969259 3.6908598 -6.2506666 -4.652104
Responsible_actor_560429 -2.365794 5.628061 8.233972 -4.4509315 0.7052782 0.46147943 -1.083496 0.3674737 9.203835 4.712418 -0.656151 -4.281866 3.5470998 -6.8129334 -12.122526 -1.7822436
e_31_01HOOFD -5.6454864 0.98208207 -1.2560259 -1.7730771 7.572995 -2.4148529 -2.1917384 -1.4166269 -3.9001412 -2.0382612 1.2945781 2.8583717 -2.93425 7.098599 2.0599678 -9.47421
e_75_06VD -2.5142386 0.9136516 -0.91455525 3.6640942 -6.736983 -6.1413126 -0.87785894 3.920694 -0.3819134 1.7011942 -1.9977456 0.53824466 -6.7646976 1.88059 3.3249836 -0.9384712
activityNameEN_creatingenvironmentalpermitdecision -5.391519 -0.85355127 -2.487078 -3.5071495 -0.6107951 -0.63441604 2.0570986 -13.046482 4.0041795 10.606826 4.26906 3.346609 5.2238207 -9.1652355 -5.1754465 -0.73361146
e_126_01HOOFD -1.2224985 -0.7036825 -4.706374 -2.9501526 3.9554465 3.3250537 -1.0195218 1.0040336 -2.5776775 -6.32608 -1.3598522 8.636649 -5.211464 7.779018 2.8172326 6.2368417
e_4_01HOOFD -3.979987 -0.45347548 -1.4733126 -3.878217 1.8260833 -3.2736404 0.54087406 -0.8533952 -11.333733 -2.0369976 1.1737803 -0.011332978 -6.8573155 4.6446214 5.455848 -0.058841206
e_35_01HOOFD 1.8194622 -0.21501912 -5.8777943 2.2469368 2.5610862 -0.030637799 1.3610696 -2.3995008 -7.7480183 -0.068738304 5.7250676 -3.4027808 -1.6253092 5.305757 1.1533021 -2.1193583
e_38_05EIND 1.2650381 -3.5119064 4.273312 0.86604774 -1.476124 5.659466 4.1461496 4.6808615 -9.578685 -3.3100555 -1.5353411 -0.27653888 2.7319922 -1.7777799 -3.3751059 -5.615442
e_168_01HOOFD 3.1436036 -4.6144457 -7.8593397 2.4987452 4.7312617 -0.77347034 4.9432745 -1.4800637 -2.5150068 -3.334088 2.5686424 -0.21197109 -1.1052306 5.3154473 -0.73039764 -5.8842583
e_38_06VD -2.8314886 -3.3661814 1.9596088 2.1937978 -3.7116327 6.552492 3.1106195 2.4845302 -9.348092 -0.57819957 -0.00079148274 1.2436848 1.9764951 -3.2279527 -3.4456053 -6.0320272
e_173_06VD -0.57524353 0.5814438 -0.9417194 10.022649 -0.9932134 -1.0734794 -0.24957332 -2.6375837 -2.0716224 5.3154225 -4.598889 -3.7502632 0.924057 -2.2914946 3.7246623 -6.812851
e_49_06VD -3.457234 2.236086 1.9957746 3.3247879 -4.3089166 2.8006964 4.273471 -0.78647614 -5.4778824 -0.09108771 -3.874288 1.0658703 -3.1647968 3.092406 0.28379545 -7.163534
e_166_05EIND 4.19495 -0.74830496 0.103788905 2.3354526 -1.4572549 2.0306945 -2.9405673 9.514543 -0.371425 -1.3524828 2.550478 -2.6431293 -0.44436356 -1.4353192 -0.40708572 -4.124562
e_192_06VD -3.737564 -4.3086605 -0.107491985 8.157603 -2.2123377 2.47761 5.0802264 -4.0366683 -0.8989185 -4.769022 -4.7651873 2.8308027 0.33082202 -3.9354439 2.3743837 0.40824762
e_13_06VD -4.743829 -1.2329047 3.6442318 3.9855394 1.0816602 2.9314442 -3.817436 0.3110228 -7.1748743 2.06171 -0.7858718 4.688258 3.8162456 2.481973 -3.8158925 -5.235584
e_42_06VD -4.0084825 4.9584 0.822029 3.1326435 -3.0407522 -2.9787514 -1.0214574 0.98604983 -7.6191583 -0.57561415 3.041992 -2.5347214 -2.7085137 1.933426 5.0063024 -0.8439912
monitoringResource_1254625 -3.0559187 4.1773124 2.0102303 -7.7181473 0.5465938 -9.09401 8.036034 -3.3678393 4.982278 4.467827 4.005208 4.636952 1.8260607 -11.9396305 -6.5719924 0.2763283
e_53_01HOOFD -2.1695893 -0.31197435 -1.9450885 0.90109235 2.3088884 -2.0457244 0.93917835 -2.3555872 -8.19879 0.68337005 5.030273 -1.8531572 -5.25091 4.8590593 0.9031285 -7.7275925
e_19_06VD -1.1863742 4.6425276 -0.4232687 4.54269 -0.002181747 3.5584407 1.3453559 -0.61133313 -11.153355 3.1146226 -4.713524 3.6599815 0.5115407 -1.8539078 5.6938734 -0.11515906
e_73_05EIND 3.716546 3.7593684 -2.1318114 7.024247 0.104573004 2.0794156 2.4374967 3.936774 2.9879792 -2.529748 0.24594066 -0.37398767 0.4311573 2.5483885 -2.1307492 -3.9891794
e_189_06VD -3.7850437 -3.6275759 -0.2972872 8.553622 -2.492858 2.9743593 4.582679 -4.8518286 0.6461233 -3.310763 -5.202411 1.8934796 -0.069082305 -3.27278 1.1195797 0.07952404
e_166_04BPT 3.337268 -1.2118559 -4.6259165 1.3397613 -0.4041292 2.927598 -2.6936967 10.297518 0.27918243 0.94225883 4.29542 -3.9549272 0.059157368 -2.083754 -3.5996215 -6.36307
e_43_05EIND 3.1787164 1.5112298 1.6709697 1.306466 -0.4194066 4.7388864 3.3553813 1.7509265 -8.596076 1.8724239 -8.965899 1.5736746 1.3844882 2.140028 0.99749076 -2.636419
e_10_06VD -5.649469 1.5040498 2.1520002 3.57317 2.889958 -1.5279564 -2.3257415 1.7416321 -8.069762 1.8524535 -1.0866354 4.012913 4.007327 -0.45272526 0.053728443 -6.397916
e_116_06VD -2.9802356 -0.401672 -4.0629654 5.3246713 -5.934439 0.9484237 -1.7763963 2.7193305 -1.3916051 3.947672 0.05739781 2.7205207 -2.3865812 0.6093538 -2.8475304 1.4726138
e_22_06VD -3.4119647 2.0501728 -0.48408014 2.6890059 -0.87765634 6.4883246 0.8219248 0.42576727 -8.750018 0.06420301 -4.4263124 6.579328 3.1942308 3.4403582 -0.33370277 -0.7827584
e_176_06VD -5.1548853 -0.07751643 0.13142048 5.863807 -1.2691617 1.7670678 -1.2918046 -0.30627668 -0.3233455 -4.290768 0.64119834 -5.7138605 -0.37631628 -3.1213923 4.8660717 -3.3308392
e_118_06VD -2.808246 -4.6922903 -0.4650356 4.7167497 -6.3406944 -1.254866 -5.2584 3.2646084 -1.3285344 0.26029897 2.3613038 0.42510235 -2.8368025 -0.066102274 1.3074527 1.7856042
e_54_01HOOFD 1.3070115 -1.0242349 -6.060087 2.0089574 2.3279424 -1.8065672 2.5889463 -1.4291776 -9.056184 0.39537498 5.0065312 -3.8138802 -2.0183966 5.3301787 0.6443069 -4.680789
e_130_01HOOFD 2.8103437 -8.669617 -4.0968666 1.5830998 -0.4999049 -0.7073443 3.214425 0.46826378 -4.868037 -0.19003066 1.2208759 -0.15887842 -8.218906 0.23481815 0.93841904 -4.880449
e_139_06VD 0.8643738 -6.028052 -0.076209694 5.336464 -6.042481 -1.0115814 1.675886 2.6246052 -6.7140756 1.8697633 0.07345284 2.065137 -0.578501 -2.896674 -2.1189628 1.6978968
e_10_05EIND -1.4889699 1.073413 4.496007 1.6349512 5.4165874 -1.9011083 -2.2199147 3.934662 -7.7321005 -0.14138594 -2.8508537 2.7375634 4.194929 1.2209427 -0.22860035 -5.9191823
e_48_06VD -4.271505 -3.5134907 4.620716 1.7845683 -3.820014 2.0650063 0.3777166 -0.5275035 -8.1885 0.9774107 -1.2087109 2.8185318 1.7698854 0.81527245 -4.3671637 -2.0356195
e_214_06VD -4.2459645 0.54961973 4.300544 5.4186573 3.726103 -2.14074 0.23810528 2.9507132 -4.3325014 -0.6336366 0.7364392 4.4488773 -0.08358854 -5.7315254 -4.6054935 -1.1670862
e_62_05EIND -2.031338 4.142674 3.7304506 4.4652987 0.29272854 -3.828527 -2.8742433 0.44357416 1.7373098 -1.704009 -7.349001 -0.9501573 -0.78726137 6.160028 0.22806376 5.7295556
e_26_06VD -3.0596428 5.4419794 0.9285515 4.237815 -1.6709456 -5.272028 -0.958415 1.6172678 -7.3838925 2.080233 4.5279922 -0.6633486 -1.8751558 2.4650278 2.1234336 -4.5378084
e_90_01HOOFD 0.5753013 -5.7373633 -5.5297155 0.6948528 0.010331743 1.6500138 0.8925186 0.61052746 -3.665622 -0.1388443 -0.1486236 0.7186207 -7.219836 2.5600204 1.9921349 -4.2729073
e_181_05EIND 0.18559183 -1.560182 1.6257358 4.4206986 1.557441 -1.0242968 -0.5963912 1.5306501 0.9660448 -7.010281 -1.4392111 -8.247225 2.0769567 0.6319491 4.169784 -3.1459124
e_48_05EIND 0.06721617 -4.3752947 6.5425143 0.009104975 -1.4583707 1.1876677 0.23778541 2.0273743 -8.259783 -1.2782742 -2.8577359 1.2444464 1.9657875 2.5815015 -3.8135784 -1.330782
e_44_06VD -6.8305774 -0.7595977 0.64179903 2.9888725 -1.6833664 -0.015389979 -0.48274717 -0.7514016 -11.589229 0.7419365 -1.9816104 1.9468226 2.541475 -0.05794051 1.0181766 1.6209611
e_50_01HOOFD 0.69093615 -3.0668097 -1.4431374 0.35854894 -0.10195693 5.600523 4.4390674 -3.4387336 -6.140159 0.3069663 -2.6632106 -0.63201445 -4.737102 5.1990128 -0.89903164 -7.89976
e_141_06VD -1.1175572 0.291522 -4.3592405 6.2069936 -2.7525458 1.6635069 -1.085206 2.3707185 2.5780206 -2.743478 2.0037138 0.7356965 0.8452366 2.875342 1.4247836 -3.315654
e_44_05EIND -2.9044392 -1.0484699 2.649654 1.1778075 0.4338625 -0.5348746 -0.51582175 1.4928061 -11.95709 -0.99624044 -4.097617 0.38405108 2.5497935 1.8459483 1.4712256 1.833863
e_182_06VD -1.3137115 -0.8682005 2.6943464 9.829947 -0.48845002 -3.845835 -1.5802467 -1.1297237 -0.37458465 4.8482533 -3.2147894 -3.5633402 1.5204656 -4.304518 -0.36594057 -4.8862605
e_24_05EIND -0.9139096 0.37226656 5.1648026 1.9965985 3.4847322 -0.11213577 -2.4881687 3.5266926 -10.579827 1.0103728 -2.7105417 0.54619944 3.5327852 -0.23295017 -0.40907526 -2.959149
e_185_06VD -4.0503182 -5.2303953 -0.7983785 7.2840295 -2.1097748 1.5804197 4.5491643 -3.589107 -1.0369842 -4.0817566 -5.1234584 1.8825657 0.18981288 -4.238368 2.645077 0.043769762
e_191_01HOOFD -2.815683 -3.6823494 -1.7557393 2.884395 2.2535663 -0.12171595 4.779414 -5.498121 -2.0664291 -5.4236875 -2.941473 -0.74212456 -4.7245803 1.950185 3.509841 -1.5750527
e_91_05EIND 0.3337257 2.156205 -1.6115896 3.084681 2.8540635 0.29767898 -5.440767 6.426758 -0.5186949 -1.7338953 -1.8830545 3.5170622 0.88106364 1.497326 5.0446115 -1.3251301
e_76_05EIND 2.0312254 1.6719776 -1.1837629 3.354996 -2.5284219 1.9982883 -1.4990705 4.1423006 2.1934316 -1.7882105 0.4883706 -3.2572849 0.23444223 3.2504728 0.2968697 -2.8204818
e_116_05EIND 0.5727029 -0.25908542 -1.683087 3.429847 -4.6624336 0.6704736 -1.7935948 5.108823 -1.7050842 2.2593517 -1.4105093 1.7835147 -1.9875705 2.2347064 -2.4162762 1.5087004
e_34_06VD -0.034276135 4.266563 0.4575201 4.865735 -0.827641 6.9509683 2.9039342 -0.15512356 -9.748859 2.685802 -4.969106 5.7858014 0.7419076 -1.9049355 2.7677393 -1.9303126
e_154_01HOOFD 1.1222184 -4.9115796 -6.6799264 2.2211857 1.8214328 0.42300552 2.4200177 -1.6516608 -1.364354 -2.9688308 1.5874938 0.19932514 -3.6064568 6.0595303 0.23713537 -3.5922399
e_194_05EIND -2.5426743 -1.6790957 2.367187 3.7347364 -4.463143 -3.5248523 3.1218207 1.4635038 -1.4220471 -6.99578 -2.808684 -6.252687 -2.424697 3.9683046 1.1448288 -0.15992337
e_72_06VD -5.996018 -4.686087 -2.4759734 0.7480723 -5.696588 0.5584328 -2.415282 1.6525674 1.5322902 -1.5563532 -3.9391592 2.6788545 -0.7388726 3.4406013 -0.7330418 1.8175433
e_171_05EIND 2.6555645 -1.9750456 2.984752 8.005457 2.8258936 -4.054881 -0.6522566 1.5225672 -1.1694638 2.7337763 -4.6131725 -4.413027 1.2810272 -4.8310986 1.1322542 -5.325173
e_232_06VD -8.132448 3.3733997 -5.0279794 1.4716717 -0.74717134 -4.7684712 1.704015 3.8240778 -2.7999642 0.61020756 -4.395182 -4.7350364 -2.9563453 -0.592363 0.84969 -3.2283356
e_159_06VD 1.5994178 -5.065991 -0.017393468 4.2789626 -6.4751964 -2.3668718 1.7605764 2.6418529 -7.3503547 2.609036 -0.6672567 0.57213634 0.17490518 -2.254422 -1.30458 2.5365095
e_37_06VD -6.4506507 -3.9538102 5.25052 3.170433 -3.6313272 -2.484176 -5.4614854 -0.49994397 -9.373108 0.9230858 0.4298166 -1.4065872 1.7261312 1.4762281 0.74208724 0.6080847
e_30_01HOOFD -1.104644 3.175483 0.8730866 -0.41837823 3.9462767 1.3475097 1.597246 -1.4402589 -7.159088 -6.0072966 2.7541716 3.1002617 -4.8143253 8.513003 1.5295607 0.06396405
e_11_05EIND 0.62881666 2.3744943 4.4051733 2.9946687 4.459934 1.2914509 -1.3288823 1.5805484 -7.6729193 3.0665183 -7.548498 4.2315884 3.0164099 1.3119246 0.8749667 -4.767784
e_121_06VD -2.4612868 0.09581418 -1.9213178 4.3392224 -4.951465 -3.7045937 0.5521861 3.3029811 -2.006957 -0.6606804 -0.34236634 1.8702335 -3.096002 1.9625438 1.953769 -1.1586343
e_71_06VD -3.050258 -1.9308618 -4.210327 2.3024318 -3.7031162 0.8196065 -3.2146833 5.698602 -3.8258753 0.55104154 0.5671871 5.680159 0.9273471 2.9110947 -1.1783595 0.5626152
e_4_06VD -7.7517223 0.405791 -0.26541498 -4.4417343 -1.0097218 -4.5413423 -2.249706 2.945086 -11.347129 1.0848696 -3.7227623 1.6932913 -4.186771 3.262183 5.437107 -1.6207409
e_172_06VD -4.6745696 0.53171927 -1.0309929 6.6798205 0.6402322 1.125994 -1.5897096 -2.0727625 -0.8732128 -2.5801969 -3.030011 -4.4555583 0.59365875 -2.847335 8.548033 -4.1316457
e_22_09AH -0.5242192 -0.12544507 -1.7904785 2.4871984 1.184696 8.246462 -0.28747204 -1.6644415 -8.208109 0.8661173 -4.3845835 4.031456 4.763156 4.165561 -1.6196735 2.013127
activityNameEN_setphasephasepermittingirrevocable -4.605483 10.786821 -0.3005655 -7.4431624 -4.199136 4.3943415 3.3313873 2.487935 0.93829525 -3.6228824 4.8176684 -1.5004294 -0.24898414 2.881942 -9.413789 9.64075
e_170_06VD -1.3279115 0.25387457 0.9539467 10.240317 0.6965013 -1.3545624 -1.237256 -2.3195193 -1.5013517 6.0952225 -5.5018735 -2.7271848 0.94355077 -4.4581785 1.6426381 -5.8019
e_166_06VD 0.26461485 -0.6397329 -2.0625944 3.7367287 -3.3509 2.6883888 -3.5212305 6.763218 -1.0104173 1.3525318 4.132406 -0.86388445 -0.35416812 -2.6524198 -0.3531937 -4.7364817
e_73_06VD -0.65002406 3.4749892 -3.742643 8.354217 -2.3226528 3.0087738 2.2219288 0.9928347 2.5617764 -0.6264944 1.8192365 1.9605829 0.06042687 1.3274755 -2.3413677 -4.189656
action_code_01HOOFD4901 -6.107716 -1.0283839 -2.6407993 -3.0135918 -0.43359357 -0.99862057 2.3844397 -13.227488 3.4939485 10.07088 4.8303943 3.445326 5.414895 -8.885814 -5.6169586 -1.0218838
e_188_06VD -3.2551575 -2.4659128 -0.813761 8.569089 -2.07704 3.3091106 4.5513034 -5.226748 -0.39407393 -2.5389266 -7.9957323 1.7918445 -0.06690135 -2.5421777 3.7654834 -0.13364975
e_220_06VD -8.648934 -0.8027039 0.75827265 3.4826322 1.8355124 -1.867558 0.19786903 5.201866 -4.064677 -5.744095 1.7674508 1.9794588 -1.8423508 -5.7429166 -3.1911902 3.1117496
e_183_06VD -5.306779 -1.3338869 0.72489434 5.5709105 -0.346756 1.3768234 -1.4657873 -0.24421072 -1.292784 -4.6865788 0.47548062 -5.6688447 0.30603728 -3.5203779 5.080466 -4.362581
e_24_06VD -5.050167 0.2503324 2.902052 3.7978399 1.7479686 0.30716726 -3.0797362 1.0460911 -10.0649 2.3586767 -1.1844037 1.9790109 3.7355914 -1.5377039 -0.11750331 -2.8323119
e_17_05EIND 1.883863 4.0663834 -0.0074439133 3.3042326 -0.48831105 0.66985756 2.0400603 0.64489377 -11.450304 2.3066392 -5.770663 -2.1039853 1.5553077 3.121847 4.0513754 -0.098685786
e_16_05EIND 1.5038697 2.462955 3.409386 1.5170585 -3.3862867 4.826833 0.30002034 2.7956686 -5.0478926 -2.37047 1.9585813 -2.834393 -0.850097 2.5834808 0.6610961 -3.918908
e_68_06VD -8.98006 -4.9973483 0.21830097 1.8480557 -0.876262 5.8431606 -6.3576627 2.4491012 3.03633 -2.9716654 -3.2682261 3.6216123 -0.525113 1.3620416 -2.320766 -3.570651
e_171_06VD -1.7139968 -1.5711018 0.77698 9.598049 0.66498494 -3.4130206 -1.3679862 -1.7106465 -1.5383427 4.915861 -2.6685126 -3.174719 1.2970736 -5.9342523 1.4058717 -5.0370693
e_12_05EIND -2.4665792 0.08294673 3.953636 1.2074866 5.9290485 0.93260723 -3.5356824 3.658271 -7.916814 -0.5920009 -4.7813005 3.301159 5.400351 2.3700585 -0.436581 -5.3293824
e_109_06VD 0.38249567 -0.7522908 -2.4582176 5.4747944 -6.8900476 0.44450772 -1.0678891 3.650808 -0.41504848 2.754193 -1.38195 1.6039683 -2.3257291 0.42347386 -0.32597888 1.2417766
e_140_06VD 2.8258462 -1.8657471 -1.1873899 7.3349104 -8.207943 -0.8520791 0.9931258 2.7925012 -2.1857812 3.1259568 -0.5998747 -1.5264605 -2.8091404 -1.0567214 -0.92821276 2.3763251
e_124_06VD -0.9199121 0.7058428 -1.4616121 6.885215 -0.5777506 -1.7588814 -3.109289 4.272974 -0.40945336 3.7395453 -1.1556479 5.6200147 -0.423588 -3.02388 -0.95214427 0.8961555
e_37_05EIND -1.5571563 -4.649697 7.6277204 1.4339051 -1.6753639 -3.0643144 -4.9889817 1.9040884 -9.413247 -1.0048021 -1.3400662 -2.9534967 1.477773 3.080653 0.6731187 1.1808358
e_95_01HOOFD 0.7704842 -4.867488 -4.651173 1.2987136 1.3872837 2.1640732 -0.36588144 0.8231363 -3.2581906 -0.45880827 1.682733 -0.9362567 -7.8034353 1.3412315 2.4665215 -4.8924966
e_187_05EIND 0.2733689 -0.42178765 2.46116 6.049287 1.4048759 -0.23965265 0.6194274 0.12451833 1.9481181 -7.260599 -1.7192992 -6.3894687 0.86624545 0.84793353 4.0416365 -3.4508078
e_129_06VD -1.6955364 -1.0530485 -0.3309901 4.2695956 -4.1479416 -4.160609 -6.2357273 5.3020315 -0.7771107 2.6250913 4.2672343 0.34006554 -0.9997345 1.1186558 -1.6232467 0.51424986
e_165_01HOOFD -0.5066173 -1.8370886 -1.4504075 -0.774556 2.5709393 -0.6049904 -3.1135385 2.1108704 -1.9762638 0.35384983 1.3459262 0.19691548 -8.11125 3.8933136 0.89526355 -4.518013
e_106_06VD -1.0790716 1.8621236 -0.6145628 4.5713944 -3.7628407 2.7089527 -4.1876945 3.6009955 0.52837634 0.4590979 1.9378124 0.8160882 -2.017687 -0.11823324 2.8002625 -2.340765
e_190_05EIND -0.40638033 -1.5412725 2.5629485 3.9474173 0.6706683 1.0606744 0.04924002 2.6750157 -1.5850041 -6.789675 -0.56090856 -7.9758825 0.2929533 -2.3424153 4.1257243 -3.456962
e_190_06VD -4.8126726 -1.2290637 0.19140615 5.640588 -1.5320939 1.6575116 -0.587687 0.18131648 -1.1375866 -4.5912085 1.4664692 -5.8915973 0.08464431 -3.9706745 4.3807316 -4.1012764
e_21_01HOOFD -4.9446874 0.023219494 -0.29130355 -0.32204452 7.1391726 -4.095292 -3.460448 -0.1764058 -4.877518 -1.512866 3.550261 3.420184 -3.382832 6.469468 0.67008096 -7.528516
e_25_05EIND -1.2759902 -1.1532733 3.4072366 -0.30329886 -0.3866148 -1.7109344 -1.6510874 2.1358304 -10.640294 1.183742 -5.1447167 -1.337592 2.8288388 2.8136477 1.1793938 0.460027
e_93_05EIND 2.356821 4.873806 0.3562447 2.99633 0.20043926 -1.1485784 -5.195904 6.532841 1.0428014 1.689792 -2.4088218 1.1637119 -0.85889757 1.52499 2.6284552 0.7601814
e_9_05EIND -0.7127132 -0.6203683 5.0059505 2.1536741 3.8206077 2.5492013 -2.5355134 3.0569065 -8.188219 -0.38152164 -3.7366736 3.5396717 4.480693 3.0127668 -2.165055 -4.612333
e_23_01HOOFD -0.4977456 1.2136301 -2.7948227 0.7869709 3.1106722 -3.780337 1.138391 -1.3138978 -9.284052 0.110994264 3.8092678 -1.5898157 -3.59027 4.9708986 2.237852 -2.3215752
e_39_01HOOFD -4.5093055 -1.5117418 -1.527947 -0.2656808 6.2074323 -0.3845849 -0.28142768 -3.0759435 -6.8915052 -1.8342432 -3.504799 3.2783666 -1.6792831 7.2308054 3.2850688 -7.165437
e_230_01HOOFD -2.5679958 -2.3121274 -0.06637136 -1.0952655 1.5380094 -4.0050983 0.091555536 -0.68795276 -3.4291303 0.24922802 -1.6180608 -5.3042283 -10.820923 -0.35931256 2.186719 -0.07258184
e_46_06VD -4.154802 -1.6647 3.1720424 1.5684649 -3.2212186 2.8740478 -2.2107012 0.77376807 -8.267533 2.1451807 0.19822443 -2.244532 3.1814823 1.2478131 -3.185744 -4.220265
e_219_06VD -6.7016697 -0.7537692 1.8401778 5.972793 1.2611736 -2.2281206 0.13288794 1.7128633 -1.5798435 -5.160231 1.019351 5.641929 -1.7689831 -3.3865764 -2.0286596 4.181221
e_227_06VD -6.2012887 -0.76606673 3.345315 5.5158486 -0.6483666 -1.2148215 2.5644698 2.5783715 -2.5380788 -5.520334 1.7409365 2.8530252 -2.8023155 -5.4605446 -3.8040617 2.882502
e_175_06VD -4.4819407 0.43754598 -0.39808202 6.9098887 0.26264346 0.32225782 -1.8657215 -0.45161268 0.3344569 -4.1069183 -0.21879952 -4.5252786 -0.20771751 -3.905523 7.106579 -2.4627955
e_100_01HOOFD 0.9221136 -4.155776 -6.0390697 2.2993896 0.52694356 0.98963857 1.4457211 -0.19327371 -1.1774417 -0.9597104 0.35076421 0.36191496 -4.2584696 4.694994 0.27202556 -4.39442
action_code_05EIND020 2.1222878 7.712887 6.2551627 -8.466255 -4.5885406 -10.737833 3.9054942 3.3705847 -0.98730004 -2.0321424 -1.0893856 -1.0602273 -0.03244237 4.025476 5.040788 -1.9507768
e_12_06VD -6.271932 -0.63534194 1.75647 3.089469 3.5759902 1.128949 -3.6383815 1.3947177 -7.9356627 1.4211425 -2.608319 4.610012 5.222131 0.4451075 -0.9324146 -5.7401547
e_68_05EIND -4.556015 -5.2658253 3.7385156 -0.62888825 0.3768713 4.9462624 -5.9667964 4.7069807 2.734476 -4.8504972 -4.7670937 2.4199016 -0.41904336 3.0345109 -2.2722964 -3.0539763
e_43_06VD -1.1348591 2.0620153 -1.25669 1.8540462 -3.0710351 5.617788 2.6343367 -0.1568491 -8.208292 4.164547 -7.345829 2.600075 2.0381908 0.7543834 1.1111202 -3.1491187
action_code_01BB770 -4.655986 11.264023 -0.30667743 -7.443279 -3.6493475 4.6228776 3.4998872 2.5940943 0.66754156 -3.9991245 5.3831205 -1.6107978 -0.0738314 3.0165846 -9.493706 8.832985
e_163_06VD 0.7356807 -5.0160713 -3.8636265 5.4531155 -3.7840743 -3.1608222 0.65995944 6.609119 -4.121213 1.0354465 0.89178205 2.3417785 0.13801405 -4.2919326 -1.4591905 1.4043466
e_131_06VD -1.5842419 0.38743043 -4.3733244 6.948575 -1.0077208 -5.0695953 -0.83836204 2.838788 1.407027 -2.2706618 -0.5707109 3.6820755 0.37011206 -0.36413354 4.507434 2.5082204
e_207_05EIND -2.257553 -0.1097106 6.4510417 4.6242995 2.1765046 -5.042241 1.5525808 4.652043 -1.3679636 -8.242591 1.635474 2.1051743 -2.5813878 -0.5357254 -1.2794858 -1.7071217
e_201_06VD -6.97998 -0.5402863 3.4195557 6.8011465 1.613475 -5.8507514 -3.9633715 2.8362749 -0.47783706 -3.1323466 4.1798954 3.0865138 -1.3077677 -2.8703253 -2.7319393 2.3433592
e_194_06VD -6.645793 -1.2061099 -0.022855064 5.722691 -6.262064 -3.1472483 2.9150822 -0.73019975 -1.263246 -5.3974867 -0.8699806 -4.951827 -2.471224 2.419536 1.0412658 -0.36859828
e_123_06VD -2.3967607 3.3671646 -2.6634743 5.3634343 0.36564165 -0.136724 -4.672402 3.4794323 0.41449198 -0.57518554 0.4581197 2.7153456 -0.6375686 -1.1951394 5.5285454 0.46823642
e_33_05EIND 2.9831858 -1.155715 2.2260487 0.6711177 -4.192849 5.3533635 3.3669403 1.9176105 -4.7966523 0.0907029 -7.3399124 -4.7092834 -1.2256489 4.793422 1.3141378 -10.573984
e_207_06VD -6.186689 -0.5512651 4.173858 6.870136 0.34146437 -4.7514095 1.1172129 2.4293165 -1.2946169 -6.579115 3.2908695 3.3040888 -3.309225 -1.8404735 -0.98588336 -2.65983
e_91_06VD -2.9053922 2.8137238 -3.8008277 4.644412 1.2387456 0.8090814 -5.39608 4.5299315 -0.5005189 -0.068737276 -0.32175556 4.230567 0.6202976 0.024475105 5.092748 -1.6524934
e_76_06VD -1.6186105 1.9397327 -3.67734 4.7714696 -4.3130913 2.2982109 -1.7051579 1.8634661 1.942091 0.2129224 1.9202614 -2.3699188 -0.49026772 1.802515 0.5881257 -2.8610146
e_198_01HOOFD -0.13365999 -5.4088693 -1.1453794 2.0588315 1.089201 -4.935964 3.809664 -4.4643393 -2.3404698 -2.072305 -0.8966671 -5.3691506 -7.0111036 1.9250219 2.0022786 -2.1020608
e_160_05EIND 1.488439 3.3843083 -0.43515846 3.2836144 1.0053633 -1.0701969 -4.611573 5.7481346 1.6634752 -0.54401165 -2.5065205 0.81798947 0.21110992 0.08647266 4.987651 0.07843641
e_184_06VD -3.9328656 -0.3144425 0.9659973 6.0758085 -1.7715652 1.7039264 -0.6023864 -0.9085082 -0.48590255 -4.2125683 1.2215083 -5.8464537 -0.46083435 -3.4877796 5.0926747 -3.6404107
e_97_06VD -2.9231942 -0.535846 -4.7860684 3.831533 -4.2089987 1.9979686 -4.811569 2.7158382 -1.9980006 1.666568 -1.4226718 3.9312918 0.7220827 4.184081 3.0665019 -0.2910801
e_213_06VD -7.0373487 0.8061346 2.0391989 5.506572 3.1247342 -2.664673 0.37386316 4.475069 -2.8074994 -1.1286803 -0.5741679 0.7396627 -0.6264833 -7.189941 -5.324316 -0.7619689
e_212_06VD -5.5397053 0.5780454 -3.6480262 3.0362542 -2.5879118 -2.4298463 3.995101 3.6336951 -1.928972 2.49985 -6.0324464 -2.264087 -1.7797524 -3.2787492 -4.935829 -0.4897911
e_181_09AH -0.9487379 -2.3840933 -1.3506436 5.8041663 1.9477574 0.9391973 -2.3586884 -1.8978933 1.8810674 -4.9089823 0.6556829 -8.891253 3.474873 0.2047018 2.6537187 0.10291869
e_144_01HOOFD 1.7643769 -5.212658 -6.8120894 1.1245276 1.7546926 0.7433678 2.319769 -1.2137451 -1.5710043 -2.1614628 0.7513303 0.1247063 -3.3453734 6.406457 -0.109591305 -4.0032296
e_193_06VD -5.0791903 -1.0555317 0.49502784 5.6049757 -1.1073055 1.475521 -1.427982 0.010826017 -0.90740764 -4.635158 0.7713594 -5.894344 0.3526445 -3.4965577 5.249337 -4.1056867
e_211_06VD -5.4668975 0.9902989 3.9459872 6.428469 2.6193368 -1.9248201 0.2519269 3.4307454 -1.8124348 -1.718993 1.3864846 2.5981052 -0.98761743 -6.987357 -5.0510025 -0.6308301
e_204_05EIND -3.1858976 0.36452287 -1.8636748 0.5574515 0.7745567 -2.643641 3.362029 6.7612414 -4.1992764 -1.5438703 -6.1443386 -4.7405086 -1.2454246 -3.0039406 -3.0869 0.9851366
e_51_01HOOFD -0.17880791 -2.3451645 0.112775154 -0.265727 1.1179769 1.3686801 2.5684562 -1.6480788 -5.376255 -0.85948414 0.93855387 0.79969555 -4.4402256 5.4421887 -1.1618443 -7.6316404
e_142_05EIND 0.22288437 -2.1570992 -0.35483575 0.8501014 -2.382654 0.33788374 0.19419304 5.262739 1.7431022 -4.18947 -6.383864 4.0883675 -0.83391607 2.0678117 0.35729057 3.935512
e_182_05EIND 3.6469193 -0.59019613 5.023424 8.2009115 1.6572263 -4.0787706 -0.8331663 1.2402047 0.30952847 3.3338337 -4.8033066 -4.5551834 1.1795477 -3.7167163 -0.07133909 -5.0025334
e_136_06VD -1.6407465 0.5600207 -1.6663417 3.6007032 -2.5060787 2.4943666 -3.9326813 5.082814 -0.3078227 -0.23838627 3.5022244 -0.53419834 -1.0973743 -1.2903187 1.2193809 -3.5632067
e_2_06VD -4.304428 -0.5722135 3.6717095 4.114924 0.74501467 3.028587 -1.6811026 0.29316196 -8.469652 2.410039 -1.6573905 3.8554478 3.281179 -1.3382654 -2.1899397 -4.6489005
e_156_05EIND 1.560375 0.60591155 -0.5434034 1.8519787 -1.2076797 2.124608 -3.628642 7.4869537 0.7997264 -1.9406796 2.0410228 -2.0415704 -0.7559277 0.19647506 0.69942737 -3.201697
e_141_05EIND 2.4506156 -0.079057306 -2.6977134 4.426198 -1.1048893 0.8448336 -0.7159302 4.6929474 2.7314572 -4.6703863 -0.030226586 -0.83788455 0.9311297 4.539176 1.4892374 -2.734399
e_4_05EIND -3.6476603 1.7374136 1.6853371 -3.7000792 0.90676486 -5.814071 -0.30607215 3.7862008 -11.233751 -1.7870585 -3.3229651 -0.2732082 -4.337206 4.7506084 5.333597 -0.75111
e_120_06VD -1.2060589 -0.8344723 -3.269183 6.0381274 -4.6976585 -2.0351195 -0.7368837 3.696954 -0.90376115 2.0609097 -1.5113205 3.7713065 -1.8217862 -1.1951834 0.06361815 2.815343
e_167_01HOOFD -1.9477727 -1.3519714 -2.1241539 1.4487271 4.3738017 -0.32337284 -0.3742803 0.17895207 1.2430778 -3.8091276 -0.2430596 2.4939034 -4.562866 4.8392644 0.44837603 -4.58564
e_210_06VD -6.017555 -0.71378964 4.753563 6.571269 0.4013542 -2.3275297 -1.7986474 2.271027 2.2777312 -4.3210483 1.6828606 5.030059 -2.8459618 -2.9105043 -3.7294374 1.1858664
e_92_06VD -1.01542 2.0002007 -1.8462386 4.4216537 -5.561477 2.8732252 -1.6512285 2.9751441 -0.13690427 -0.8737207 -0.031355716 4.233129 -2.0962632 1.0925359 2.4183967 3.3705256
e_189_05EIND 0.51104623 -4.2003636 2.7124317 7.384687 0.07789888 1.9036214 5.174933 -2.320095 -0.080763035 -5.449166 -8.016077 1.0460656 0.64643794 -2.0946743 1.3507423 0.5759428
e_29_05EIND 0.97523844 -0.8456962 5.4820447 0.55470645 -2.253714 2.0874512 0.47448564 1.0204991 -7.5355334 0.44910875 -5.1786647 -0.38233745 1.5884436 5.145052 -2.7906022 -0.9046547
e_63_06VD -5.753883 5.7061234 -0.3695698 4.864763 0.93567514 -3.7927458 0.18248329 -0.19474411 2.1956463 -2.0999594 -3.4393446 3.481977 -3.9219081 2.393348 5.0094633 -4.1104207
e_193_05EIND -1.2292154 -1.2685624 3.1414378 3.5493782 0.59662306 1.0893619 -0.74392176 2.055859 -0.94219226 -6.275917 -0.91729593 -6.9092035 0.47126135 -2.12066 4.780361 -4.0892344
e_57_01HOOFD 1.2955385 3.4209812 -0.6280673 1.5643623 3.2015996 -1.4317883 -0.9761462 -1.3563839 -9.892223 2.3721197 5.391923 -2.6949024 -3.8215332 3.398108 2.2706535 -2.0223951
e_156_06VD -2.0296957 0.8921901 -2.5287838 2.787186 -2.771262 2.8580172 -3.9772797 4.948664 0.30850968 0.25021067 3.166096 -0.8115743 -1.3993647 -0.63740176 0.51043606 -3.1627367
e_9_06VD -4.9233847 0.05777552 3.2397084 3.7895162 1.8366016 3.7757554 -3.138193 0.58707166 -7.922736 1.7685137 -2.3996303 4.6631284 3.9775836 1.3972946 -2.056386 -5.4246073
e_169_06VD -1.5007524 0.08252215 1.0055522 9.3866205 0.29486716 -1.6361115 -1.1404442 -2.2549837 -1.3201813 5.964374 -5.6373158 -2.7779841 1.1748668 -4.720832 2.1613493 -5.755856
e_110_06VD -4.854683 -4.724745 -1.8368534 -0.6070367 -5.583103 3.2560453 -4.46682 3.400933 -0.3005811 0.93083435 -5.3735003 -0.60171235 -1.0662352 -0.13517609 1.7325461 0.11751302
e_66_08AWB45 -2.3685656 -4.6722984 -3.8357456 4.1290927 2.4429433 -3.1199057 -3.9401 -2.8039124 3.202764 -2.694058 3.0052533 -3.1162913 2.9052286 11.2253895 -3.7290947 -4.890906
e_105_01HOOFD 1.0112003 -4.888762 -0.53368413 -0.25032666 3.038145 0.7667579 -3.8497376 2.2159932 0.9847767 0.7116447 2.7578764 -0.440096 -7.0165396 2.6766713 -2.108756 -7.4421935
e_183_05EIND -1.2889385 -1.26134 2.5962768 3.9597816 0.95866317 1.0994245 -0.4854323 2.5501845 -1.0777419 -6.724638 -1.2080101 -6.6575437 0.7219146 -2.6469095 4.91385 -3.7514012
e_208_05EIND -2.7794435 0.046387836 -3.125735 0.34769374 -1.7529919 -2.4473758 4.1478534 5.085483 -2.5185285 -2.0747144 -7.7874537 -7.0133576 -0.90222025 0.19485863 -2.2185788 1.9159392
e_125_01HOOFD 0.1453213 -5.740162 -5.599045 0.62740904 -0.03560809 1.4248778 1.1913351 0.49271068 -4.3614926 0.12959 -0.16320401 0.8004093 -7.437343 2.1049936 1.907675 -4.0725727
e_60_05EIND -2.087301 7.5500994 3.4373748 3.2233806 0.30798978 -0.81130725 -3.519281 1.3691922 1.9167334 -1.5231144 -4.0942073 -3.1092749 -1.0770473 4.0600877 2.3306887 2.1844993
e_187_06VD -3.6523666 -0.38876948 -0.03372865 7.87428 -0.500657 0.16215624 0.3371486 -2.057093 2.533495 -5.6039557 0.482107 -5.126339 0.7876945 -1.0567106 4.0304513 -3.9512513
e_137_06VD -2.0308695 -0.2681173 -1.8624274 2.9012315 -2.7561686 2.547636 -4.460092 4.7631474 -0.6836976 0.40527743 2.8412313 -0.19230805 -1.2141571 -1.2036693 1.5133284 -3.2846153
e_201_05EIND -2.1601796 -0.58363557 5.971502 4.768291 3.46014 -6.466029 -3.4190807 5.734148 -0.6772634 -5.648344 3.1154387 2.1110814 -1.6815072 -0.96998984 -2.5768142 2.8410985
e_78_01HOOFD -1.2287121 -6.764848 -5.1433873 -0.88276094 0.5295754 2.353459 1.4314564 -0.57763636 -3.0907016 -2.224838 -2.133991 1.9824257 -7.7850614 3.5744658 2.1529438 -2.6582618
e_212_05EIND -1.3015296 0.8120071 -0.71235734 1.7230364 -0.6203479 -2.786897 4.024225 6.3401756 -1.9517456 0.9643834 -7.5525503 -3.785953 -2.2179823 -2.1111968 -5.5025434 0.13006277
