17 16
01_HOOFD 0.0038182947 -0.023411347 0.02739062 0.0037624682 0.003227854 -0.023937013 -0.012509865 -0.0058486974 0.024911894 -0.0143366335 -0.019136405 0.006502471 -0.0072717504 -0.024719493 0.010301803 -0.016861517
ArtificialStartTask -0.011849105 0.00956053 -0.011595046 -0.014693176 -0.015499992 0.013403734 -0.019631518 -0.009966061 0.0006740174 -0.0111401705 0.0038737569 -0.00830411 -0.013124876 0.029300591 0.030478297 0.0166507
ArtificialEndTask 0.024321293 0.025061758 -0.015033622 -0.012869236 0.02576703 0.01547193 0.029340323 0.0027763075 -0.027898908 0.006179214 0.016277634 -0.0301319 0.018259507 0.0010267112 0.014599526 -0.017634973
05_EIND 0.0038116132 -0.0063370573 0.027606754 0.009007159 -0.02014205 -0.0041668066 0.021795606 0.003924386 -0.025554033 0.023216918 -0.0051267473 0.025681268 0.017298227 0.026874999 0.028937021 0.012074703
06_VD 0.00070607354 -0.0005523751 -0.025104875 0.010538827 -0.010057764 -0.023564856 -0.0098866895 0.006880684 -0.024567666 0.01804522 -0.008606377 -0.009878766 0.012810703 -0.010964043 -0.015581126 0.020242916
09_AH 0.030965744 -0.008593126 -0.0043616975 -0.01575339 -0.0050126407 0.01950339 0.020086478 -0.004526924 -0.016417399 0.026571179 -0.005330707 0.022634 0.0100260945 -0.018869892 -0.014890326 -0.027841572
01_BB 0.011379723 0.025036134 -0.016575286 -0.018206561 -0.01781357 -0.013392693 0.012685599 0.022979038 0.014584207 -0.012124246 -0.018475994 -0.0098725585 -0.012193645 0.006151374 0.00529607 0.030363007
08_AWB45 -0.019286571 0.0043908055 0.006773967 -0.0124975005 -0.022716302 0.018429406 -0.005911373 -0.007593353 0.019578906 0.016195992 0.009040868 -0.022918755 0.0008083534 -0.008521044 -0.00978895 -0.01954899
03_GBH -0.0005536438 0.013544571 0.026315114 -0.0074387495 0.0020143958 -0.030195776 0.026377559 -0.014442489 -0.030397873 0.030176999 0.0037674939 0.027856113 -0.022740714 -0.003084423 -0.018608825 -0.012211206
07_OPS -0.013705322 0.012275031 0.028153682 0.020049082 -0.008778402 -0.020170806 -0.0020312616 -0.01585591 -0.030031672 -0.012725118 -0.026082763 0.029907366 0.0046295193 0.011663681 0.00030462272 0.027368166
14_VRIJ 0.021049988 0.026488258 -0.018873986 -0.026421068 0.022953479 -0.010893122 0.019534027 0.0016657691 -0.010741047 0.013550095 0.0031488712 0.0029536998 0.020287327 0.0268524 0.012464632 -0.019701544
10_UOV 0.0012443921 -0.016918145 -0.011509877 0.026547277 -0.005334395 0.0002887568 -0.018580204 -0.007546144 -0.013316055 0.016007956 -0.020080116 0.024020199 -0.018465992 0.022774054 0.02291153 0.018391266
04_BPT 0.0069419257 -0.029106108 0.021113861 0.0053381026 0.023839587 0.024590742 0.013121961 0.016463466 0.0061833006 0.008016134 0.022524096 -0.0109309405 0.0052164295 0.028214771 0.0043600155 0.007700272
15_NGV 0.01880159 -0.010119191 0.0073788967 0.021029223 -0.011968077 0.0082064895 0.021015577 0.016382283 -0.012488329 -0.004873912 0.0035140081 0.0153329335 -0.0102365995 0.019929195 -0.026755424 -0.028557686
11_AH 0.009531755 -0.027279252 0.031179411 -0.030693954 0.008889769 0.022092931 0.010710077 0.021679567 -0.026002817 -0.006542087 0.0066991984 -0.030788967 -0.009817045 0.011863571 0.009488316 0.026202675
12_AP -0.012825309 0.030553887 -0.014153953 -0.021841498 -0.0037982862 -0.009946367 -0.011533049 -0.011514057 0.019074574 -0.013468451 -0.002877629 0.002692585 0.0025671436 -0.025077917 0.02776409 -0.016031774
02_DRZ -0.029444044 -0.020285077 0.018674264 -0.0035109497 -0.022595648 -0.010192168 0.030847177 0.02465833 -0.020860502 -0.029455967 0.0074056634 0.0005454011 -0.025498606 -0.0145276785 -0.00062603486 -0.006983917
