12 16
01_HOOFD 0.00661375 -0.029701192 -0.0026934016 -0.00041894434 0.016206956 -0.008520866 0.011255318 -0.011387906 0.024267374 -0.023229087 -0.008304091 -0.02502036 0.022029523 0.030089056 -0.015130986 -0.0065100924
ArtificialStartTask -0.020296361 -0.0006168296 -0.030803246 -0.014988825 -0.0015609947 0.0018587109 -0.0056330753 -0.004767711 0.019818744 0.003910469 -0.02436284 0.0009221002 -0.020896947 0.012838963 0.022999609 -0.026285635
ArtificialEndTask 0.02407518 -0.016632985 -0.016006233 -0.02595134 0.007662803 -0.016503878 -0.021858307 0.027547846 0.027699018 0.021648105 0.010470224 0.016237684 -0.015008388 -0.031078773 0.023475371 0.015735175
05_EIND -0.011648191 0.010059356 -0.022243613 0.026580136 -0.018900435 -0.023921547 0.012413816 -0.018186158 0.0002945252 -0.0015106464 -0.009436779 -0.023038866 -0.020552285 -0.017045338 -0.008160802 -0.011806789
06_VD 0.029457297 0.017064216 -0.015384272 -0.017785428 -0.0039981124 -0.013469811 -0.030183518 -0.0121640675 0.0014916941 0.012127251 0.022606552 -0.012805929 -0.00826385 -0.013475617 0.031035274 -0.01566366
09_AH 0.011907274 0.0008712068 -0.018466666 -0.008678646 -0.023466486 -0.00062477536 0.026028896 0.012991055 -0.026729243 0.0011948656 -0.018211111 0.006659117 0.023421584 0.00059127784 0.008727857 0.018997481
08_AWB45 0.0017054317 0.024885764 -0.014184237 -0.011639335 -0.0020684234 -0.0031710197 -0.01572735 -0.013738611 -0.019420182 0.019187208 -0.004743262 -0.025290765 0.019659713 -0.007993321 0.018701551 0.0022028
01_BB -0.029600406 0.002659753 0.010412804 0.024522092 -0.003549669 0.022429027 -0.028244358 -0.006921287 -0.03074978 0.018669156 0.02931022 -0.030956207 -0.007682487 -0.00042005733 0.029837605 0.017278235
04_BPT 0.0076939296 -0.014097532 -0.0070526195 0.008377168 0.021459976 -0.0154890185 0.020059224 0.005287121 -0.024818597 0.0021234206 -0.020003648 -0.0008053906 0.015706789 -0.017718446 0.008134898 0.026078217
10_UOV -0.0007807044 0.014437871 -0.030272985 -0.02963928 0.030761465 0.019366078 -0.023745984 0.010435955 0.0240826 0.007376343 -0.01128976 0.0025320603 -0.02227592 0.018663807 0.003429543 0.021710148
02_DRZ 3.8592156e-05 0.015435133 -0.0049000485 0.0032161148 -0.024969796 0.012018315 0.027864918 0.012773444 -0.01631302 0.014822481 -0.021394664 0.024876194 -0.0016168461 -0.017152192 -0.006773824 0.009963221
12_AP 0.030184563 -0.027720798 -0.024629887 0.018599208 0.007180474 -0.018553682 -0.0025448597 0.029997861 0.0121230185 0.0040155067 0.0022168816 -0.022199193 0.017633772 0.026942214 0.0057820324 -0.017722627
