12 16
01_HOOFD -0.0020941491 0.0133195985 -0.01723896 -0.017594058 -0.017403679 0.008871465 -0.024347708 -0.0049511767 0.021892175 -0.0199013 0.028845815 0.002042354 -0.029811686 -0.030263392 0.015199258 0.0061080633
ArtificialStartTask 0.0076625696 -0.021303408 -0.030491289 0.00086912885 -0.0056127557 -0.01161674 -0.0055278298 -0.008592434 -0.0022604861 0.0130385095 0.009816134 -0.01814891 0.018857697 0.011558014 0.016266141 -0.0077706166
ArtificialEndTask -0.0068563055 -0.016067537 0.009877627 0.00030015814 0.030618668 -0.014531967 -0.016191881 0.02767077 -0.018358324 -0.00634545 0.00086389657 -0.030778725 -0.010389578 -0.007509943 -0.009185728 0.020905219
05_EIND -0.005857598 0.02115496 -0.008560447 -0.010143603 -0.018084835 -0.0007045926 -0.028957596 0.023431826 -0.019076228 -0.029688364 0.016734818 -0.018568693 0.016284937 0.010753195 -0.013728189 0.009612531
06_VD 0.026615862 0.028231071 -0.024926173 0.012463957 0.0035291368 0.0075289733 0.004786549 0.03078455 -0.013998401 -0.0055347723 0.010727892 -0.002296749 -0.015008695 0.030328415 -0.020648407 0.007344025
09_AH -0.0023544112 -0.0003670608 0.0023837788 -0.017929517 0.012795107 0.013943985 0.025733067 -0.015343375 0.028409021 -0.02582867 -0.009138462 -0.02113781 -0.005202539 -0.0153583875 0.028059836 0.0012026923
08_AWB45 0.014769033 -0.020841755 0.019576909 0.028781291 0.023961497 -0.014125072 0.014750462 -0.005824256 0.006898891 -0.026759775 -0.025302375 0.029791718 -0.00031160872 -0.0012601622 -0.006583966 -0.021868661
01_BB 0.017653849 0.006410216 -0.014895039 0.0263879 -0.0025686442 0.021703321 0.01855218 -0.0109720295 0.005674992 -0.013961201 -0.02546095 -0.025112642 -0.020142023 -0.0005512473 0.026110943 -0.0074378895
04_BPT -0.029864602 0.0042703715 -0.030328326 -0.022264406 0.008739446 -0.002925214 0.021577446 -0.023675915 -0.003178859 0.0005637192 -0.0147553515 0.0015580507 -0.018198976 -0.011538269 0.0036983653 -0.026837327
10_UOV 0.027768277 -0.019443862 0.030487379 0.0021511419 0.022444379 -0.012429635 0.015531551 -0.027375855 0.013292353 0.013136752 0.0058709416 -0.01977242 -0.029453404 0.025710873 0.0044765095 -0.028353939
02_DRZ 0.0113142375 0.015171376 -0.011355972 -0.0031606385 0.0063958624 -0.01108518 0.016080597 -0.0016181784 0.0186776 -0.027035916 0.017938586 0.006845644 0.024746027 0.026724948 -0.018799033 -0.0041853115
12_AP 0.0024377073 0.010303674 0.021943767 0.0024184452 0.024119083 -0.013975668 0.020162545 0.0018381121 0.023812577 -0.022298876 0.018193923 0.021784697 -0.018584305 0.007570557 -0.0020535574 0.02365741
