1508 16
requestComplete_1 0.02485669 0.007100442 0.031399347 -0.014827199 -0.027810961 0.025514273 -0.015126441 -0.02738178 0.0005358508 0.021532018 -0.010595493 -0.022816133 -0.0039515737 0.00047505996 0.03466909 0.013433949
caseStatus_G -0.022293549 0.003356099 0.035340123 0.03131619 0.003798652 0.038548134 -0.034773435 -0.007571165 -0.01342248 -0.014701657 0.01365669 0.0035296697 0.02890359 -0.028386211 -0.007048999 -0.0082469955
termName_EMPTY -0.009508566 -0.017095407 0.024184627 -0.010566987 0.019110644 0.005385224 -0.017466322 -0.026467575 0.018653547 0.028446103 0.0003758347 0.0070485855 -0.024592645 -0.016153408 -0.017195549 0.0052454
question_False 0.0024971147 -0.0030595541 0.013072967 0.025865845 -0.03218287 0.01855625 -0.0006306222 0.017553218 -0.0051174974 0.015670335 0.0015617743 0.013357769 -0.0200163 -0.01737547 0.019620446 -0.019410703
SUMleges_EMPTY -0.015981087 0.024586514 -0.014566787 -0.017656857 0.0009814537 -0.0100175645 -0.023189733 0.01984209 -0.024799358 0.010312709 0.019870983 -0.006489581 -0.0056879446 0.0072227805 -0.023670627 -0.019136835
question_EMPTY 0.01464851 0.02693814 0.034492113 -0.011242461 0.0140839955 0.004640484 -0.0027530894 -0.0036677895 0.028124398 -0.0065297275 -0.030435286 0.015115263 -0.006545681 -0.021128977 0.027398255 0.011219479
parts_Bouw -0.0022672173 0.029700233 -0.012144515 -0.027088275 0.027417703 -0.019203447 0.02477937 -0.0027734654 -0.012873551 0.005486231 0.01572182 -0.0026622198 -0.0046693264 0.012244454 -0.013742374 0.028114472
eventName_01HOOFD 0.022950605 0.021442836 0.030532166 0.003896315 -0.026478818 0.025237411 0.020433823 0.016331945 0.01889542 -0.004169586 0.0041498574 0.0135667175 0.0146519 0.012825948 0.035052538 0.0069448333
monitoringResource_560696 0.0043909433 -0.029962178 0.007935326 -0.025334157 -0.0006958218 -0.0217905 -0.0099849105 0.024096595 0.020366885 0.016428301 0.016140772 -0.026590742 -0.030603552 -0.00011534455 0.025215503 -0.018960906
action_code_01HOOFD010 0.0032010523 -0.004441606 0.008803278 -0.02309932 -0.009236478 0.026437623 -0.03466279 0.015184039 0.018315295 -0.025724828 -0.013602893 -0.021687035 0.019391019 -0.005817407 0.0019510468 -0.019002311
activityNameEN_registersubmissiondaterequest 0.025215177 -0.010593555 0.008868561 -0.0044659968 0.024017742 -0.016894178 -0.02792492 -0.016668912 0.011886093 -0.027685827 -0.02158042 0.01258381 -0.02087536 0.02455694 0.026760612 0.029612483
Responsible_actor_560696 -0.016832082 0.016013257 -0.008174937 -0.0051029464 -0.024105052 0.009761404 0.020120684 -0.016456278 0.015685555 0.011896502 0.026508598 0.030244762 0.016536249 -0.010544317 0.031169018 -0.0047934037
last_phase_Adviesbekend 0.026832627 0.022767814 0.007547109 0.019162292 -0.031053329 0.0044009862 -0.020034682 -0.0104619665 0.009963069 0.0017378657 -0.01386175 0.011125009 -0.00965385 0.023050236 0.012184118 -0.023779582
parts_Kap -0.024403755 -0.029105514 0.0239486 0.022444025 -0.011318642 0.023326058 -0.029571824 0.015119359 -0.0032078049 -0.029695453 0.0027480412 0.022981526 0.01427543 -0.013660186 0.019336864 -0.029424818
eventName_05EIND -0.011009491 0.008784937 0.0027950928 -0.024700446 -0.0072805467 -0.00055547425 -0.006526528 -0.000169537 0.02297586 -0.020721305 -0.0034143135 0.026822714 0.010606296 -0.024991628 -0.02462006 -0.028965699
activityNameEN_extendprocedureterm -0.024714014 -0.014871583 -0.014355468 -0.024353985 0.02953922 -0.025088983 0.01777413 -0.01651005 -0.010168478 -0.020894941 -0.0128411455 0.009443129 0.013674309 0.019587772 0.033446994 0.00708161
activityNameEN_terminateonrequest -0.027939538 0.008231285 0.016587336 0.02192001 -0.009530869 -0.0059556337 -0.008106929 -0.00529428 -0.0057086335 -0.020234002 -0.030966654 0.0063459305 -0.0035998689 -0.018345926 0.0021891515 0.011437845
activityNameEN_article34WABOapplies -0.010380612 0.021467702 0.008659285 0.02840558 0.012198712 0.032676905 -0.0035054707 0.0053004194 0.0010434529 -0.02506679 0.02446353 0.0024664556 0.018462677 -0.0034600305 0.026676156 -0.016484084
action_code_05EIND010 -0.00721326 -0.015105545 0.029838707 -0.0018050672 -0.0032953774 0.00034125434 -0.022582717 -0.01377945 -0.0028099013 -0.012820619 0.003062849 0.03089385 0.015047278 0.013347668 0.031727597 0.011599377
eventName_09AH -0.000290593 0.022668913 -0.008723469 0.014829725 0.015050701 0.030728389 -0.0042191823 0.026004659 0.0046084886 0.022428552 0.0022063535 -0.0069460124 0.003923939 0.010765343 0.026152562 -0.0019133647
eventName_06VD 0.015571996 0.007869869 0.0053332327 0.026705118 -0.005662736 -0.009203206 -0.0031310024 -0.005653467 0.010045293 -0.009838692 -0.0042100945 -0.025308428 -0.016785836 -0.022978082 0.007326144 0.012063484
action_code_09AHI010 -0.014921716 -0.0072059482 0.02873755 0.014061126 0.01746026 0.035925683 -0.009806378 0.01474386 0.01917318 -0.0016089493 0.027156958 0.016001673 -0.0035050733 0.011194206 0.0040470855 0.017899342
activityNameEN_assessmentofcontentcompleted -0.017931372 -0.01554375 -0.010188307 -0.026907863 -0.019522881 0.030869009 0.016988443 -0.012598965 0.016244086 0.0032756038 0.0056999144 0.026385464 -0.011799157 -0.0035215581 -5.8417165e-05 -0.0027995415
last_phase_Zaakafgehandeld -0.012488832 0.0037439396 -0.002135143 -0.0058610225 -0.02604619 0.022781273 -0.031262353 -0.006804184 0.0051889396 0.0076450277 0.025482422 0.031507242 -0.0041893166 -0.01879596 -0.010912183 0.0033542267
action_code_01HOOFD370 0.011302452 0.01954997 -0.01666174 0.009644064 -0.009634748 -0.0014972005 0.0022190262 -0.009662378 0.0030873069 -0.021628099 -0.0282363 0.015561201 0.0016900621 -0.014893725 0.008085814 -0.027314546
action_code_06VD010 -0.01668571 0.025466755 -0.00095611985 -0.00552435 0.008347498 -0.00071000576 0.013069278 0.0014614998 0.0057291575 -0.009981474 0.02001262 -0.022842158 -0.019022942 -0.029940573 0.031556774 -0.020397423
last_phase_Vergunningverleend 0.0027093769 0.0055236 0.010452734 -0.017410189 0.013318628 0.029404934 -0.0075069736 -0.008819868 -0.028383283 -0.0015693745 0.022415854 0.00646476 -0.017895343 -0.023426862 -0.025942106 0.019427553
parts_Sloop -0.026680948 0.00027649393 -0.017401775 0.009924003 0.020740518 0.034481313 0.000114680246 0.020992933 0.018832752 -0.0013400405 -0.02519853 0.007358282 0.028325714 -0.026653724 0.0014518014 0.008452679
last_phase_Besluitgenomen -0.013601689 0.009593473 0.009534783 -3.995506e-05 -0.022660319 0.027609574 0.012948476 0.019230543 -0.028339049 0.02683547 -0.031105194 0.0064354 -0.0015144062 0.028094474 0.033149928 8.115447e-05
org_resource_560454 0.006031869 -0.0048838668 0.021947343 0.014004987 0.010490875 0.0151947625 0.013661189 0.027285142 -0.030687144 0.003995781 0.0061980532 -0.024507603 -0.021228807 0.006487007 0.0062895957 -0.016370798
monitoringResource_560925 -0.004892756 -0.004997025 0.016885975 0.024202188 -0.0046492945 0.03494169 -0.004320345 0.008199919 0.0016738757 0.008753491 -0.01956329 -0.023940621 -0.0044017565 -0.029091712 0.017968513 -0.012662131
last_phase_Vergunningonherroepelijk 0.013961898 -0.018377265 0.03245415 0.01364331 -0.031009808 -0.025171654 -0.0054774494 -0.012841646 0.027433708 0.02810022 0.021947002 0.006162422 0.018952705 -0.008348151 0.016225653 0.01991436
activityNameEN_registrerdateofpublishingreceivedrequest 0.007435754 0.01083844 0.010656282 0.026677392 0.02810979 0.03368657 -0.019878669 0.010121698 -0.016002337 0.012957496 -0.021471266 0.00698246 -0.030233348 -0.024363995 0.033888698 -0.00092725916
activityNameEN_subcasescompletenesscompleted 0.008153679 0.01262267 0.0024252492 0.011272921 0.013381303 0.014305433 0.0047987225 0.016579114 0.014949156 -0.004911941 0.01930071 -0.004632315 0.027901951 0.011205366 0.025910966 -0.0017114441
action_code_01HOOFD100 0.0039209905 -0.030187467 0.021578502 -0.022648495 -0.022902282 -0.021080336 -0.012767275 -0.0064118393 0.0014046291 -0.025769122 -0.022853892 -0.006413361 -0.018800516 0.022755736 0.019330207 -0.013660133
Responsible_actor_4901428 -0.032566097 0.008310902 0.02672155 0.01650318 -0.012190885 0.024047306 -0.004310894 -0.0129863005 -0.008026093 0.0116469255 -0.03137912 0.007774697 0.017914575 0.023727369 -0.010960203 -0.02464846
termName_Termijntotbesluit -0.015404976 0.01613961 0.025311332 0.0015307104 -0.012432254 0.02715102 -0.0034937693 0.017409926 -0.025677491 -0.012683685 0.022491472 0.01352246 -0.023962226 0.016825488 0.026504748 0.01185123
monitoringResource_560604 -0.02305793 0.0011346521 -0.020683128 0.020879203 0.029410701 0.034879807 0.0075253793 0.006879306 -0.020688437 -0.026999634 -0.0045190416 -0.024457835 0.022127433 -0.027558912 0.031513903 0.013503662
caseStatus_O 0.025803113 0.016016569 0.032957714 -0.006672778 0.012238182 0.027446121 -0.029638767 -0.008555453 -0.024658699 0.0032092286 0.008132248 0.017675893 -0.013551921 0.01998843 0.00020741015 0.02780955
org_resource_560696 -0.005375388 -0.016497828 -0.017006412 -0.025195027 0.021576889 0.00049390533 0.004855947 -0.00615629 -0.0010780441 -0.028289689 0.0073070065 -0.007667349 -0.021367988 -0.028170645 0.021592412 0.01865618
org_resource_560429 -0.0020359147 0.020272588 0.008737892 -0.011656797 -0.030210914 0.021027884 -0.0220513 0.013545266 -0.018055588 0.014410219 0.0061266497 -0.015007496 -0.0020438568 0.022798583 0.010919896 -0.011542408
Responsible_actor_560604 0.00784372 -0.0039104475 0.02023353 -0.015710939 0.0016675768 0.0141274175 0.015528533 0.0005817282 0.015387846 0.029483516 -0.0008261122 0.0306367 -0.0016830198 -0.0021347916 -0.022086801 0.019560458
org_resource_560673 -0.012202269 0.017895233 -0.02560267 0.0011144573 0.012735375 0.030446343 -0.006742359 -0.008247602 -0.011714367 -0.02800725 -0.025906395 -0.020659272 0.002317549 0.021488132 0.029934065 -0.02261676
question_True 0.028181447 0.00028166742 -0.017363835 0.0004946992 0.022625484 -0.0113664605 0.00694276 -0.0068654004 -0.020827575 0.027383676 0.008609534 -0.009938832 0.02676742 -0.019821573 0.023575073 0.005727087
activityNameEN_phaseadviceknown 0.028946038 0.02253756 0.019540431 0.024076592 0.026153257 0.00746234 0.02283408 0.0025904658 0.026469206 0.0046005924 -0.016216641 -0.013513008 0.00528942 0.01595294 -0.025333183 -0.01305331
last_phase_Procedureafgebroken -0.0027239444 0.0008467081 0.008258798 0.012204467 0.021010334 -0.007579928 0.011576846 -0.0005198371 0.013843882 -0.027143087 -0.003622534 0.027999735 0.013702283 0.014604076 0.023416638 -0.022778753
org_resource_560872 -0.030206382 -0.027397547 -0.015163546 -0.027600994 0.011139455 0.016412487 -0.028566577 -0.0031998882 0.000395553 -0.0048051765 0.02892295 -0.0021088535 -0.020861547 0.028465478 0.023346014 0.0065678186
org_resource_560741 0.00467983 -0.03046283 0.019996298 -0.01894447 0.010605133 0.03399296 0.0006945878 -0.015499252 0.0017460913 0.013132111 -0.0024305887 -0.0042692753 -0.024480578 -0.010368817 0.011148266 0.019138554
org_resource_560752 0.022669673 -0.0065826452 -0.02372095 0.011534352 -0.019814609 -0.026445512 0.007853806 0.0037685048 -0.01512715 -0.0076163197 0.025679236 -0.02117419 0.018156664 -0.016377289 -0.022673918 -0.023247527
monitoringResource_560812 -0.01805842 0.0024934232 -0.0056901276 -0.031144718 -0.029150363 -0.012077912 0.0070418017 0.021828946 -0.01946557 0.023789594 0.028064158 -0.022644566 -0.0020086397 0.011042606 0.010232504 0.0017172094
org_resource_2013365 0.008626 -0.028976582 -0.025985284 0.017906765 0.027455965 0.021036066 -0.01993061 -0.0049902024 0.013491659 0.0038680611 0.004785742 -0.019898174 0.020582635 -0.029555254 0.00619326 -0.024957014
action_code_01HOOFD120 0.012861879 0.013986258 -0.019675633 0.010012363 0.02319219 -0.026294403 -0.014286482 0.015736159 -0.018729594 0.009910021 -0.0048922705 -0.007861179 0.01969898 0.0031437012 0.01769801 -0.013848397
monitoringResource_560872 -0.015020348 -0.017509846 0.0004340766 -0.019693708 -0.0029082934 -0.014995567 0.0065837353 -0.025325093 0.022850988 0.006985435 0.012394665 0.014485219 -0.027703915 -0.012927137 -0.002734389 -0.026840864
Responsible_actor_560812 0.024753071 0.006868779 0.01732919 0.020345397 -0.0032519265 -0.008720929 -0.025911197 -0.004956865 0.0007125762 -0.013811449 -0.027376322 0.025371946 0.027995167 -0.016748708 0.006920238 -0.020957401
org_resource_560890 -0.030313047 -0.022173023 0.02528252 -0.007493528 0.009675261 -0.012228452 -0.031588793 -0.0051485645 -0.008051291 0.026365919 -0.017250538 -0.028123954 -0.012477797 -0.02620905 0.030226253 0.028763112
org_resource_560749 -0.02160497 -0.026689783 0.0028042 0.022251733 0.0031549684 0.011723435 0.024029035 0.0044409614 0.014289417 0.0036617857 0.02458195 -0.00016079599 0.013857044 -0.029633686 -0.003219195 0.0102247875
monitoringResource_560673 -0.017414467 0.012018415 0.008266142 -0.0014184337 0.0029512774 -0.024273628 0.011352523 -0.0050448347 -0.017427035 -0.008003365 0.022366965 6.1007955e-05 -0.024391433 0.0046813497 0.0045730057 -0.0068082535
eventName_01BB -0.014655452 0.011159685 0.005930104 0.022622472 -0.030314082 0.011756458 0.0035730563 -0.031613354 0.026798086 -0.008811985 0.027002428 -0.009154397 0.016551608 -0.009023696 0.013135724 0.021792617
monitoringResource_2013365 0.014087751 0.01200788 -0.0035222126 0.020616543 -0.0051356354 -0.0049643293 -0.028098647 -0.01858543 -0.016414205 -0.0011173943 0.028069569 -0.0011872678 0.0095870895 -0.027416646 -0.0042407718 -0.017539604
last_phase_Aanvraagontvangen -0.03129688 -0.022598542 0.028047878 0.019160457 0.011062202 -0.005896646 -0.009461364 -0.00575772 0.027245708 0.008842436 0.025831357 0.0065640053 -0.0064543383 0.005471275 -0.015732892 0.005500136
action_code_01HOOFD375 0.022334015 0.024207436 0.011047767 -0.02813296 0.017879648 -0.011754977 -0.0027916986 -0.011720523 -0.029107688 0.022645414 -0.011553596 -0.013004876 0.025701376 0.00721393 0.017019182 0.029251622
activityNameEN_objectionlodgedagainstdecision -0.0042532883 0.017350785 -0.022635166 -0.004164164 -0.004134395 -0.019954545 -0.003192869 0.011327961 0.0047259345 -0.01309281 0.009935415 -0.0019246397 -0.020382823 0.0038227497 -0.006930805 0.0134808775
monitoringResource_560600 0.0060804123 -0.0057428745 -0.008306992 0.010752382 0.01259348 -0.025309639 0.010098529 0.012831609 0.017575072 0.024802001 -0.015326629 0.022463743 0.012846264 0.02531435 0.011885491 0.0027168717
org_resource_560604 0.021320108 0.0055900803 -0.028190617 -0.025717273 0.00719367 -0.0008051125 -0.0050105606 -0.01768108 -0.01366679 0.0014438315 -0.0019954771 0.0043037212 -0.015429869 0.028603364 -0.027522326 -0.019385338
Responsible_actor_2013365 0.006618106 -0.019496955 0.016359905 -0.009681212 -0.0048030685 -0.014511244 0.025404975 0.00023430203 0.02522164 0.023111181 -0.0013533895 0.026023302 -0.0048533757 0.014729997 -0.0040987376 -0.0016613256
activityNameEN_closecase -0.00053728605 -0.02647023 -0.009934328 0.0061596166 0.022298587 -0.022767842 -0.012491222 -0.01552401 -0.008732192 0.01137731 -0.008823571 0.015045357 0.004792683 0.006301627 0.028501926 0.022364588
action_code_01HOOFD790 -0.018829234 -0.005202669 -0.0059314757 -0.008987723 0.027914751 -0.012712206 -0.006435637 -0.026621448 0.025718855 -0.006624031 0.014857471 -0.0045559527 -0.019573554 -0.007402867 -0.011842298 0.030902732
activityNameEN_entersenddateprocedureconfirmation -0.01821162 -0.022782285 -0.011238577 0.017332988 0.028286433 -0.011378703 -0.012430473 0.009750178 0.030033553 -0.0061295126 0.01720781 0.021164892 -0.016442357 -0.014204008 0.02180759 0.01259289
Responsible_actor_560600 -0.020324493 -0.008830618 0.00485685 -0.026698707 0.025871456 0.0027687827 0.003387372 -0.011685102 0.023861004 0.02848796 0.022846201 0.00041833252 0.020327777 -0.010228072 0.0054891193 0.030278673
action_code_01BB540 0.011950443 -0.0010061641 0.030790782 0.004589472 -0.00041788645 -0.0021909028 -0.006533471 0.021466162 -0.020306168 0.02169982 0.028372506 -0.013121517 -0.00660307 0.012047937 0.0037242156 0.02553355
Responsible_actor_560925 -0.015552708 0.0024165935 0.0051042014 -0.024259467 -0.006608745 -0.0038140744 0.009824591 0.02447834 -0.020716503 -0.027061522 0.028010668 -0.01865015 0.0033054613 -0.016009899 0.031189004 0.0036858236
activityNameEN_treatsubcasescompleteness -0.016379412 -0.011255372 -0.0077103423 -0.011347981 -0.015015524 0.0139634125 -0.0009846182 0.022377124 0.015844919 0.0037095777 0.00042511502 -0.0011451693 0.017240811 -0.00596784 -0.004004676 0.009944596
org_resource_560600 0.009164294 0.030864857 0.030648662 -0.029316586 -0.016822541 -0.01398003 0.021494439 -0.022687921 0.028820759 0.012292072 -0.020779543 -0.018463641 -0.018578418 -0.01477724 0.026545806 0.03079023
parts_BouwSloop 0.013804023 -0.0031141022 -0.023671886 0.005840061 -0.030363794 0.00040937166 0.026675306 0.008163559 -0.008836758 -0.019457785 -0.02100249 -0.014905534 -0.029799093 -0.030145666 -0.0050070765 -0.029726855
activityNameEN_sendprocedureconfirmation -0.017846555 0.020842673 0.0033581532 0.0145483855 -0.030892303 0.013489098 -0.022707915 -0.025315352 -0.017867671 0.0007207062 -0.022983646 0.0072226156 -0.0052379603 0.012326219 0.005440993 -0.015602678
parts_BouwHandeleninstrijdmetregelsRO 0.028608598 0.004716046 -0.004751855 0.020798557 0.006374821 -0.023002286 -0.0056881635 0.014461712 -0.0094760535 0.027627127 -0.028603598 -0.0039976025 -0.0063219164 -0.027342862 -0.004144423 0.026564851
parts_EMPTY 0.02912155 -0.013841117 0.024821617 -0.011284201 -0.013481732 -0.013583413 0.010017918 -0.020483112 -0.026301455 -0.021418052 -0.018806498 -0.023007765 -0.028336314 -0.018315552 -0.005909759 0.017805576
SUMleges_116.79765 -0.030004025 -0.01729134 0.0027541448 -0.010421285 0.018591681 -0.013054838 -0.016882708 -0.030022223 0.008054847 0.018293766 0.022524344 0.003186149 0.010837061 -0.017363908 0.023714721 -0.022891859
org_resource_2670601 -0.013952953 -0.013171772 -0.02143113 0.010152192 0.0023252456 -0.017080436 0.019493377 -0.014965546 0.0043656547 -0.017218534 -0.022626905 -0.023362488 0.023101384 0.02058207 0.018348219 0.008867199
activityNameEN_activitiesregularprocedure -0.019488351 -0.004682887 0.0092046 -0.0007529779 0.018477103 0.018074302 -0.004549683 -0.0066940137 0.028690975 -0.01631313 0.025541767 0.0044980287 -0.010761974 -0.02385013 0.029266458 0.007996148
activityNameEN_applicantisstakeholder 0.002243991 0.013798043 0.02182404 0.01091014 0.023259817 -0.012029812 -0.019623468 0.020384055 0.009700233 -0.0143750375 -0.019623408 -0.0056030806 0.00084921083 0.0144187305 0.017060513 0.012973871
action_code_01HOOFD050 0.023125492 -0.017080734 -0.014813421 0.017364612 -0.022420242 0.02947856 0.013165915 -0.0067687673 -0.01390867 0.017769719 -0.023475436 -0.0053043165 -0.019190697 0.0042459685 -0.012018796 0.027245265
org_resource_560925 0.009185171 0.021290086 0.023532934 -0.01898749 -0.028450374 0.0026564924 -0.0067589898 -0.0014447751 -0.007226763 -0.024514103 0.024579335 -0.02253528 0.020375526 -0.02862413 -0.0026440294 -0.022490919
parts_InritUitweg 0.0054349103 0.0111574335 -0.028720021 0.002540618 -0.010751843 0.002722691 0.013079936 0.01963658 -0.0048209163 -0.018343596 0.00842807 -0.019326491 -0.026276628 0.026503429 0.018597065 0.015107921
monitoringResource_560741 0.0048256763 0.00012232992 0.029818593 -0.02956116 0.022569712 0.011773132 0.0014811576 -0.028088158 0.02375679 -0.011454125 -0.0013779644 0.029764699 0.016954165 -0.021587329 0.011980481 0.014620328
activityNameEN_termforsupplyingmissingdata -0.030438168 0.026899988 0.025156254 -0.012470705 0.010658396 0.020664321 0.010359972 -0.01926276 -0.0264581 -0.014290301 -0.0075094053 0.017683836 0.012166635 0.024438888 0.0071299 -0.027865812
org_resource_560881 -0.03182893 0.021722862 0.03175536 -0.01674593 -0.01156174 -0.021661317 0.0013530345 0.012616889 -0.005076778 -0.027859556 -0.008695696 0.00981161 -0.026990287 0.030536985 -0.013592816 0.02592267
monitoringResource_560458 -0.003645435 0.002800227 -0.008195941 0.019918859 0.0069198795 -0.02158959 0.017340349 -0.014933534 -0.028091585 0.005626581 0.00333067 0.01341253 -0.026023855 0.022039248 -0.025602497 0.00078513264
monitoringResource_560912 0.013409311 -0.010657045 -0.019629855 -0.019381532 0.010764318 -0.020496234 -0.027257293 -0.024146574 -0.005287232 -0.0031198773 -0.014715075 0.019798692 -0.003453173 0.0066611418 -0.010454791 0.023413366
Responsible_actor_560454 -0.01167293 0.014405209 0.0023871558 -0.00040836073 -0.012626823 0.030868404 -0.012744454 0.012604469 0.0014684359 0.021242296 0.022855371 -0.012504364 0.010446379 0.015572229 -0.017540101 -0.00901032
action_code_08AWB45010 0.027770275 -0.002041563 0.010273839 -0.0075897756 0.018464513 0.003585985 -0.021971459 -0.026431568 0.0028645047 -0.026755592 0.000869076 -0.020448886 -0.025460312 -0.015286447 0.0005129248 0.0046622055
SUMleges_51.423 -0.021734484 0.017656937 -0.016804377 -0.0010879604 0.024897497 -0.0017180209 -0.022724211 0.008246431 -0.0004423518 0.029185046 -0.022102723 0.012589081 -0.012655899 -0.026731497 0.018671634 0.031131579
action_code_01HOOFD0652 -0.03104137 0.010878994 0.010343849 -0.014055845 -0.016664455 -0.00603301 0.017557928 0.011231259 0.0085302815 -0.015866533 -0.026369542 -0.0139897885 -0.014006359 0.030046979 -0.025525313 0.021826442
Responsible_actor_560849 -0.021305926 -0.027095981 -0.018456182 -0.030611748 -0.022017643 0.011625645 0.0039320337 0.013073087 -0.0023354276 0.012994218 -0.0034508223 0.021914331 0.01611893 -0.0024978765 -0.025455747 0.025812117
action_code_01HOOFD0651 0.022638522 -0.000752163 0.03191355 0.0011796321 0.01149227 0.0120166885 0.017738527 0.014893299 -0.01622661 -0.0091137495 -0.014514899 0.030074507 0.006157736 0.022530032 0.0023763457 -0.0056602736
activityNameEN_MERpresent 0.02081304 -0.0174004 -0.0021512911 0.029255986 -0.017352011 0.015090367 -0.025874456 -0.014253589 0.014137386 -0.023727 0.00917737 0.030961381 -0.011315957 -0.020314876 0.024092471 0.013289666
org_resource_560912 0.006670557 -0.00068036426 0.00095086155 -0.0034467063 -0.027431 0.011900826 0.025732817 -0.004087874 0.027059427 0.023490394 0.0041370285 -0.020088522 0.018269017 0.005898413 0.015615404 0.03127227
monitoringResource_560454 -0.018143864 -0.0168705 0.012869415 -0.00043721357 -0.0026162195 -0.013211194 0.01218016 0.01709841 0.014549905 0.017599387 -0.015470578 0.010155194 -0.003511068 0.018514479 0.025477145 -0.03079569
Responsible_actor_560464 -0.0010849767 0.024116464 0.021148926 -0.019745218 -0.02090272 -0.012790663 0.01563119 -0.020707825 0.029420326 0.012073121 -0.019518321 0.012649232 0.020391066 -0.011949954 0.010977252 -0.021585131
SUMleges_126.45 0.011293507 0.015189372 0.02636411 -0.0015127 0.008051657 0.011262346 -0.017115759 -0.016069543 0.002353517 -0.008375567 -0.031559065 0.014258452 0.0043722535 0.013088475 0.011092614 0.013201093
action_code_04BPT010 0.0237426 0.016710209 0.018575933 -0.015212968 -0.0037406571 -0.0028687555 0.01377916 0.011587791 -0.027785242 -0.0025568039 0.0074803974 -0.02728216 0.030153802 -0.013367306 0.0076183644 0.016289106
monitoringResource_560852 -0.0034591542 -0.019012464 -0.019299062 0.02170733 -0.026698153 -0.014085614 -0.015770916 -0.029391188 -0.026655085 -0.003823263 0.0233218 0.0030162788 -0.0067906394 0.02669328 0.020560578 0.016638622
monitoringResource_560429 -0.02002824 -0.0035259607 0.027206754 0.008526462 -0.00037000442 -0.0028831607 0.029247293 0.026622662 0.016306445 0.015346131 -0.018317096 0.019900238 0.017804118 -0.019348534 -0.0058814194 0.01544235
action_code_01HOOFD110 0.018465247 -0.0099945795 0.0267002 0.005639349 0.0068350025 0.032356475 0.028080858 -0.022415992 0.014169023 -0.008512337 0.02616461 -0.0075395494 0.016525868 -0.00948705 -0.026863677 -0.0045285607
Responsible_actor_560458 -0.02918248 -0.021139698 -0.01694491 -0.021310465 -0.012114661 -0.0035410812 -0.0023484598 -0.009876982 0.02278005 0.025123248 0.020181725 -0.022073055 0.030311696 0.015569894 0.0062086256 -0.018140655
org_resource_560821 -0.02613325 0.003013483 0.009576466 0.008697822 -0.018635582 0.015349231 -0.007724511 -0.000831245 -0.021598285 0.02285404 -0.01381597 -0.016352704 -0.015772738 0.019255437 0.013831407 -0.0011731847
SUMleges_118.9473 -0.009317201 -0.016838318 -0.01357993 0.016212296 0.012107617 0.028731702 0.013605381 0.020383006 -0.011569751 0.02810473 -0.024805553 -0.020613646 0.00029617344 0.0054162466 -0.018405404 -0.008223062
action_code_01HOOFD180 -0.023680188 -0.019789303 0.006545681 -0.023958283 0.008926639 0.031363435 -0.021300288 0.0022884286 0.026763273 0.02708194 0.012361227 0.007145036 -0.010873015 -0.030925678 0.010432608 0.0014878477
org_resource_560596 -0.02970543 0.0058460995 0.019510934 -0.003693583 -0.02247222 -0.012874535 -0.00640551 -0.0052719223 -0.0068637077 0.0062670424 0.011783124 0.012875775 0.0021584723 0.031216824 0.015417031 0.023690557
activityNameEN_entersenddateacknowledgement -0.014317701 -0.010488343 -0.014286516 -0.0032476583 0.022635674 -0.014381017 0.003916835 0.02607224 0.017413964 0.022839481 0.031088555 -0.007080917 -0.029766504 0.015765224 -0.013206901 -0.011263519
e_64_01HOOFD -0.019060995 -0.022267655 0.020186888 0.004674557 0.0011607195 0.026716812 0.026044145 0.027625302 -0.012843121 0.02295986 0.020418713 0.02361207 -0.026183713 0.008750396 0.030848775 0.017826315
e_99_01HOOFD -0.01780884 0.024878535 -0.007464328 -0.024727503 0.00017558482 0.031636316 -0.018196734 -0.018163934 -0.02275462 -0.014043627 -0.0067175427 0.029555809 0.015842339 -0.015724678 0.01355804 -0.02791861
e_118_01HOOFD 0.026139585 -0.014757114 0.020244492 0.00087468146 0.03024502 0.011374157 -0.01873575 -0.009193402 -0.014487816 -0.0066446713 -0.021610964 0.014540121 -0.019896952 -0.000297304 -0.016934514 -0.016657084
activityNameEN_WAWpermitaspect -0.023474595 0.029956501 -0.023529707 -0.008852176 -0.0010413765 -0.004098431 -0.029034447 -0.025170857 -0.013858941 -0.010438837 0.027891181 0.02159169 -0.010925049 0.027778983 0.028916541 -0.00035752484
e_77_01HOOFD -0.014387116 -0.025136271 -0.01625478 0.017813222 -0.022415139 0.006789634 0.029674308 0.021868564 0.005108647 -6.488944e-05 -0.009266294 -0.02967274 0.0192534 0.004531624 -0.01671376 0.0146935275
activityNameEN_setphasephasepermittingirrevocable -0.01924833 -0.021766188 -0.015016992 0.020681053 -0.016099598 -0.020722996 0.02130166 -0.0141009735 0.012143287 0.010479281 0.02450894 0.019619266 0.030901814 0.004880667 0.031036846 -0.0025045478
activityNameEN_entersenddateretrievemissingdata 0.029544938 0.025727171 -0.010168012 -0.014030736 -0.013348498 0.027416497 -0.01689868 -0.026487788 -0.017319141 -0.004827951 0.00824797 -0.021896033 0.023983162 0.017460061 0.008973408 0.029344385
eventName_08AWB45 0.0032993192 0.028896997 0.029014766 -0.0014562352 0.0041323854 0.0070105866 -0.012861057 0.004714374 0.002882918 0.02255843 0.022876458 -0.023141626 -0.012740984 -0.026315883 -0.027355986 0.025165556
org_resource_1254625 -0.017804561 0.0023702637 -0.02953251 -0.002940151 0.022449093 0.021306125 0.0016592543 0.002345425 -0.0038449867 0.012548103 -0.025870841 -0.02695079 0.021649301 0.020866368 -0.020379787 -0.031343445
e_204_01HOOFD -0.020030342 0.012708421 -0.0072988463 -0.031194977 -0.021673609 0.025600187 -0.025698904 0.027336098 -0.010393047 0.015501365 0.012426799 -0.02312464 0.020368343 -0.020413399 -0.012109439 0.00041597776
e_231_01HOOFD 0.027521934 -0.017323108 0.032502454 0.012980306 -0.012485067 0.02625311 0.016083749 0.023997849 0.01514153 -0.025209201 0.003703055 -0.012773874 0.0270404 0.025734529 0.025290437 0.028441887
e_82_01HOOFD -0.00079680723 0.019844806 0.03158398 -0.016939446 0.0044099647 -0.009416189 0.0038976662 0.0077732583 -0.0012410956 -0.02414991 -0.013403115 -0.027892083 0.017955633 -0.028455708 0.0057681557 0.0035059834
e_177_01HOOFD -0.027465891 -0.021882273 -0.0147747565 -0.011466529 -0.012384278 -0.020252496 -0.0046500866 -0.031570263 0.0011638693 -0.018408984 -0.011143478 -0.0013295221 0.017705834 -0.030721588 0.022976404 0.028241789
SUMleges_109.59 -0.020926254 -0.030081354 -0.015348971 0.004147259 0.026229542 -0.009718661 -0.001939714 -0.003038035 -0.0037744276 0.009535216 0.017734092 -0.004047476 0.014356091 0.004587728 -0.025908256 0.0058358884
Responsible_actor_560912 -0.027333992 0.0063572973 -0.0018983423 0.0059290146 -0.026983073 -0.005872419 0.029484415 0.019596273 0.011325672 0.026520168 0.013613882 0.021962719 0.024821393 0.017010728 -0.024116037 0.016665347
e_210_01HOOFD 0.019428208 -0.026110236 0.012242397 -0.022796622 -0.019878909 -0.014834116 0.001773408 0.022939337 -0.0002661862 0.027065827 0.023701534 0.03079705 0.021317173 -0.027375346 0.025149353 0.024195563
eventName_04BPT 0.009788201 0.02168454 0.023355436 -0.009725547 0.005703085 0.008060514 0.016367873 0.02896687 -0.018743899 0.013292806 -0.021945005 -0.025615698 -0.012385347 0.015258295 0.004492633 0.029656595
Responsible_actor_560872 -0.012762504 0.031417537 0.00025466285 -0.03073517 -0.013053484 0.0058019646 -0.03009969 0.027045446 -0.020058554 0.029962184 -0.026079878 -0.023187594 -0.0068879128 -0.008733715 -0.02601481 0.009282036
e_16_01HOOFD 0.026752956 -0.010246368 -0.02420617 0.01713059 -0.015981205 -0.028825266 -0.021336664 0.029517697 0.013919695 -0.020997774 0.028751997 -0.022018407 0.009948036 0.022135371 -0.020535039 0.024936523
termName_Termijnaanvullendegegevens -0.02699245 0.02001822 0.016568609 0.0036655036 -0.02952844 -0.018378334 0.0015796474 -0.029321142 0.02695932 0.023146957 0.025441533 0.028433086 0.030663278 -0.008280194 -0.0045593367 0.017641315
action_code_01HOOFD130 -0.001927267 0.019823669 -0.010660246 -0.023857873 -0.025226645 -0.0028618653 0.011644064 0.0152502125 -0.0050243353 0.014284206 0.0010005297 0.008348361 -0.02648799 0.012216957 0.016273197 0.0056353295
e_197_01HOOFD -0.0025214362 0.023624854 0.029959626 0.013333437 0.011746975 -0.0119479 0.0152407605 -0.011389582 0.016758734 -0.00810609 -0.016294077 0.0234516 0.0076150536 -0.025970329 0.027486168 0.017001376
e_223_01HOOFD -0.024324307 -0.015323789 -0.01545539 0.009440164 -0.023559317 -0.010412868 -0.013791934 -0.02666477 0.023994286 -0.029669877 0.012339737 -0.02791501 -0.025137866 0.014898873 -0.007296908 -0.027114596
e_103_01HOOFD 0.0018387253 0.025080537 0.011914654 0.021381382 0.022412956 0.014519712 0.0057244333 -0.025831254 -0.014220155 0.010668183 0.020075982 0.010868053 -0.008174134 -0.01027654 -0.022685423 -0.023311378
e_203_01HOOFD -0.025828248 -0.01474172 -0.017813766 -0.028708575 -0.028766943 -0.02750044 -0.0069170753 -0.02061621 -0.004348009 -0.008906487 -0.018920183 0.016819244 -0.00065137865 0.0039211675 -0.027246311 -0.018836303
Responsible_actor_560596 -0.019284453 0.0035288516 -0.0145114325 -0.010575394 -0.013467867 0.01477824 -0.027007846 -0.02606635 -0.031111788 -0.0031621102 -0.029597808 0.027753182 0.021038203 0.029593242 -0.00028802175 0.0023397026
e_116_01HOOFD 0.010777361 0.031082062 0.008385394 0.021223275 -0.009845473 -0.015615876 0.0013698656 -0.012466687 0.0064401454 0.015234996 -0.009623918 -0.020090206 0.010439168 -0.0027858345 -0.015105176 0.021733658
action_code_01HOOFD1902 0.022494223 0.027022906 0.014808316 0.007804716 0.030989587 0.016032612 0.0037940412 -0.016110435 -0.02483535 -0.02074026 0.015366819 -0.028261619 -0.009576746 -0.006582021 -0.014076893 0.02880654
e_224_01HOOFD -0.027447557 -0.010185776 -0.004840255 0.029600412 0.008029523 0.017330732 0.027033333 0.014015029 0.010043405 0.016039602 -0.01165745 -0.022556877 0.019832563 0.030837374 0.02165767 -0.006192705
e_157_01HOOFD -0.024576906 0.025533104 0.009645401 -0.007022913 0.0073718033 -0.0025982196 0.017606199 0.024144277 0.005960499 -0.017412122 -0.021885151 0.004268048 0.0065591154 -0.027719408 -0.025550807 0.00567268
e_229_01HOOFD -0.008312923 -0.01223158 0.0009871987 -0.00094520184 -0.020166008 -0.0001628462 -0.0024774917 -0.015247482 -0.011524583 -0.0002922607 -0.019559702 0.0027452752 -0.021804497 -0.027442599 -0.027222747 0.027373806
e_155_01HOOFD -0.009259919 -0.013744914 -0.007895772 -0.027233457 0.018557066 -0.02148752 0.012905036 0.029220706 -0.0031128002 -0.004397851 -0.017045911 0.008823127 0.009603542 -0.00524951 0.027788851 -0.015646765
e_87_01HOOFD -0.02068847 0.028638607 0.01693247 -0.010605951 0.017710207 0.023177417 -0.018375214 0.0020829574 -0.0053215586 -0.026741475 -0.009923653 0.018426323 0.0017199949 -0.00073552824 -0.00822347 0.022951042
e_91_01HOOFD 0.029203061 0.018141441 0.013670679 0.030325318 0.026369756 0.027370518 -0.0008570786 0.0042244676 -0.026363062 -0.025624111 -0.023476912 -0.016068898 0.0033357076 0.026546994 0.02051446 0.01380772
e_115_01HOOFD -0.005691915 -0.013146559 -0.0038865742 -0.013116719 -0.009773177 -0.013746515 -0.010935703 -0.03140129 -0.02275754 0.021730583 0.024357649 0.011034017 0.023589285 0.016190147 0.027159706 -0.0021395998
e_156_01HOOFD 0.0047907783 -0.019263966 0.011333172 -0.005677677 -0.024944825 0.0095134275 -0.021895133 -0.009361395 -0.0061708135 -0.024302462 0.028291192 -0.02921605 -0.013420762 -0.026776016 0.026615452 0.030624257
monitoringResource_560849 -0.023486925 -0.01481456 -0.01276397 -0.007883368 -0.021014966 0.01654038 -0.0013629313 0.00074144936 -0.0039188685 0.021334948 -0.004390853 0.007037484 0.016558612 0.02777707 -0.03080537 0.0076932055
e_8_01HOOFD -0.025966436 0.026125655 -0.010832464 0.018487087 -0.007948568 0.020246744 -0.010913357 0.015898544 0.011859673 -0.019963488 -0.020287951 0.02184935 -0.003822837 -0.028643606 -0.018772203 0.00033738857
org_resource_560922 0.0017860024 0.020819277 0.028692992 -0.030545076 -0.01919825 0.020377282 0.009033702 0.021075388 0.027612183 -0.023931654 -0.027567036 -0.025098104 -0.0064932695 -0.014595717 0.031030862 0.00063500536
e_196_01HOOFD 0.0076154084 -0.009338707 0.013088039 -0.026572604 0.027666336 -0.0074680597 -0.0024648276 -0.02751836 0.024042476 0.023077311 -0.020838432 -0.016570901 -0.024934072 0.028802723 0.023649612 0.010756013
e_226_01HOOFD 0.02226628 0.031045763 -0.019968275 0.029254835 0.027514115 -0.007562137 -0.023517795 0.012163477 -0.017034661 -0.022879753 0.020659579 0.030551463 -0.029593462 0.013704349 -0.020005228 0.03134213
e_221_01HOOFD -0.022072956 -0.02063867 0.00013768197 0.025647022 0.0058285687 0.027782619 -0.0049639153 -0.010125218 0.0063931467 -0.030217044 -0.031524677 0.021961981 -0.018652497 0.013559635 0.023258656 -0.0073029045
e_209_01HOOFD -0.00044437352 0.0004063691 0.003912153 -0.022158831 -0.016003583 0.0021403737 0.019407034 -0.02575979 0.014501081 -0.023560783 -0.023117546 -0.023642542 -0.014596303 0.02031162 -0.02695903 0.007912441
e_127_01HOOFD -0.012110547 0.0009457711 -0.029691339 -0.005709383 0.007391198 0.029130012 -0.0014851602 0.00010231186 -0.027242342 0.01016203 -0.028444238 0.028868932 0.0012230733 -0.024466574 0.0077753705 -0.0060070506
e_211_01HOOFD -0.02283732 -0.006001542 -0.022236431 -0.0027281235 0.010707559 -0.020911762 -0.0034826384 0.007526081 -0.018307311 0.02920638 -0.011542468 -0.005414054 -0.023348028 0.011431127 -0.009588754 0.0153087685
e_138_01HOOFD -0.022034904 0.02355815 -0.018197041 -0.015303994 -0.01942375 0.028445132 0.008260993 -0.020875879 0.0083292285 -0.005831226 -0.020733645 0.008678608 0.0031831856 -0.023484513 0.0002397895 -0.025997922
e_83_01HOOFD 0.0077761402 0.028819678 -0.022113288 0.023155099 -0.026493846 -0.011998051 -0.0044971663 0.0041003595 0.017384617 0.009549741 9.287079e-05 0.009591335 0.014188377 0.019840524 0.011733131 0.00627033
e_69_01HOOFD -0.028774787 0.0037320142 0.030657386 0.00566069 0.00455748 0.03134359 -0.013224001 0.010305874 0.01987005 0.019726317 0.030454338 0.0068822033 0.0033944403 0.013897598 -0.018245151 -0.009730926
e_148_01HOOFD 0.024373453 -0.01811303 -0.01506232 0.027902475 -0.029994734 0.029011862 -0.010128123 -0.016426004 -0.026146578 -0.0093129035 0.018158268 0.00094080705 -0.016495552 0.016058376 -0.0130777685 0.014003118
e_36_01HOOFD -0.0037914324 0.0024867768 0.024618333 -0.025077816 -0.007592239 0.027845059 0.005031394 0.01914128 -0.014167481 -0.004656555 -0.022816954 0.022501059 -0.0052067633 -0.00089526724 -0.0169299 0.002211114
e_32_01HOOFD -0.013408069 0.010298804 0.019856105 -0.02604848 -0.02563896 0.009047642 0.0058287974 -0.0030260177 -0.013421229 0.00033885945 0.00299159 -0.01917351 0.00524855 -0.011979463 0.0066551296 -0.0007099196
e_96_01HOOFD 0.025255462 0.026987001 0.0058061453 0.022506298 -0.02502235 -0.009602258 -0.018982397 0.005716435 -0.012792966 -0.00021756224 0.0033945274 0.008557074 -0.0019582245 0.012073705 -0.00027322368 0.027330272
e_200_01HOOFD 0.01361957 0.025694333 -0.011234116 -0.016098486 -0.0059710555 0.019172767 0.024922816 0.0047681066 0.023892807 -0.02948991 0.02186058 0.0055735405 0.024992812 0.014653397 0.031021668 0.025719773
e_111_01HOOFD -0.020001538 0.028435957 0.01917436 0.008508893 0.023444789 -0.016137274 0.004186259 -0.028062027 0.021559248 0.008344378 0.0012055907 0.025958123 -5.4822718e-05 -0.017244747 -0.019805463 0.029881172
monitoringResource_560596 0.025034498 -0.003002295 0.010091381 0.0115205115 0.021487286 -0.020374713 0.026485283 -0.029573508 -0.0056995824 0.024639923 0.0037961171 -0.023091238 -0.0040904563 -0.018697795 -0.0038235972 0.0028373734
e_45_01HOOFD -0.017929105 -0.0022171843 -0.0040399204 0.0006976607 -0.026160952 0.016004456 -0.005188199 -0.0064803185 -0.012805796 0.028779993 -0.012764852 -0.024037361 -0.010672237 -0.016731856 0.026761029 0.019315418
e_182_01HOOFD 0.00041240623 -0.008766933 0.0063688145 0.018903244 -0.010446111 0.0024068826 0.027678516 0.02330638 -0.014410867 0.028262991 0.003848435 -0.0073969117 0.028921317 0.023132961 0.023878474 0.016940475
e_186_01HOOFD -0.03126873 -0.014556557 -0.01544887 -0.023415076 0.014686901 -0.0034834864 -0.02742307 -0.027366094 -0.009504786 -0.022575274 0.029943708 0.02233872 0.0064317174 0.018059196 0.023646723 0.014087734
action_code_01HOOFD250 0.008450814 0.026542611 -0.017990928 0.009529758 -0.024216397 -0.013348075 -0.013610539 0.02932467 -0.022689216 0.013317106 -0.023027327 -0.01292072 -0.0024691757 -0.031116039 -0.026092077 -0.014084574
e_74_01HOOFD -0.015116786 -0.022422621 -0.027593223 -0.031608656 0.004578128 0.024465764 0.020074937 -0.0013371654 -0.015146493 -0.02819364 -0.014003521 -0.018654248 -0.00070709625 0.013195164 -0.011067908 0.0052788206
e_174_01HOOFD 0.02067511 0.026379706 -0.017950308 0.024413109 0.01877111 0.006429052 -0.018637467 0.025581738 -0.0015657593 0.014599624 -0.01796056 -0.025131887 -0.008282789 0.028144851 0.015173792 0.016022569
e_60_01HOOFD 0.025686631 0.018314919 0.030354833 -0.0038132493 -0.026453605 -0.021444542 -0.00965288 -0.013066637 -0.020734856 0.0062692915 -0.01904785 -0.017615963 -0.008365676 0.0032062759 0.016706461 -0.021578154
e_98_01HOOFD 0.025293212 0.011722339 0.01961829 -0.014783281 -0.0120912995 0.027876973 0.012783998 -0.026539305 0.008830694 -0.009194521 0.013387234 -0.02108852 0.027465953 -0.0056632767 -0.022111963 0.014279698
e_172_01HOOFD -0.013407474 0.013334808 0.0056640194 -0.016968727 0.0014953285 -0.015022116 0.018328585 -0.009589794 -0.028401071 0.004857254 0.019898318 0.0042485013 -0.026725179 -0.018664865 0.014343383 0.010632692
e_13_01HOOFD 0.018261638 0.028757652 0.027514441 0.0017870186 0.023225311 0.030390644 0.019297404 0.0025649588 -0.017139547 -0.02715427 0.024039505 0.00904576 0.0069604507 -0.011426157 0.025153525 -0.024877366
e_84_01HOOFD -0.007389527 -0.01555314 -0.018306546 0.009003537 -0.0081990035 -0.012552799 0.025489781 -0.011465978 -0.006018901 -0.008522353 -0.02127516 0.0030519976 0.0076469383 -0.005211062 0.023753962 -0.026834762
e_18_01HOOFD -0.028815944 -0.011699037 -0.0029439398 -0.016402505 -0.007288963 0.004061007 -0.024194358 0.025601942 -0.0270011 0.011147939 -0.024367305 -0.015853735 -0.025809476 -0.027288718 0.022023913 -0.0136192795
e_213_01HOOFD -0.026168598 0.012211606 -0.022900209 -0.0026364035 0.021140188 -0.018332234 -0.020371173 0.015302509 0.020850759 0.012677609 0.025369955 0.005728365 -0.020876393 -0.0015599577 -0.026313022 -0.025799518
e_169_01HOOFD 0.028426709 -0.03128278 -0.018689066 0.015572528 -0.015321608 0.021043008 -0.002021027 0.009921884 0.01907741 0.010463496 0.02551477 -0.024380323 -0.014345335 -0.015668707 0.0053850785 -0.0061548385
action_code_01HOOFD0302 0.03040006 0.029275602 -0.011610678 -0.01577889 0.0012527897 0.030194951 0.010081554 -0.0052879616 0.010079974 0.00907551 0.024479251 0.028503805 -0.019530198 -0.002919581 -0.0035914062 -0.030006425
e_228_01HOOFD 0.026745155 0.03058451 0.0002479971 -0.0237057 0.01702765 0.013317328 -0.030360498 0.024128398 -0.0053895283 -0.012450802 0.019300802 0.008559539 0.008685979 0.028118629 -0.010396426 -0.020420402
e_73_01HOOFD 0.002338265 -0.029469447 0.029066216 -0.014331703 -0.012256762 0.014928388 -0.0067208717 -0.025764149 -0.011983979 -0.026563272 -0.0055430825 0.010725177 0.014696193 0.010759543 0.013388977 0.029977076
e_123_01HOOFD -0.01990227 -0.011250685 0.004059807 -0.0067310953 -0.0037463729 0.014334303 -0.00851329 0.005510921 -0.012858952 -0.01439519 -0.02229015 0.013699868 -0.027788278 -0.014798412 -0.022386001 -0.016007273
e_133_01HOOFD 0.014232719 -0.016499864 -0.013997533 -0.026439523 -0.009479596 0.006583184 -0.021568706 0.017545572 -0.00035141569 0.006401369 -0.0233243 -0.027624749 -0.014730184 0.0059141796 -0.0078083 0.024948651
e_59_01HOOFD 0.02338701 0.028766302 0.01697173 0.001954931 -0.012660509 0.02109287 0.017770784 -0.012390665 -0.022603912 0.020237772 0.02589608 0.009545219 -0.0039889487 -0.011193125 0.02005691 0.030156069
parts_HandeleninstrijdmetregelsRO -0.0113450885 0.024740517 -0.028651724 0.010732265 -0.012818632 0.029365608 -0.029284993 -0.029870732 0.02958519 0.0028452578 0.011882207 -0.03090762 0.027219746 -0.00024943563 -0.021603752 0.03129499
e_145_01HOOFD -0.008982704 -0.023987671 -0.011010555 -0.0046456233 0.02892789 0.027805287 -0.02747079 0.029485848 -0.009835553 0.018690614 0.02274203 -0.021874594 0.023188975 0.022219956 0.011479627 0.031181244
e_215_01HOOFD -0.025856048 0.019518506 -0.025068296 -0.02955356 -0.021527562 0.026965266 0.021099294 0.025036316 0.003779837 0.02151435 0.0009753113 0.021339448 -0.007583908 0.008657853 0.010134595 0.025735483
e_43_01HOOFD 0.024449715 0.017735723 -0.017373398 0.017948579 0.015864572 -0.026994215 -0.029922701 -0.007670272 -0.025641486 -0.01735194 -0.025824426 -0.030591883 0.02149833 -0.018009052 0.026353626 -0.029778097
e_65_01HOOFD -0.01497601 0.0038181269 -0.006401495 0.0112091005 -0.027543986 0.0011834779 0.011707142 -0.023476288 -0.007077239 0.030105522 -0.026749156 0.006873025 0.027302722 -0.025799245 0.03163513 0.010917867
e_86_01HOOFD 0.025123468 0.030811498 -0.020029623 -0.003119922 -0.027083637 0.030516667 -0.0060316194 -0.005801102 -0.028168524 -0.0015043231 -0.0011046561 0.003316243 -0.01817388 0.02084511 0.012423202 -0.02060873
e_207_01HOOFD -0.029520698 0.020477481 -0.028155953 0.016449811 -0.0068660635 0.01831081 0.01540783 -0.0117082875 0.010770118 -0.010553271 0.010901383 0.013306028 -0.01961896 -0.023211962 0.013990467 0.028271928
org_resource_560458 0.022194415 -0.0027703447 -0.0040627327 -0.013705883 -0.009679828 -0.0012496848 0.010767673 0.020903718 -0.016512822 -0.023968073 -0.022592716 0.00042071543 0.008832924 -0.010791384 -0.0120773325 -0.011270489
e_222_01HOOFD 0.024599746 -0.0013627523 0.028555883 -0.02101324 -0.021757685 -0.0147172315 -0.031355873 0.009096245 -0.025817875 0.0037165624 -0.017795354 1.6015465e-05 0.009606875 -0.024504393 -0.008962406 0.0013272823
e_24_01HOOFD 0.0047107944 -0.0055538197 -0.026365664 -0.012993477 -0.021589955 -0.009890688 -0.02646314 -0.027151844 -0.027415419 0.0061676437 0.025446484 0.0032258357 0.00686224 0.023316342 -0.02288456 0.0060146707
e_140_01HOOFD -0.010462697 0.029978523 0.017919973 -0.013339365 0.020269178 -0.016806038 1.961111e-05 0.03078632 0.03012908 0.007671163 0.0070644375 -0.021823507 -0.0044298363 0.022949804 0.0015559444 0.022615863
Responsible_actor_560852 -0.0030913476 0.022895655 -0.023347067 0.031037683 -0.029015211 0.02638415 0.021914795 0.026271516 -0.026036749 0.028150262 0.006598204 -0.030403845 0.009741489 -0.011050233 -0.005761612 -0.031202054
org_resource_560852 0.027316015 -0.02204184 0.008153084 0.02897144 0.010573597 -0.015346961 -0.022103725 -0.017057385 0.006489108 0.0090099145 0.021466574 -0.007421841 -0.015400368 0.0018511902 -0.007370046 -0.030263409
e_219_01HOOFD 0.029212454 -0.014988636 0.012531129 6.3400934e-05 -0.023549987 0.03265435 -0.0023328129 -0.0024068637 0.025610069 0.0041242912 0.025018414 -0.02927166 -0.020171057 -0.01321397 -0.024546122 0.027624138
e_128_01HOOFD -0.0045108683 -0.0070157233 -0.025601154 -0.015453936 0.006463287 0.0026446546 -0.028627453 -0.0056194314 0.019015005 0.00048471498 0.007031721 0.02334351 0.023312444 -0.02911718 0.0040261648 -0.024724672
e_142_01HOOFD -0.0036380552 0.0066757533 0.031212565 -0.004690838 0.0093002645 0.029260803 0.023310449 0.012089222 0.029396022 0.013131988 0.0004659426 0.0163349 0.024451155 -0.029756555 0.013668612 -0.009066758
e_150_01HOOFD 0.012122336 -0.016231997 0.0057958593 -0.019462382 0.0113817435 0.028190589 -0.0057621445 0.03059 -0.02340965 -0.021021962 -0.020401731 -0.010536392 0.009174896 0.016467279 0.010665466 -0.008660334
e_139_01HOOFD -0.030558426 -0.022951206 0.021705922 0.022798661 -9.18056e-05 -0.0154699655 0.016734753 -0.0022295753 0.026963802 0.0241506 0.0040791016 -0.0022658359 -0.020793686 -0.009799657 -0.029380135 0.0071684895
e_129_01HOOFD 0.019446492 -0.0029858765 -0.0034401575 0.02344993 0.011368934 -0.026979147 0.013005316 -0.030166375 -0.022005906 -0.030933633 -0.01172867 -0.0048860656 -0.027528837 0.008198591 0.02680195 0.02859321
e_81_01HOOFD 0.022412471 -0.019403381 -0.013234911 -0.023643594 0.012440086 -0.010709654 0.0047350316 0.010471988 -0.010265784 -0.0029474988 -0.01062015 0.011449088 0.020796247 0.0190631 -0.024875058 -0.007994395
e_70_01HOOFD 0.008695321 -0.012006864 -0.0003852786 0.006139781 -0.023552842 0.012312307 -0.031121952 -0.028462935 -0.025247367 0.019590288 -0.022444667 0.00876447 -0.0055991146 0.012777374 0.007972313 -0.0077026538
e_188_01HOOFD -0.021231428 0.020721238 -0.025480429 -0.0041928655 -0.0017545104 0.02728187 0.02844278 -0.021864567 -0.023674814 -0.01988352 -0.02178888 -0.026664482 0.004020471 -0.02585307 -0.010107059 0.020156693
e_104_01HOOFD -0.013265955 0.008584492 -0.01716156 0.0014481414 -0.01764297 -0.022383926 -0.001877339 0.030509815 -0.021808539 -0.028164357 0.0025078277 -0.02972375 0.0014782976 0.029508224 -0.014987982 0.0016336506
e_205_01HOOFD -0.0011157768 -0.020579465 -0.022173189 -0.0108762905 0.016156372 -0.029769633 -0.019208036 -0.031868946 0.020631881 -0.027223745 0.024386583 0.00066404074 0.02518319 0.021710236 0.01654286 0.023596806
e_134_01HOOFD 0.026018022 0.027189149 -0.02191853 -0.0036082054 0.023929305 -0.021199955 0.0014503769 0.014212863 0.013392215 0.024208887 -0.019871835 0.025330385 -0.01724121 -0.004231184 0.004816861 0.012209047
e_9_01HOOFD -0.0037416224 -0.025676612 0.027314026 0.0037095007 -0.028095761 0.025695989 -0.032311358 -0.0032498727 -0.003302145 -0.011242921 0.0050661094 0.02328412 0.009166217 0.0032958481 -0.023710031 0.016891185
e_107_01HOOFD -0.0104458565 0.006847438 -0.028811304 -0.0247149 0.026532555 0.014049285 -0.031565655 -0.023172041 -0.030780723 0.015241015 0.007809836 -0.027993133 0.031257723 0.023669248 0.008545801 -0.025131855
e_97_01HOOFD 0.017653156 0.028938146 0.013826886 0.01190139 -0.027886964 0.0188546 0.026224682 -0.01506539 0.025486803 -0.009327321 0.011066415 -0.024316987 -0.014498283 0.026967192 -0.009427634 0.0131373545
e_159_01HOOFD -0.011966342 -0.026690258 0.027336366 0.022145782 0.0049405647 -0.026349459 -0.016133415 -0.006169045 -0.030410767 0.010791186 -0.018074876 -0.0086683 0.024474302 -0.007458279 9.9973986e-05 0.0058212974
e_180_01HOOFD -0.029030085 0.010825992 0.005528735 0.01156793 -0.0076296395 0.031526912 -0.027501708 -0.025093338 -0.014316496 0.0046428554 -0.017669545 0.0032494715 -0.0231415 0.015579743 0.009602117 0.011836825
e_201_01HOOFD -0.008528095 -0.007032177 -0.02886186 0.01634873 -0.0005353972 -0.010488508 -0.020544322 -0.013927253 0.011828534 -0.012599123 -0.029961836 0.02008355 0.0012040534 0.0010652589 0.02968664 -0.031199882
e_101_01HOOFD -0.0035326672 0.0032146377 0.013774932 -0.029382559 0.00067638967 0.0016325493 -0.02626944 -0.023680056 -0.026802275 -0.006082765 -0.022925815 -0.026593689 -0.026842348 0.000898423 -0.015127976 0.0033319248
e_190_01HOOFD 0.0116055105 0.01479893 -0.008778917 0.020473469 0.012637971 0.021886209 -0.005152405 -0.011640247 -0.00041139894 -0.016221156 -0.0022511615 0.009701561 0.0058153807 0.00954629 0.0030208589 -0.008205912
e_114_01HOOFD 0.021114174 0.029627759 0.026513455 0.01746331 -0.030911513 0.005309372 0.008753906 -0.012997352 -0.010012176 -0.0010782068 0.01687059 0.026754055 -0.012139163 0.013433688 -0.013122446 -0.003750132
e_147_01HOOFD 0.00092726556 -0.018969895 0.021777155 -0.026433386 -0.017046645 -0.018414443 0.007342957 0.0038504924 -0.00032591503 -0.016059987 -0.014368005 0.018604452 0.021112429 0.013894274 0.03195695 0.0020974078
e_41_01HOOFD 0.017282143 0.009631219 -0.021316914 -0.007857149 0.01924064 0.02649565 0.024432503 -0.0064439923 0.01514677 -0.010306511 -0.027860917 -0.0082099335 -0.021581614 0.004455788 -0.028914787 -0.011824705
e_183_01HOOFD 0.005256837 0.005538356 -0.02335736 -0.018706484 0.0031126053 -0.02438115 -0.017845845 -0.012468409 0.009813362 0.022908373 0.022437563 -0.009143792 -0.007863359 -0.021837406 0.020751024 -0.016148413
e_194_01HOOFD 0.025076458 -0.017946502 -0.026032377 0.030877987 0.027927782 0.010588714 -0.030121926 -0.017816426 0.031357016 -0.012085594 -0.018908935 -0.006326585 0.0027073973 0.01906755 0.0022728571 -0.0025022365
e_161_01HOOFD -0.00658141 -0.014502669 -0.013037666 0.0056755585 -0.01817228 -0.011573044 -0.021189122 -0.017975373 0.01137266 0.021063482 -0.01639802 0.002015847 -0.0032930411 0.024252506 0.022217406 0.020708466
e_206_01HOOFD 0.024238529 -0.014250459 -0.005173778 -0.0034892154 0.030604962 0.0074646124 0.02064929 0.02559974 0.02118235 0.0058710966 -0.018730791 -0.010537439 -0.029566962 0.0072018686 0.02898617 0.016711906
e_108_01HOOFD -0.02714255 -0.027239092 -0.028553672 -0.017447108 -0.009355248 0.014927476 -0.009025029 0.015509066 -0.010747516 -0.021689741 0.012728732 -0.0021179714 -0.020076843 -0.020037409 0.030242851 -0.024439318
e_110_01HOOFD 0.009427479 -0.0067834337 -0.015914507 -0.000458701 -0.00047577638 0.013878232 -0.0118000535 -0.024860369 0.025800442 0.02195091 0.02578595 0.019012606 -0.014806022 -0.019658191 -0.030088343 -0.022019358
e_179_01HOOFD 0.015573157 0.014513045 -0.01701196 -0.009891176 -0.022417178 -0.017436784 0.029535359 -0.005352959 0.00040531796 0.031422585 -0.020144451 -0.019777572 -0.024974916 0.017762821 0.010986813 0.026071629
SUMleges_102.846 -0.02448537 0.012734766 -0.019050011 -0.0039188066 -0.026182264 -0.013177681 0.021610714 0.026473511 -0.013272255 0.007660363 -0.0055187773 0.028342994 0.021768829 -0.014554833 0.0038276871 0.022375332
e_1_01HOOFD -0.011052845 0.0020500743 0.0018244231 0.0008026268 0.030283306 0.021400189 -0.012484267 -0.010583606 0.021654498 -0.021407073 -0.013343912 -0.018660069 0.0075505213 -0.018551605 0.00640587 -0.014417378
e_47_01HOOFD 0.019354763 0.022066534 0.012389368 -0.0071784533 -0.0020316266 -0.021880383 -0.029388964 0.02932508 -0.008739411 -0.007160347 -0.02529554 -0.02054522 0.0036475565 -0.01808105 0.008509985 -0.014728634
e_216_01HOOFD -0.018481705 0.027103834 0.0026129533 -0.031118955 0.010875907 0.01921711 0.02606658 -0.021774307 -0.018703327 0.02487243 -0.009019098 -0.028488921 -0.019336265 -0.028520929 -0.012723066 0.029392065
e_42_01HOOFD 0.030099688 0.0064585297 -0.0037508302 -0.027807178 -0.006549444 -0.0012679351 -0.0009615808 -0.022021573 0.0026546335 -0.01911341 -0.028844586 0.0002625136 -0.02283361 -0.0005277353 0.010189874 -0.028659666
e_141_01HOOFD -0.002355811 0.003567019 -0.022644492 -0.00014043602 0.01900644 0.0085609555 -0.031349327 0.009528445 0.014289177 -0.02962322 0.022146463 0.016521495 0.012155175 -0.0025372875 0.012736106 0.028985012
e_102_01HOOFD -0.018370805 0.00075610384 0.01996793 -0.022171251 -0.021668391 0.025010427 -0.026725179 0.0004874142 0.03007159 -0.019797936 -0.031210506 -0.0064670546 -0.02753181 -0.019641891 -0.019283848 0.018734992
e_27_01HOOFD -0.014698709 -0.02116187 0.021084342 0.010178763 0.013656335 -0.01369722 -0.0028487751 0.029357247 -0.01124946 0.0031995166 0.030778533 0.0031208985 0.0030966052 0.016566064 -0.022577351 0.027081762
e_63_01HOOFD 0.014997709 -0.02290292 -0.009532225 -0.022253549 0.014343521 -0.018721746 0.03045663 0.005193158 -0.009388337 0.027510908 0.0043739886 0.0018963713 -0.028662182 0.0011838491 -0.014970709 0.02916669
activityNameEN_creatingenvironmentalpermitdecision -0.018917833 0.008409655 0.02002764 0.008849349 -0.0010228218 -0.028013483 -0.030191429 -0.011866291 0.009168635 -0.027442489 -0.02211418 -0.011885546 0.0047954232 -0.0043477407 0.019252365 0.010044501
e_66_01HOOFD 0.017805506 0.024714597 0.015853563 0.028096372 -0.023264298 -0.01873958 0.018079652 0.013730465 -0.027786827 0.022846578 -0.016513143 -0.026067996 -0.024512624 0.01586062 -0.019284535 0.015425432
e_227_01HOOFD 0.00045257222 -0.011007126 0.029162897 -0.00091155316 -0.014909125 0.02636044 -0.01899887 0.018235909 -0.010021831 0.004435007 0.0066895415 0.025022458 0.020409591 -0.020715972 -0.028617054 -0.0006307443
e_48_01HOOFD -0.0026990524 -0.015276545 0.005694853 -0.010082517 0.011956111 -0.026455183 -0.019605255 0.020645581 0.029728329 0.0014247175 -0.0071474337 0.0018898855 0.02725384 0.017682502 0.016140342 -0.022675214
e_7_01HOOFD -0.0022335628 0.028584948 -0.024008326 -0.028844848 0.0055934307 -0.028308852 0.0039020367 -0.020342816 0.02626299 -0.0066103423 0.008212956 -0.02989292 -0.025610417 0.0020552615 -0.019987704 -0.027105287
e_170_01HOOFD -0.01130295 0.00019914543 0.014539255 -0.025974901 0.009641568 -0.0039847624 0.027586427 -0.007424958 -0.029127134 0.0051243426 0.009497171 0.0042147543 -0.009398341 -0.026613455 0.024009688 0.024707401
e_178_01HOOFD 0.024634747 -0.020075556 -0.0017220235 0.014883869 -0.00076437637 -0.0014020377 -0.018745683 0.027730335 -0.021486724 -0.021655547 -0.009323099 -0.013344233 -0.016596047 0.017760443 -0.011880451 -0.0135723185
e_76_01HOOFD -0.010934691 0.015321527 -0.012250378 -0.004569772 0.0010157272 0.0003057013 0.013018692 0.01633486 -0.013801392 -0.01757674 -0.02968051 0.026871698 0.004153893 -0.022410437 -0.021179873 -0.012022228
e_117_01HOOFD 0.0192678 -0.030341715 -0.029347837 -0.03067849 -0.013455121 0.006046932 -0.010555026 0.023761826 -0.007940084 0.00034457704 -0.022803925 0.021499416 -0.009476551 0.031247362 0.031894717 -0.028365597
e_184_01HOOFD 0.027487021 -0.013000964 0.019558165 0.008723537 -0.005367325 0.011676267 0.018708931 0.02607483 -0.029283838 -0.02664683 -0.010609335 0.005835032 0.011431454 -0.013572653 -0.001639765 0.017524628
e_193_01HOOFD -0.030730898 0.023939753 -0.025144743 -0.007254324 -0.004584434 -0.019150654 0.009233864 0.016594553 -0.01353787 0.014605225 0.029023435 -0.0024362004 0.0050352165 0.003114659 0.012277191 0.029296597
e_68_01HOOFD 0.01540635 0.023908373 0.0019124297 0.016899941 0.022725785 -0.016820336 0.0024622155 -0.028358048 0.012065194 -0.0009979397 0.024210153 -0.021279633 0.025497425 -0.0042582043 0.022237869 -0.0069883848
e_120_01HOOFD -0.031328723 -0.028492367 0.004582881 -0.018082209 -0.011858488 0.01862191 0.008371305 -0.018065264 0.03060122 0.0074913655 0.027205568 -0.011318659 0.00513612 0.008441009 0.026394634 -0.017939236
parts_BouwHandeleninstrijdmetregelsROSloop 0.03016749 0.0028297564 -0.0091317175 0.029957045 -0.009297141 -0.024240933 0.0069341864 0.026755624 0.010679499 0.022786656 -0.012257703 0.024004841 0.009428277 0.011437065 -0.026017526 -0.013350408
e_29_01HOOFD -0.028341629 4.553949e-05 0.016516007 0.01061599 -0.010130121 0.011347582 0.01087816 -0.021702854 0.027297717 -0.008086237 0.025742378 0.02585053 -0.0070100753 0.008669413 0.030325837 0.02564777
e_214_01HOOFD -0.0066021127 -0.02460809 -0.008499189 -0.010658338 0.0034144896 0.029555777 -0.032274067 0.015584953 0.0021501319 -3.589705e-05 -0.021634955 -0.0030092997 -0.023648473 -0.022717062 -0.0064938534 0.001749224
e_19_01HOOFD -0.029290566 -0.026276527 -0.00251603 -0.017026395 0.018057406 -0.021158218 -0.031418297 -0.016629785 0.025038252 -0.01437906 0.025942896 -0.012091821 0.0022681933 -0.014452452 -0.00257698 0.016292088
e_124_01HOOFD -0.019623498 0.0071818405 0.026893348 0.009611939 -0.008226905 -0.007386562 -0.02029734 -0.006070269 -0.021367954 -0.022287773 -0.02341493 -0.022457676 0.027423883 -0.016582295 0.009188368 0.011390729
e_67_01HOOFD 0.006085752 0.0035924122 0.017547851 0.028873805 -0.030142428 -0.0034391715 -0.027027026 0.029423391 -0.006964673 0.0090453625 -0.015238687 0.02642849 0.01905525 -0.017270852 0.028651822 0.012772056
e_195_01HOOFD -4.1207473e-05 -0.021864282 -0.0106903305 0.022308977 -0.003381059 0.008849868 -0.011383213 -0.015088263 -0.02443755 0.020614866 -0.0061393776 0.021156069 0.027456291 0.003082249 0.030803252 -0.00703307
e_71_01HOOFD 0.020976394 0.005352627 0.0022155147 0.016463479 -0.005865309 0.003889608 -0.008591179 0.025367685 -0.028826555 0.017115815 0.027285602 0.029762361 0.015569172 0.03019085 0.0054797605 -0.0087269265
e_93_01HOOFD -0.027390007 -0.02409684 0.022922955 0.013180049 -0.020042237 0.007405123 0.019503275 0.0070663095 0.019125517 -0.02683965 -0.0024965876 -0.011526753 -0.010875049 0.009549032 -0.026809039 0.016031243
e_11_01HOOFD -0.017249843 -0.020970209 0.0014829008 0.008104326 0.029648447 -0.0125818085 -0.005699239 0.011657089 -0.014738833 -0.00020965099 -0.0027627647 0.029434063 -0.0215255 -0.016809892 0.011488345 0.022546187
e_25_01HOOFD -0.017159391 0.018679379 0.004504429 0.0119293025 0.029863017 0.016527286 -0.024714291 -0.024867143 -0.006403515 -0.016590487 -0.02236273 0.010256463 -0.01277839 0.028987773 -0.022149863 -0.0015139772
e_218_01HOOFD 0.009043644 0.017104426 0.031566124 -0.0066068717 -0.00375388 -0.02132606 -0.0019360979 -0.028214317 -0.015808463 -0.017672181 -0.009921059 0.0017282184 -0.025436066 -0.030050207 -0.014773667 0.008615425
e_175_01HOOFD -0.015334674 -0.007926532 0.019106144 0.0021876206 -0.018652782 -0.015036668 -0.02887468 -0.023011377 -0.00041184633 0.020323513 -0.014016792 0.019856473 0.004566772 0.008076552 -0.025430487 -0.023956409
activityNameEN_treatsubcasescontent -0.010527436 0.031219121 0.015722295 -0.00032093422 -0.0038596017 0.005458366 0.010704071 0.027946012 -0.0061955587 -0.011287933 0.02299845 -0.018664941 0.030267352 -0.019707968 -0.0029149076 -0.010352438
e_163_01HOOFD 0.027727071 0.01451417 -0.011050958 0.0019407523 0.008072018 0.014316092 -0.0010199444 0.01615329 -0.009966886 -0.022090703 0.027347863 -0.018611139 0.024882149 0.00042082233 0.0043790876 -0.014951286
e_162_01HOOFD 0.020967823 0.019584136 -0.028369479 0.0026409966 -0.0010434455 -0.014855453 -0.017883576 -0.014162077 -0.010254449 0.022238974 -0.028292516 -0.0016114546 0.0043991255 -0.016202176 0.025881603 -0.023277644
e_166_01HOOFD 0.02241315 0.0009827979 0.007689496 -0.022913648 -0.0016689793 0.00805143 0.0023850151 -0.004642765 -0.00058365177 -0.018533865 -0.0031890066 0.020950904 -0.02447758 0.028822187 0.010977779 0.025396723
e_38_01HOOFD -0.010876989 -0.014762297 -0.023828698 -0.025630193 -0.022567084 0.012439464 -0.03152395 0.004464476 0.0079000285 -0.01196467 0.002519324 -0.014216768 0.007958056 -0.013614317 0.0073332284 -0.027987024
e_151_01HOOFD 0.005511194 -0.013186828 -0.025872895 -0.010584055 -0.0185068 0.01921756 0.008768885 -0.009521496 -0.02204424 -0.021546233 -0.0095451195 -0.01726734 0.027641637 -0.02429261 0.017771007 -0.020268545
e_14_01HOOFD 0.023127437 0.030554133 -0.012476492 0.007575311 -0.003713812 0.0064642155 -0.0013421912 -0.0010434074 -0.011284205 -0.027674591 -0.020527547 -0.007816647 0.02987552 -0.004905449 0.029097492 0.0025347476
e_85_01HOOFD -0.026205832 -0.009128697 0.024598079 -0.030028053 -0.013650513 -0.022463214 -0.017239442 0.015765326 0.009429766 -0.02390294 0.01353649 0.028343018 -0.017898707 -0.029182438 -0.0023668366 0.013818589
action_code_01HOOFD4901 -0.024228858 0.0051851915 0.020537697 0.017319597 -0.017110094 0.02141123 -0.008292113 0.016402032 -0.01936858 -0.002583094 -0.0062820795 0.019829635 -0.015801225 0.023127677 -0.01420413 0.011933793
e_176_01HOOFD -0.0035810343 -0.0058979345 0.031841557 0.018159574 -0.008320323 0.0030335202 0.0219433 0.018116403 0.014250423 0.024508076 0.008467234 0.015739568 0.029105188 0.020869208 -0.02642591 0.004197461
e_106_01HOOFD -0.028918609 -0.025969356 -0.0010594209 -0.018028956 -0.021760883 -0.02604324 -0.0028107383 0.019433463 -0.016000176 0.026112089 -0.030728862 0.020463297 0.013638972 -0.02787222 -0.0059179715 -0.024021337
e_22_01HOOFD 0.026192963 -0.015071575 0.022515448 -0.0037913609 0.01924779 0.028507058 0.027877023 -0.02340943 0.021247966 0.02114083 0.01603811 0.01761925 -0.01015485 -0.023579206 -0.03047106 0.030669583
e_233_01HOOFD -0.010768498 0.024820002 -0.012528666 0.010490016 -0.030396633 -0.010528597 0.011404835 0.02727565 -0.028552016 0.020377867 0.0016540755 0.022157311 -0.011961106 -0.020166982 0.0038315635 0.007884016
e_143_01HOOFD -0.024790788 -0.004767258 0.025280932 -0.020599302 0.0070928545 -0.029256815 -0.02291413 0.018278955 0.024900593 -0.012601097 -0.011912729 0.017771693 -0.00010387074 -0.013851948 -0.006004178 -0.010342379
e_212_01HOOFD 0.031032443 -0.020671394 -0.015134716 0.0038637565 0.02983179 -0.01738196 0.018877914 0.0022882174 0.008382398 0.021423269 -0.01712643 -0.014870505 0.02147754 0.029461304 0.021294419 -0.0141315665
e_109_01HOOFD -0.020203779 0.023777356 0.02230375 0.027869178 0.024982916 0.008848406 -0.003593523 0.02455518 0.010751279 -0.013335945 0.025079228 -0.009486735 -0.011336285 0.020543953 0.0066057267 -0.020693257
e_88_01HOOFD -0.019347578 -0.0013430275 0.023687854 -0.004368223 0.025546277 0.012233777 -0.008335918 -0.02327391 -0.0019068839 -0.020885399 0.011661166 0.0025639161 -0.007683727 -0.028230019 0.003869525 -0.020936932
e_208_01HOOFD 0.0047089215 -0.022089556 0.0236545 -0.021455891 -0.023035914 0.030586312 0.015765758 -0.0064461273 -0.024534876 0.018324925 0.0028097248 0.0076907324 -0.008140375 0.02531526 -0.015398858 0.022649521
e_10_01HOOFD -0.016473832 0.0007254463 0.012591157 -0.026122736 0.002274614 -0.024150036 -0.024766581 0.012249785 0.017170241 0.012445282 0.0009002993 0.0040527685 -0.012301259 0.004935812 -0.029000586 -0.007516376
e_153_01HOOFD 0.019597296 0.010097225 -0.023767175 -0.0017732477 0.029543644 0.010591824 0.027696291 0.008108048 0.022136096 0.007969145 -0.012598331 -0.028485777 0.0027068136 0.02355885 0.010135992 -0.0019831322
e_146_01HOOFD 0.027529866 0.023116464 -0.014654939 0.027721114 0.021329872 0.014348037 0.02766127 -0.010819768 0.004217136 0.0016191361 -0.027233023 -0.018714018 -0.007257319 0.004713432 -0.026531652 -0.0046996144
e_62_01HOOFD 0.010964372 0.0056368657 -0.009269544 -0.013699007 0.015113406 0.025460986 -0.01800979 -0.031472992 0.0068100956 0.017135372 0.02373721 0.015228451 -0.009938744 0.012847159 0.004615124 0.014241219
e_225_01HOOFD -0.0058406643 0.009967054 -0.025212139 0.00068676483 0.02601386 -0.027290728 0.029161869 -0.013539426 0.009947092 0.028166741 -0.021395897 -0.0122887045 -0.025740655 0.010627594 0.016114159 -0.018882196
e_94_01HOOFD 0.027348494 0.012626914 0.0004045699 -0.015347332 -0.00028933282 -0.018304339 0.005601408 0.013517557 -0.02407935 0.01674341 -0.020808442 -0.029614877 -0.010906244 -0.02257675 -0.0019488644 -0.0063751787
e_131_01HOOFD -0.019685986 0.011078607 -0.0060561253 -0.0069546485 0.008662312 -0.0042846994 0.02423336 -0.031319555 -0.017252909 -0.015632823 0.013278034 -0.026505098 0.0081692375 -0.01780494 -0.024223508 0.009260538
e_2_01HOOFD 0.0039563836 -0.020015737 0.02511864 -0.024686757 -0.020636832 -0.007924529 0.018443555 -0.01910138 -0.009496115 -0.01101775 -0.028828777 -0.0008777848 0.020684056 0.023560295 -0.0044639464 0.009882555
e_217_01HOOFD -0.012498071 -0.021121986 0.025754005 -0.0022726243 0.0050560595 -0.010682604 -0.0016301203 -0.015452604 0.0075937626 0.009988408 -0.028717116 0.013119256 -0.020125275 -0.0012176392 0.019634059 0.027743042
e_121_01HOOFD 0.00036446674 -0.016501103 0.011797557 -0.0028052328 0.02118659 0.014190647 0.0027278883 -0.0029831228 -0.018692663 -0.015715221 0.015680263 0.0016132795 -0.019103669 -0.0040605417 -0.012827319 -0.023794772
e_137_01HOOFD -0.02643931 -0.023316976 -0.02711616 0.021502797 0.010879438 0.008061084 0.013585457 0.00070140074 0.026391815 0.018657729 0.0047895173 -0.009067807 0.027627617 -0.010917905 -0.01115789 -0.02547867
e_122_01HOOFD 0.020964524 0.028872218 -0.021717684 0.021534983 -0.011981178 0.008212315 0.013509163 0.013840016 0.012610369 0.030208547 0.029211804 -0.00041630724 -0.0044231275 -0.025933765 0.0063045053 -0.018579036
e_72_01HOOFD -0.019495735 -0.025886878 -0.025646022 0.00223878 0.011549544 0.012665199 0.0060484675 -0.028406981 0.0012268081 -0.0041637947 -0.009936099 0.0047161453 -0.025124421 0.023121314 0.01273915 -0.01070128
action_code_01HOOFD200 0.013117533 0.029320538 0.030840442 -0.013768052 -0.017226048 0.018665066 -0.031683166 0.0145529555 0.010214969 -0.01958312 0.0013792196 0.028632296 0.030856427 -0.017353991 -0.0047283755 -0.028682811
e_187_01HOOFD 0.02501459 -0.00301217 -0.0013602679 -0.015457023 0.030350955 -0.007897306 -0.014892111 0.008612118 -0.027650341 0.026757022 -0.022189483 -0.030807488 0.008776656 0.019382216 0.00043630783 -0.023857042
e_199_01HOOFD -0.0064216666 -0.017664246 0.009890868 -0.026681013 -0.012186841 0.025244923 0.0058171754 0.0013414825 0.022048991 0.0012778767 -0.011266295 0.019837508 -0.013603749 0.011583138 0.014174606 -0.00056476507
org_resource_560781 0.015985088 0.0032273184 0.01050324 0.0067071035 -0.017878387 -0.019059835 -0.020817101 0.013419427 0.026518602 0.025110235 0.025177343 0.0074782227 0.0012720625 -0.01711567 0.024709906 -0.008510949
action_code_08AWB450202 0.028557539 -0.016006773 -0.025408858 -0.016264796 -0.029525409 0.021370228 -0.02632918 -0.01841814 -0.011931993 -0.02140422 0.0014026897 0.0011951703 0.0076641296 0.020280674 0.018905021 0.014464463
parts_AanlegUitvoerenwerkofwerkzaamheid -0.011615579 0.0004841556 -0.0151719395 -0.0065376875 0.030399803 -0.004454384 0.02532663 0.008923475 0.0031442053 0.0015739301 -0.010178708 -0.014762645 0.0056999214 0.00065973285 0.02755302 0.01633135
e_17_01HOOFD -0.004604763 -0.011115777 -0.021710627 0.007633084 -0.0005574926 -0.0064386004 0.019533293 -0.009569525 0.022616409 0.012230114 -0.022324847 0.003937795 0.0057098377 0.010998886 -0.012130634 -0.00360055
e_92_01HOOFD -0.030986443 -0.007947744 0.011331982 -0.0083772745 0.02279043 0.014910748 -0.030024473 0.014873894 -0.016619302 -0.026617333 -0.025046028 0.010877854 -0.025086189 0.02402723 0.012389234 0.021316072
e_185_01HOOFD 0.024203766 -0.027699677 0.0054617724 -0.019635683 -0.009149864 -0.0023517217 -0.030936142 -0.014288993 -0.011527421 0.009565765 -0.0058758403 0.00214074 -0.014979449 0.013643887 0.025415633 0.015363295
e_3_01HOOFD -0.010632604 -0.020151027 0.017823508 0.0108889565 -0.0126534775 0.005882376 -0.027917432 -0.016913302 0.0044504623 0.020927852 0.017717423 -0.008782917 -0.016493801 -0.021435961 0.025532797 -0.029665697
e_80_01HOOFD 0.01666227 0.006255194 -0.0072949254 -0.029476006 0.006243664 0.024720062 0.018568056 -0.017157538 -0.025423054 -0.030522503 0.02700706 0.030888857 -0.009437307 0.020655623 0.022623075 -0.024764387
e_75_01HOOFD 0.0024437197 0.01193566 -0.012231351 -0.0021513784 0.022811163 0.015020505 -0.023021271 -0.020531114 0.02166027 -0.002488055 0.026502786 0.025111519 -0.0038461806 -0.022246242 0.027011981 0.025622794
SUMleges_492.312 0.021471415 0.0062235068 0.018697277 -0.0172725 0.00014277488 0.003248101 -0.0073365313 -0.004861179 -0.00809962 -0.004995501 -0.008819374 0.01915405 -0.008911622 0.023857765 0.021792442 0.015468275
e_50_01HOOFD 0.0016196149 0.011758749 0.0017763767 0.029853743 -0.014341076 -0.0052586417 -0.012317167 -0.025222639 0.015842162 0.016917229 0.00013365189 -0.0250506 0.028538473 0.003631191 -0.014358953 -0.02247808
e_167_01HOOFD 0.014664704 -0.019661373 -0.027523652 0.031579297 0.01998462 0.030420229 0.017713988 0.008140773 -0.022993052 -0.0032782443 -0.0029301874 0.006298738 0.014632527 -0.011671447 0.02252509 -0.015601657
e_89_01HOOFD -0.027467726 0.015573978 -0.00733264 0.013897453 0.020064149 -0.009617244 0.029751487 -0.0046057305 -0.021058321 -0.014317167 -0.0023678476 0.00093392684 0.024440965 0.027833836 -0.010655661 0.002520748
e_28_01HOOFD -0.029413965 0.0154657075 0.026835786 -0.0018316677 0.02943296 0.003336248 -0.011887392 -0.011204468 -0.017587963 0.016378434 0.023609605 0.011723938 0.014134645 0.0030214398 0.012577524 0.011610365
e_112_01HOOFD -0.03116976 0.012297833 0.019580193 0.017471174 0.016836096 0.023686983 0.020344235 -0.012357012 0.020944744 0.021409012 0.015394635 -0.012685313 -0.0071608867 0.030569786 0.015674477 -0.011785687
e_61_01HOOFD -0.00729039 0.014440128 0.028303575 -0.026195034 0.021615159 -0.023540705 -0.02614911 -0.01108658 -0.019109149 0.029308917 -0.02886944 0.01790024 -0.022014828 -0.00028088875 0.015058173 0.0060287323
e_198_01HOOFD 0.013575477 -0.030573199 -0.022645108 0.02567802 -0.023513883 -0.019943729 -0.015343177 0.011180878 -0.006532569 0.0141426185 -0.007980273 0.02245889 0.012598317 0.025229065 0.018152595 0.015315396
e_230_01HOOFD 0.015120032 0.014149269 -0.021835014 -0.029164515 0.009563336 0.013433999 -0.026851203 0.0057137585 0.0025707176 0.017867494 0.025372645 -0.003924557 0.007872932 0.01828352 0.011957765 -0.010417554
e_56_01HOOFD -0.00816018 0.00038150485 -0.0025398787 -0.0002183863 -0.029955203 -0.0092362845 -0.011531665 0.0009868986 -0.013991211 0.00949152 -0.029553458 0.02908957 -0.010321223 0.004000263 0.009703293 -0.009611757
e_30_01HOOFD -0.013071201 -0.0061449087 -0.010810648 -0.011889727 0.020895246 -0.007870736 0.007569757 -0.026736258 0.030857151 0.0009983901 0.019929698 0.006735191 -0.030531712 -0.012342408 -0.02352166 -0.010072059
e_79_01HOOFD 0.028886607 -0.0070132394 0.031164845 0.014037486 0.02376447 -0.014542693 0.01601085 -0.0089811105 0.019712083 0.022234848 -0.0067678606 0.019130323 0.0007464893 0.015624694 0.019026106 0.019688603
e_40_01HOOFD -0.01101214 0.012608177 -0.011498943 0.0038552997 0.0065347273 -0.02911078 0.020175762 0.028367715 0.0018570657 0.019450799 -0.00921947 -0.0016894196 -0.013105356 -0.02218306 -0.029108139 -0.02758138
e_21_01HOOFD -0.0011556234 -0.030573798 -0.01666163 -0.003948514 -0.010258774 -0.02583534 -0.018638823 -0.016945323 0.006046258 -0.02410566 -0.024261804 0.030173847 -0.027064314 0.029241968 0.02529559 -0.031264573
e_232_01HOOFD -0.01656824 0.0014072021 0.0030637663 -0.022705117 -0.026190141 -0.015755845 -0.026100758 0.000690213 -0.005702873 -0.009887427 0.027549693 0.010626978 -0.027187467 -0.013205911 -0.007073695 -0.0038397012
e_119_01HOOFD 0.013508244 -0.005133982 -0.024367046 0.0051379185 0.025275039 0.024000525 -0.018189346 -0.015821237 -0.007678341 0.015293061 0.023243653 -0.017550612 0.01613401 0.028016878 0.011099248 -0.0076251463
e_4_01HOOFD 0.018728225 0.021670239 -0.008979575 0.0013931605 0.0057687955 -0.014590898 -0.026920894 -0.01916289 -0.025090268 -0.007820208 -0.018987315 0.00090896216 0.008341169 -0.015020901 0.02566203 0.007791349
activityNameEN_enterdateterminationrequestreceived 0.0072160717 0.013595825 -0.02603256 -0.005967585 -0.015482594 -0.02756703 0.010906401 0.012317382 0.012319782 0.030461824 0.017670786 0.011674049 -0.015352839 -0.020306664 0.0041200435 -0.008895694
e_136_01HOOFD -0.022269463 0.0036052736 -0.0047889114 -0.023851613 0.02433165 -0.008786166 0.012945608 -0.014883312 0.009931828 0.030146485 -0.0028520406 -0.016830036 -0.00043744326 0.018371636 -0.010165006 0.030271132
e_164_01HOOFD 0.021610985 -0.0076286425 -0.03059441 0.014392608 -0.019156607 -0.019511346 0.007907407 -0.007698342 -0.02427446 -0.02224087 -0.02791202 -0.016967969 0.028168883 0.03099536 -0.026570182 0.011906883
e_52_01HOOFD -0.0063640894 0.00036586204 -0.016214056 -0.014153096 -0.012498604 -0.015491595 0.008151624 -0.013582679 0.009441851 0.020002762 0.018137231 -0.015297164 -0.0029502197 -0.00649231 -0.022661746 0.013224533
Responsible_actor_3148844 -0.0006245101 -0.023238081 -0.008117364 -0.02231151 0.024086904 -0.0036793463 -0.011117952 -0.018763782 -0.010606273 -0.011928001 0.00023903488 0.021479897 -0.00770549 -0.021934947 0.028022075 0.011143437
Responsible_actor_3122446 -0.01883656 0.011553494 -0.018780837 -0.010440305 -0.014367822 0.019046593 -0.025345858 -0.03167582 0.026353167 -0.008696327 -0.028757893 -0.030931767 0.018486733 0.008318279 -0.005302898 -0.011300805
e_49_01HOOFD -0.022524381 -0.013608532 0.014124466 0.015259572 0.024619164 0.02324089 0.0018084527 -0.024313819 0.009035319 0.0289705 0.011696593 0.0025058347 0.004043688 -0.015433131 -0.011520109 -0.023282254
e_57_01HOOFD -0.023088286 -0.0115801105 0.020851657 0.018993186 0.009008362 -0.016441483 0.016523186 -0.0034532372 0.030969666 -0.0008169038 -0.011729193 -0.0125951385 0.010015333 0.024717443 -0.020892227 0.017214745
e_0_01HOOFD 0.008928503 -0.017656127 -0.023107763 0.018183708 -0.01499606 -0.019208765 -0.009661167 -0.025210233 0.014110435 -0.010255444 0.024387633 0.018068869 -0.022104222 0.013858242 0.006884498 -0.0073200786
e_113_01HOOFD 0.013889439 0.01817468 -0.001829433 -0.0062505975 -0.020478617 -0.009498322 -0.019808728 -0.006189492 -0.02957417 -0.009746073 0.0013021729 0.002713845 -0.008677426 0.017678898 -0.030066565 0.00849831
e_54_01HOOFD 0.0026436555 -0.00667623 -0.013161608 -0.027936306 -0.025823213 -0.020389164 0.00017461434 0.0052294857 0.030497234 0.00261469 -0.019581968 -0.0056347363 0.018806553 -0.025968444 -0.014147212 0.009462171
e_202_01HOOFD 0.01159284 0.02038315 0.022699809 0.021824699 -0.00051947247 -0.015799085 0.014515187 -0.010858773 0.007191501 -0.025623014 -0.021417873 -0.00067067496 0.019193754 -0.029574228 0.017670803 -0.015363297
e_168_01HOOFD -0.0015278731 0.017921178 -0.026637265 -0.028165758 -0.016863164 -0.014907598 -0.0068881144 -0.0011065754 0.015170249 -0.025921935 -0.0097273365 0.02626996 0.0011454491 -0.017566362 -0.0042422917 0.006947032
e_20_01HOOFD -0.0064345603 -0.023154652 0.005894041 -0.012225234 -0.025375754 -0.0144092385 -0.03057861 -0.010482949 -0.01622644 0.011944844 0.02216927 -0.0005739587 0.03085484 -0.0020221313 0.007199552 0.023493621
e_51_01HOOFD -0.019520469 0.02963747 -0.025732245 0.0069734063 -0.011533635 -0.022194525 -0.008951747 -0.008113288 0.027478546 -0.024957571 -0.014426162 -0.029136475 0.016882548 -0.028898895 -0.03033217 0.02869079
e_132_01HOOFD 0.012460446 1.5118127e-05 -0.009898632 -0.010700924 -0.0005329666 0.0066192523 -0.0030427526 0.0010160604 -0.005607401 -0.018317984 -0.0019799618 -0.012331867 0.029149977 -0.013658199 0.018275123 0.011257578
e_35_01HOOFD -0.00040408297 0.025756879 0.029523546 -0.0059093656 0.005174596 0.028201122 0.012626635 0.0020803788 0.001543691 0.027504668 -0.008552801 -0.015780091 0.008881001 -0.020019831 -0.007756672 -0.00533115
e_100_01HOOFD -1.6065314e-07 0.027042648 -0.0038668865 0.014795536 0.009411726 -0.007824237 -0.019858608 0.0186619 0.0033870055 -0.0099547785 -0.022958973 0.009952865 -0.021161474 -0.018050134 -0.022008209 0.011060258
e_95_01HOOFD 0.02709486 0.013710951 -0.010743481 -0.0029019578 -0.0024985492 -0.020157961 0.0187343 -0.024495227 0.001776645 -0.0295634 0.0050322427 0.024434164 -0.022988774 -0.005158023 -0.01577111 0.024542795
e_31_01HOOFD 0.008073679 0.00085458317 0.004335709 -0.00481152 -0.009584883 -0.011342671 0.014939192 -0.019506127 0.02306756 -0.0010762726 -0.021168463 0.026822647 0.006363007 0.014399492 0.017028121 -0.0025657879
e_15_01HOOFD -0.026044957 0.020358624 -0.029791562 -0.02742941 -0.013010003 0.010492031 0.022871468 0.013053508 -0.013210905 -0.016864233 -0.011243095 -0.00485483 -0.0062483777 0.03008505 -0.018835671 -0.021663403
e_33_01HOOFD -0.013971406 0.009522514 -0.022123095 -0.0011085221 -0.015534636 0.0074253096 0.019447891 -0.014469459 0.021583166 0.028077027 0.01977565 -0.0028758615 0.0014832509 0.026225207 -0.0100766 -0.018035408
e_165_01HOOFD 0.014163695 -0.017009512 0.006484089 0.029980024 0.020851146 0.030439787 0.015636621 0.021002283 -0.01178851 -0.023853574 -0.021636259 0.030143877 -0.030578699 0.010407484 0.010424065 0.02676315
SUMleges_16.86 0.00020562366 0.013011592 0.017503763 -0.019012151 -0.031129666 0.014708247 0.02079429 -0.004804305 -0.010350726 -0.0129338605 -0.03031003 -0.0047620162 0.023468498 0.019136196 -0.0022922906 -0.027909877
e_135_01HOOFD -0.015363419 0.01189058 -0.010744011 -0.018147362 0.007196667 0.016119018 0.025453305 -0.007938382 -0.021547731 -0.008942782 -0.0029692966 -0.0010821009 0.023999652 0.013320477 0.008428355 -0.002623319
e_160_01HOOFD -0.0053648218 0.0071785073 -0.027074981 -0.025264876 -0.027953109 0.0025169842 -0.024801733 0.010540594 -0.016459353 -0.023931902 0.0036442324 0.025023615 0.0059342147 0.0043790746 0.012329756 0.011400643
e_26_01HOOFD 0.02571473 0.0087592555 0.0009989701 0.02575755 -0.023073267 0.01456572 0.019817915 -0.015034571 -0.011506444 -0.021798668 0.026258076 0.024336245 0.010657503 0.022437204 -0.011859104 0.010844007
e_149_01HOOFD -0.02126699 0.023703825 0.012090618 -0.019834181 0.004093342 0.0056449203 0.0035027908 0.0048713 0.022934271 -0.02781356 0.029860228 0.001657807 -0.017141161 -0.023777531 0.031025497 -0.02803735
e_181_01HOOFD 0.006796243 -0.013194879 0.012942964 0.028308837 0.0031425185 -0.02032202 0.0020503541 -0.012503184 0.016178608 -0.02489604 -0.023927772 -0.019167827 0.029964874 -0.012111646 0.02574897 -0.0010034759
e_220_01HOOFD -0.023704205 -0.008916758 0.0032328335 -0.012122646 0.0045708367 -0.025722906 0.005599339 -0.008923513 0.022593157 -0.012757522 -0.0074641723 -0.01044243 0.027795598 0.021830985 -0.018524881 -0.0186469
e_78_01HOOFD -0.024623156 0.0042357445 0.020416932 0.01570117 0.0032543682 0.008041396 -0.01047887 -0.03071502 0.025977999 -0.002204906 -0.010966886 -0.013059544 0.017543454 -0.029928284 -0.0030292252 -0.02812706
e_173_01HOOFD 0.021298887 -0.024396358 -0.0075056474 0.016951608 -0.028318409 0.023611141 -0.030505894 -0.024900733 0.009440241 0.009253814 -0.00102533 -0.013831708 -0.018010013 -0.025681783 -0.027753197 0.008049986
Responsible_actor_560429 -0.017499983 -0.005094067 -0.0033287762 -0.0018929362 0.012574092 -0.009528987 0.028296692 0.014481146 -0.022192998 -0.0026383277 -0.021614753 -0.0049128975 -0.016402742 -0.013329976 0.028241025 -0.020132512
e_126_01HOOFD 0.02521351 -0.020941902 0.024718802 -0.01688214 0.013046258 -0.00071015523 0.013682532 0.015556225 0.016537108 0.01633726 0.005346727 0.015449394 0.02084872 0.027183002 0.011152913 -0.030455602
e_39_01HOOFD -0.0050046514 -0.028513588 0.024391912 0.022933187 0.02243884 0.0020779665 -0.03001748 0.025521971 0.025080707 -0.00092466763 -0.01285332 0.006316906 -0.011006079 0.016936272 -3.5500874e-05 0.024831641
e_53_01HOOFD 0.029819809 0.016127985 0.03005475 0.0018961173 -0.0064095804 0.0013617331 -0.002557681 -0.0034741906 -0.015028568 0.01493492 0.027165823 0.023145264 0.01252125 -0.01319061 -0.028853422 0.0147099085
e_34_01HOOFD 0.011399871 -0.0051101577 -0.0062030754 0.009568304 -0.015244019 0.013095849 -0.0115926815 -0.0064476025 0.015962992 0.013928411 -0.029092774 -0.0034506891 0.030418772 0.028809268 0.027363893 -0.017518634
e_44_01HOOFD -0.020753209 0.029358873 0.0152931055 -0.02651814 -0.0061093043 -0.013028884 -0.022153096 0.0006661469 0.008339074 -0.0049233646 0.02288436 -0.014364045 -0.024879433 -0.021753738 0.0010690033 -0.022788865
e_192_01HOOFD 0.0040714587 0.02115663 0.022752218 -0.0030442076 0.02211024 -0.029444646 -0.018629314 -0.02869979 -0.011880926 0.005715041 0.021458134 -0.009366338 0.0049643693 -0.030877877 0.02342267 -0.0017083456
e_23_01HOOFD 0.006480614 0.02461301 -0.016862916 0.025891094 0.026529137 -0.0106520625 0.026373852 -0.024157325 0.010444904 0.028801164 -0.018971648 0.016306873 0.026759168 0.018120084 0.026905524 -0.017949942
e_171_01HOOFD -0.020300942 -0.015104166 -0.023487734 0.02702065 0.008634903 -0.00015274598 -0.009526545 0.015865361 0.0143310325 0.008774526 0.031129548 -0.02307295 -0.0039575114 -0.029306179 -0.008109724 -0.001071761
e_125_01HOOFD 0.013888023 -0.0015644564 0.026923366 0.023403889 0.018612858 -0.025281562 -0.019854961 0.02481657 0.022075031 -0.0018965426 -0.031025326 -0.021329757 0.016625974 -0.0040656026 0.013726247 -0.023114953
e_12_01HOOFD -0.010052392 0.0058552115 0.01657086 0.021281958 -0.0062223007 0.017510483 -0.029566217 0.021239867 0.01440608 0.009281489 -0.002749973 -0.024525823 0.0020203942 0.01727248 -0.007979607 0.024866065
e_189_01HOOFD -0.005730767 -0.002044278 0.0065171183 -0.022545403 -0.025702773 0.024765184 -0.0041761776 0.03088886 0.015485948 -0.016014809 -0.003270259 -0.030695112 -0.009675884 -0.014981102 -0.024394378 -0.028437385
e_105_01HOOFD -0.008056828 -0.016634503 -0.0090871565 0.017382275 0.0053031035 -0.008423159 -0.012155503 -0.0027048197 0.00084502524 -0.026053438 0.010696125 0.028970627 -0.010437857 -0.016548533 -0.010022229 -0.02639391
e_58_01HOOFD -0.0034815301 0.0013817898 -0.0066454206 0.027055485 -0.023949735 -0.022375027 -0.020702327 -0.0091998335 -0.0068445224 0.002678748 0.026167344 -0.02408648 0.015170277 0.026332084 0.031618092 -0.02108512
e_55_01HOOFD 0.010861308 0.002655432 0.026939413 0.012095777 -0.012136904 -0.006936994 0.009736694 0.02177857 0.023141075 0.003133835 -0.0022864863 -0.00074400817 -0.008187995 0.011726142 -0.016364798 -0.0028278448
e_152_01HOOFD 0.02299363 -0.020947652 0.016547203 0.017323708 0.003873376 -0.021618266 -0.028724423 0.011276148 0.027516808 0.005858201 -0.0027401098 0.015445394 0.009255941 -0.010666844 0.018678067 0.020133639
e_154_01HOOFD 0.02198656 0.02828837 0.021854777 -0.014559054 -0.021090413 0.00965219 -0.012088826 0.008647774 -0.0067516323 0.007385992 -0.0014587232 -0.0036672764 0.0030380227 -0.021524308 -0.013911691 0.022972746
e_37_01HOOFD -0.003869348 -0.028259221 -0.015798476 0.004812483 -0.023658995 0.017514953 -0.022432538 -0.001395678 -0.019458799 0.0111845555 0.021653017 -0.011275887 0.006172054 0.014636781 0.020452596 0.023583394
e_130_01HOOFD -0.030481542 0.0020645214 0.018629516 -0.018534526 -0.023011375 0.025117079 -0.031331953 0.029459924 0.03099585 0.0062935175 0.0053408286 -0.007049661 0.0149041945 -0.013966474 0.011842378 0.0060315244
e_6_01HOOFD 0.022518482 0.015865957 -0.013793803 -0.0010250893 -0.004669701 -0.027916996 0.0039986502 0.007740367 -0.0072998353 0.009804435 0.0021286886 0.008941008 -0.00785212 -0.026863327 -0.0015643436 -0.0023186288
e_144_01HOOFD 0.008486237 0.0038768598 -0.006447747 0.009632508 0.00448104 0.021808749 0.012302451 -0.02483877 0.018226096 0.021655794 -0.015076427 -0.010334642 -0.0060860105 0.023657681 -0.0029446534 -0.013277907
e_158_01HOOFD 0.012994492 0.022282291 -0.005984528 0.0019134812 -0.013744165 -0.017402861 0.016941812 -0.023426376 -0.01337152 -0.019736145 0.01480536 -0.014442799 -0.0073353066 -0.01387704 -0.0072085564 0.0041169743
e_46_01HOOFD 0.024375103 -0.014358634 0.02636029 -0.013978077 -0.026674623 -0.01772366 -0.029189967 -0.015824184 -0.030581633 0.008333685 -0.0077375825 -0.028333401 0.023381798 -0.011442453 -0.0030436893 -0.030705515
e_191_01HOOFD 0.02399026 0.009620166 -0.0007916319 0.0040509067 -0.018094208 0.025110422 0.0033369807 0.01970349 0.0066533214 0.0047111986 -0.02829876 0.024127482 -0.021607438 0.03022982 0.019505404 -0.013464894
e_5_01HOOFD -0.012564316 0.030815085 -0.016045002 0.025887726 -0.020323176 -0.005540606 0.022569234 0.017047467 -0.022634195 0.0041443114 -0.028319295 0.015180964 -1.1432865e-05 -0.018718792 -0.021951985 0.0007837394
e_90_01HOOFD -0.029167846 -0.0311865 0.022576591 0.028194597 0.012256955 -0.03014712 0.025494995 0.002649683 -0.0062788734 -0.01582444 -0.006764912 0.011757607 0.009698946 -0.0036215587 0.018123478 0.01928892
parts_BouwBouw -0.015446694 0.016394937 -0.010401635 0.0014721924 0.029080281 0.030752875 0.016280536 -0.01040093 -0.030858781 0.007978194 0.005433444 0.024149856 0.0013423861 0.021315768 0.024560973 -0.002242852
parts_BouwMonument 0.024957921 -0.015659621 0.026887199 0.0014550464 -0.001390627 0.028120821 0.011682294 0.010923994 -0.012731783 -0.014382497 -0.004351221 0.006338583 -0.009151994 -0.022373457 0.007248863 -0.017830817
org_resource_560849 -0.022532959 -0.0071154255 -0.014240508 0.01365831 0.028526265 0.024756763 -0.0136146415 -0.025983194 -0.0266743 -0.00020889923 -0.00025506972 0.014337267 -0.031023957 -0.0108394 -0.019433957 0.023370584
action_code_05EIND020 -0.024224425 0.022337908 -0.0039993413 0.01617109 -0.020895602 -0.0006223638 -0.029498648 -0.026565293 0.016215228 -0.0002819907 0.028492942 -0.0004191598 -0.0017765781 0.014948523 0.0065533947 -0.023919081
parts_Brandveiliggebruikmelding -0.028058594 0.013897458 0.01609521 0.012091294 -0.021042332 0.0077128536 0.012459139 -0.013858346 -0.0022020347 -0.015992677 -0.0065945154 0.0061215973 -0.010600597 -0.015023763 -0.010862125 0.025014304
parts_Reclame 0.030176736 -0.020049471 0.020321403 -0.031054014 0.025565566 0.014238997 -0.0057270657 -0.018518155 -0.0151186 0.026021488 0.016460784 0.022447905 0.018477503 0.030049417 0.0072623664 0.009347344
action_code_01BB770 -0.019901142 -0.0305842 -0.019810371 0.007951756 0.013065987 0.025055403 0.010524149 0.030096909 -0.017806927 0.027335357 0.0028837898 -0.017155869 -0.0043749507 -0.02706889 0.017962886 -0.026717952
action_code_01HOOFD040 -0.021703757 -0.016998831 -0.0003843511 -0.022931421 -0.02538044 0.02488868 0.008288905 0.0016923273 0.01753545 -0.016720025 -0.019790547 -0.011317555 0.025640944 0.014276032 0.00950428 0.008943245
org_resource_560530 -0.011076939 -0.006687122 -0.01134713 -0.025198674 -0.012705514 0.008014744 -0.021249687 -0.018775253 0.007905082 -0.015928062 -0.029234907 -0.008717306 0.026030662 0.02767953 -0.030052688 0.019720802
action_code_01HOOFD430 -0.021656293 0.017248517 0.0070369723 -0.01236765 -0.015158112 -0.0013113633 -0.015062068 -0.029164398 -0.014667302 -0.012113919 -0.01671386 0.009873935 0.03101393 -0.0199463 0.025004352 -0.021729676
monitoringResource_560752 0.0036652044 -0.026839474 0.0060749184 -0.01387229 -0.006699496 0.020989843 0.012294055 -0.021741806 0.013756596 -0.019874409 0.014142417 0.011362581 -0.016447427 0.016211998 -0.028023677 -0.010074781
monitoringResource_3069866 0.0101052215 -0.027413705 -0.0057590194 0.002860031 0.017585257 0.0037492935 -0.021214493 -0.021709625 0.016607473 0.023532955 0.00087310554 -0.0069814436 -0.0015095264 -0.021323975 0.02205703 0.027281903
SUMleges_3060.09 -0.028782442 -0.010095847 -0.020912163 -0.0057368563 0.0002736117 -0.0006844405 -0.01717045 0.007426113 0.019835707 -0.021908885 0.019451275 -0.018633384 -0.0051942477 0.010625826 -0.0075112814 -0.0020776752
parts_Milieuvergunning 0.0064197294 -0.030134508 0.021794375 -0.020643305 -0.031100944 -0.013093692 0.0036012596 0.01767894 -0.019272886 -0.023583692 -0.013511502 0.022923077 -0.0063560163 0.020644663 -0.015116133 -0.016475292
monitoringResource_1254625 0.012687338 -0.0267066 0.01393379 0.022011848 0.027632296 -0.0075087203 0.011064908 0.017064236 -0.021886269 -0.0071392152 0.003702333 0.030048335 -0.001743772 -0.006394713 0.02710339 0.025228834
Responsible_actor_1550894 -0.0040274635 0.031061493 0.005283044 -0.022810673 0.029782297 0.002963078 -0.02264554 0.021083543 0.013737947 -0.0057466174 -0.00588096 -0.009566188 -0.01781167 -0.0138176195 0.0015879093 0.029917836
monitoringResource_1550894 0.026891947 0.026424475 0.012858287 0.024492491 -0.020766187 0.011825307 -0.029429095 -0.02936479 -0.022776878 -0.008714312 -0.015944505 -0.024341432 0.015182347 0.030082652 -0.02193488 0.010445655
termName_Termijnbezwaarenberoep1 0.022368722 0.012796549 0.0029869557 -0.024240162 0.010067362 0.02123411 0.015312301 0.0024335808 0.011822854 0.0156437 -0.00012226182 -0.026956793 0.018233156 0.012056221 0.024078151 0.01927741
org_resource_560613 0.02144997 -0.025063738 -0.02676153 0.0032332812 0.030766277 -0.02113262 0.0047786464 0.028865032 -0.029422633 0.0138915125 0.011458896 0.03078601 -0.0015928668 -0.028666668 -0.008314281 -0.016000045
org_resource_3122446 0.0076838867 -0.0049630916 -0.016528815 -0.0009294549 0.016698841 0.029442078 0.009218492 -0.031107217 -0.01720018 0.025765173 -0.02591941 0.01631392 -0.02804031 0.029135901 0.017908096 0.007828891
activityNameEN_askstakeholdersviews 0.017091017 0.023006482 0.015296 0.01839221 0.023059713 0.022274585 0.008616574 0.014708894 0.004314354 0.0151004195 -0.01050314 0.014145353 -0.013316683 -0.014799309 0.026276726 0.017908832
SUMleges_177.03 -0.012282331 0.02941752 0.030614737 0.0048063463 -0.026566392 0.024505422 -0.019105995 -0.0030586265 0.0006567225 0.0075804107 -0.021727674 -0.010710841 -0.030244587 -0.019459026 -3.5530094e-05 0.027982622
parts_BouwBrandveiliggebruikvergunningHandeleninstrijdmetregelsROMilieuvergunningFloraenFauna -0.021774521 0.004862323 0.029838888 -0.025057137 -0.013419944 -0.02227431 -0.022434711 -0.027059093 -0.023816777 0.0231112 -0.010696417 -0.026912425 -0.026023965 -0.02904051 -0.0071281274 -0.021049552
parts_Monument 0.025368668 0.008926421 -0.015518659 0.019987911 -0.015771687 0.0020114225 -0.02718553 -0.019117942 0.009460242 -0.011526565 0.02475912 0.022936417 0.027573776 -0.02146903 -0.025377842 -0.01925924
action_code_01HOOFD5102 0.011837178 -0.008920662 0.0058935317 0.014055219 -0.0018803972 -0.025739508 0.0047140443 0.029986493 0.021392945 0.024080887 0.0008841422 -0.023902483 -0.012010467 -0.0073182876 -0.025117395 0.028934823
SUMleges_953.256 0.028900148 -0.016160466 -0.014284107 0.004595879 0.0031117308 0.006310979 0.026764395 0.024272325 0.027771143 -0.026836833 -0.029675636 0.023543641 0.010799155 0.004507427 0.016966913 0.007826692
SUMleges_67.44 -0.0036680098 -0.009012054 -0.016214678 -0.0137909865 0.025137076 0.01877185 -0.019517953 0.018143032 -0.019351445 -0.0025585813 0.014681893 0.028946873 -0.02030418 -0.01656104 -0.025205385 -0.023269443
parts_Milieumelding -0.013490052 -0.005725599 -0.030692985 -0.030706882 0.022383006 -0.027135098 -0.028867068 0.004422145 0.004131433 0.0067977854 0.01903817 -0.026367066 0.0068565947 -0.025046866 -0.0029328421 0.021087842
parts_Milieuneutraalwijziging 0.0046010423 0.014700826 0.027102709 -0.009222993 0.02567163 0.007425337 0.0047737323 -0.0012519907 0.029603394 -0.022445496 -0.017190777 0.029314093 0.028190486 -0.007349792 0.027861658 -0.02153402
monitoringResource_560749 -0.01770243 0.0048840414 0.00974483 0.024715556 -0.0008043701 -0.02374375 -0.0015725093 -0.00274061 0.027820656 0.022654824 0.015517471 0.017293902 -0.0057020094 -0.009117915 -0.004240737 -0.012724637
SUMleges_260.1161 -0.016245479 -0.030162675 -0.026355462 0.029086512 0.0029183377 -0.014402167 -0.016259076 -0.020091144 0.01353643 -0.0032669434 0.023288012 -0.0009677927 -0.025693415 0.0037705041 -0.009640658 0.019131256
monitoringResource_560464 0.011327675 -0.021859862 0.025451008 -0.003227541 0.016937703 -0.02998483 0.014748982 -0.025050005 0.015436494 0.011107026 -0.0035391424 0.018866258 -0.02895048 -0.0022487647 0.003803074 -0.0061739637
activityNameEN_registerdatedecisionterminateonrequest 0.0011678808 -0.009394055 -0.00982522 -0.004845497 -0.030011421 0.0011369495 0.02727337 -0.012057767 0.028694188 0.006041272 0.012615281 -0.015291385 0.029167801 -0.012404871 0.016378134 0.015751543
org_resource_560602 0.004532387 -0.009949853 0.025562597 0.01743246 -0.0058292276 0.028409291 0.028571766 -0.013303129 -0.0022344424 0.021274528 -0.015164692 0.003909741 -0.01919128 0.008231652 -0.007442513 -0.013835426
Responsible_actor_560922 0.0035195115 0.015503232 -0.022438059 -0.0087226005 0.020600952 0.021400549 -0.027729101 -0.010891806 -0.0154973455 0.028398376 0.028846106 0.01710704 -0.025980497 0.006980605 -0.011446146 0.007033852
SUMleges_147.39854 0.021816598 -0.01643166 -0.012852887 0.002221049 0.017249942 0.0010356347 -0.010348617 -0.029811274 -0.010086889 0.009345756 0.021373335 0.0019158416 0.0143460855 -0.0021762142 0.01887541 0.008461321
e_16_09AH -0.03011772 0.0044945925 -0.014706823 -0.007598832 -0.004464801 -0.023205569 -0.006462158 -0.0027576692 0.0071851574 0.01700563 -0.014343016 -0.021393513 -0.02052364 0.011450559 -0.010284664 0.023657402
parts_BouwIntegraalSloopFloraenFaunaKap 0.01633486 -0.0023549623 -0.008274974 0.02614503 -0.007597297 -0.0052101356 -0.016049996 0.024784075 0.004121026 -0.017514277 -0.020253032 0.023828277 0.018429413 0.025390888 -0.029364297 0.021491863
SUMleges_2302.0476 0.028881647 -0.0016571637 -0.024247022 0.01552999 -0.014964083 0.02115268 -0.023052374 -0.027695896 0.031106535 -0.025856206 0.018325953 -0.027949594 0.03103316 0.027349917 0.0036291794 -0.029896433
SUMleges_242.99475 0.017773388 0.0028823256 -0.028489076 -0.020808423 -0.029549053 -0.025099806 -0.0059172516 -0.005134701 -0.011387551 0.028037077 -0.015550244 0.023781829 -0.029092547 -0.005211005 0.0061723604 0.026515767
activityNameEN_forwardtothecompetentauthority -0.00514741 -0.005989271 -0.015417634 -0.022662295 0.021233639 -0.029679844 -0.03124434 -0.015530482 -0.0068281144 0.011898782 0.0004051605 0.018527007 0.0030061777 0.029544441 0.029892115 -0.027874934
SUMleges_7902.3496 0.015563499 0.014200944 -0.03048793 -0.010152031 0.019338617 0.00507383 0.010101673 -0.012484747 -0.019633096 0.019507665 -0.020902865 -0.023852825 -0.027160905 -0.028132733 0.018371014 0.030695561
SUMleges_4868.7466 -0.022917312 -0.017324485 -0.010175588 0.009494311 0.031084962 0.027192285 0.021496322 0.0050572506 0.007730242 0.016499285 -0.012492491 0.021884084 -0.031123096 -0.03030958 0.019673279 0.02497055
action_code_05EIND070 -0.014327773 0.023611976 0.0017518604 0.014034239 -0.0074885674 0.017656835 0.0051331543 0.021102725 -0.021812767 0.00881426 0.025171047 -0.006516492 0.012353964 -0.0016644174 -0.008788838 -0.02875136
org_resource_560894 0.01505274 0.0038100649 -0.0038251341 0.017678773 -0.018896231 -0.026073797 0.012193032 0.009184174 -0.026530618 -0.002238738 -0.0050130314 0.013537175 -0.0015153663 0.021139335 0.028894084 0.016464975
activityNameEN_requestcomplete -0.011118358 -0.0136046065 0.016140912 -0.00255289 -0.020161008 -0.014419733 0.015077078 -0.02981924 0.025977446 -0.0074941483 0.005238124 -0.02993889 0.010467553 -0.02924654 -0.02053674 -0.026700433
parts_BouwInritUitweg -0.025045263 0.008103086 0.0011500175 -0.011521403 -0.0046497206 -0.0100208195 -0.018180441 0.014680888 -0.00053333293 -0.029447079 -0.0040862123 0.03136921 0.013015788 -0.006060399 -0.005218147 -0.017593263
Responsible_actor_3442724 -0.017695054 -0.013475177 0.020380447 -0.02801485 -0.02800807 -0.02247208 0.0103604365 0.022834145 -0.003993194 0.01726815 -0.02521495 0.031070868 0.02174327 0.025134131 -0.008096406 0.004710983
last_phase_Besluitonherroepelijk 0.015792929 -0.02931421 0.023698319 -0.01749465 0.0077656326 -0.015432331 -0.013448738 0.027867204 -0.0029638235 -0.027937805 0.015866047 -0.029250313 -0.008430155 -0.0058995206 0.02089898 0.02124713
SUMleges_111.276 0.0008640206 -0.01984771 0.03132183 -0.025528338 -0.013773979 0.028814284 -0.009149284 0.0045754737 0.028557438 0.008996757 0.007044543 0.00810695 0.020412844 -0.0077423914 0.013168609 0.02489744
SUMleges_5772.864 0.01846741 -0.0239917 -0.0043412414 -0.007351005 -0.024316182 0.023436418 -0.03142917 0.015649954 0.017478114 -0.008632708 0.026970062 -0.00746582 0.008690921 -0.026207002 0.023415312 0.008693954
SUMleges_148.368 -0.01560458 -0.009619547 0.01089937 0.017269878 -0.021102523 0.022927815 0.013122763 0.002653285 -0.02047419 -0.029323064 -0.015539139 -0.029163674 -0.028373264 0.020300804 0.0065051783 -0.012001703
action_code_06VD0202 0.014738389 0.025916286 0.016886929 -0.009187853 -0.027669584 0.0013610795 -0.027522042 -0.027136134 -0.0017401496 -0.015125098 -0.026660329 -0.012251058 -0.028910331 -0.029149706 -0.020094255 -0.02932852
e_36_09AH -0.027078811 0.01639487 0.0152221825 -0.0060517592 -0.003456508 -0.018755037 -0.031504653 -0.01460547 -0.0141352005 0.006198074 -0.011004117 -0.007108726 0.026865069 0.02354573 0.00813189 -0.020979963
SUMleges_84.3 0.022012303 -0.03053119 0.0046313945 -0.026736667 0.0029367642 0.012360101 -0.0007618805 0.0038202489 0.013042466 -0.020267205 -0.00093622645 -0.021672934 -0.02239026 0.010257884 0.008856107 -0.0047469744
termName_Termijnterinzageverlenging -0.014227161 0.01805584 -0.020892577 -0.023516774 0.029331489 -0.010748035 -0.008663173 -0.017668286 0.01875169 0.009018387 -0.003428107 -0.023659723 0.003958014 -0.01741059 -0.018071355 0.0012100636
SUMleges_2588.853 -0.022747472 -0.0073657245 0.027279342 -0.015909746 -0.006655993 0.015813375 -0.00947964 0.00198407 -0.0061078304 0.014783049 -0.016680986 -0.029610721 0.00424533 0.027600868 0.010270666 -0.0029094715
SUMleges_1177.671 -0.0114338575 0.022241307 0.018683862 0.008672159 -0.025853647 0.019460607 -0.021730125 -0.008971659 -0.022950416 -0.009304273 -0.013514947 -0.00500932 0.016648257 0.0045006787 0.008563629 -0.024948327
activityNameEN_enterreceiptofadditionaldata 0.021963784 -0.025461894 -0.012131833 -0.0026706648 -0.028515505 0.014158173 0.019063046 -0.0065251538 -0.019809265 -0.005323801 -0.0012210148 0.011183593 0.0047115097 0.015228337 0.02131788 -0.0020329698
e_41_05EIND -0.02701919 -0.0055199875 0.004796676 -0.010299649 -0.00031808313 0.030311888 -0.028034335 0.01581791 -0.028347518 -0.027006142 -0.012107859 0.0026910468 -0.009169081 0.015527903 -0.0053942143 0.009013378
SUMleges_941.631 -0.030718237 -0.025954654 0.0016783684 0.0078068133 -0.018850155 -0.008480826 0.028291661 0.024326716 0.026468445 -0.021941528 -0.020658242 -0.011295826 -0.015589564 0.022032365 0.019639475 -0.014051974
activityNameEN_receiveadditionalinformation -0.02687926 -0.021693064 -0.026290523 0.009813116 0.025838938 0.026976084 0.023753399 -0.02788853 -0.008532463 0.010286764 0.019508656 0.008835816 -0.010597024 -0.029007701 0.004377726 0.026588002
activityNameEN_phaseapplicationreceived 0.011687345 -0.027182976 0.028166085 0.0018185982 0.013198233 0.024034332 -0.030004913 0.008027048 0.011403942 -0.018869648 0.010063941 -0.027064731 -0.025911683 0.019935705 -0.026037324 0.01762086
SUMleges_3494.2266 -0.010599718 -0.029573884 0.019099548 -0.009162563 -0.011154497 0.025548292 -0.026586374 0.0141515 -0.02677789 0.009601061 -0.023519302 -0.0128044095 0.023518212 0.027478138 -0.028466813 -0.005366321
SUMleges_2428.683 0.013594665 0.028284535 0.017188802 -0.024308227 0.021686336 -0.022299478 -0.028142331 -0.012609861 -0.028879965 0.022650754 0.023977324 -0.0021571484 -0.0071353554 0.00508185 -0.018920807 -0.029517569
e_205_05EIND -0.02938407 0.009687515 0.012101889 -0.024770744 -0.028036026 -0.004856537 -0.0107667595 -0.010033439 0.029636184 -0.028172236 -0.020416358 -0.028437678 -0.021553207 -0.008366385 0.01438346 -0.016989358
activityNameEN_registerdateenvironmentalpermitdecision 0.013419658 0.018419802 -0.008405885 0.024774307 -0.025824778 -0.029256789 -0.0062245606 -0.010861117 -0.030371504 0.028338538 0.027377883 -0.006021747 0.022740606 -0.020374885 0.026437402 -0.025072116
e_70_05EIND -0.023858314 0.018098373 0.020481149 -0.00849061 0.0046658274 0.029319916 0.028245192 -0.018878484 -0.0250304 -0.0174569 0.019014087 0.02646844 0.023336865 -0.018784178 -0.02163561 -0.004029768
org_resource_560431 0.002665529 0.018785495 0.019554572 0.017535122 0.009326302 0.028643679 -0.025527531 0.02521118 -0.02808212 -0.00869594 -0.015809067 0.013734824 0.021355597 -0.021508273 0.02999749 -0.027532157
SUMleges_4301.829 -0.02095181 0.026602006 -0.0097610885 -0.02084494 0.029792069 -0.009187032 0.010571164 0.0026264878 0.014048677 0.026117008 -0.019829761 -0.021454167 0.015758686 0.027127152 0.0070131347 0.017941276
action_code_01HOOFD015 -0.012515215 -0.007114193 -0.00644842 0.019145818 -0.008025886 0.014068834 0.002992756 -0.004992965 -0.014932971 0.0031552478 0.027615283 -0.016732236 0.029101718 0.012774264 -0.024618188 0.019038562
SUMleges_241.3256 -0.0061187637 0.02827633 -0.009474719 -0.027740808 -0.009923463 0.0024014735 -0.009226223 0.022996109 0.003687474 -0.026935596 -0.024159072 0.005696398 0.0031773464 0.02549039 0.025047781 0.026629735
SUMleges_592.629 -0.0003958249 0.017609905 0.023404809 -0.0055543464 0.02737597 -0.016631 -0.026013108 0.028101917 -0.017351426 0.006842617 0.001850011 -0.00095997663 -0.025596395 -0.0202902 0.0276975 -0.008846014
