17 16
01_HOOFD 0.019130995 0.017015887 0.03053848 -0.026943633 -0.012442215 0.013813837 0.0140803205 0.025576944 0.004717134 0.01960862 -0.02768261 0.0028958963 -0.030238498 0.007949964 -0.019497974 0.03050561
ArtificialStartTask -0.029817944 -0.021162499 0.0036448808 0.0172855 -0.00570411 0.0069601564 0.01625601 0.025779571 -0.000118978256 0.024418145 -0.0088240225 0.027225068 -0.024307381 -0.007494696 -0.0077115973 0.030278197
ArtificialEndTask 0.015718648 0.00024609617 0.0041016787 0.004192549 -0.00023397758 0.010739975 0.02254608 -0.02515035 -0.024345836 0.011564915 -0.007496596 -0.0049571744 -0.022302356 0.02528791 0.0074096583 0.027264612
05_EIND -0.0015557694 0.00278905 -0.011673228 -0.0134347 0.023779979 -0.003618001 -0.02370245 0.022392282 0.024493936 0.006513195 -0.031149061 0.016432976 -0.030655652 0.020909851 0.011444469 -0.023611305
06_VD 0.028145995 0.02797144 -0.009731356 0.01657396 0.002913782 -0.0071863467 -0.023517422 -0.020163672 -0.0020293668 -0.012853589 0.0029246018 0.022795837 -0.005860844 -0.018219132 -0.030902164 0.020116989
09_AH 0.025312575 0.015398244 0.028133329 0.022903493 0.00012423679 0.030313075 0.03041799 0.003667946 0.005898689 -0.010599475 0.016930463 -0.005313245 0.023203643 -0.01953871 -0.007481998 0.030162932
01_BB 0.0144522805 -0.007630767 -0.008444922 -0.0036703863 -0.028715082 -0.011619046 -0.010777017 0.000624485 -0.0103410855 -0.0003447687 -0.018578833 0.028671298 0.018522039 0.020414619 -0.014388852 0.014106515
08_AWB45 -0.0017339801 0.012713978 0.011275886 -0.01672652 -0.027946657 -0.01586946 -0.026654487 0.02116232 0.02981272 -0.0026122977 0.017843865 0.023402013 -0.010335563 -0.031023115 -0.005777577 0.016723005
03_GBH -0.0032732787 -0.020321453 -0.02653682 -0.00046173463 -0.0049842214 0.015536811 0.023911994 0.0156238405 0.0042299707 0.02710048 -0.00482779 -0.016172495 -0.0046555665 -0.015718829 -0.0058123497 -0.011010552
07_OPS 0.015017741 -0.026527015 0.027981106 0.007762539 0.0045654774 0.028297678 0.0053815073 0.004644335 -0.005031714 -0.0063205743 0.025839549 -0.0057915873 -0.0031080616 -0.0072977454 0.017539468 0.0104109505
14_VRIJ 0.012458188 -0.0051820953 -0.007857064 -0.023126245 -0.020016843 -0.016648835 0.0032346218 -0.019790975 0.023603335 -0.026956413 -0.028216308 -0.014966133 -0.0081403665 0.007848902 0.012062168 -0.022789614
10_UOV -0.017057648 -0.015229308 -0.022453703 -0.0036086936 0.004628401 -0.0050404123 0.008496962 0.0093882345 0.012035779 0.020659117 -0.023566565 -0.030066166 -0.017912138 -0.018622402 -0.026026906 0.014781712
04_BPT -0.024460591 -0.023030223 -0.030624239 0.015978057 0.023254635 -0.018555917 0.024824886 0.0027908667 0.018413004 -0.029252723 0.011058339 0.012292191 -0.0052451435 -0.023372106 -0.008889295 -0.024869548
15_NGV 0.008962083 -0.02222148 0.015030848 -0.0029839813 -0.020011904 -0.009755485 -0.029439725 -0.0037349588 -0.009997897 -0.017183727 0.019213747 -0.028278856 -0.0018518686 0.013895645 -0.021312593 0.02480967
11_AH 0.018649776 0.015469286 0.00980342 -0.001931524 0.024773575 0.006813441 -0.008214695 0.026439046 -0.0066615012 -0.029003095 -0.005392185 -0.019830292 0.004447137 -0.019203667 -0.011710215 -0.0026149682
12_AP -0.025966348 0.002159438 -0.024810823 0.029962339 -0.016500734 -0.009402088 0.01997826 0.020211792 -0.0018809623 -0.023555376 -0.0015934078 -0.01686055 -0.0045828274 -0.0071186135 -0.019349582 0.021904876
02_DRZ 0.007382197 0.009685049 -0.019620568 0.02450452 -0.009488544 -0.027206225 -0.025897672 -0.012449513 0.013664975 -0.021258498 0.020059153 0.015622261 -3.102915e-06 0.01628895 -0.029991718 -0.0149648795
