1508 16
requestComplete_1 0.025404673 -0.020910095 0.02644462 0.008565125 -0.019919015 -0.027136907 -0.028410204 0.03059288 0.012268366 0.015747853 -0.012677873 -0.02447098 -0.020576222 0.011777615 0.009335222 -0.03821385
caseStatus_G -0.0022094112 0.03211063 -0.019771215 -0.007887945 0.018268768 0.006612826 0.025182122 0.0072778575 -0.022372976 0.020342313 -0.03210239 0.029981812 0.0033267047 -0.028439635 0.010113406 -0.013758069
termName_EMPTY 0.008518218 -0.022833217 -0.007831495 -0.005042468 0.02497524 -0.03247934 0.00977553 0.013678815 -0.009809353 0.032908175 -0.021899488 -0.0016222642 -0.028553756 0.001889757 -0.00051682454 -0.032486495
question_False -0.0012359701 0.011623997 -0.02169299 -0.0035839782 0.025758773 -0.021944558 0.013167724 0.008735443 -0.023953643 -0.010410442 -0.0067600408 -0.012856492 -0.009624975 -0.008908198 0.0100982655 -0.025641141
SUMleges_EMPTY 0.0032095588 -0.0046153334 0.010516759 -0.028732046 0.0007767984 0.007470318 0.02380145 -0.0013708435 0.031539675 0.010803964 -0.00573204 0.02212952 -0.0013242272 0.006268623 0.022018496 -0.014828653
question_EMPTY 0.003837112 -0.005262751 -0.032210976 -0.024627732 0.011540183 0.00839433 0.002473728 0.033678517 -0.014867615 -0.015509686 -0.023427531 -0.013390553 -0.014606004 0.011749097 0.02081833 0.0040222174
parts_Bouw 0.006326997 0.0019967975 -0.0064822095 0.011484609 0.018206522 -0.019283213 0.023260443 -0.016983358 0.02409345 0.011574377 -0.012277709 0.028955998 -0.033181094 0.011636677 0.02340103 -0.013153292
monitoringResource_560696 0.018941296 -0.007870358 -0.030893456 -0.011740795 0.0049332664 -0.009132576 -0.022163432 -0.017653074 0.0023934555 -0.01916333 0.026201505 -0.011708978 -0.030234804 -0.018834487 -0.023468187 -0.025922125
eventName_01HOOFD 0.026067903 -0.0075033507 -0.022174956 -0.012509426 0.024015807 -0.026265709 -0.01083128 0.010516393 0.010912843 0.02183278 -0.014765231 -0.027940067 0.0015691958 0.021989176 -0.030451784 -0.026786912
Responsible_actor_560696 0.03247225 0.029190198 0.0053851884 -0.023485158 0.0064256717 0.0019502989 -0.0039594476 -0.0057597305 0.026616702 0.03005333 -0.0062828893 -0.006093976 0.019450113 0.007410957 0.004438775 0.010001292
action_code_01HOOFD010 0.012802474 0.028146839 0.016408376 -0.021123242 0.024681728 -0.018539073 -0.00034837433 -0.013058949 0.0011137738 -0.0036875424 -0.009070956 -0.012003657 -0.013456268 0.028038742 0.016648393 -0.023320094
activityNameEN_registersubmissiondaterequest 0.018424302 -0.011249207 0.008938048 -0.027599998 -0.009258462 -0.012869459 0.014796909 0.011232317 0.022015022 0.022113245 -0.012247646 0.02252182 0.029176345 -0.013566732 0.017516173 -0.017111659
last_phase_Adviesbekend 0.025525631 -0.008371175 -0.013206742 -0.010924357 0.0015484116 0.022702426 -0.0031250035 0.0020844187 -0.021075375 -0.0050145686 -0.01335796 -0.01362416 -0.027300114 -0.013382788 -0.029305562 0.01378875
eventName_06VD 0.020748276 -0.024135945 -0.032794684 -0.0009142929 -0.023997284 0.00075836247 -0.025412947 0.029248007 0.0031163173 -0.020733355 0.00584886 -0.0044137444 -0.011007963 0.02037157 0.022226935 -0.018643647
parts_Kap -0.025481813 0.019200401 0.0009336879 0.0013015233 -0.02344603 -0.017753895 -0.020806031 0.024376757 0.007341507 0.027274001 0.01164656 0.014019014 -0.010332579 0.0264582 -0.017013906 0.007958768
eventName_05EIND 0.021715758 -0.022821184 0.012418868 -0.0037516626 -0.017660663 0.019606484 -0.0142869195 -0.009750039 0.0089078015 -0.017130705 -0.0119746765 -0.0137278065 0.007708471 0.003639549 -0.017149286 0.013910499
action_code_06VD010 -0.011122327 -0.026261248 0.0072934483 0.011828564 0.011613233 0.0004166919 0.02764955 0.024474284 0.013348897 0.014847719 0.010070184 -0.006888391 -0.021735543 -0.008800682 -0.016224673 0.021941883
eventName_09AH 0.023856988 0.016610058 0.0033096357 -0.027106324 -0.0003084133 -0.020716986 -0.010385642 -0.0034932876 0.0033283608 -0.009049113 -0.010907177 -0.014266779 -0.016598176 -0.020183971 -0.0049336143 0.008412201
activityNameEN_extendprocedureterm 0.018580083 0.0057731695 -0.018113248 -0.006144527 0.026425648 -0.0029165277 0.028039455 0.030305896 -0.006013723 0.012973076 -0.023953851 0.0034213874 0.01420754 -0.0017856382 -0.017848529 -0.020441044
activityNameEN_terminateonrequest 0.0072048376 -0.00044008813 -0.0046949508 0.001955391 -0.015457968 -0.0043815877 -0.012836454 -0.004436402 -0.011770169 0.03092618 -0.003862312 -0.014739549 0.025327377 -0.0047539705 0.01048465 -0.0025526332
action_code_05EIND010 -0.022893371 -0.020228969 0.022345668 -0.015622368 0.020322097 -0.018978285 0.019131038 0.03335721 0.030411694 0.008799174 0.00745871 0.0011356815 -0.0029904963 -0.018789327 -0.028176066 -0.028049035
action_code_01HOOFD370 0.01819499 -0.029561307 0.0007765347 0.01807669 0.01493129 -0.022837901 0.0046285996 0.012842154 -0.016488519 -0.021628171 -0.015400136 -0.0048154113 0.02214504 0.018189074 -0.012525378 -0.031959515
action_code_09AHI010 0.031217515 0.029461794 -0.030012658 -0.02967422 -0.0006905802 0.02862477 0.025338043 0.021988261 -0.00832621 0.017689236 0.016758375 -0.01488913 0.021222873 0.0067164097 -0.0011623855 0.016903792
last_phase_Zaakafgehandeld -0.009379827 -0.007896899 -0.0268616 0.015546538 0.015961282 -0.011082449 0.001578682 0.015708322 0.008738225 0.019087685 -0.02868755 0.007849866 -0.028562205 0.0001625714 -0.00039790804 -0.030054728
last_phase_Vergunningverleend 0.0023912922 0.009569968 -0.0017509346 -0.018933102 -0.025657134 -0.029667163 -0.026462693 -0.028272223 0.023337865 0.028876916 0.021526165 0.0077359094 0.027711928 -0.014942694 -0.023817325 0.009460328
activityNameEN_article34WABOapplies -0.021612702 -0.016417183 -0.011361864 0.026618779 0.0032379527 -0.008222453 0.023641149 0.009724641 -0.03141511 -0.0020574739 -0.008130866 0.023272477 -0.022053245 0.02823986 -0.0020199418 -0.019990444
parts_Sloop 0.025377925 0.015462911 0.013920546 0.007783159 -0.027358321 0.0010439851 -0.0030389612 -0.007945617 -0.01628893 0.020607157 -0.005452053 0.00094761484 0.007640372 -0.009122656 -0.006730033 0.025061347
last_phase_Besluitgenomen 0.003262497 0.0063303416 -0.03256032 -0.0016860627 0.009454917 -0.012203995 0.023372032 -0.015464276 -0.009014395 -0.010207795 0.019980833 0.0010047761 -0.0058102366 0.013385423 -0.0107930405 -0.031022364
activityNameEN_assessmentofcontentcompleted 0.0115129575 0.016384745 0.0005513525 -0.007511923 -0.00809534 0.01859731 -0.007528375 0.008069392 -0.012480397 -0.01966468 -0.0038307079 0.026998037 0.016071055 -0.023818348 0.0011280042 -0.030674292
org_resource_560454 0.0076764985 0.029079057 0.014730194 -0.016739216 0.01871133 -0.0143068675 0.024406634 -0.021586377 -0.016588889 -0.0149843795 -0.022136379 -0.009278124 -0.0097684655 -0.013714008 -0.024839872 -0.009948157
monitoringResource_560925 0.013211719 0.018763676 -0.022191344 -0.022231815 0.030261425 -0.0050895265 0.006698067 -0.021731986 -0.011816342 0.006867446 -0.026584884 0.016837029 0.009121388 -0.0059730834 -0.026755089 0.024231423
last_phase_Vergunningonherroepelijk -0.008769502 0.0045244717 0.026631817 -0.028542336 0.021993283 -0.032066878 -0.007344843 0.032937948 0.009426899 0.0033708331 -0.03050642 0.0051557194 -0.012680653 -0.03173146 0.00755938 -0.009781815
termName_Termijntotbesluit -0.016211165 0.005070837 0.024251241 -0.011954069 0.02626097 -0.0074911644 -0.019568956 0.0077784453 -0.0003944293 0.026808174 -0.031193797 0.02891667 0.0032759802 -0.0010333494 0.014130724 -0.030838158
action_code_01HOOFD120 0.011933992 0.030315816 0.024445347 -0.024763329 -0.00041635224 0.0005911158 -0.005722726 0.013177196 0.01334414 0.00840168 -0.0057503316 0.012758952 0.0034568456 -0.018068671 -0.030144535 -0.023290897
org_resource_560890 -0.01582288 0.023952339 0.017983267 -0.020009784 -0.0034777673 -0.022362396 -0.0073296 0.0074332757 0.007865066 0.02540778 0.004682752 0.002563423 0.02403373 0.017983338 -0.02276323 -0.0299847
monitoringResource_560604 -0.028146707 0.018496163 -0.023706406 0.017678263 -0.011163021 -0.015613845 0.005169661 -0.019312287 -0.0017496856 0.005511075 -0.033540625 -0.004856267 -0.016847588 -0.00572917 0.013133784 -0.032551058
action_code_01HOOFD100 0.0066492176 0.001773736 0.0004153874 -0.023276135 0.0023959011 0.021894133 0.0170659 0.013463321 -0.016215356 0.023694243 -0.0041875467 0.0042844056 -0.023666123 0.027281728 0.027249092 0.00277312
last_phase_Procedureafgebroken 0.0151903685 -0.027162071 -0.012332102 0.019967835 0.0082195895 0.028605817 0.02229618 0.018614719 0.01796353 0.0026135205 -0.008846176 -0.004031827 0.01017462 -0.0076555787 0.028972266 -0.032192957
activityNameEN_registrerdateofpublishingreceivedrequest -0.0065807058 0.009198467 -0.0031526906 0.005589672 -0.011468606 0.021667946 0.00905058 0.012687101 -0.012105026 -0.013069684 -0.011939496 0.013511819 0.019100744 -0.014031716 0.010761739 0.002748814
org_resource_560429 0.0057876115 0.031642716 -0.029700112 -0.033532266 -0.015861193 0.019554928 0.014454782 -0.0005192618 -0.0029315376 -0.015239692 -0.008602412 0.016110018 -0.03156545 -0.021450313 0.023753555 -0.007701658
question_True -0.0028517845 -0.018838972 -0.0096015595 -0.020466065 -0.0069315988 -0.028607057 -0.0009454717 0.027225425 -0.015398345 -0.012119036 -0.007876045 -0.012423637 0.027621731 -0.012828122 0.025546337 -0.018210141
monitoringResource_560872 0.02593883 0.010594538 0.022691416 -0.025845777 0.0058873715 -0.010464679 0.004049256 0.009100032 0.0025480974 -0.029321056 -0.02787258 -0.026410002 -0.023623798 -0.026459225 -0.011499251 -0.018083086
org_resource_2013365 -0.010996775 -0.009511843 0.0008338858 -0.03421657 0.025839632 0.022550136 6.728387e-05 0.028533181 0.012868008 -0.009644888 0.008939646 0.00344505 -0.012546346 0.0040457915 -0.016501695 -0.031149404
Responsible_actor_560604 0.001703739 -0.0049894345 -0.0044427267 0.0003674385 -0.009824934 0.02273091 0.016432716 -0.02273119 0.024017802 0.0060543623 -0.025242127 -0.02557385 -0.031143181 -0.028906535 0.015349338 -0.03201345
org_resource_560749 -0.016818471 -0.0034475783 0.017583726 -0.033019703 -0.018697597 0.028494436 -0.017175293 0.033116292 -0.009100661 -0.0075561255 0.006606207 -0.015318209 0.01742559 -0.016159212 -0.023076871 0.01792954
org_resource_560741 0.0029973127 -0.004183806 0.011528482 -0.013561168 -0.005403611 -0.019305004 0.0014101872 -0.014008303 -0.01874198 -0.01722096 -0.004001495 0.019219918 -0.020661647 0.009760873 0.004802319 0.019171575
activityNameEN_phaseadviceknown -0.019803679 0.0044390867 -0.011665357 -0.024774205 0.0019304266 -0.015264841 -0.020446777 0.015974414 -0.0024538573 -0.023775734 0.011139248 -0.018073874 -0.02140323 0.017877955 -0.016918628 -0.011607474
Responsible_actor_560600 0.018362539 0.024563111 -0.009054162 -0.009990466 0.007390065 -0.030776294 0.010791641 0.0034920275 0.026527913 0.028377522 -0.0041901837 -0.012287904 0.02878683 0.012075872 0.026963422 -0.0070214826
monitoringResource_560812 -0.0124405995 -0.025658466 0.013741282 -0.016163388 0.020164253 -0.01626432 -0.01676021 0.0016755966 0.014491012 0.0040894346 -0.0044853166 0.008417165 -0.028773183 0.030493507 -0.028256468 -0.013301325
org_resource_560752 0.011589476 0.011110674 0.01978429 -0.0049210414 0.031166727 -0.011314706 -0.025977014 -0.016296806 0.02308857 -0.010566375 0.013194796 -0.018500438 0.026718965 0.020848893 0.023803847 -0.019636407
org_resource_560673 0.028345173 -0.0156106595 -0.02613625 -0.021101797 -0.006670438 -0.0069367466 -0.013136703 -0.017789835 0.0030428858 -0.013407881 0.02643929 -0.006046215 0.019687407 -0.012726296 0.024534602 -0.019380843
Responsible_actor_560812 0.009886451 -0.008959037 0.0062542916 -0.0309203 0.023879876 -0.03148722 0.016548 0.022727598 -0.02278838 -0.0046496117 -0.027433665 0.011913597 -0.019769015 0.009758807 0.03073067 0.0072499723
Responsible_actor_4901428 0.03240815 -0.019085715 -0.0060530817 0.021952765 0.0044770236 0.0056473846 -0.01180598 0.031659033 -0.026592394 0.021705572 -0.031186543 0.011109941 0.019856637 -0.012423308 -0.012936171 0.005651113
activityNameEN_subcasescompletenesscompleted 0.013668566 -0.016360246 -0.024905562 -0.011395906 -7.4523756e-05 -0.0009492298 -0.015986584 0.009956349 0.010985661 -0.028406223 -0.017661782 0.024946291 -0.030454407 0.010248379 -0.01627818 0.007675267
caseStatus_O -0.012079537 -0.0043750443 0.025032958 0.012445132 0.008899955 0.02656711 0.0302416 -0.022178944 -0.019481745 0.018763585 -0.02457804 -0.025039423 0.016683457 0.028860226 -0.0038160295 -0.01826357
monitoringResource_2013365 0.031387124 -0.004409893 0.00839184 0.025502468 -0.0129114175 0.008819473 -0.024264386 -0.011563266 0.029354997 -0.0132732885 0.010673577 0.029338008 -0.01046203 0.029901505 0.026202196 -0.001623244
Responsible_actor_2013365 0.008653692 0.02075207 -0.02323826 0.0032059206 0.009094749 -0.02721357 0.026865924 -0.020567635 -0.022742651 0.010607074 -0.01944724 0.0042919074 -0.012867341 -0.01637915 0.011912245 -0.02408013
org_resource_560696 -0.0009938078 -0.013994085 0.004241052 -0.02015382 0.020475488 0.024731267 0.020299302 -0.006862415 -0.015607557 -0.024470737 -0.0013903955 -0.02369852 0.028869947 -0.02240129 -0.02378042 -0.006352074
org_resource_560872 0.0316157 -0.009314757 0.0016972824 -0.0058953506 -0.005492597 0.0066842986 0.010699932 -0.024841743 -0.020979328 -0.022027928 0.022721259 -0.02971668 0.023499694 0.008747564 -0.017103774 0.025237834
action_code_01HOOFD375 -0.005989068 -0.020589525 0.019005645 0.015357141 0.0013706462 0.020448895 -0.013611687 0.002189099 0.012488048 -0.026863746 0.017965289 -0.0011144686 -0.005168486 0.0052833543 0.011144223 -0.008696443
Responsible_actor_560454 0.00949738 -0.0035881766 0.022673849 -0.026166748 -0.022307536 -0.017064247 0.026752276 0.03262877 0.029790547 -0.0012701477 0.008794741 -0.019867975 -0.0055007157 0.014941902 -0.017108722 0.019375056
last_phase_Aanvraagontvangen 0.022009386 -0.025579328 0.0043014605 -0.028933156 0.029225225 0.018233398 0.016432747 -0.025903193 0.024029024 0.028189845 0.010342986 -0.0059975996 -0.00059767487 0.005032899 0.0066591906 0.015297088
action_code_01HOOFD790 -0.012641263 -0.0060415925 -0.03129135 -0.0012676918 0.014758414 -0.03238179 0.023607222 0.017717393 -0.0017026755 0.021375699 0.0130699985 0.030962879 -0.026109226 0.00075629493 -0.0053776936 -0.01923145
monitoringResource_560600 -0.025530552 -0.022141203 0.02014266 -0.025239382 -0.015515976 -0.029207937 -0.019945312 0.02868508 0.017728416 -0.028013183 0.030053824 0.03102839 0.0045459173 0.019346585 -0.020464158 -0.029582724
action_code_01BB540 -0.02834269 -0.00037210237 -0.015579852 -0.0053008646 -0.0011886314 0.005433092 0.028833684 -0.016239293 0.02210301 -0.008219486 -0.0023905 0.022720547 0.01095929 0.008412034 0.018919932 -0.0031215714
org_resource_560604 0.009165057 -0.013832414 0.0022183924 0.018440353 0.021190936 -0.031081408 -0.018394863 -0.0098687615 -0.020402772 0.023876963 -0.032110766 -0.01766995 -0.0045536733 0.005744392 -0.009269374 -0.00041900703
activityNameEN_closecase 0.02701658 0.0037398855 0.028331459 -0.031527728 0.017552696 -0.009827914 0.011663572 -0.007935969 0.026943834 -0.025995927 0.014205277 -0.010899981 -0.0059367707 -0.024275579 0.01319125 0.01759461
org_resource_560881 0.0013338857 -0.012017294 0.014158157 0.014099 -0.01430663 0.0033651588 0.008381285 0.01181572 0.019870155 -0.007456509 0.015839979 0.006501198 0.028494306 -0.018270321 0.028302299 -0.0045611123
action_code_01HOOFD110 -0.028318824 -0.024171235 -0.021475207 0.009875391 0.028497616 -0.024680758 0.00954591 0.020252967 0.024445299 0.00033213245 -0.0025504937 0.023457069 -0.0144652575 0.010916786 0.020068817 -0.002616827
parts_InritUitweg -0.012005958 0.025325527 0.017945237 0.008338263 0.0281943 0.0012422987 -0.0064207315 0.025007289 0.02639398 0.023745818 -0.0033489508 0.026608966 -0.017016852 -0.02831396 0.012907114 -0.0177988
org_resource_560600 0.0065516657 -0.019455668 0.02708598 -0.01977847 0.02108493 -0.010616053 -0.0023676893 0.032184854 -0.0058551854 0.031588275 -0.01959424 -0.014740014 -0.0033414916 -0.026503261 -0.0008780549 -0.020418985
SUMleges_116.79765 0.03171403 -0.010321861 -0.010471088 -0.017709607 0.0268532 0.011903909 -0.010186412 -0.027621238 0.029731186 0.014989668 -0.00864891 0.022443287 0.00710161 0.014818935 -0.017999489 -0.013129014
eventName_01BB -0.023447543 -0.010750702 -0.012813767 0.026309304 0.016137898 0.020126352 -0.029027754 0.016330557 0.015604786 0.025504338 0.0105272075 -0.0020537523 0.024400262 -0.011801159 -0.0029242886 -0.012934028
activityNameEN_entersenddateprocedureconfirmation 0.015967207 0.028831469 0.0015350569 -0.0010328006 0.020254143 0.0013134115 -0.018073063 0.0069729188 0.024151042 0.011895528 -0.018499836 0.019129671 -0.019220518 0.017287211 0.025563966 -0.008818969
Responsible_actor_560464 0.02549706 0.019758072 0.022029724 -0.021304447 0.0039044 0.0010863809 0.012874672 -0.002193443 -0.02638807 0.016663773 0.02224411 0.026707174 0.008553065 -0.027549759 -0.0026148139 -0.005684414
Responsible_actor_560925 -0.023806527 -0.013775875 -0.027871197 0.000108487366 -0.01305144 0.028712986 0.007365109 0.025696538 0.025371026 0.02244935 -0.007310887 0.01990917 -0.017124139 0.004259642 0.0006756359 -0.017802093
activityNameEN_treatsubcasescompleteness 0.015298698 0.015962284 0.028898591 0.00500735 -0.002853099 -0.008053922 -0.014192769 -0.0028927827 0.014175713 0.030044664 -0.002350866 -0.019737031 -0.027777422 -0.0011793728 -0.015676375 0.025916552
Responsible_actor_560458 0.032484427 -0.0072976984 -0.019242521 0.024304764 0.023427153 0.028129263 0.011739116 -0.028509442 -0.029681552 0.009600797 -0.021250043 0.020068843 0.024792032 -0.025751077 0.02013671 -0.025608884
activityNameEN_applicantisstakeholder 0.02189071 0.0082764495 -0.019105254 0.025890723 -0.003991614 0.02015695 0.011692499 0.018788004 0.016058045 -0.023721302 -0.021084247 0.006287772 0.014289598 -0.0008658445 -0.006539313 0.010414242
parts_BouwHandeleninstrijdmetregelsRO -0.010685071 -0.019484593 0.030275557 -0.015805628 0.017611347 0.016974855 -0.028176963 -0.0077032372 -0.009477105 -0.019597894 -0.0048462357 2.9852086e-05 0.013631407 0.019043142 -0.02394408 0.011541698
action_code_01HOOFD180 0.00033290515 -0.022980507 -0.01806483 -0.027424172 0.026529513 -0.029982613 -0.0041025104 -0.019503284 0.001164982 0.02838598 -0.026648486 -0.0021046507 0.002988799 0.025151476 -0.026185267 -0.024383994
Responsible_actor_560872 -0.0015422752 0.0027388388 0.0017350962 0.023490585 -0.0025776075 -0.025749318 -0.005075203 0.010233975 -0.018569725 -0.020356366 -0.018518815 -0.028459154 -0.019146064 -0.03182349 0.030549524 0.029100686
Responsible_actor_560912 0.01947925 -0.0015753888 -0.007826721 0.0054815942 -0.025138622 0.0055383025 -0.026546324 -0.008408393 -0.026971823 -0.005105298 -0.03174227 -0.012939049 -0.015394471 -0.00045281748 0.02586097 0.00042144879
parts_BouwSloop 0.01153643 0.020895137 0.0043730442 0.0135498885 -0.005112553 0.006099859 0.012072333 -0.008729204 0.016907455 -0.030336572 -0.023763869 0.029323228 0.004522611 -0.021309426 -0.02706449 -0.017374301
parts_EMPTY -0.001409865 0.008925734 -0.02437595 0.01732494 0.026006637 -0.009258568 -0.010627606 0.021075308 0.029117567 0.0028702891 0.019748218 0.00066326716 -0.030976191 0.017296633 0.027764462 -0.022704057
Responsible_actor_560852 -0.009630528 -0.027226297 -0.015835054 -0.014666976 -0.002412103 -0.027386561 0.0141589735 -0.027316267 -0.017884534 0.025905207 -0.023024438 -0.026069207 -0.010814968 -0.029857025 -0.016509518 0.025229504
action_code_01HOOFD050 -0.0034302175 0.025555799 -0.030234698 -0.013383418 -0.0033014782 -0.018090494 -0.013130909 0.0071606115 0.02446182 -0.015667288 0.0143473055 -0.005577889 0.029188167 0.02014935 -0.027991904 -0.02922943
monitoringResource_560741 0.01324873 -0.012425733 -0.030273387 -0.0017677363 -0.023806486 -0.03006367 -0.028649392 -0.023142155 -0.008502304 -0.011547005 0.026951794 0.0046143075 0.004938997 -0.018626118 -0.01559301 0.025968444
monitoringResource_560673 -0.024552064 0.017011605 0.02056432 0.013927549 -0.001565249 -0.0073492248 -0.004476253 -0.013036666 -0.017558152 -0.00074006175 -0.015210737 0.016989646 -0.014642489 0.010398807 -0.026929036 -0.024543876
action_code_01HOOFD0302 -0.025048938 0.031212285 0.0035631042 -0.017018152 -0.02715299 -0.028507408 -0.025018975 0.011391808 -0.017829426 0.0060467757 0.027928745 -0.009524245 -0.0026825725 -0.013280347 0.011718463 -0.021350125
org_resource_560925 0.0069131693 -0.018038094 -0.01039309 -0.018866148 -0.015356741 0.010471936 0.0011101466 -0.0041732034 -0.010518648 0.0013467724 0.017860794 0.0028018882 -0.006047992 -8.429368e-06 0.005536914 0.0051766806
activityNameEN_termforsupplyingmissingdata -0.011670085 -0.009533705 -0.026673675 0.0011881304 -0.029795025 -0.028278984 0.026187306 0.025463993 -0.015766753 -0.022364508 0.007887778 0.022760842 -0.029426444 0.03051196 -0.008178243 0.008220247
Responsible_actor_560849 -0.012534714 0.013422582 -0.007018893 0.023136402 0.019292485 0.0047634346 -0.025645947 -0.016006965 0.028619198 -0.020528987 0.0011511303 0.0167102 0.0033169223 0.00015472913 0.019212922 0.011295656
activityNameEN_objectionlodgedagainstdecision 0.019949459 -0.0045805234 0.015478773 0.0011019816 0.019618522 -0.030577462 -0.006478107 0.020171113 0.0181988 -0.016009454 0.00930792 -0.0030973316 0.004867407 -0.0028506073 -0.0015645128 -0.012298481
SUMleges_126.45 -0.018623933 -0.016679134 -0.016417036 -0.0005064842 0.025745163 -0.025145726 0.0017474 0.01795829 -0.020429756 -0.00787268 0.020345299 -0.03058043 -0.012512568 -0.021956798 0.023702877 -0.0043523815
SUMleges_16.86 -0.028247256 0.0071844915 -0.0076894714 0.022637041 -0.014594976 -0.030204145 0.001208595 -0.017089777 -0.014068592 0.024331402 0.010182902 0.0043428815 0.005348037 0.00067699444 -0.011110915 -0.0013303173
org_resource_560821 -0.0015919306 0.017941734 -0.0060822866 -0.001828109 0.015957827 -0.014281994 0.0034686069 -0.009500603 -0.0091218725 -0.0121881785 0.027011948 -0.006954876 0.026848355 -0.017601877 -0.014251075 0.011120498
action_code_01HOOFD4901 0.007359059 -0.0030112464 0.026368687 0.020470444 0.0057293978 -0.019193593 0.0010797342 -0.024338659 0.022899758 -0.018229097 0.015617547 -0.0139715085 -0.030762725 0.020403363 4.6190537e-05 -0.016126057
SUMleges_51.423 0.023325404 -0.027389625 -0.005460906 -0.022268547 -0.0064382115 0.006055015 0.020378465 0.007097919 0.0057494314 0.031271335 -0.007550918 0.018783432 0.009029623 -0.026744828 -0.008529434 -0.025505897
org_resource_2670601 -0.011814556 0.0055625206 0.010573118 -0.013821963 -0.02967032 -0.006853783 -0.005906291 0.018503856 0.0187902 -0.0032243736 0.012699907 -0.029394453 0.019858941 -0.014048158 -0.026721554 -0.015616522
monitoringResource_560912 -0.023242401 0.010229405 0.020061465 0.02007123 -0.01040486 -0.0018071107 -0.009052007 0.025946796 0.015450854 0.01550316 0.00926107 -0.023339594 -0.022366202 0.021322146 -0.0005982407 -0.023328148
action_code_01HOOFD0652 0.016489448 0.02159414 -0.025939321 -0.029286843 0.023226261 0.01356183 0.02556884 0.02579736 0.011666234 -0.005393904 0.022762133 0.02522813 0.0047126864 -0.0021551151 0.0051084785 -0.011689481
activityNameEN_WAWpermitaspect 0.009279508 -0.03047223 -0.00019915725 0.008591923 0.006396985 -0.026243694 0.017289953 0.027672678 0.024488714 -0.0037799256 -0.012095204 -0.009764478 -0.02316374 0.0023654455 0.00227871 0.00796361
org_resource_560912 0.024814375 0.016646365 0.010936511 0.01126365 0.011455678 -0.024719622 -0.0112367775 0.008764169 0.0062445262 0.014564803 0.02955408 -0.013408449 -0.01584211 -0.026609411 -0.0068418756 0.015532063
Responsible_actor_560596 0.011120892 0.02773361 -0.016977359 -0.015563341 0.01789766 -0.02000538 0.013285002 -0.027829602 0.03005305 -0.014380755 -0.018927176 -0.029692966 0.018064013 0.007010793 0.025333457 0.014305402
activityNameEN_activitiesregularprocedure 0.004825438 -0.027970888 -0.025167698 -0.01800998 0.018574549 0.010276161 0.025664708 -0.014081289 0.026686465 -0.00063732004 -0.012068355 0.011690362 0.00087403454 0.02725912 0.008756008 0.027399296
monitoringResource_560458 0.028217416 0.025830798 0.015513903 0.014134788 6.163152e-05 0.010636809 -0.022667697 0.0224643 0.0011488469 0.028331228 0.002232631 0.009279295 -0.0044259615 0.006759282 -0.01020682 0.019902134
monitoringResource_560849 -0.02698217 0.004354056 0.0016009264 0.0103950985 0.015456847 -0.0039737322 -0.0046123797 0.027975226 0.02850385 0.013986085 0.017622987 -0.00420356 0.00095053867 -0.010772134 0.02487756 -0.029766139
e_107_01HOOFD 0.008061008 -0.007132913 -0.0052924394 0.0036631934 -0.01564792 -0.020714058 0.022050565 0.0222727 0.026069028 0.014444333 0.011119376 -0.00014750271 -0.02224564 0.0050923564 0.012675418 0.028986583
activityNameEN_entersenddateacknowledgement -0.00083097914 0.017234277 0.013193713 0.009487547 0.029110072 -0.0004675718 0.007363446 -0.022425486 0.013310279 0.016104259 -0.031497817 -0.008631656 0.021162242 -0.028924527 0.028542763 0.029302698
monitoringResource_560596 -0.019682676 -0.004434373 -0.0067660757 -0.008917289 0.0057525225 -0.018402142 -0.02694003 -0.025784535 -0.012006856 0.008648512 -0.002897046 0.026474714 -0.030846521 -0.030341787 0.018384794 -0.00847601
activityNameEN_sendprocedureconfirmation -0.0213631 -0.017915389 0.022457043 0.0011966769 0.027085828 -0.029448329 -0.008363805 -0.019777928 -0.0187132 0.023815412 -0.023460733 0.0138329305 -0.029948432 0.022613876 0.019518333 0.0033942207
eventName_08AWB45 -0.016765611 0.018075177 -0.018286707 -3.642415e-05 -0.018361177 0.013771647 -0.01293807 -0.0011705253 -0.021227576 -0.02290597 -0.011617517 0.0006494927 -0.019268187 -0.004022748 0.0062753484 0.00050381164
action_code_01HOOFD130 0.0023892112 0.015208272 0.025847703 0.028178481 0.011973247 0.0066308994 -0.00071531575 0.021028537 -0.018170316 0.0052359565 0.024915893 0.007844322 0.009779155 -0.03167394 0.0047158203 -0.018295942
org_resource_560596 0.011483387 0.003024538 -0.009419471 0.01679407 -0.02157862 0.006272194 0.01301468 -0.014911578 0.025633367 -0.016834084 -0.015895706 -0.028078787 0.0070594205 0.0032613187 0.0025317732 0.0068906485
action_code_01HOOFD1902 0.0037035726 -0.005314109 -0.031408068 0.026523953 0.02959939 0.011697366 -0.024828233 -0.026649447 0.0044216313 0.019271383 0.007593255 0.025149994 -0.020724293 -0.00926206 -0.004042409 0.0051797833
action_code_08AWB45010 0.022882106 -0.009291456 -0.02837541 0.00895877 -0.018825524 0.019860068 -0.0071683363 -0.026602382 0.02201009 -0.024544477 -0.017679853 -0.012535646 0.0043881685 -0.020051353 0.0028853093 -0.020910664
monitoringResource_560852 0.025223302 0.017700443 0.02168871 -0.0053308127 -0.0069114175 0.02538375 -0.010287479 0.011412447 0.001058077 -0.015660137 0.021223782 0.027682722 0.0012260111 0.0097516645 -0.018882088 -0.031467553
e_8_01HOOFD -0.006148754 0.019923104 0.01336011 0.029210972 0.016779233 -0.017273873 -0.022708679 -0.021458322 0.009510218 0.0034498402 0.0024736729 -0.018520687 0.027672457 -0.030399768 -0.0072130132 -0.00475228
action_code_08AWB450202 -0.011946466 0.012596355 -0.020480951 -0.009888374 -0.002811861 -0.02664017 -0.011314241 -0.018915799 0.012741525 -0.01662466 0.016489992 0.009939186 -0.018292638 -0.019158522 0.008552888 0.01797337
monitoringResource_560454 0.013532005 -0.0013821865 -0.0074150693 -0.019067876 0.0042571644 -0.018030154 -0.012250462 -0.016106587 -0.0074190884 0.03144209 -0.021359516 -0.013540538 -0.019931905 0.013258198 -0.004402785 -0.0001530322
activityNameEN_MERpresent -0.016079782 -0.008548037 -0.0055342475 0.02967932 0.011727119 -0.021921715 -0.0037844307 0.026256537 -0.0023771808 -0.019623006 0.0074369395 0.019929467 0.021861888 0.020020215 0.0063847844 -0.014309341
e_14_01HOOFD -0.008650751 -0.006814043 -0.0017272332 0.011643056 0.002735449 0.00877569 0.013819457 0.012113431 -0.011741728 -0.024332859 0.029793052 0.014457324 -0.006041218 -0.030207856 -0.016781136 -0.024749111
SUMleges_118.9473 0.012408794 -0.006213142 -0.023015741 0.029217428 -0.030728359 -0.009277263 0.028410949 -0.029188959 0.006769677 -0.021806426 -0.02135874 -0.013216214 -0.004315132 0.030265814 0.014651722 0.029278731
e_228_01HOOFD 0.008015442 0.014866117 -0.0104145575 0.008490926 -0.016225375 0.023403822 -0.012290553 0.006132941 -0.012268827 0.00114843 -0.0033719877 0.03150644 0.020300806 -0.025931979 -0.020936444 -0.030082177
action_code_04BPT010 0.03107126 -0.021501733 -0.011579802 -0.0036174713 0.0072947764 -0.030450182 -0.01927999 -0.011603309 0.025236217 0.028776085 0.030274829 0.010249255 0.0011927763 0.007880441 0.024256587 -0.028765148
action_code_01HOOFD250 0.024194997 0.014755086 0.025948774 0.013293941 -0.004606462 -0.022881636 -0.017498123 -0.011691447 0.011336479 -0.018172352 0.02933729 0.004254738 -0.0037004086 0.012097945 -0.0080333995 0.024952333
e_215_01HOOFD -0.018347919 -0.026647544 -0.019753898 -0.031850938 0.029139522 -0.014345131 0.0063672345 -0.0016012283 -0.013946646 0.0060831457 0.023243202 0.014091144 0.029057384 2.7434256e-05 -0.00917587 -0.022742672
parts_HandeleninstrijdmetregelsRO 0.00014743212 0.011690725 0.0063063833 -0.0090051815 0.014216292 -0.012420339 -0.005841356 0.009756264 0.0007525771 -0.01841929 0.025096148 -0.006501058 -0.019539865 -0.018686695 0.011017269 -0.006160012
e_208_01HOOFD 0.0117879845 0.020618157 -0.010130534 -0.018958412 -0.028427646 0.013246618 -0.026550002 0.005856123 -0.015663205 0.02292138 -0.031665195 0.009358521 0.017490128 0.022149863 0.011197853 -0.0010390722
e_82_01HOOFD 0.031953573 -0.029238483 -0.010364309 0.022784682 0.020164499 0.03024994 0.007669179 -0.024802895 0.012860278 -0.008753036 0.025163343 0.00865136 0.025469128 0.029367426 0.024862375 0.015096723
e_102_01HOOFD -0.009609603 -0.016221203 0.015335599 -0.024805456 0.027407816 0.010424046 -0.025792208 -0.024327435 -0.027816052 0.00980067 -0.009406059 -0.007191888 0.009704797 0.015787646 0.01679576 -0.00092660595
activityNameEN_creatingenvironmentalpermitdecision 0.019131334 -0.01953868 -0.026203914 -0.0310976 -0.028570907 0.029943323 -0.015926406 0.023050994 -0.004080222 0.018759923 -0.0125415595 -0.02200324 -0.008714363 -0.00993286 -0.02314556 0.0001041248
e_38_01HOOFD 0.012400885 0.017067196 0.0017083222 0.018482743 0.010391137 0.0069683553 0.015970139 0.0199342 -0.00087097567 -0.01712876 -0.008059168 0.00066960335 -0.011219185 -0.010787425 0.023862155 0.010263145
e_72_01HOOFD 0.003031875 -0.027586978 -0.007144955 0.028239286 0.0010074003 0.005033342 -0.0012203301 -0.021162396 0.009995437 0.013280335 -0.02050977 -0.02883136 -0.013984674 0.004483221 -0.0148410015 0.025129044
e_231_01HOOFD 0.032227147 -0.006960309 -0.0040040836 0.0015339912 -0.0030402297 -0.019226661 -0.022939943 -0.018764632 0.022814259 0.02343482 0.017719809 -0.008537053 -0.0112333605 0.009820287 0.012371631 -0.027292943
e_114_01HOOFD 0.020931214 0.0008758376 -0.008783053 0.022923432 -0.020083608 -0.020143557 -0.030496944 -0.015954472 0.0012132426 -0.019336203 -0.008719745 0.025468953 0.01576557 0.0063783303 0.0025811067 0.006995416
e_74_01HOOFD 0.015051283 0.02678657 -0.015023474 0.022388164 0.020199453 -0.014932385 -0.026061775 0.008049831 -0.026052551 0.024220698 0.012775498 -0.0009382633 0.027228514 0.030883271 -0.02504179 -0.025443435
e_143_01HOOFD -0.019851083 -0.01472882 0.0130464295 -0.021559734 -0.024573587 -0.023820698 -0.017698132 -0.0041986285 -0.020231182 0.009217597 0.021017173 0.02927909 -0.024920266 0.029980207 0.030823253 -0.00058839796
e_193_01HOOFD 0.01852571 -0.0199381 -0.020276599 -0.02130325 0.014618059 0.0006396519 -0.0075614857 0.015968243 -0.008280899 0.019207941 0.010965216 0.014052288 0.023431502 0.009682074 0.009023531 0.009447617
e_186_01HOOFD -0.025581604 -0.021562768 -0.008653343 -0.0038354252 -0.010140076 0.022588843 0.023597527 0.031545058 0.014743782 -0.022960536 0.01921224 -0.007045481 -0.031574406 -0.006691867 0.016828744 -0.023819491
e_84_01HOOFD 0.00963716 -0.02212627 0.020221103 -0.024433762 -0.030110406 -0.026162438 0.008815409 -0.009635706 -0.028927028 -0.012688424 -0.016882436 0.022503778 -0.016191827 -0.031217922 -0.002020848 -0.032533042
org_resource_560922 -0.018774467 0.0087872585 -0.0054286323 0.02689916 -0.0019873083 -0.002956973 -0.029043363 0.030539673 -0.008853728 -0.0044220216 -0.010107369 0.02509376 0.013210542 0.026130328 -0.011406642 -0.0023337353
e_103_01HOOFD -0.028124195 0.022245388 0.030353233 -0.023977274 0.022996483 -0.0011035162 0.024031091 0.021827433 0.031441245 0.023918247 -0.012154228 0.00675759 0.027499866 -0.02004989 0.02514231 -0.016353661
e_41_01HOOFD -0.0232168 -0.02022684 -0.029477004 0.029697439 -0.0043164 0.028511958 -0.008194173 -0.01493633 0.0028385215 0.026012238 0.0012227179 -0.017376421 0.015033442 0.0045993887 -0.020973057 0.019566767
e_17_01HOOFD 0.028949814 -0.0233026 0.020113941 0.0031440447 -0.012926111 -0.02283426 -0.030213468 0.026770707 0.010799042 0.02387168 0.02236096 -0.0033218707 0.008392752 0.00051600445 -0.010155025 -0.023899358
e_149_01HOOFD 0.021987358 -0.010428733 -0.028962294 -0.02635347 0.017139457 -0.031060461 -0.0018516685 -0.020756558 0.023352362 -0.0209327 0.0034014632 0.014311158 -0.031257544 0.031036682 -0.0061502918 0.001203274
activityNameEN_enterdateterminationrequestreceived -0.025252089 0.013179121 0.01668306 0.027929833 -0.025609974 -0.018580616 0.027622748 -0.0095841205 -0.0053696223 0.012387558 -0.028808681 0.030405745 0.006610653 -0.030161545 0.023878936 0.017853469
e_216_01HOOFD -0.003090394 0.02728861 -0.030894661 0.0069677914 -0.0075662103 0.02249093 0.022105085 -0.028780935 -0.005053801 0.02744516 0.018067855 -0.022280829 -0.030493109 0.027089404 -0.011676498 0.0082661575
e_190_01HOOFD 0.025650302 -0.0026502754 0.0078685 0.0042239553 0.021154067 0.0009008937 -0.00717171 0.028212938 -0.017736223 -0.0055789086 -0.010951954 -0.0145799685 -0.0231302 -0.022525087 0.019719461 -0.028222248
e_219_01HOOFD 0.0047164406 0.0054610185 0.026018921 -0.030465418 0.011275372 -0.009659729 -0.018124126 -0.01604192 0.030433329 -0.0160211 0.012490059 0.019513795 -0.03088221 -0.027761843 -0.027015373 -0.030262703
e_183_01HOOFD -0.024024164 0.031739537 0.027539441 -0.0212895 1.8258565e-05 -0.0134987375 0.017961083 -0.012750545 0.029829545 0.0057651266 0.008787164 -0.006854252 0.011665337 -0.0048519457 0.020781886 -0.015344004
e_64_01HOOFD 0.029399114 0.0024817705 0.016178697 0.00346199 0.016594622 0.013821838 0.015898496 0.019342327 -0.024511077 -0.0038125634 -0.0068472405 0.01172765 -0.0220474 -0.01991947 -0.027744887 0.015618579
e_147_01HOOFD -0.010852114 -0.010546185 0.022023471 0.024693942 0.008633024 0.02454667 -0.011379722 -0.018655846 -0.014010215 0.012069792 0.029307168 0.02579324 -0.020193 -0.004967666 0.025928667 0.002774979
monitoringResource_560429 0.0046653 -0.004674741 -0.015696617 -0.022001954 0.0071248575 -0.03079922 0.020903327 -0.004622635 -0.02213352 0.027922457 0.025464835 -0.030253548 0.004712975 -0.014796279 -0.018023433 -0.017690076
e_91_01HOOFD 0.018149853 0.016677825 -0.022386929 -0.012191165 0.028080087 -0.00058419036 -0.008667683 -0.018235814 -0.012999199 -0.015234176 0.014248167 0.026913447 -0.0054346467 -0.011675204 0.008559672 0.029069202
e_70_01HOOFD -0.018702159 -0.015427893 -0.010497336 -0.015711779 -0.0035452556 -0.0028064223 0.009846974 -0.024244152 -0.015504876 0.014774185 -0.0052193543 0.011812703 0.014710213 -0.020168515 0.029245967 -0.020644117
e_133_01HOOFD -0.026755491 0.004889096 -0.030590875 -0.001730613 0.00060689583 -0.029041268 0.015883 0.020381909 0.007091976 0.009039573 -0.012332183 0.030096132 0.027405407 0.0076719127 -0.0047929347 0.02366855
e_80_01HOOFD 0.02165548 0.01621086 -0.010272014 0.02716766 -0.027843492 0.029034285 -0.015082219 0.0209283 0.0040397765 -0.030094093 -0.00934003 -0.016035676 0.015797937 -0.030439336 0.0015503918 -0.0042358325
e_104_01HOOFD 0.020734113 -0.015346299 -0.014540683 -0.020703476 0.013343699 0.022454817 -0.028885411 0.026042432 0.021584786 0.023929667 -0.011497763 0.017858824 0.019157227 -0.013579101 0.029572846 -0.0010309728
e_77_01HOOFD -0.021155333 0.003220451 -0.025073098 0.0064166235 0.016531916 -0.0065014595 -0.007117525 -0.012574189 -0.014723007 0.006214359 0.030094294 -0.009050348 -0.030716205 -0.0013585018 0.0273087 0.025287567
eventName_04BPT 0.018881736 0.025976866 -0.012477715 0.011227396 -0.009085353 0.012646896 -0.011591613 0.0024821758 0.028163197 -0.014375188 -0.027497558 -0.0027313894 -0.0077689975 -0.0051199785 -0.019231929 -0.027870426
e_156_01HOOFD 0.031898785 -0.013960655 -0.030032745 0.012168431 -0.015784979 -0.024502538 0.026571114 0.02580842 -0.00830478 0.0070230565 -0.010953111 0.023583809 -0.003908544 0.013010319 -0.027412357 -0.017650172
e_99_01HOOFD 0.0287195 0.014545743 0.002309447 0.0076191234 0.021484202 -0.015308702 0.0063211434 0.021655856 0.0005047809 0.013947144 0.02704072 -0.0071502533 0.0045427363 -0.004600276 -0.024577664 0.008896758
Responsible_actor_3122446 -0.019644985 0.0015638157 0.004441932 -0.0071380665 0.020751875 0.0011220685 -0.012279076 0.00839785 0.001200762 -0.0127039 -0.012915712 0.020159576 0.008178556 0.0010855428 0.0067192507 0.01938774
activityNameEN_treatsubcasescontent -0.012633187 0.022775339 0.008031496 0.010166644 0.019428423 -0.008096859 -0.009050348 -0.0069505027 -0.01453816 -0.0045687845 -0.0020259116 -0.013108422 0.011869835 -0.031419136 0.024847813 0.004219074
e_76_01HOOFD -0.01947031 0.0033967225 0.00022163487 -0.020167533 0.0015420127 0.0065052914 0.026954927 -0.023505185 0.0034284533 -0.02349486 0.013009705 -0.008257292 0.0017512583 -0.031108389 0.024128709 -0.0087088365
e_161_01HOOFD -0.02974382 0.021730054 0.023163754 0.0030999547 -0.020331383 -0.0023920736 0.00874926 -0.008864613 0.005930243 -0.020541197 -0.011772336 0.021258881 0.003096812 0.024875905 -0.0099228015 0.015241164
Responsible_actor_3148844 0.0014773384 -0.031116955 0.024533654 -0.025396038 0.02489233 -0.0034513795 -0.0039929743 0.01804266 -0.029982338 -0.018256793 0.01914852 0.0061324015 -0.018811546 -0.021382397 -0.0037131961 -0.004441004
e_25_01HOOFD -0.012847168 0.026057778 0.02829716 0.0012714897 -0.017036602 0.02615652 -0.024464741 0.004814263 0.021811936 -0.002455318 0.022523405 -0.0023534787 -0.015025853 -0.022820026 -0.031519663 -0.00050191325
parts_Milieuvergunning 0.026729256 0.0068490105 -0.0081947325 -0.0015359179 0.012022482 0.026786665 0.02255845 0.026751539 0.009796995 0.02408325 0.029559277 0.0084138075 0.0033992159 0.009553238 0.030085059 0.015206237
e_178_01HOOFD 0.023542734 -0.0036913143 -0.0144353565 -0.026471604 0.0015430531 0.00906936 0.01604274 0.030004218 0.011677756 0.013597362 0.028178263 -0.022489006 0.01617272 0.030621722 -0.014528448 -0.032345552
e_66_01HOOFD 0.013871 0.002516272 -0.028001942 0.0051086433 0.006117918 -0.029971404 -0.010990253 -0.01897964 -0.013806621 -0.004607999 -0.017995656 -0.00035904627 -0.030583803 -0.031453706 -0.028363857 0.026379935
e_224_01HOOFD 0.017086755 -0.027112043 0.013676935 0.00452407 0.0045947023 0.003761193 0.008262417 0.0119862035 0.013421377 0.023523174 -0.014902817 0.022635067 -0.0041590836 0.017456224 -0.027824748 -0.025680214
e_83_01HOOFD 0.022484502 -0.0059951837 -0.02561777 -0.029052705 -0.0187169 -0.01586354 -0.015633821 0.0046067615 -0.02631192 -0.029157786 0.011550646 0.009019826 -0.010243114 -0.009739864 -0.004829818 0.0047333674
e_142_01HOOFD -0.022647023 0.031040138 -0.026204567 0.005131454 -0.015288755 -0.028839128 0.026636226 -0.009555242 -0.022576783 -0.0027945228 0.010936981 -0.02901757 0.014055055 0.019421991 -0.01501639 0.019143647
e_222_01HOOFD 0.028760092 0.027038869 0.0039474005 -0.003370084 -0.014977711 0.013931977 0.020006256 0.028315712 -0.027399672 -0.001400574 0.016818857 0.026689107 -0.029378532 -0.021783061 0.012111048 0.0064838915
e_59_01HOOFD -0.022532772 0.0070513412 -0.0091547975 0.02433167 -0.023129111 0.012794251 0.0038844955 -0.019522272 0.013576141 0.024727192 -0.013495785 -0.030803535 -0.01836453 -0.018429512 0.010831316 0.011269988
e_16_01HOOFD 0.004163585 -0.013422918 0.017098542 0.010865193 -0.0021196632 0.012380587 0.027612923 0.019360473 0.0148722995 -0.017466038 0.011333038 0.029313488 0.0067621423 0.027325401 -0.022716358 0.0063019777
org_resource_560458 -0.02918935 -0.024702042 -0.0058792816 0.0128706535 0.012470122 -0.0056984485 0.026142342 0.008095277 -0.0040740385 0.0135326665 0.0088870535 -0.007989139 -0.00097305916 -0.014413101 0.0058239223 0.023922402
e_200_01HOOFD 0.015792804 0.00900224 0.021048145 0.0038808305 -0.029240683 -0.020877168 -0.0028525272 0.0178017 0.0014762133 0.028407736 0.011662476 0.0014717587 -0.017611522 -0.028410064 0.009693921 0.022642735
e_155_01HOOFD -0.017382033 -0.02787353 -0.015146978 -0.012595078 -0.0002761249 0.021334847 -0.024991974 -0.007972629 0.026672566 -0.022563891 -0.02622151 -0.009051698 0.012775763 -0.031318877 0.02223494 -0.023037948
e_34_01HOOFD -0.0017721701 0.024201328 -0.007676089 0.0046683527 -0.017795658 0.027797407 0.016389277 0.020402981 -0.02084097 -0.019436752 0.0115653835 0.02306726 -0.027872894 -7.009396e-05 0.010430687 0.021412926
e_5_01HOOFD 0.020410169 0.0045032664 -0.020324811 0.019469624 -0.016803714 0.023397107 -0.022469612 -0.028524484 -0.025611058 0.011649618 -0.019098932 0.020044778 0.022990331 -0.00755125 0.01595173 -0.0026493117
e_211_01HOOFD 0.021609643 0.029149901 0.02041307 -0.013289627 0.023276623 0.021462632 0.016773505 0.005554307 -0.027284076 0.015117254 0.019955581 0.029633703 -0.03134 0.021126818 0.026404325 -0.016856255
e_141_01HOOFD -0.015557535 0.008109555 0.029380124 -0.02534045 -0.024854157 0.010591357 0.021409277 0.027881512 0.012214103 -0.00094386557 -0.030631159 -0.0040153516 -0.0072142454 0.006086003 -0.001526557 -0.02489383
e_206_01HOOFD 0.026800837 -0.013897449 0.029273627 0.0032398663 0.024059998 0.025678044 0.010004268 0.017928693 -0.0027597386 -0.014867326 -0.01691336 0.022260008 0.014273573 -0.009816477 -0.009377681 0.015658041
e_213_01HOOFD 0.02098893 0.016376544 -0.012943464 -0.006416559 0.009960535 0.010227525 -0.024593582 0.0084318565 -0.024085404 0.007966914 -0.0011655455 0.025425177 0.0201576 0.0018815744 -0.012118001 0.008653886
e_203_01HOOFD 0.0056084814 0.012302084 0.0011157715 0.008137129 -0.0041116374 0.029651185 -0.018618299 -0.016606063 -0.02959239 0.018562356 0.025008773 -0.02647532 0.025075926 -0.019942978 -0.010394339 0.025213018
e_60_01HOOFD -0.0048613776 -0.027273457 -0.024986144 -0.008546438 -0.0015800906 -0.023632705 0.0178259 -0.01779668 -0.0043364717 0.02377799 -0.00373286 -0.021791074 0.021061255 -0.0071365307 -0.0022390878 -0.0067199
e_32_01HOOFD 0.0009835477 0.016564576 -0.017985348 -0.0034772835 -0.011315279 0.015998388 -0.008779145 -0.02434841 0.025869446 -0.0090959845 -0.009711422 -0.021582376 -0.026774032 -0.027833616 0.030526344 -0.03105559
e_69_01HOOFD -0.019939316 0.024718573 -0.00017878918 -0.014996123 0.024960674 0.02510116 -0.005958091 -0.0035311864 0.021915872 0.028199736 -0.02931957 -0.010996074 0.02685911 0.003740775 -0.022738587 -0.030029124
e_62_01HOOFD -0.029986525 -0.031159863 -0.028179992 -0.031288937 -0.02805472 -0.009386356 0.0015212252 -0.026198037 -0.02657871 0.024751902 0.02433674 0.010393336 0.021361127 0.0203858 -0.01112821 0.007825745
e_196_01HOOFD 0.030050192 -0.0044436334 0.021262316 -0.018061774 0.0030993035 0.026664222 -0.0062536933 0.026863832 0.018501267 0.027209776 -0.010937159 0.024883667 -0.015125457 -0.0050979913 0.02459335 -0.010991448
e_209_01HOOFD -0.028996209 0.027579686 0.023723802 -0.016258977 -0.023513708 -0.020263398 -0.015150698 0.021114819 0.012304214 0.013018679 -0.012146587 0.01930228 -0.001188574 -0.01399223 0.013562619 0.007993947
e_81_01HOOFD -0.010515548 -0.015280051 -0.011751684 -0.015957592 -0.009718951 -0.007351985 0.031035166 0.00018495969 0.018575726 -0.022895515 -0.010908876 -0.021914119 -0.029257922 0.025024377 0.020154132 -0.023563115
e_98_01HOOFD 0.0008380703 0.01812861 -0.013820238 0.0076155663 0.01891907 0.012844408 -0.018066207 0.030131048 0.023321476 -0.004888988 0.0020044406 0.026861703 -0.026036095 0.016968017 0.0033041583 0.0070933206
e_180_01HOOFD 0.017486515 0.025144355 -0.0083403345 -0.02309814 0.006384756 -0.013064282 -0.0066161603 0.015178367 -0.020933999 0.030733982 -0.00809963 0.029106243 0.03049853 0.028091704 0.010557073 0.02663262
e_212_01HOOFD 0.029072158 -0.01489421 0.0023194186 0.0054835207 -0.016675794 -0.0046397974 0.00038569383 0.010951688 -0.022943588 0.018447975 0.021843636 0.01548324 0.0016321368 -0.014479115 -0.002553126 0.0017009124
e_124_01HOOFD 0.02000352 0.013498292 -0.009031539 -0.025601117 0.026632702 0.013402254 -0.00025876652 -0.0062142704 0.025468284 0.027802931 -0.016366484 -0.008642838 -0.00040390057 -0.0090130735 -0.0018909782 -0.020938631
e_136_01HOOFD 0.019933142 0.01986688 0.0020391222 -0.005507287 0.0076016947 0.013970645 -0.0049314555 -0.02953877 0.0027366558 -0.029545689 0.014505801 -0.01376009 0.02161179 0.017564822 -0.02340849 0.019221215
action_code_01BB770 -0.0085148 -0.014579615 0.002565791 -0.02362434 0.013577321 -0.009927982 0.017950706 0.006945405 0.009985114 -0.021928359 -0.020735689 -0.013651995 0.014456219 -0.003389752 -0.023931561 -0.014291175
e_12_01HOOFD 0.021911485 0.0017920535 0.0075471317 0.017481618 0.028198076 -0.017458277 0.024936216 0.03017578 -0.0045344476 -0.010018816 -0.0009764924 -0.0078422 -0.01371305 -0.013026918 0.013376898 0.012729813
e_97_01HOOFD 0.020415874 -0.017582443 0.023628317 -0.008056104 0.0100606475 -0.018494386 -0.018406387 0.018567013 0.0015501129 0.005365097 -0.020658629 0.013255565 0.016756149 -0.011655166 0.027633162 -0.0003819861
e_13_01HOOFD -0.012042574 -0.0002727501 0.0005006787 -0.003552345 -0.0021077893 0.016007265 -0.011480312 -0.022031534 0.02508811 0.031990923 -0.012513793 0.006744415 -0.008592646 -0.008353662 0.0065619624 -0.031322196
e_127_01HOOFD -0.0056517026 0.024964081 0.016556105 -0.004268043 -0.029942187 0.0072014453 -0.024583252 0.0268065 -0.021882338 -0.01190825 -0.009654885 0.012446146 0.027609326 0.023278462 -0.018063955 -0.017442131
e_140_01HOOFD -0.011345537 0.017569862 0.005989398 0.003667783 -0.011074096 -0.0064990725 -0.011659785 0.022599367 -0.0017731132 0.01945463 0.0025152573 0.011959372 -0.027822748 0.01732241 -0.021637563 -0.0035251325
e_225_01HOOFD 0.015500466 -0.015001346 0.012209467 0.0012622399 0.0034901765 0.019426215 0.005357339 -0.00038844292 -0.0059501035 0.025493257 -0.013193049 -0.00035877523 0.0104971565 0.00012662837 0.0015833005 0.0106787775
org_resource_560852 -0.023904655 -0.018467134 0.01635093 -0.030528136 -0.015473677 0.010302488 -0.010509967 0.022300933 0.028219195 0.023618126 0.0014298294 -0.00504186 -0.015241412 0.008193339 -0.023684356 0.013640462
e_1_01HOOFD 0.0057071475 0.017141743 -0.026961192 -0.025093012 -0.020851212 0.01798988 -0.004233946 -0.023736248 0.020526579 0.027253654 0.02438846 0.024120346 -0.015822913 -0.011382109 0.011006577 -0.02705962
e_43_01HOOFD -0.013805176 -0.02101606 -0.028325634 0.0012731551 -0.014025536 -0.003937357 0.012577071 0.00485278 -0.0063773384 0.008142537 0.006408161 -0.006656891 -0.0066537247 -0.0015800884 0.00750149 0.012105959
e_68_01HOOFD 0.008673493 0.029234283 -0.008350701 -0.009136407 -0.0127133075 0.012406673 -0.013985157 -0.015064777 -0.008414121 -0.010064206 -0.0023444074 -0.022792906 0.0043087453 -0.014134762 -0.013629937 0.01759619
e_159_01HOOFD 0.01954905 0.021103373 -0.011692809 -0.03190633 0.006302057 0.022245288 0.023487473 -0.0029010314 -0.019620366 -0.0035994672 -0.0141671635 -0.0022792956 -0.021917036 -0.030872641 -0.012402297 0.008182237
e_61_01HOOFD -0.010953906 -0.006084809 0.02909163 0.0026305497 -0.017988129 -0.015507874 -0.001473946 0.0010160763 -0.009236893 -0.007392601 -0.02161594 0.018047301 -0.018813714 0.0013729223 0.0012059336 -0.00945387
e_217_01HOOFD 0.020924935 0.019804854 0.005041569 0.0035592692 -0.0043500676 0.024145836 -0.015800754 -0.00078514434 -0.019554226 0.005866205 0.020149644 -0.02984652 0.02285563 0.015665727 -0.020552613 -0.0048030284
e_67_01HOOFD -0.009802689 0.017080776 -0.008701732 -0.03040784 0.005914933 -0.020917114 0.0011349358 0.028834214 -0.019897975 0.029334003 -0.026320959 0.008591829 -0.0036220439 -0.018771162 0.0023785832 0.01899967
Responsible_actor_560429 -0.030793652 -0.011768578 -0.02908902 -0.016206913 -0.012838274 0.026344538 0.024921611 0.029417692 0.003817211 0.023100529 0.010981316 -0.025250899 0.01953334 0.022607122 -0.0045523103 -0.02587549
e_221_01HOOFD 0.010331771 -0.014941366 0.026671574 0.011059353 0.005142274 0.020159418 -0.014413616 0.009124938 0.029543433 -0.026650934 -0.025734017 -0.007184776 -0.013537712 0.009600673 -0.0031746875 -0.02632978
e_49_01HOOFD 0.011955404 -0.02853057 -0.02637494 -0.019414768 0.019162595 -0.018754695 0.0035147911 0.022896592 -0.010300201 0.03149399 0.014320712 0.021746038 0.028754558 -0.024879908 -0.017974222 0.00085771625
e_87_01HOOFD -0.020667914 0.0133515 0.0024008641 0.007840601 -2.8243165e-05 -0.025508177 -0.00057121355 -0.0027235772 -0.0068104933 0.006331017 -0.008817544 -0.020831458 0.0169197 -0.015010808 -0.03066183 -0.024843594
e_92_01HOOFD 0.025758399 0.010078699 -0.008067753 -0.010617461 -0.0026970813 -0.02655713 0.009671319 0.027265757 -0.016883755 0.008620124 -0.018371828 -0.010019382 -0.0048870784 0.013336137 0.02085584 -0.022903988
e_152_01HOOFD 0.01969983 -0.029427601 -0.017731007 0.011526793 0.029860703 -0.012491934 0.0054531 0.028278274 -0.0011236484 -0.020859076 -0.012002174 -0.017265696 0.016181918 -0.016740639 0.0062152767 0.019494936
e_151_01HOOFD 0.029921189 0.007297672 0.020905588 0.004992668 -0.0126493415 0.010362121 0.019532155 -0.010457104 -0.0062922887 -0.015107798 -0.01865401 0.028015973 -0.013811278 -0.030190598 -0.011527681 -0.017681887
e_24_01HOOFD -0.017811809 0.030900262 -0.03128828 -0.03181086 -0.020096732 0.003652098 -0.029747928 -0.017079657 0.004662898 -0.011407293 -0.004775468 0.003598257 0.030512225 -0.0030753913 -0.00057725114 0.014587907
e_138_01HOOFD 0.02175616 -0.014287354 0.011478556 -0.02877186 0.014167528 0.006893763 0.026386522 -0.021607578 -0.0294745 0.026775561 0.02256464 0.022176461 0.020384911 -0.010274695 0.026434796 0.009887424
e_189_01HOOFD -0.0026306936 0.018279226 0.006688999 0.013290077 0.01719812 0.018224051 -0.013981381 -0.0048455168 0.014745601 0.009760383 0.0036525305 -0.0026798544 0.001863651 -0.020572133 -0.030815898 -0.00654605
e_86_01HOOFD -0.022593003 0.020552972 0.00861439 -0.027453564 -0.0097002685 0.013589635 -0.027093993 -0.0008311398 -0.025299167 0.0057219416 0.022950822 -0.0020640832 0.015421762 -0.02613428 0.009251982 -0.02306503
e_150_01HOOFD -3.339714e-05 0.028366968 -0.021249468 -0.0073543806 -0.018186683 -0.026556883 -0.022127833 -0.004052098 -0.009061254 0.014843254 0.030461244 0.001096009 -0.028508363 0.028667636 -0.020717615 -0.02719037
e_137_01HOOFD -0.02784999 -0.003673117 -0.0028278844 -0.023786651 -0.027616259 -0.013895843 -0.020153668 0.02711678 -0.02979451 0.011331463 -0.011066052 -0.022530558 -0.0014462009 -0.0034144043 -0.026692376 0.01262664
e_65_01HOOFD -0.017270127 -0.02917847 -0.026624875 -0.0030314468 -0.020374103 0.02500798 0.007711414 -0.022100987 -0.005889893 -0.016539352 0.008707275 -0.02088401 0.019580778 -0.01438316 0.01260785 -0.030251106
e_3_01HOOFD 0.016263578 -0.007490936 -0.018393755 0.0031500135 -0.011956675 -0.019927848 0.031131135 -0.0076729837 -0.013620505 -0.023640763 0.025391879 -0.02875781 0.023528695 -0.0017584092 0.016898198 -0.02150492
e_128_01HOOFD 0.011460077 0.026103707 -0.019145627 -0.0010760756 0.015297626 -0.029850082 -0.0050026136 -0.016050387 0.026779227 0.020000737 -0.011661457 0.0038000892 0.024431076 -0.027006293 0.010636413 -0.023312854
e_158_01HOOFD 0.0144345295 0.016227717 0.02645914 -0.028637616 0.0049973144 0.021742743 0.00905816 0.01189653 0.016812483 -0.02332913 -0.017683664 0.017175887 0.02669135 -0.010328009 -0.019001067 -0.012697967
e_201_01HOOFD 0.02058645 0.008950808 -0.021412486 -0.015696825 -0.0190008 -0.029250275 0.023039753 -0.029261535 0.009234655 0.02350746 -0.0018169353 0.005380909 0.012889718 -0.0037389812 0.0040840684 -0.024171658
e_220_01HOOFD -0.02072684 0.022122068 0.017829543 -0.020533647 0.01602215 -0.021340637 -0.0028840795 0.019632813 -0.01017982 -0.025431044 0.027174948 0.030553779 0.025139615 0.015940346 -0.028155679 0.021530485
e_179_01HOOFD -0.020413795 0.021676354 -0.026873056 0.016383165 0.027618736 0.014370477 0.030140774 -0.020331902 0.00012248695 -0.014012939 0.029124886 -0.005018235 -0.0123803215 -0.01586516 -0.029599873 0.026068177
e_177_01HOOFD 0.030942066 -0.0027237106 -0.026784914 -0.024138555 -0.024610203 -0.023973392 -0.009635286 0.026613513 -0.023863135 -0.02439724 0.029390292 -0.01636004 0.017604131 -0.015504511 0.020980572 0.0007558343
e_111_01HOOFD -0.008061262 -0.02807795 0.026041375 -0.028596606 -0.011559255 -0.0048065693 0.001752378 0.018460535 0.02086889 -0.012353321 0.005570169 0.0022166944 -0.023582743 -0.006769257 -0.02251 0.012924326
e_145_01HOOFD -0.017053248 -0.011233683 0.0112404125 -0.019815074 0.031487674 0.008616871 -0.0088412035 0.0064201816 0.025116825 -0.017061396 -0.010303849 0.019651784 -0.03168515 0.02650328 -0.009319395 0.006898396
e_48_01HOOFD 0.008879878 0.0068774796 -0.022642996 0.00029230147 -0.030631589 0.023920333 -0.029267738 -0.020409614 -0.023753362 0.0099857235 -0.00023842182 0.016867984 -0.010986154 -0.010450879 0.027143631 0.003114961
e_118_01HOOFD -0.020090254 -0.0053553707 -0.00089744816 0.015610919 0.014412628 0.026543899 0.005839481 0.018263286 0.02791573 -0.0026271776 -0.026241342 -0.030623259 0.008710109 0.020256901 0.030619657 0.0094000455
e_170_01HOOFD -0.010493301 0.028115071 -0.029412808 0.019269865 0.0098521635 0.028860632 -0.011500067 -0.028008793 0.009441811 -0.006649639 0.02497105 -0.0013671857 -0.011127431 0.02021317 0.022731915 0.027035683
e_44_01HOOFD -0.015689613 -0.0083134575 0.027536789 -0.013740481 -0.028683819 -0.021226129 -0.006963293 -0.027441328 0.02602321 -0.015735855 -0.0061513456 0.026179666 -0.008526611 0.016880577 0.024729084 0.011206566
e_166_01HOOFD -0.017612757 0.009371552 -0.00277704 -0.026589725 -0.007834123 0.025219573 -0.003935056 -0.005079134 0.027639093 -0.0019214504 -0.00221452 0.008866071 -0.008054515 -0.027122106 -0.006704063 -0.022648048
e_205_01HOOFD 0.00027590574 -0.012214237 -0.028705686 -0.0027807928 0.0007794531 -0.01814579 -0.020474363 0.02802493 0.016583202 -0.022978136 -0.024222042 -0.008608531 -0.018949999 -0.01586972 0.014071544 -0.006112416
e_122_01HOOFD 0.01960738 0.0010657222 -0.0076148855 0.0067748823 0.007138529 0.0007810999 0.0019496193 -0.0029240225 -0.011718213 -0.015635628 -0.017517006 -0.0011899796 -0.021521294 0.013851494 0.0073710615 -0.016969342
e_146_01HOOFD -0.026354974 -0.019520447 -0.0143103665 0.008298902 -0.0007605604 0.020330552 0.01443672 0.0053385217 0.013056377 -0.0026034343 -0.03161431 -0.005752159 -0.015630133 -0.005706212 -0.013626955 -0.020744251
e_108_01HOOFD -0.025709724 -0.011740173 -0.014483149 -0.019479653 0.008534164 -0.012098641 0.029429214 -0.015357708 0.006478614 0.023141155 0.0011546523 0.021372123 -0.0056639733 0.019395895 -0.0032655497 0.02611144
org_resource_1254625 0.024462817 -0.026772361 -0.01468316 -0.01592843 0.0038877327 -0.017361447 0.020892607 0.0115527315 -0.007895315 0.024008045 -0.023768092 0.019657912 0.0041599683 0.024182528 -0.007119512 0.019704552
e_85_01HOOFD -0.0069103446 0.031367287 -0.024380965 0.0019420019 0.005666025 0.013158357 0.025629738 0.00226414 0.0003434069 -0.020990191 -0.00053493824 0.009624986 0.022050915 -0.0065456126 -0.020289226 0.0027497776
e_73_01HOOFD 0.0149643095 0.0034264624 0.022276876 -0.031478506 0.024744056 -0.0060629817 0.0076883165 0.025250535 -0.013800596 0.007663644 -0.0005430384 0.005696393 -0.02866386 -0.025663882 -0.021377228 0.029966846
e_11_01HOOFD 0.03168058 -0.0018922134 0.014461965 0.008013636 -0.009926564 0.026148636 -0.029033264 0.028961226 -0.0048068017 0.0055621597 0.008418864 0.030700468 0.028168412 0.0007006925 -0.017043589 0.027460178
e_29_01HOOFD -0.022348156 -0.004471266 -0.022275368 0.027208786 0.019633427 0.029882522 -0.0130733065 -0.006136969 0.0055716014 0.006881098 0.024917956 0.00797087 0.024535907 -0.030763434 0.007467304 0.024047524
e_202_01HOOFD -0.016984368 0.028552467 0.013654394 -0.017045356 -0.024552144 0.0071912333 -0.010554588 0.019164717 -0.01664066 -0.0010641516 -0.029370554 0.017360568 -0.029515876 0.0019792346 0.027311463 -0.021117382
e_88_01HOOFD -0.013804785 -0.031323507 -0.021182843 -0.015511272 -0.018598093 0.018800978 0.005754654 0.0056745415 -0.020219086 0.024330717 0.0023030587 -0.01689574 0.01842585 0.023579692 0.012266892 0.004268394
e_15_01HOOFD -0.0020581055 -0.026242627 -0.02838736 -0.024822118 -0.027609024 0.018796217 -0.009685239 -0.026241444 -0.009778513 -0.0011745397 -0.0050244224 0.012145936 0.02449006 -0.028598262 -0.021587875 0.018725507
e_163_01HOOFD 0.0009423226 0.017575884 0.028475406 0.015762787 0.016100965 -0.022400977 0.0018771503 0.013367002 0.016238244 0.0027374143 -0.02887223 0.004492214 0.028271189 0.015209035 -0.008778276 -0.014299328
e_106_01HOOFD 0.026286343 -0.016409392 0.019884542 -0.00915224 0.021411052 0.017371869 -0.012209044 0.031514507 -0.003074365 0.017619474 -0.031545877 0.009423495 -0.009230989 -0.028242063 0.013903469 -0.0024545358
e_223_01HOOFD -0.01488129 -0.027087525 -0.019901676 -0.021958223 0.022692604 -0.01098187 0.024372697 0.020490566 0.005227216 0.010490893 -0.011831533 -0.006067564 0.020963278 0.023901012 -0.012822669 0.02500238
e_176_01HOOFD -0.012243991 -0.026375642 0.0051954673 0.011491032 0.01604279 0.013521866 0.018886337 0.023976134 0.007291723 -0.008217144 0.0214008 0.023410458 0.026976414 -0.028050454 -0.0015670297 0.025067283
e_184_01HOOFD -0.01922012 0.005576807 -0.00988348 0.020636845 -0.020248996 0.022764906 -0.009358931 0.03138568 -0.001252514 0.0007910019 0.013439679 0.015239555 -0.003626064 -0.016210323 0.006760427 0.011245163
SUMleges_109.59 0.01460117 -0.027934087 0.016104314 0.02053737 0.024088431 0.01462634 0.01654259 0.0025490802 -0.027542496 -0.022702724 0.024012487 0.022225522 0.024485867 0.018121608 0.0029184378 -0.0016454268
e_18_01HOOFD -0.025264855 0.008656522 -0.013360032 0.02558795 0.029243944 0.0093325935 -0.009063479 0.004049157 -0.012463353 0.012999424 0.028377708 0.021003949 -0.009218714 -0.02991476 -0.027048595 -0.027190367
e_7_01HOOFD -0.0020528533 -0.021201257 -0.031100057 0.027771205 0.026583463 -0.018877275 -0.004283482 0.0118358545 0.012605658 -0.00011854369 0.014117857 -0.017047653 0.025635144 0.004878122 -0.01945353 0.010921935
e_199_01HOOFD 0.0072561316 0.007510017 0.0063772122 -0.0067300964 -0.026669396 0.021607857 0.006459537 0.02403681 -0.0024423078 -0.023286786 0.016495671 -0.012561333 0.01683931 0.0071524065 -0.0010230278 0.029767154
e_233_01HOOFD -0.010674932 -0.008779767 0.018069131 -0.006448938 -0.018627374 0.0044121267 0.00386167 -0.01888398 0.026450735 0.028153352 0.02911789 -0.024059597 -0.025045061 0.008312285 -0.029316768 -0.010200616
e_210_01HOOFD -0.01789223 -0.00043200186 0.027568266 0.0042567058 0.012499624 0.00953793 0.002828317 0.030594675 -0.0064110006 -0.0058299704 0.0056747696 -0.021910865 -0.02983266 -0.029883992 -0.001573304 -0.022412589
e_207_01HOOFD -0.0022395663 0.01927774 -0.00286396 -0.005882534 -0.014318084 -0.027242111 -0.030799633 -0.00031279668 0.011992403 0.019209938 -0.012168472 -0.005915344 0.027102018 0.009041757 0.005698914 -0.013262196
e_175_01HOOFD -0.01600664 -0.0032204199 -0.020688701 -0.01835586 -0.028964715 0.019957416 -0.025848852 0.016243335 0.0035933806 -0.012605428 -0.03100492 -0.024150765 -0.025125248 0.007813642 -0.023692835 -0.026587807
e_117_01HOOFD 0.0062921364 -0.024945235 -0.028219635 -0.0008029279 0.022716938 0.020616783 -0.008060853 0.01892175 -0.008719864 -0.022028122 -0.029773677 -0.028697489 0.0036805137 -0.020870963 -0.0047341385 -0.012522131
e_36_01HOOFD 0.0072851432 0.018350411 -0.021331754 -0.00045092293 0.02967553 -0.004386793 0.013302639 0.016455105 -0.0043757604 -0.00093741063 -0.02938679 0.009564498 -0.0075858133 -0.021968178 0.03095277 0.013255767
e_131_01HOOFD -0.017216811 0.020696014 -0.030285211 -0.012517317 0.02596215 -4.1245286e-05 -0.0025570623 -0.0029752913 0.009627358 -0.0125372745 -0.017650878 -0.007819497 -0.020807609 -0.026458463 -0.01776661 0.010026034
e_116_01HOOFD 0.007402204 0.0038845642 -0.0059711253 -0.0060413387 -0.019731088 -0.0110458005 0.0072147483 -0.027586179 -0.0048734867 -0.004846357 0.017498475 0.009626122 -0.014637497 -0.011019663 -0.020196889 0.006424877
e_119_01HOOFD -0.024587734 0.0059052673 -0.006633437 -0.0027039591 0.0031474389 -0.01603751 0.005647943 0.018360924 0.007264675 0.03148159 -0.025663871 -0.026402337 -0.009769469 0.013488143 -0.026408877 0.0093301
e_182_01HOOFD 0.0027053999 0.017900784 -0.021556435 0.0034998269 0.014871623 0.016830053 -0.005467831 0.022031603 0.0015974254 -0.029599657 -0.01542842 0.016002199 0.0044417605 0.020523142 -0.0008742663 0.023793586
e_229_01HOOFD -0.0049750106 -0.028541362 0.021009758 0.0036894174 -0.00086662517 0.008006624 0.010375498 0.008954221 -0.02234007 0.009400557 -0.022203675 -0.012007435 0.008648669 0.016917543 -0.0053136507 -0.0034179643
e_112_01HOOFD -0.012508659 0.021311508 -0.013280432 0.009199316 0.0017440333 -0.00056106417 -0.023958834 0.02516571 0.02129905 0.018014684 -0.014673199 0.022502447 0.02733952 -0.005952808 0.029216371 -0.0033442997
e_42_01HOOFD 0.025442865 -0.013747878 0.011678951 0.011179176 0.030326972 -0.02398087 -0.0014412133 -0.012520205 0.03081326 0.026884437 -0.01673884 0.013506198 0.026698945 0.028121281 0.025404919 -0.020040514
e_71_01HOOFD 0.022761663 -0.0069762166 -0.0152875325 -0.011869956 -0.0014031006 0.010555893 0.011109979 -0.00757519 0.007125705 0.003674358 0.0014632765 0.010223862 -0.009157118 0.007374198 -0.029539712 -0.010034331
e_19_01HOOFD -0.00956304 0.0049043656 -0.027468786 0.0162052 0.015772384 -0.030465802 0.030366238 -0.005832332 -0.017361416 -0.025793245 -0.009476938 -0.009049981 0.01465827 0.0047495146 -0.025768293 0.022969963
monitoringResource_1254625 -0.023487642 0.01650986 -0.0052758725 -0.027984003 -0.020729695 0.012821622 0.013604885 -0.007602101 -0.029429715 0.007091283 -0.023412112 -0.021948297 0.020725027 -0.029531226 0.030376485 -0.016710173
action_code_01HOOFD0651 -0.013996705 0.019801952 -0.0068563824 0.018719992 0.015244662 0.013443678 0.009103878 0.02943506 -0.021531781 -0.026498532 -0.020402066 -0.024166077 -0.02658918 -0.020022804 -0.030834157 -0.015775872
e_2_01HOOFD -0.0026329656 0.01705549 -0.0030449918 0.007759706 0.018528631 -0.0030554163 -0.0064748423 0.029449672 -0.0081321085 -0.029006531 -0.012307641 0.027091473 -0.028065657 0.016078176 -0.02436589 -0.014072562
e_204_01HOOFD 0.01934944 -0.023966061 0.029010195 -0.023168404 -0.0071969805 -0.029818354 -0.027901772 0.00012877492 0.012924229 0.011049105 -0.025588524 -0.0012256469 0.02198215 0.012679307 0.02577513 0.02424875
e_195_01HOOFD 0.017904982 0.0042093066 0.011764774 -0.0058417716 -0.012873188 0.021185813 -0.010796139 0.023148283 0.009846341 0.022082208 0.016635833 -0.00054059405 0.0056164917 -0.025483131 0.02157495 -0.0105988905
e_197_01HOOFD -0.015760982 -0.009658422 0.024861354 0.017149089 0.0066343597 0.018292395 -0.014667049 -0.017592276 0.022466987 0.015673993 -0.010789184 -0.012588625 0.015417813 -0.008635779 0.025086792 -0.020606512
e_46_01HOOFD 0.027947668 0.01775037 -0.013577049 0.026020087 -0.025843024 -0.0005713855 -0.00055488007 0.025222994 -0.029924937 -0.019945424 -0.023259036 -0.02095788 -0.020561462 0.031161278 -0.006190308 0.028924296
monitoringResource_560749 0.019191343 -0.020520328 -0.029517172 0.02454244 0.02279996 -0.018713232 0.0078370115 -0.0011410615 0.01926617 0.025072975 -0.018837659 0.0042159213 -0.01376247 0.029264009 0.002675125 -0.030623987
e_173_01HOOFD -0.019114723 -0.02724083 -0.026004285 -0.011966869 0.028156368 0.027537465 -0.029205373 0.011890075 -0.028257696 0.009936195 0.0151935285 0.030643187 -0.008985969 -0.021402739 -0.015747778 0.018662477
e_33_01HOOFD -0.0029740203 -0.025680812 -0.024967154 0.023036392 -8.797658e-05 -0.0049335877 -0.019712307 0.014263549 0.0014973806 0.013574302 -0.019100271 -0.0071704867 -0.0025237328 0.006903938 -0.020608503 -0.006390957
e_109_01HOOFD -0.011153636 -0.020469924 -0.008821314 -0.031363823 -0.0032196979 0.025951376 -2.6303911e-05 0.0010578008 0.026776321 0.007265422 -0.02133442 -0.021667246 -0.00760663 -0.0009925915 -0.0048612375 -0.02282993
e_45_01HOOFD 0.011310258 0.022887401 0.0026279949 0.015970483 -0.0058123977 -0.004862288 0.029043306 -0.0029374992 0.012047259 0.023452254 -0.004495482 0.020761611 -0.029578744 -0.02697266 0.021198576 0.014225114
e_94_01HOOFD -0.026882688 0.013551643 0.019238057 0.0060193995 0.016249811 0.00090933533 0.024806783 -0.018785765 0.017094841 0.008671268 0.024650972 0.025971755 -0.0029585953 -0.028507555 -0.011378699 -0.0024580576
e_226_01HOOFD 0.029799016 0.03133161 -0.022915531 0.029549275 0.016097 0.017689131 0.0119319465 0.0043527666 -0.024875112 -0.018248623 0.026950736 0.010477809 0.028441515 0.021064222 -0.031433836 -0.018737897
e_10_01HOOFD 0.0070424643 -0.0006600887 -0.005802123 0.024258202 -0.006877787 -0.01650337 -0.02927738 -0.02544034 0.009756524 0.018907566 -0.015005072 0.019022936 0.0043906844 0.018497333 -0.020687746 -0.011878044
e_139_01HOOFD -0.021690188 -0.0004007855 -0.003651346 -0.0073390147 -0.006588102 -0.0074948072 0.013643645 0.006953761 0.011584758 -0.008550224 -0.0072007445 -0.019591846 0.028716825 0.030080127 0.024858149 -0.025354443
e_148_01HOOFD -0.017112331 -0.027205803 -0.026176864 -0.017349694 0.012325583 0.013143123 0.004226423 0.009879081 0.0071342136 -0.018121162 -0.004372316 -0.0044082245 0.014937688 0.026394293 0.004919069 0.013919442
e_171_01HOOFD -0.003721028 0.004697439 0.012439052 0.028802402 0.01812722 0.0112382015 0.028847426 0.008114491 -0.028970497 0.010140376 -0.03187644 0.0151000125 -0.03090091 0.029719431 0.0010137331 -0.014566372
e_101_01HOOFD -0.030064706 -0.013196914 -0.009891667 -0.028271388 -0.0027436304 0.0009956398 -0.01580872 -0.0016750693 0.0075242966 0.0016751408 0.018610258 -0.0070536947 -0.009692591 0.0041567245 0.011113686 0.026566006
e_172_01HOOFD 0.018194502 0.005674532 0.0071661393 0.014923067 0.010592561 -0.00092199165 -0.013452178 0.009705904 0.0063078976 -0.025400383 -0.009503198 0.0032716452 0.012584944 -0.026877124 0.030979715 0.0007676129
activityNameEN_entersenddateretrievemissingdata 0.021439364 -0.017068202 0.0011135597 -0.028292725 -0.0018715968 0.029185005 -0.0248331 0.005155593 0.02895757 0.018090291 0.0016482697 0.031242765 0.017938824 0.005298752 -0.023085846 0.010694665
e_160_01HOOFD 0.026244305 0.0063871844 0.02906546 -0.019695498 0.021300804 -0.0027144612 0.0006796719 0.02146186 0.01624125 0.009136934 0.030019598 -0.02939358 0.025308019 0.017646547 -0.011419004 0.023698641
e_174_01HOOFD -0.024382638 0.027964657 0.023993246 0.016485319 -0.025823865 0.021951132 0.02431885 -0.027280599 0.012394606 -0.008384485 0.019126933 0.006238586 0.0009507916 -0.0006547713 0.009058918 0.0047051846
e_162_01HOOFD -0.008770362 -0.0030504258 -0.018316638 0.0067083463 0.0047936905 0.02301008 -0.005125301 -0.011127227 0.02168869 -0.016785247 0.016166752 0.0028756373 0.02990117 -0.021094143 0.016551679 -0.010397053
e_169_01HOOFD -0.026009062 0.029278811 0.0038646413 0.009089277 -0.023960145 -0.024810089 -0.02121496 0.031770326 0.011587836 -0.017025622 0.003395575 -0.019844467 -0.016807728 0.030981796 0.007190096 0.013823956
e_194_01HOOFD 0.008561261 0.027381793 0.003931196 0.022191275 -0.012481126 -0.029432878 0.022737645 -0.029258583 -0.027260454 0.031183198 0.00820052 0.016343223 0.0041750185 0.024756743 0.02518254 -0.021636805
e_115_01HOOFD -0.0017410192 0.017636377 -0.0051972964 0.019113328 0.016408244 0.004866534 0.00209098 -7.036506e-05 0.006752785 0.0013208378 -0.03189854 0.014579065 -0.023648806 0.025412483 -0.016759496 -0.011909413
e_31_01HOOFD -0.026347188 -0.026593525 0.008389441 0.0016140408 0.02544011 0.021191506 -0.0008405235 0.016590614 0.015990367 -0.025794271 0.027277054 -0.0040069 0.017572487 0.029507967 -0.022623884 -0.027140902
e_63_01HOOFD -0.0286403 -0.028595552 0.009414131 0.019150646 0.020565033 0.027024858 0.01731767 0.013611414 0.002727188 0.027375836 0.017857287 0.003227472 -0.016389336 0.01749665 -0.020817442 -0.01228885
e_21_01HOOFD 0.020323934 0.012665878 0.023969833 0.02164589 0.019260485 0.002087685 0.02970181 0.01033404 -0.010032961 -0.030311009 -0.014675566 0.028406713 -0.019446796 0.02463147 0.005643523 -0.010602465
e_28_01HOOFD 0.00089687866 0.028448634 -0.023725027 0.029734869 0.014996901 0.02477844 0.023854945 0.024265917 -0.012544458 0.017306454 -0.0073403604 -0.00454006 -0.01710871 -0.011194387 -0.007247971 0.005987235
e_50_01HOOFD -0.0064620744 -0.0017051675 0.017970026 0.008242115 0.02837059 -0.007143771 0.019392675 -0.015025797 -0.01036942 0.015172243 -0.031346347 0.030030997 0.021589922 0.003503427 -0.0022350734 0.002408559
SUMleges_242.99475 0.022940367 0.021078896 0.0047473116 -0.013965479 -0.016528772 0.015232864 -0.0076789297 -0.014846698 0.00067592785 0.0031421497 -0.0054797013 -0.015618287 -0.0074942946 0.012854853 -0.0079402365 0.013378401
e_20_01HOOFD 0.017040508 0.008654952 0.027603488 0.025514377 -0.0034751752 -0.02546917 -0.016834356 -0.0042390055 -0.016007937 -0.025819523 -0.014640426 0.012282603 -0.014410435 -0.017332215 0.015367307 0.007531145
e_27_01HOOFD -0.011849264 -0.0011243856 0.017263737 0.0021462888 -0.028334213 0.009008463 -0.029782567 -0.012556429 -0.0016623826 -0.022180613 0.01138437 -0.0063041183 -0.026808277 -0.021591773 0.00017510213 0.013097232
e_55_01HOOFD 0.008367881 0.016255736 -0.02676995 -0.026590783 -0.010947218 -0.02898012 0.01521572 -0.025557058 -0.013278271 0.009046405 0.011560577 0.019120647 -0.007852928 -0.009506538 0.017796796 -0.004039717
e_37_01HOOFD -0.006527415 -0.005205315 0.018954482 -0.029180964 0.0089496495 0.02816209 -0.0021568015 -0.026549712 0.00010488093 -0.020764345 -0.018064743 0.006045321 -0.020995768 0.025444321 0.017436855 0.0045043365
e_40_01HOOFD 0.026925221 0.0069755805 -0.0021500883 -0.029461501 -0.028200699 -0.012735982 -0.030207261 0.022384055 -0.00025037522 0.015757097 -0.021553371 0.013405121 -0.014732946 -0.025378112 0.014584321 0.021563055
e_144_01HOOFD 0.017419187 -0.009817844 0.02598236 -0.0011866703 -0.016489236 0.012596199 0.017825965 -0.014632435 0.02027302 0.013390609 0.01851206 -0.020444997 0.026230307 -0.012865453 0.02485945 -0.005441538
e_95_01HOOFD 0.0062077628 0.014388074 -0.029938128 0.023147153 0.016433127 0.028103402 -0.000649753 -0.020774504 0.0050837696 0.013396842 0.01724764 0.024713326 0.023604525 -0.006913958 0.013889467 0.0013332948
e_35_01HOOFD 0.0056471634 -0.026540762 0.02746214 -0.00280717 0.025705686 0.0036782715 -0.01179732 0.0097411815 0.031380553 -0.023576012 0.025255838 0.015997918 0.0077327886 -0.02222159 0.012598486 -0.0032092861
e_132_01HOOFD 0.0050423434 0.018302727 -0.002200523 -0.022013964 -0.02943676 -0.023084162 0.008483475 -0.027091607 0.011044949 -0.005461157 -0.00015018624 0.004408416 -0.009728404 0.0032044144 0.0062766876 0.025400186
e_134_01HOOFD 0.028183773 -0.00033998693 0.022126865 0.0065605585 0.02485123 -0.002087685 0.02113993 0.024668312 0.02824112 -0.018447129 -0.021330714 -0.0022001003 -0.02107122 -0.023884961 -0.015357235 -0.013185146
e_232_01HOOFD -0.011212358 0.004756078 -0.016780764 0.00011961682 -0.02086981 0.002547006 0.011457376 0.030428333 0.020820832 -0.018204257 0.023708686 -0.02520849 -0.002035349 0.008948174 -0.014398564 0.010192638
e_185_01HOOFD -0.0043001925 -0.024958791 0.014588222 -0.030769052 0.012193425 -0.0037665477 -0.017587025 0.0059745773 0.0038038606 -0.027544903 -0.014648631 0.01178094 -0.028713895 0.023724424 0.0036955143 -0.020761559
e_58_01HOOFD -0.014855659 -0.010344086 -0.009466379 0.01736422 -0.0054666526 0.0025572628 0.01509119 0.010907192 -0.004742484 0.017298112 0.0044877217 0.018129433 -0.011125074 0.02893733 0.016161969 -0.013463433
e_123_01HOOFD -0.005883871 0.025628785 -0.022255057 -0.028133687 0.0036252318 -0.013584396 0.0024770312 0.006869695 -0.018161723 0.027915427 -0.028503392 0.021904789 -0.0104385605 -0.001125723 -0.0042598434 -0.019440137
e_154_01HOOFD 0.02315277 0.030229488 0.025026703 0.0005679029 -0.023140952 -0.0063976357 -0.029428659 0.018414715 -0.025803704 -0.007602442 0.0009788721 -0.0005013959 0.024092907 0.030980319 0.018262634 0.0015440709
e_135_01HOOFD -0.0071711014 0.01364098 0.009392174 -0.007255482 -0.02578287 0.022328377 -0.026655719 -0.02816445 -0.017583355 0.02937216 0.021882376 -0.029312598 0.012541397 -0.02973905 0.017997509 -0.0002405789
e_4_01HOOFD 0.0054562697 0.029620484 0.01675796 -0.014087473 -0.02932387 0.025084857 0.002724729 -0.010874378 0.013559585 0.020374464 -0.008175743 0.011505612 -0.025731895 0.005595621 0.017660493 0.028671134
e_188_01HOOFD 0.012687538 0.021714518 -0.030190382 0.021191495 -0.0058018966 -0.013876162 0.019443532 -0.011349691 -0.021616867 -0.0050557773 0.011437056 -0.01959585 0.02199927 -0.0017517409 -0.00900941 -0.009903733
e_30_01HOOFD 0.004124958 -0.0055574146 0.022803541 -0.028653635 -0.0068728467 0.020802623 0.014097603 0.0065248553 0.0068605742 -0.029493727 -0.011854926 -0.026098207 -0.029388227 -0.029899826 -0.010823163 -0.020071205
e_218_01HOOFD 0.0024597652 -0.015068496 -0.0017963353 0.0114969695 0.022759391 -0.01373185 0.016721746 -0.024347415 -0.0161243 -0.003378712 -0.014425417 -0.014490454 0.018780788 -0.0052613597 0.0032583356 -0.02752557
e_214_01HOOFD 0.015687698 -0.015136548 0.021737356 -0.012764068 0.0015835024 -0.019245295 0.01708963 -0.027284667 0.023586284 0.0028208706 0.02261058 -0.004051133 -0.0029064375 0.0036192469 -0.020693049 0.025748199
e_126_01HOOFD 0.01649493 0.0072365627 -0.010530386 0.007612163 -0.029991157 0.011979477 -0.011797309 -0.02936907 0.0073929033 -0.020212429 -0.0026547983 -0.019892091 0.007552221 -0.012364404 -0.020784747 0.011060895
e_105_01HOOFD -0.011549736 0.017631726 0.018906124 -0.025664289 -0.0017010673 -0.021677183 -0.0027207264 -0.0015151022 0.01570812 0.03163876 0.015805312 0.0014257823 -0.021648707 0.019786842 0.020073012 0.008030194
SUMleges_107.27175 0.0117012905 -0.0071332604 0.0068446295 0.022636877 0.02012284 -0.0037191578 -0.021955017 0.011815224 0.018627048 0.028959954 -0.021076024 -0.028026314 0.006767872 0.0017331841 0.015061597 0.018942298
e_198_01HOOFD -0.0071116844 0.014767098 -0.030306133 -0.0061284797 -0.010920538 0.023595886 0.010324373 0.014229085 0.0005724946 0.019746207 -0.02013939 -0.029688813 0.02628824 -0.015477206 -0.013438836 0.027710399
e_47_01HOOFD -0.024843983 0.0023305698 0.02080027 -0.0037174947 -0.003527963 -0.019440467 0.010181702 -0.026732305 0.027616272 0.019139992 -0.027355552 0.003210231 0.007557215 0.006032216 0.01785547 -0.032353148
e_153_01HOOFD 0.017629176 -0.022673728 -0.026019337 0.008083722 -0.023981707 0.018466318 -0.0023881125 -0.021356301 0.026937824 -0.014673951 0.011898969 -0.026659427 0.029536981 0.0017322181 -0.021122815 -0.012290582
e_100_01HOOFD -0.02116282 0.031316355 -0.013175943 -0.021528654 0.015709082 0.025992893 0.02641251 0.027887193 0.0017779467 -0.01815689 0.028045166 0.00046413808 -0.015101712 -0.0010836925 -0.02048138 0.01386772
e_181_01HOOFD -0.019440446 0.019584293 0.0008081811 -0.02757531 0.027561722 -0.012171294 0.026996858 -0.0023572308 0.013635876 0.015258534 -0.014463647 -0.0121165095 0.002654064 -0.024196044 -0.011324775 0.017562171
e_113_01HOOFD -0.023477923 -0.008643885 -0.023804188 0.0034536116 0.029501691 0.027725134 -0.0074882717 0.030168653 -0.010818041 -0.002844463 -0.0011702296 0.019944906 0.010238434 -0.026922245 0.0004168489 -0.011599461
e_167_01HOOFD -0.027680658 0.014758915 -0.028375236 -0.023330895 -0.019144388 0.011305364 -0.009929951 0.00085218693 -0.020676345 0.010072575 -0.015259358 -0.0078078164 0.027643342 0.0018547783 0.00012922392 -0.0016787794
e_79_01HOOFD 0.027210385 -0.02956923 -0.025028143 0.0058658216 0.026307343 -0.0057082605 0.030151295 -0.005636127 0.027871624 0.0004912458 0.0024109806 0.011241439 0.022516347 -0.0038148968 0.013225333 -0.03066559
e_230_01HOOFD -0.0142172575 0.022677567 -0.0019830596 -0.014245876 -0.0017860454 -0.013088212 -0.010644533 0.013474156 -0.018642034 -0.023722526 0.015209317 -0.015083848 0.017462965 0.027740017 0.016348908 0.0139802685
e_54_01HOOFD -0.022128092 0.016838938 0.025911689 0.030272558 0.002144909 0.011553136 0.02558333 -0.02317396 -0.007520762 0.024373585 -0.004442205 -0.02849275 -0.029434318 0.0070861503 0.011674358 -0.027362468
e_121_01HOOFD -0.01811302 -0.004195529 -0.011671383 -0.0018914257 -0.007006728 0.012119184 -0.03078367 -0.008720132 -0.020279568 -0.026431346 0.020729665 -0.0006574202 -0.029246043 0.011830287 -0.02425815 -0.031126237
e_90_01HOOFD -0.01746818 0.014481337 -0.0022303662 -0.008042988 0.027177019 0.030071005 0.00018565437 -0.007117917 0.013578252 -0.004881134 -0.0012228144 0.030760555 0.01531869 0.031070918 -0.0013663359 0.011593253
e_39_01HOOFD -0.025638174 0.013058547 0.005498292 0.0052812537 -0.021317221 -0.018510317 -0.012400507 -0.027106505 0.0017102414 -0.01879998 0.029578507 0.0041876743 -0.009451561 -0.011964841 -0.028216792 0.02169934
e_125_01HOOFD 0.026882214 -0.006173098 0.0183614 -0.020514134 -0.0084830625 -0.031014768 0.025682637 0.0012352202 -0.008140629 0.016848087 0.019821983 0.015448573 -0.008192039 0.024015496 -0.01917644 -0.028362652
e_165_01HOOFD -0.02658554 0.020633424 0.021773573 0.024521405 0.015868615 0.02383666 -0.014197704 -0.020387426 0.008258991 -0.026150744 -0.010010786 -0.013145259 0.002584392 -0.01422577 0.02251437 -0.013203121
e_168_01HOOFD -0.022383166 0.028887203 0.023609888 -0.011892985 -0.0010727106 -0.013139682 0.019305244 -0.023383083 0.0019930655 -0.024343915 -0.023515845 0.024940772 -0.010650261 -0.028387282 -0.016344557 0.012064418
e_157_01HOOFD -0.021127062 -0.020273095 -0.026463607 0.021270692 -0.010504321 0.011231185 0.024077667 -0.0046191607 -0.017981041 -0.022704642 -0.019022672 -0.019287467 0.0031114735 -0.031247864 -0.0038784007 -0.0007077666
e_120_01HOOFD -0.010902716 -0.0046764896 -0.0008721772 -0.0091926865 0.029033385 -0.01395136 0.0038384397 0.030136233 -0.0019956497 0.023351055 -0.010980038 -0.02962984 -0.0024799965 0.024079975 0.016136402 0.028440667
e_164_01HOOFD 0.018988993 0.018782908 0.026986685 0.0036877731 0.0045766635 0.0076457593 -0.01497961 -0.0013297756 -0.017082017 0.012148032 0.026698446 -0.0022994436 0.009300512 -0.016200066 0.027918734 0.024447802
e_6_01HOOFD -0.019161427 0.00358947 -0.0040350584 -0.021442086 0.0075079873 -0.01022718 -0.016237758 0.031964563 -0.0049516554 0.009661016 0.009723047 -0.023607375 -0.027893139 0.004900103 -0.014433739 -0.014337022
e_93_01HOOFD 0.02222116 0.0153178 0.0069605852 -0.006510593 -0.0036242162 0.017921377 0.014058038 0.014946576 0.02247985 -0.015854195 0.021057995 0.030645695 -0.007507964 -0.00028296537 -0.025826072 0.022283742
e_187_01HOOFD 0.028062062 -0.0026059935 0.02084604 0.008282443 0.021332394 -0.030727662 -0.008607568 -0.0014078761 -0.029375337 0.0091791265 0.024372017 0.010196908 0.005656269 -0.030648464 0.024341708 0.015738036
e_78_01HOOFD -0.012470477 -0.01791078 -0.019948773 -0.018858748 -0.004409753 0.005624829 0.020828752 0.031007845 -0.011192824 -0.02931552 -0.019254254 -0.0022940128 0.011947079 -0.014801912 -0.02484082 0.018331008
e_130_01HOOFD 0.006089865 -0.0209698 -0.017021228 -0.011032873 -0.01634269 -0.021092106 -0.0072514503 -0.0066720415 0.0034113366 -0.025412908 -0.023063274 -0.023843274 -0.022838684 -0.011901315 -0.019068286 -0.006572657
e_75_01HOOFD 0.0037121521 -0.00926108 -0.026187908 -0.005518426 0.030860815 -0.011576252 -0.025838183 -0.020948928 0.030421808 -0.00523977 -0.0068677957 -0.011360978 0.028937016 0.00161794 -0.0254002 0.00072413846
e_192_01HOOFD -0.016408207 -0.026105084 0.030109875 0.007366443 0.0025653648 -0.0028720591 -0.017171852 0.028604092 0.005016857 0.020803839 0.0044800737 0.014834647 0.025277385 0.027485227 0.0100562675 0.010483456
e_0_01HOOFD 0.007854781 0.024238039 0.02024373 -0.016137728 0.02183554 -0.022898247 0.021672012 -0.02229629 -0.028043395 0.0030893553 -0.031309605 0.008918124 -0.0150355445 0.016928349 -0.016102979 0.018744487
e_52_01HOOFD -0.027962562 0.019425886 0.018197648 -0.0017930336 -0.009821997 -0.003920333 -0.0039753253 -0.01801315 0.020669367 0.024254689 0.023651168 0.011127236 0.025724087 -0.02159775 0.015262813 0.023869436
e_96_01HOOFD 0.013318585 -0.0073469724 0.027032869 -0.024149783 -0.017921105 -0.03081951 0.02904744 0.027329905 0.027623974 0.021858795 -0.008109481 0.009483705 -0.016135486 0.014431645 0.023406742 -0.016011922
e_57_01HOOFD -0.022669325 0.02714123 0.02956565 0.019743532 0.0007425518 -0.010071868 -0.002628632 0.022567743 0.0046598543 -0.019911632 -0.0113582 0.026768897 -0.009290894 -0.0106012635 -0.026588775 -0.01024188
e_51_01HOOFD 0.022277942 -0.008707715 -0.006313691 0.02497172 0.01467248 0.025316024 -0.008335043 0.012095923 -0.008070124 0.008750609 -0.028519098 0.017255645 0.023872735 0.025525244 0.01892363 -0.0228492
e_26_01HOOFD -0.027085613 -0.019265898 0.027663765 0.024511302 -0.008382375 0.016911019 -0.019894375 -0.0069299117 -0.02727409 -0.009154674 -0.03000273 -0.0023666644 -0.013148966 0.023683265 -0.0087336 -0.0035054218
e_53_01HOOFD -0.028859345 0.011699803 0.0022065672 -0.0104346555 0.0009554801 0.03025285 -0.0068286415 0.01294202 -0.00991138 -0.0037799003 0.0013506185 -0.029695686 -0.029523553 0.02570396 0.02298073 -0.030229598
e_23_01HOOFD 0.028323667 -0.0058330563 0.018349139 -0.008729127 -0.014170526 0.021243045 -0.0238157 -0.014652395 0.008665166 -0.029496832 -0.017783158 0.027347451 0.013031213 0.023936989 0.016648494 -0.027006686
e_9_01HOOFD -0.026560096 0.0020690728 -0.0041121095 -0.024147548 -0.010432368 -0.018427663 -0.002823044 -0.00042168782 -0.011481357 -0.025180895 -0.015397549 -0.011205488 -0.0028364714 0.008593759 -0.0025587594 0.02788912
e_22_01HOOFD -0.0044614854 0.024663072 -0.025473189 0.024300316 0.003120558 0.0156236505 0.019954601 -0.013337772 -0.009970865 -0.028549159 0.018115737 -0.0051537044 0.006544995 -0.008957663 -0.021450363 -0.012606035
e_227_01HOOFD 0.020926978 0.0008171832 0.026764158 0.0040450324 0.026247956 -0.004199128 0.024088422 0.018299112 0.031354055 -0.021783348 -0.004568073 -0.012031571 -0.022722615 -0.007754317 -0.01697924 -0.027677251
e_110_01HOOFD -0.009073447 0.008701776 0.005889839 0.010714927 -0.013264876 0.0089487545 -0.011172797 0.017781561 0.022944149 0.019381348 -0.008630601 0.010678955 0.0044852565 0.008938826 -0.021927182 -0.0031830093
e_129_01HOOFD 0.011915211 0.00512655 -0.006966465 -0.014810379 0.02992158 0.0016823589 -0.03009188 0.024454486 -0.022260128 0.012786248 -0.001241229 0.012819847 -0.0291705 -0.026658297 -0.020550696 -0.0068713455
e_56_01HOOFD -0.026168667 0.014309764 -0.029580103 -0.014847143 -0.0017006332 0.01687498 -0.02539855 -0.022680579 0.025265237 -0.018964084 0.029135106 -0.017439574 -0.011381642 0.023082979 0.026415324 -0.006060474
e_191_01HOOFD 0.010262865 -0.026893053 -0.01400128 -0.00019602351 -0.0069342167 -0.0028571032 0.025515217 0.017131671 -0.0038242883 -0.0024886308 -0.028025463 -0.0069489316 -0.012403354 0.00056985416 0.010560259 0.020600237
e_89_01HOOFD -0.017139515 -0.005447665 0.018461956 0.008860996 0.005521958 0.027082415 -0.0074432255 -0.030667663 0.0032882297 -0.030720603 0.011540221 0.015488949 -0.027121777 0.028199913 0.004747067 0.0003698833
termName_Termijnaanvullendegegevens -0.0018211771 0.027141768 0.020067474 -0.0070367157 0.0008428469 -0.01612997 0.026655473 -0.02707033 0.022581646 0.010688126 -0.011999062 -0.022399249 0.026505616 0.004846693 0.020536827 0.0064252364
parts_BouwHandeleninstrijdmetregelsROSloop 0.012903901 0.005725896 0.00668176 -0.02339843 0.0143321995 0.022390803 0.005119819 0.030995132 -0.026962068 0.012960505 -0.02797144 -0.02457837 0.015734874 -0.0078055384 0.028568892 0.00813802
org_resource_560530 0.018006233 -0.005305553 -0.026717499 0.029800508 0.025633961 0.010033389 -0.017149866 0.00662583 0.017110746 0.026361277 -0.0012069342 -0.018315127 0.0061978837 0.011390848 0.02847951 -0.018474033
org_resource_560431 0.0074656997 0.0056638573 -0.024573818 -0.030513689 0.0076734596 0.0017234571 0.003482382 0.007323517 0.014461628 0.02590878 -0.010955807 0.0018810113 0.003409451 0.019518957 -0.0140816355 0.020651573
parts_Milieumelding -0.0010865488 -0.0061814627 -0.01454089 0.022881411 -0.025489273 -0.015559954 0.00079120067 -0.010189243 0.014220716 0.029516552 -0.028743297 -0.008039379 -0.019350806 -0.027249822 0.0011204364 0.010851799
monitoringResource_1550894 0.020112725 -0.020041551 -0.018383222 -0.003827162 0.0056082504 0.026394194 -0.026015189 -0.025367765 -0.0240517 0.0023090043 -0.009294098 0.021207036 0.012567035 0.020659726 0.0180428 0.013383865
org_resource_560532 -0.0026941877 0.02333682 -0.0042902604 -0.007672408 -0.006943738 0.022686927 -0.017306983 0.003946596 0.030629242 0.0024040556 -0.0038324737 0.008984892 -0.0063873823 -0.006947555 -0.022271158 -0.016828937
activityNameEN_phaseapplicationreceived -0.010960261 0.021726841 0.028549464 0.0019370008 -0.009035177 0.010120706 0.008476451 0.005191709 -0.010409164 0.027748026 -0.016541384 -0.0066831666 0.026535872 -0.004195176 0.00014334773 -0.02156421
SUMleges_148.368 0.004976814 -0.0010931515 -0.009518672 -0.023683546 0.025125 0.024281904 -0.0068239355 -0.019713635 0.007266898 0.011386613 0.031209351 0.0011945155 -0.013280936 -0.0032866264 0.013889514 -0.025084633
org_resource_560849 -0.029955495 0.016986996 0.014782564 -0.01875938 -0.028067758 -0.018905891 0.01768688 -0.011149695 -0.023868797 0.011925018 0.015298755 -0.02367395 0.014577335 0.023637755 0.018843316 0.0044803605
last_phase_Besluitonherroepelijk -0.0126319295 0.020491906 0.007821976 0.024682289 0.00648634 0.007224007 -0.020931676 -0.0074533625 0.0029530523 0.021037383 -0.017809566 -0.0021401462 -0.0077798986 -0.0037364333 -0.03122856 -0.016511658
SUMleges_3060.09 -0.0025938351 0.02897465 0.0015837499 0.0034472826 0.022804491 -0.023123393 0.014159695 -0.021945758 0.007348531 0.0271459 0.005008714 0.0019557187 -0.00846722 0.030500447 -0.029047597 -0.021128846
action_code_05EIND020 0.004478262 0.0012937582 -0.03128708 0.01608913 -0.006963779 -0.014885299 0.015387301 0.028055035 0.014433077 0.008481552 -0.0072945524 0.0011058947 0.017640704 0.008373944 -0.020288501 -0.014211264
monitoringResource_560464 0.007088096 -0.011080018 0.024932176 0.01952621 0.009986069 0.008110371 0.008789567 -0.011604358 -0.018473389 -0.015226852 -0.01568539 0.014937939 -0.02625762 -0.021847902 0.017471341 -0.013209807
SUMleges_230.26546 0.0038494566 -0.02620646 -0.004257543 -0.023785358 -0.005475918 -0.023146572 -0.026460258 -0.00745118 -0.009705639 0.025795221 0.022194128 -0.028696561 0.023958642 -0.00454474 -0.00044665084 -0.012499599
activityNameEN_setphasephasepermittingirrevocable 0.019885499 -0.005790541 -0.014543962 -0.021668006 0.0077679376 -0.006713473 0.022097176 -0.02515716 -0.013684814 0.019712055 0.016206691 -0.013522027 0.02059797 -0.008497932 -0.013821779 -0.014498396
Responsible_actor_560922 -0.029197076 -0.01493145 -0.014883743 -0.029522706 -0.007953585 0.008790647 -0.02051191 0.006353061 0.017188834 0.0041343793 -0.011849842 0.021346182 -0.0041603437 0.018334515 0.011310494 -0.0278404
parts_Reclame 0.027624156 0.0014725754 0.028356792 0.029121134 -0.0182794 -0.028556013 0.0047626537 -0.02614288 -0.027759416 0.005820144 0.0067906636 -0.0037251029 0.0294271 -0.012159591 -0.022104122 0.011565837
Responsible_actor_1550894 -0.009844234 0.0031925351 -0.015422297 0.021520184 -0.029027792 0.0008664319 -0.03123422 0.026654368 0.019357968 -0.0097325 -0.010520148 0.004009887 -0.005036424 0.026892187 -0.0066515277 -0.014063734
activityNameEN_requestcomplete 0.017684637 -0.016193576 -0.031499017 -0.018971352 -0.026628902 0.0014852107 0.021214413 -0.016411163 -0.020361636 -0.029884875 -0.018394701 0.022894252 0.025066154 0.012455801 -0.027975662 -0.007245509
SUMleges_4550.379 0.031208342 0.009792433 -0.012146542 0.0038087303 -0.025155956 -0.024659473 -0.019280689 -0.01581191 -0.012301461 0.013830922 0.0054825745 -0.030090073 -0.003256629 -0.0055465344 0.010925675 -0.004965432
termName_Termijnbezwaarenberoep1 0.013526068 0.02586414 0.0065022917 0.008145957 0.013499931 -0.027453808 0.004366041 -0.027992573 -0.008380507 0.011298439 0.026776765 0.023968244 -0.012992573 -0.017914036 -0.008941901 0.009473678
parts_AanlegUitvoerenwerkofwerkzaamheid 0.008901618 -0.011381595 -0.017402576 0.012356929 0.022629427 0.008223793 0.015762206 0.023097139 -0.018907491 -0.023899019 0.0074688615 0.030214826 0.0052314713 -0.018387744 -0.031086477 -0.004414433
action_code_01HOOFD040 0.0053164484 -0.007012049 -0.016396051 0.028511293 -0.030631727 0.011290069 0.017657718 0.02381094 -0.011141311 0.0064462167 -0.005654624 -0.029967379 0.023944387 -0.016033776 -0.02199484 0.012283085
SUMleges_102.846 -0.0034341868 -0.02642309 0.025522893 0.003931756 0.02791184 -0.0008437033 0.020227538 0.024166437 -0.005038925 0.025288697 0.022616506 0.011328673 0.010178169 0.028420202 0.005923758 -0.0043728673
termName_Termijntotbesluitomgezet -0.009122191 0.0019160978 0.0043036677 0.019504305 0.030446524 -0.016508253 0.02655353 0.005911651 -0.022034107 0.024325227 0.025598994 0.006161664 0.01916762 0.023416376 -0.0010364989 0.011316647
SUMleges_162.54726 -0.027955335 0.010386897 0.029667603 -0.025387771 -0.028753547 -0.029644465 0.014825283 0.014649785 0.013768535 -0.016781844 0.009701803 0.006522296 -0.013323157 0.02339892 -0.025543349 0.0019322025
activityNameEN_enterdatedecisionproceduretermextension 0.016399361 0.022626897 0.005584208 -0.023479138 -0.026301669 -0.010567559 0.0075450353 0.017087698 0.007593076 0.003680539 0.006057458 0.0027493963 0.020801611 -0.026121037 0.009566813 -0.027962692
action_code_01HOOFD015 0.016606769 0.0076604546 -0.008714704 0.029336704 -0.010645602 0.014852358 0.0006794856 -0.017661477 0.023872882 0.0014572659 -0.011345579 -0.017251123 0.025678763 0.006750584 -0.014047968 0.029405458
parts_BouwMonument 0.030802645 0.013411176 -0.028857114 0.021367991 0.013172196 0.0066646156 -0.0073051844 0.030526584 -0.028135825 -0.029660128 -0.024509517 0.025959002 0.017999345 0.0018862564 -0.026807584 0.025643338
org_resource_560781 0.021628026 -0.02084587 0.029589161 0.0001143265 0.016647547 -0.014227603 -0.021903317 -0.015685564 0.011462985 -0.011004412 0.016698325 -0.012904756 -0.019314809 -0.025916144 -0.0069603925 -0.0039071073
SUMleges_517.602 0.0028239267 0.016822396 0.0019204037 -0.0133374855 -0.011151998 0.024786117 0.014755564 0.003557212 -0.015048161 0.008716635 -0.018281309 -0.004013051 -0.0079718325 0.009273555 -0.019275308 0.026003692
SUMleges_3253.373 0.027285753 -0.026410654 0.013802476 0.0017475489 -0.002089587 0.013180406 -0.021249043 -0.008940546 0.009241636 0.026066052 0.00037667344 -0.007128018 -0.0043950723 -0.027801799 -0.006963274 -0.030641323
SUMleges_492.312 0.02481658 -0.020500666 -0.010095234 0.0037395027 0.01782219 -0.008963109 -0.028141739 0.024703417 -0.01952936 0.007914701 -0.004464408 0.02999083 0.013211197 0.014992683 0.01915536 0.01924125
SUMleges_177.03 0.011251209 0.0263147 -0.016354943 0.01887902 -0.018327229 -0.008704623 -0.010668271 0.0018924784 -0.01672026 -0.006867164 -0.027270941 -0.019057207 0.015575915 0.0025820918 0.012814101 0.028105645
parts_KapInritUitweg 0.027663242 0.021080036 0.014695016 0.023653105 0.013250711 -0.022780789 -0.031247841 0.030485263 0.010622459 0.010045297 -0.014989393 0.026828364 0.019641511 -0.00431335 0.026118366 -0.0052511995
parts_Brandveiliggebruikmelding -0.018613089 0.019851234 -0.008791698 -0.016055282 -0.028678115 -0.023789551 -0.004791132 -0.027670152 -0.01698174 -0.008288644 -0.0118319 0.017557511 0.009087464 -0.002669035 -0.023358846 0.025160963
monitoringResource_3069866 -0.02296345 -0.0006701479 -0.010830419 -0.0032903664 0.028260935 0.02035007 -0.0075421464 0.023843577 -0.026929034 -0.021285886 -0.028363097 -0.028480526 0.011176502 0.0016703453 0.030453226 0.01880987
monitoringResource_560821 0.0042962036 0.00035000348 -0.010920493 -0.012776191 0.028551962 0.022136884 0.003954057 -0.029123336 -0.008092182 -0.02825302 0.011502208 -0.010751194 -0.0034383663 0.014552588 -0.000551909 0.014397343
org_resource_3122446 -0.0041062683 0.0050541963 -0.00063242763 0.018143183 -0.0067356783 0.016841957 -0.017913232 -0.026522549 -0.000768355 0.006737517 0.007650545 -0.004269713 -0.021812992 -0.018744266 -0.028295975 -0.023023877
org_resource_6 -0.005856118 -0.028584715 0.025784386 -0.03065279 -0.013995518 0.026999352 -0.026992658 0.0012653137 0.013679582 -0.008981681 -0.024277717 0.0026589676 0.027378332 -0.021569934 -0.026708147 -0.020420948
SUMleges_5772.864 0.025075465 0.005900268 0.01793095 -0.028653262 -0.013850148 0.017790949 0.021795597 0.021459637 -0.016442604 -0.009628497 -0.018516757 -0.0013890681 0.01503812 0.030047173 0.005613541 0.018807035
SUMleges_2534.5469 0.018929753 -0.014815837 0.030199885 0.013399988 -0.027256433 0.0018174462 -0.022268329 0.0024436458 -0.0300798 -0.024290305 0.02066019 0.01865281 0.017448412 -0.028418852 0.019186737 -0.024705656
org_resource_560894 -0.028564977 0.012073874 0.023613928 0.008298989 0.009213553 -0.003354787 -0.007821306 -0.013444119 0.0004441293 0.007623213 -0.017464634 -0.0070801945 -0.025247995 -0.0178307 -0.0054604034 -0.01777834
e_61_05EIND 0.0007215439 -0.012264253 0.012068665 0.017059207 -0.025995653 -0.010470053 -0.021800099 -0.0076615177 0.012518862 0.03064027 0.023117261 -0.0058076847 0.027657393 0.0043776934 0.031015579 0.009821185
SUMleges_148.80637 0.031326625 -0.017531898 0.0025555536 0.015599565 -0.006210679 0.0069708102 -0.020278694 0.021823373 -0.0029997325 -0.01822342 0.008094195 0.018145617 -0.024385775 0.028943134 -0.007449161 0.008313754
SUMleges_162.51353 -0.0029830653 0.010185726 0.029558005 0.030817792 -0.026347918 0.02851413 0.005583795 0.020638905 -0.007046413 0.019626195 0.027357424 0.015974363 0.023734407 0.020689858 -0.030943556 -0.019628983
SUMleges_6658.461 0.023302857 -0.025441142 0.02630501 -0.025658846 -0.0107793035 -0.018041382 0.02921594 0.010027802 -0.011757639 0.010645401 0.019391103 0.01914043 0.02672075 0.030237036 0.019167913 -0.012682999
SUMleges_1177.671 -0.029897964 -0.0070920507 -0.02203526 -0.017112557 -0.03088427 -0.00944797 0.018837268 0.028392123 0.030136393 -0.023529625 -0.019711884 -0.005652463 -0.0184499 -0.002489115 0.00045582137 -0.0035057273
SUMleges_349.002 -0.024175782 -0.023676932 0.019842515 -0.0007477451 -0.019290797 -0.008080441 -0.02438888 -0.0089387335 0.015954485 -0.023736356 0.02466909 0.027670061 -0.0096382145 0.02545128 0.012008224 -0.026531013
e_67_08AWB45 -0.007354779 -0.0217095 0.0017833408 -0.0045201746 -0.010817946 -0.031307347 -0.014087998 -0.005034973 0.026814587 -0.012176092 -0.01590239 0.020369003 0.0057004048 -0.003136649 0.004960384 0.02702739
parts_Milieuneutraalwijziging -0.026689755 -0.0037184213 0.018735 -0.022666369 0.007339244 -0.026623758 0.006043576 -0.0062062666 0.0163886 -0.02790971 0.015450224 0.021403864 -0.0011711314 -0.021847008 0.02033156 -0.0123013435
SUMleges_953.256 0.024056915 0.008635014 -0.010438739 -0.020269226 -0.022542104 -0.010946923 -0.01270851 -0.009891127 0.0131822275 -0.009543 -0.03128295 0.016362514 -0.011686744 -0.018477991 -0.011621819 0.026662737
SUMleges_2577.051 0.028964926 0.009007526 0.003411521 -0.020327426 0.019139877 -0.020028617 0.007697512 0.00034365576 0.014993513 -0.0053426744 0.0031420186 0.025167296 0.016075363 -0.026180204 0.004368658 0.010195623
monitoringResource_6 -0.00081316964 -0.0025847852 -0.022054527 -0.0147996 -0.0012521507 0.0203948 -0.031061301 0.0019698807 -0.018944107 -9.9266406e-05 0.0027092397 0.000432062 0.029943198 -0.027458744 0.004968958 0.018782305
activityNameEN_entersenddatedecisionenvironmentalpermit 0.0055570835 0.022169292 0.029723803 0.020859672 0.007602199 -0.019779656 -0.016908526 0.025681598 0.019700631 0.0028461146 -0.027682522 0.022121826 0.017438091 -0.017794613 0.030755013 -0.015149377
activityNameEN_registerdateenvironmentalpermitdecision 0.029295146 0.004092132 0.011820042 -0.0033954836 -0.0054085944 -0.028441422 0.029818458 0.020861924 0.0064969836 0.016825737 -0.0037029348 0.0018360704 -0.009806996 -0.0045291246 -0.016718527 -0.009655553
parts_Monument 0.007839839 -0.02890388 0.0030852763 -0.009249643 -0.023306742 0.026937783 -0.020238332 0.022965444 0.014251959 0.019316658 0.02598655 -0.016582612 0.018877285 0.00943718 -0.03014578 0.00617701
SUMleges_260.1161 -0.022204759 -0.0055228085 -0.021811778 0.026190741 -0.0004024908 -0.02936345 -0.026374152 0.008663543 -0.0065713157 -0.020965315 -0.0067412374 -0.014863478 -0.024379265 0.027795821 -0.014284806 -0.018409751
SUMleges_592.629 0.023163032 0.030644296 -0.03006295 -0.018587857 0.0054560816 -0.0023712984 0.010572352 0.002781509 -0.02716998 -0.021347215 0.002417031 0.016463984 -0.0140354 0.020619046 0.0017932352 0.029794635
e_178_05EIND 0.028887408 0.0025123826 -0.019939013 -0.0076026414 0.025957296 0.014921414 0.0015221504 -0.008325049 -0.018106643 0.0313006 0.01816085 0.008064849 0.006864145 -0.018560525 0.02507687 0.021763535
action_code_01HOOFD430 -0.0005570676 -0.021924138 -0.01883871 0.003998601 0.02407827 0.0016478577 -0.0074958336 0.007700127 -0.027419217 0.015448183 0.007878571 -0.014028217 -0.02158707 0.02594696 -0.025527433 -0.030847905
SUMleges_478.92517 -0.0059563424 0.030100344 -0.029956311 -0.0019424207 -0.024871832 0.011745875 0.026087828 0.022648267 -0.023771541 -0.023746677 0.0067750136 0.0051664 -0.02542401 -0.016742934 0.028952677 0.013100367
Responsible_actor_3442724 -0.0071817515 -0.018451726 0.009080256 -0.005837816 0.015464425 0.021396872 0.022971204 -0.0019426678 0.00044145467 -0.00010473459 0.027514376 0.00016112425 0.012913049 -0.0016323398 -0.02547752 0.006445226
last_phase_Zaakarchiveren -0.008819779 0.023632085 0.0057940115 0.030347303 -0.030051667 0.015393652 0.0055860984 -0.012332983 0.029874705 -0.026705064 -0.028134752 -0.01943279 -0.023555806 0.0042167874 0.026157793 -0.020262051
SUMleges_86.829 0.026090613 -0.0045016184 0.0109915435 0.013452007 -0.016880658 -0.009330986 0.017792046 0.011452472 0.010112119 0.025735544 0.0032451123 -0.023984214 0.026517501 -0.029841164 -0.024082322 -0.0068931556
monitoringResource_560752 0.021970082 -0.02960411 0.024655566 -0.019145241 0.030580636 -0.02452537 0.015762651 0.029452458 0.004082454 0.009084008 -0.027760917 0.0154136885 -0.018102417 0.0067569474 0.029713685 -0.0027200906
SUMleges_1713.9202 0.0069108927 0.01812233 0.014662498 -0.010488274 -0.02101308 0.0076802713 0.017647149 0.01181583 0.017736696 0.009009156 -0.014887066 -0.006204057 0.017288445 -0.0026618873 0.013562651 -0.0030689593
termName_Termijntotbesluitverlengd 0.009530552 0.020802585 0.007582638 -0.014596406 0.003689359 -0.029733784 0.016920244 0.0028973625 -0.0052168593 -0.028368594 -0.00796321 -0.01087939 0.0034867977 -0.02368896 0.017214831 -0.0025862223
SUMleges_276.504 0.026504427 0.021144662 0.0062626167 -0.025374763 -0.019667238 -0.022539925 -0.00835708 0.0022807564 0.029043734 -0.0063538523 0.01283142 0.011696714 -0.018655913 -0.014275707 0.018983576 -0.019258445
org_resource_560521 -0.022013262 0.0016279122 0.02641997 -0.01523704 -0.0041758893 -0.029088924 -0.00835992 0.013764194 0.029528845 -0.030825045 0.011007974 -0.027981622 0.020612769 0.030618714 -0.021250416 -0.017227722
e_103_09AH 0.02689593 0.026217671 -0.031621166 0.0046763862 0.010185869 -0.021928655 0.007371427 -0.009917492 -0.02102887 0.021959003 -0.02394172 -0.0025525896 -0.026209839 0.025324157 -0.004865561 0.0060219225
e_193_05EIND 0.0025801577 -0.005505211 0.007124213 -0.0055764234 0.015073035 0.008169182 -0.016857969 0.030930014 0.016934004 -0.013726919 0.006353407 -0.00020534324 0.022516891 -0.0028260124 0.011024799 0.009363828
parts_BouwHandeleninstrijdmetregelsROInritUitweg 0.005337475 -0.014067641 -0.006617077 0.023999956 -0.022814883 0.0025038163 -0.0014392964 0.0033686291 -0.024911946 -0.0044964463 0.0018368772 0.021461068 -0.007786708 -0.0044701104 0.0025817966 -0.022817653
e_65_09AH 0.02828123 0.001954477 0.025534516 0.01177952 0.024314398 -0.028080886 0.028246246 -0.000558875 -0.029938199 0.010563474 -0.0021839722 0.0048965616 0.0035402414 -0.025163157 0.02399952 0.008506226
