29 16
01_HOOFD 0.0236181 -0.028880749 -0.026603632 0.024994781 -0.007708482 0.01678848 -0.01714918 -0.027808947 -0.023013202 0.026019333 -0.02107843 -0.0035042418 0.010110483 0.026747886 0.020838587 -0.017554253
08_AWB45 0.0027418516 0.005253369 -0.010551425 -0.013705753 -0.030582197 0.015439551 0.010928707 0.026234325 -0.023583898 -0.019016821 0.009622395 -0.008786697 -0.007806971 -0.008028727 0.010327632 -0.0100602
ArtificialStartTask -0.022878332 -0.00241915 0.013549054 -0.018973742 0.0021060484 -0.018477203 0.0064683305 0.0037642713 0.015134878 -0.011762398 0.0026067907 -0.025522253 0.013920503 0.007822527 0.01494476 -0.007937502
ArtificialEndTask 0.011583418 0.009664136 0.024719393 -0.029197589 0.020325415 -0.009371769 -0.010004206 -0.006698592 0.018276624 -0.03046835 0.010607128 0.025324993 0.0015397003 0.0011217257 -0.027480064 -0.017695284
09_AH -0.0014398465 -0.030166809 -0.013235974 0.019817678 -0.01951125 0.014310856 0.015438289 -0.003004103 -0.011506057 0.012778116 0.01161594 -0.018946974 0.02661909 -0.024641387 0.00079932733 0.014616303
04_BPT -0.019694827 0.004683461 -0.0072126756 0.017821042 -0.007845101 -0.029892439 -0.0014474929 0.011116117 0.015651237 -0.02057204 0.013851648 0.023184344 -0.014240889 -0.006985595 -0.02323575 -0.0233575
01_BB -0.00833157 -0.019315215 -0.030927919 -0.029475959 -0.029900417 0.0052943937 -0.0010642011 0.012403767 -0.004281411 -0.004727358 0.019229788 0.022878597 0.01131842 0.016750105 0.00695879 -0.014537096
02_DRZ 0.011993211 0.023189658 -0.014696282 0.018495921 0.024278691 -0.0074347085 0.024028294 -0.01287444 -0.021289269 0.023556195 -0.029541671 0.026275938 -0.025657628 -0.009933258 0.012854207 -0.023488387
11_AH -0.023029955 0.008324189 -0.030070264 0.007839798 0.026485557 0.012016895 0.01682613 -0.028237069 -0.01305934 -0.028519701 -0.006848873 0.028052574 0.027460596 0.01127703 0.02194732 0.0224873
05_EIND -0.030770196 0.02303291 0.014856473 0.015518344 0.0065738196 -0.02179888 -0.0046225297 0.006019726 -0.0063019614 -0.011468606 0.022128636 0.028123986 0.0019584093 -0.027327184 -0.015438274 0.013488564
03_GBH -0.0035197982 -0.010174819 -0.025596708 -0.022282884 0.009262033 -0.023733007 0.016518708 -0.011691283 0.0219133 -0.0007682808 0.0045810267 -0.0032876905 -0.022182422 -0.013864985 -0.004727131 -0.0023038695
06_VD 0.028552037 -0.022002013 0.022848062 0.021853589 -0.0033272603 0.030407125 0.003195172 -0.014502322 0.010479423 0.00458049 0.0034478328 0.00090651563 -0.004718928 0.017704347 0.012316625 0.01590122
13_CRD -0.017253127 -0.029327076 -0.0139482 -0.01941013 0.021741971 -0.027267342 -0.0030908328 -0.009386384 0.028195573 -0.009307824 0.01707737 -0.02740852 -0.026186658 -0.011496136 0.027172014 -0.029638788
10_UOV -0.027839376 0.021433828 -0.009111999 0.0011491536 -0.030966096 -0.0006436156 0.028049568 0.023525298 -0.0019090623 -0.026336873 -0.028842228 -0.005821898 0.025368473 0.026183717 -0.021622282 0.029961742
14_VRIJ -0.0018109955 0.024430154 -0.017884864 0.020013634 0.029038768 -0.0074476944 -0.0011310214 -0.008261207 0.008241445 0.0011005882 -0.011714765 -0.009504695 -0.024362888 -0.0023164174 0.025522562 -0.030236518
16_LGSV 0.020405415 0.0087885875 0.0023947973 -0.025536662 0.003618802 0.025875546 -0.029837754 -0.01219279 -0.0095895985 0.017962554 -0.005950311 0.024136018 0.004856902 0.024817245 0.00541225 -0.001344377
07_OPS -0.0034656452 -0.009443272 0.0058738417 0.010229804 0.01826006 -0.028825838 -0.024174312 -0.025779014 0.023442894 0.021429203 -0.0036686033 0.024849031 0.0259424 -0.021363385 0.0030263225 0.006459558
16_LGSD 0.020544667 -0.004270197 0.015032579 0.014039905 -0.028468447 -0.016248897 0.026787046 -0.0025787475 -0.023632461 0.0143507095 -0.001281965 0.005718801 -0.027209532 0.019487 -0.0010884823 0.0047423486
09_AWB45 0.0027073815 -0.013370833 0.028191347 0.02823957 -0.03021553 -0.019254226 -0.008170981 -0.013508074 -0.007557897 -0.0029325918 -0.015810695 -0.004066279 0.0032443122 0.02335105 0.02825421 -0.021082167
15_NGV 0.0034093182 0.017933851 0.014464941 -0.027941735 0.021228224 0.028536405 0.02167336 -0.0008098526 -0.003740001 0.0006516023 0.01869145 -0.023035925 0.0207413 -0.01691595 -0.01893555 -0.004816926
12_AP 0.020303387 -0.023126254 0.008594061 -0.023656307 0.0042158044 -0.0017745214 0.013780615 0.025831264 0.019288415 0.020823386 -0.0203785 0.020105988 -0.012901395 -0.017124875 0.00066714245 0.027029144
01_OLO 0.030342085 -0.02356662 0.028928982 -0.016846348 0.0029110613 0.0037690192 -0.00578 -0.009611817 -0.009770876 -0.030093208 0.022002893 -0.022408294 -0.023218017 0.024210576 -0.0057442533 0.0062133768
99_NOCODE -0.01748014 0.014855838 -0.0013913077 -0.0063841576 -0.022865841 0.026329786 -0.018902715 -0.019892685 -0.011259223 0.020835873 -0.030285735 -0.020131456 0.009217658 0.008475266 0.010785585 0.016338393
03_VD -0.007897843 -0.017063743 0.014593241 -0.016452909 0.013839706 0.025978524 0.0041364087 -0.026833562 0.03041733 0.0069127623 -0.012898483 -0.0100946 0.018521117 -0.028834015 0.0073865047 0.021055613
08_OLO -0.01648245 -0.0099188555 -0.0311033 -0.031174093 -0.010998031 0.016755642 -0.009470603 0.0053702407 -0.016939465 0.0137781305 0.0007636333 0.025202008 -0.007603655 0.020052962 -0.0024823109 0.022896701
10_OLO -0.020911042 0.02180214 0.013279 0.016128056 0.01813634 0.021861732 -0.014912461 0.01703701 -0.022637693 0.020306323 0.007466683 0.013930813 0.02579256 0.024400957 0.008648193 0.027573379
11_OLO 0.005171494 -0.01068526 0.0022622386 -0.014858075 0.008775008 -0.018852187 -0.0012344965 -0.025320727 0.0017544833 0.018810837 -0.01198739 0.022995172 0.0011946051 0.028360302 0.002944824 -0.023690393
06_OLO 0.02401 0.005837739 -0.011050436 -0.021471823 0.0064794114 -0.011110283 -0.02587552 -0.00049766 0.0043886267 0.010982836 -0.011191479 0.0042030374 -0.021233017 0.023835609 0.012416174 -0.00063555414
02_OLO -0.00959047 -0.01624629 -0.0204294 0.0041105864 -0.0026516118 0.02081497 0.02622765 -0.027605487 0.0077271676 -0.028251708 -0.008236874 0.008875536 0.022052879 -0.01641325 0.009029881 0.004071833
